%YAML:1.0
my_svm: !!opencv-ml-svm
   svm_type: C_SVC
   kernel: { type:LINEAR }
   C: 1.
   term_criteria: { epsilon:2.2204460492503131e-16, iterations:100 }
   var_all: 3780
   var_count: 3780
   class_count: 2
   class_labels: !!opencv-matrix
      rows: 1
      cols: 2
      dt: i
      data: [ -1, 1 ]
   sv_total: 1
   support_vectors:
      - [ -3.60281602e-03, 4.02314169e-03, 5.11433976e-03,
          -2.02362966e-02, -2.03520209e-02, -9.06233117e-03,
          2.24332996e-02, 2.12293547e-02, 1.37358042e-03, 1.93054918e-02,
          2.29227301e-02, -2.79779080e-03, -1.81810260e-02,
          -1.72018427e-02, -8.22987780e-03, 1.55449118e-02,
          -6.91407535e-04, 1.54253766e-02, -1.75293442e-02,
          -1.96770113e-02, -1.92025281e-03, -2.00971682e-02,
          -1.18167000e-02, -5.85093675e-03, 4.24900418e-03,
          1.21022230e-02, -1.52492174e-03, 1.80690677e-03,
          -2.02817935e-02, -1.73044372e-02, -3.10786627e-02,
          -2.32870281e-02, -3.38200876e-03, 9.55856964e-03,
          3.84940137e-03, 1.47461845e-02, 1.41292308e-02, 3.49885635e-02,
          5.06842649e-03, -1.58715062e-02, -5.68834040e-03,
          1.03446993e-03, -1.56084995e-03, -9.00964625e-03,
          8.53779446e-03, 2.77502136e-03, -9.67894960e-03,
          -4.03093314e-03, -1.72831875e-03, 4.67850873e-03,
          1.00321360e-02, 2.32938491e-03, -7.68394955e-03,
          -3.77335493e-03, -9.94129200e-03, -7.12211989e-03,
          -1.61377918e-02, -2.14645229e-02, -2.62013059e-02,
          -1.06374184e-02, -2.48448318e-03, -6.46783458e-03,
          1.21829296e-02, -1.68517325e-02, -2.54190583e-02,
          -2.13934015e-02, -2.72443611e-03, -1.17263943e-03,
          -3.53249314e-04, 5.26558375e-03, -1.13068661e-02,
          -4.12813015e-03, 2.10983120e-02, 2.93471571e-03,
          -1.26254046e-03, 4.01596911e-03, 5.79232583e-03,
          1.82876294e-03, -7.40378723e-03, -5.29789925e-03,
          5.15252911e-03, -1.99192576e-03, -2.29683099e-03,
          -3.52289109e-03, -1.95834525e-02, -1.59841832e-02,
          -1.07016601e-02, 6.32294803e-04, -6.13606302e-03,
          -3.67136393e-03, -4.04948462e-03, -1.60822384e-02,
          -1.20064085e-02, -8.03215988e-03, 6.83288090e-03,
          1.34398462e-03, -4.14453505e-04, -1.06880827e-04,
          -2.09361967e-03, 9.51930042e-03, 1.70093364e-04,
          -4.69842972e-03, -2.40527578e-02, -2.36496478e-02,
          -2.35244185e-02, 9.42322658e-04, 3.75592220e-03,
          -1.40969397e-03, -1.96048263e-02, -1.02930861e-02,
          -1.06493756e-02, -1.14698941e-02, -1.97643321e-02,
          -7.26950029e-03, -6.33611158e-03, -1.30602727e-02,
          -7.08448747e-03, -7.07164174e-03, -4.15471522e-03,
          -1.68351941e-02, -2.85795946e-02, -6.80304738e-03,
          7.26305880e-03, 1.04432870e-02, 2.78312946e-03,
          -1.18244234e-02, 5.89473522e-04, -6.83427788e-04,
          3.54992482e-03, 9.38032661e-03, -2.04975363e-02,
          -1.95800643e-02, -7.97097629e-04, 2.31774733e-03,
          -5.64787630e-03, -1.93133997e-03, 2.69888714e-03,
          -1.44161955e-02, -3.26587423e-03, 4.71242121e-04,
          4.27033054e-03, 9.40634403e-03, 7.70793995e-03,
          -1.02134133e-02, -2.13829000e-02, 2.41904869e-03,
          -7.84970820e-03, -2.54534222e-02, 1.33336021e-03,
          5.35548711e-03, 1.34770731e-02, -1.86183502e-03,
          -2.05572434e-02, -5.32912556e-03, -1.99158564e-02,
          -2.00092290e-02, -2.66683362e-02, -1.45543301e-02,
          4.09481395e-03, 2.38063186e-02, 1.45832235e-02,
          -1.03419917e-02, -2.32455158e-03, 1.27372728e-03,
          -2.34750044e-02, -3.31414230e-02, 9.98467207e-03,
          1.45640876e-02, 1.88668016e-02, 6.85515022e-03,
          -1.57132968e-02, 2.02329662e-02, -2.16885819e-03,
          -1.97468288e-02, -2.71957200e-02, 4.87618241e-03,
          1.04165059e-02, 3.30562443e-02, 2.68391483e-02, 1.21049536e-02,
          -1.18927425e-02, -2.59079188e-02, -3.64426374e-02,
          -1.37834074e-02, -1.41498838e-02, -8.77409475e-04,
          1.61506627e-02, 1.06453719e-02, -2.11776122e-02,
          -4.02012579e-02, -3.29034105e-02, -5.47960028e-03,
          2.79407972e-03, 2.05576909e-03, 8.86290986e-03, 1.74502488e-02,
          1.79504883e-02, -2.35110410e-02, 1.06198899e-02,
          4.32034908e-03, -2.02558413e-02, -9.71450191e-03,
          7.25295721e-03, 1.03721349e-02, 2.33850479e-02, 2.39179395e-02,
          1.38411503e-02, 4.45816759e-03, 1.81802902e-02, 3.42058614e-02,
          4.86530364e-03, 1.59874316e-02, 1.81188770e-02, 2.15071216e-02,
          2.86703706e-02, 1.35244932e-02, -4.90314364e-02,
          -1.78035572e-02, 1.56476051e-02, 1.04208477e-02,
          1.54713849e-02, 1.92777012e-02, 2.06606463e-02, 1.76785234e-02,
          -3.69361863e-02, -4.34908308e-02, -4.64416891e-02,
          -1.87141467e-02, 1.25224497e-02, 9.15966928e-03,
          2.72454154e-02, 1.51697211e-02, 1.90878718e-03,
          -3.78944911e-02, 4.08437010e-03, 4.42568958e-03,
          -3.32383974e-03, 7.94133823e-03, 2.00516041e-02,
          2.64326576e-02, 2.68249735e-02, 2.15871129e-02, 8.47814791e-03,
          2.72226650e-02, 2.19724681e-02, 2.12811306e-03, 1.50099257e-02,
          2.89158188e-02, 3.17315869e-02, 2.38372255e-02,
          -7.21689605e-04, 3.93768260e-03, -4.28028591e-02,
          -2.24592574e-02, -1.31493229e-02, 8.99807177e-03,
          1.42959123e-02, 2.23028176e-02, 2.61491891e-02,
          -1.94939710e-02, -2.30918955e-02, -2.86618043e-02,
          -3.19933407e-02, 3.94958304e-03, 1.25443516e-02,
          1.83912087e-02, 2.72315796e-02, 9.06597450e-03,
          -3.68758924e-02, -5.08672278e-03, 3.64145031e-03,
          -2.84741563e-03, -8.15450586e-03, 1.97919291e-02,
          2.49573756e-02, 2.70789322e-02, 2.00470686e-02,
          -7.28232972e-03, -1.37494616e-02, 1.08994730e-03,
          -1.13792587e-02, 1.94067620e-02, 2.99084503e-02,
          2.37715561e-02, 2.37349905e-02, -8.40227585e-03,
          -2.22675521e-02, 3.26313754e-03, 1.20643678e-03,
          -1.84610393e-02, 4.02972801e-03, 8.58282577e-03,
          1.03239845e-02, 2.47000828e-02, 4.94797295e-03,
          -6.81167543e-02, -4.24170941e-02, 8.76389258e-03,
          7.60360574e-03, 6.28164271e-03, 3.41156451e-03, 1.57003086e-02,
          1.75039843e-02, -2.42918842e-02, -4.76152077e-02,
          -5.41278608e-02, 1.37873339e-02, 4.34258161e-03,
          1.41180800e-02, 1.57176275e-02, 1.59606021e-02, 3.08982506e-02,
          7.20579596e-03, -1.75743867e-02, 2.26478456e-04,
          1.80337448e-02, 1.51045863e-02, 1.26382131e-02, 1.52060688e-02,
          2.34887879e-02, 3.03733777e-02, -1.08047677e-02,
          -5.94611727e-02, -1.94708928e-02, 1.04112113e-02,
          1.03407195e-02, 9.97105427e-03, 2.79419078e-03, 6.14682492e-03,
          1.16010802e-02, -2.65668351e-02, -5.10716587e-02,
          -1.09401681e-02, 9.29875858e-03, 9.88609716e-03,
          9.39059444e-03, -5.39967511e-03, 4.66523971e-03,
          2.75593810e-02, -8.58717412e-03, -1.66935083e-02,
          -6.13196846e-03, 1.79921612e-02, 1.46477893e-02,
          9.15671047e-03, 1.20897628e-02, 1.32155446e-02, 1.82113759e-02,
          -3.87901366e-02, -5.46292327e-02, 9.72812343e-03,
          1.23142367e-02, 1.12501374e-02, 1.22322338e-02, 9.26744658e-03,
          1.35717716e-03, 9.67956241e-03, -2.18939856e-02,
          -5.25011905e-02, 8.31027515e-03, 6.47034496e-03,
          8.55958834e-03, 3.39275855e-03, -8.00551381e-03,
          -6.21130457e-03, 1.71145108e-02, -3.24854185e-03,
          -1.14751644e-02, -1.47526583e-03, 1.22020664e-02,
          2.37636603e-02, 3.18381842e-03, -1.28835337e-02,
          -1.17042148e-02, 1.35454582e-02, 2.63918005e-03,
          4.27780440e-04, -5.78055251e-03, -2.53163720e-03,
          -4.56844550e-03, -6.15431927e-03, -9.71458573e-03,
          -1.72904134e-02, -1.05413776e-02, -1.58378854e-02,
          -4.10120152e-02, 7.42561696e-03, 1.56363728e-03,
          1.04621649e-02, -8.78160447e-03, -2.44870055e-02,
          -1.76122505e-02, 6.04258821e-05, -1.59460213e-03,
          -6.48614969e-06, 4.75532655e-03, 7.22900673e-04,
          2.77144704e-02, 8.74181371e-03, -1.88104231e-02,
          -1.90118738e-02, 9.31056030e-03, -1.35415306e-04,
          -1.98524483e-02, -2.37598941e-02, 1.73023660e-02,
          1.09988842e-02, -8.89779883e-04, -1.41236875e-02,
          -2.30917353e-02, -1.15900696e-03, 4.04628366e-03,
          3.67108412e-04, 9.95027181e-03, 2.71738064e-03, 2.44465787e-02,
          1.33232465e-02, -2.23251097e-02, -3.75935286e-02,
          -9.28213447e-03, -6.03453210e-03, -8.68924521e-03,
          -1.18968450e-02, 1.13591729e-02, 5.63829485e-03,
          2.70494190e-03, -1.47498650e-02, -1.54630821e-02,
          1.35841118e-02, 1.42610949e-02, 2.63238139e-02, 1.40179629e-02,
          1.96572486e-02, -9.08364262e-03, -1.99967949e-03,
          -2.57597567e-04, -1.11238351e-02, -1.74029376e-02,
          -1.84222776e-02, -5.90355415e-03, 2.07123198e-02,
          3.66975204e-04, -1.73768848e-02, 3.35928216e-03,
          1.82427522e-02, 2.14512157e-03, -8.00303835e-03,
          -7.28815235e-03, 7.79655436e-03, 7.51330191e-03,
          1.84800401e-02, -6.80346857e-04, -5.79277927e-04,
          -9.77701694e-03, -4.43724310e-03, -1.23428944e-02,
          -9.15077142e-03, 1.91136748e-02, 1.79121010e-02,
          1.41180772e-02, -1.90616511e-02, -2.25981288e-02,
          3.62701318e-03, 1.82484963e-03, -2.19947137e-02,
          -3.04152369e-02, 4.48536966e-03, 9.36509203e-03,
          -1.67188840e-03, 6.17047958e-03, 1.36671858e-02,
          9.47738905e-03, -2.30250414e-03, -5.24901506e-03,
          3.77682364e-03, 1.00901192e-02, -1.07584745e-02,
          5.30698150e-03, 8.87088478e-03, -6.37779059e-03,
          -1.90445650e-02, -1.62700564e-02, -3.80360871e-03,
          -1.37347532e-02, -2.20354553e-03, -1.97867043e-02,
          1.26055973e-02, -1.22174406e-02, -1.44838393e-02,
          -2.52377358e-03, -8.93710367e-03, -1.66777689e-02,
          -1.00823361e-02, 2.81373505e-02, 1.08404104e-02,
          -7.93551933e-03, -6.81826798e-03, 3.33684287e-03,
          -1.41269425e-02, -9.17988736e-03, 7.34923966e-03,
          -1.30292159e-02, 1.29407886e-02, 1.31100955e-04,
          4.96957591e-03, 3.15959915e-03, -8.63657740e-04,
          -2.75877565e-02, -1.34968348e-02, 5.30893821e-03,
          1.00202346e-02, 1.03481337e-02, -1.06937578e-02,
          9.03099962e-03, -3.92428972e-03, -6.07123459e-03,
          -3.93114351e-02, -2.01906748e-02, 1.21344933e-02,
          1.46729238e-02, 1.78625342e-02, -3.86923831e-03,
          -1.02751767e-02, 1.01608736e-02, 1.73454303e-02,
          -1.78003814e-02, -1.50771728e-02, 1.55462110e-02,
          -4.40244284e-03, 1.24647226e-02, -6.26627076e-03,
          4.87503130e-03, 9.27307084e-03, 1.14172045e-02,
          -2.30579004e-02, -1.49436025e-02, -4.34402842e-03,
          3.63519270e-04, 2.31380612e-02, -2.75315857e-03,
          -2.56796414e-03, 9.66771564e-04, 9.66394600e-03,
          4.71789669e-03, -4.44225827e-03, -1.84775714e-03,
          -7.92392064e-03, 1.92453025e-03, 1.02688810e-02,
          -1.26866496e-03, -2.27182228e-02, -9.33189131e-03,
          -2.14328021e-02, -1.21483821e-02, 1.43832462e-02,
          1.22547625e-02, 1.14177261e-02, 1.06035806e-02,
          -7.14310270e-04, 1.12806412e-03, 9.96417459e-03,
          9.01698414e-03, -3.48086748e-03, -8.45547486e-03,
          -4.86989412e-03, -3.35345836e-03, 2.42762174e-03,
          1.73587874e-02, -3.86910560e-03, 3.57969711e-03,
          -1.57171674e-02, -1.43856080e-02, -6.02620002e-03,
          1.59374420e-02, 4.01394023e-03, 1.18409842e-02,
          -8.06451868e-03, -1.59799103e-02, -7.20987190e-03,
          -2.12160894e-03, -4.45649464e-04, 7.02547282e-03,
          6.84270170e-03, 4.26976476e-03, 1.34951286e-02,
          -2.53562164e-03, -1.09020844e-02, -7.64752878e-03,
          4.95777838e-03, -1.30126870e-03, -5.57903713e-03,
          -1.82559397e-02, -1.31580578e-02, 1.12405382e-02,
          3.16789257e-03, -1.55265322e-02, -9.26000439e-03,
          -7.18422886e-03, -6.76993805e-04, 1.00565003e-03,
          -2.75488244e-03, -2.26309057e-03, 8.48869700e-03,
          1.80852145e-03, 8.09423858e-04, 1.80542213e-03, 1.25179999e-02,
          7.99298100e-03, -1.75950187e-03, -2.14972571e-02,
          -1.58757642e-02, 8.89963936e-04, 3.67070432e-03,
          -3.95693956e-03, -1.96797866e-03, -1.36616798e-02,
          -1.28850015e-02, -1.57286432e-02, -2.38815062e-02,
          -1.19543737e-02, 8.12765490e-03, 8.64295475e-03,
          -2.80670705e-03, 2.30192151e-02, -1.32493600e-02,
          -2.95981504e-02, -1.50679033e-02, -5.55595569e-03,
          4.38188063e-03, 3.27986875e-03, -4.34761634e-03,
          3.25173419e-03, 1.15016829e-02, 1.02268131e-02,
          -9.55745205e-03, -2.55937539e-02, -3.26488316e-02,
          -1.38065908e-02, -7.56384572e-03, -6.15857774e-03,
          -1.40010649e-02, 1.83568057e-02, 1.20777935e-02,
          -1.04422010e-02, -2.13786643e-02, -1.88233852e-02,
          3.53517104e-03, -8.11622385e-03, -5.82883274e-03,
          -1.21675618e-02, 2.81169619e-02, 4.57578711e-03,
          -2.88774706e-02, -2.57602762e-02, -6.36632135e-03,
          -6.52318774e-03, -6.62802299e-03, 3.61922872e-03,
          5.37567260e-03, -1.45160379e-02, -7.92011712e-03,
          -1.11107370e-02, 6.70534652e-03, -7.17468676e-04,
          -5.94475167e-03, -1.17643061e-03, -4.09716088e-03,
          -2.74669733e-02, 1.15132611e-02, -2.68286502e-04,
          -1.58469714e-02, -2.22440492e-02, -1.01417070e-02,
          3.65393818e-03, -3.88257741e-03, 6.76658005e-03,
          6.54830271e-03, -2.01503560e-03, 1.45208719e-03,
          -2.31863745e-02, -5.22476994e-03, -3.42862029e-03,
          -4.14424622e-03, 2.63705896e-03, -6.43629627e-03,
          -3.49288061e-03, -5.45229949e-02, -4.07515541e-02,
          -4.20280546e-03, 1.75804608e-02, 1.38043715e-02,
          4.30726213e-03, -8.43340997e-03, 1.45508582e-02,
          2.61514187e-02, -1.40284365e-02, -3.76719572e-02,
          3.87909496e-03, 1.05923945e-02, 2.50634868e-02, 2.20917687e-02,
          5.89648494e-03, 1.79489851e-02, 2.54666526e-02,
          -3.42413178e-03, -1.96971968e-02, -2.90774461e-02,
          -3.22886714e-04, 1.43255889e-02, 6.54690666e-03,
          7.25692930e-03, 1.16037680e-02, 2.08402425e-02, 8.65316484e-03,
          -5.96693950e-03, -2.94272625e-03, 8.30625836e-03,
          2.03316025e-02, 1.26144765e-02, 2.69820984e-03, 3.64025356e-03,
          2.78872363e-02, -1.29155815e-03, -3.59221771e-02,
          1.39898676e-02, 1.39667466e-02, 2.57689767e-02, 2.31177229e-02,
          1.02531118e-03, 8.59295484e-03, 8.39804020e-03,
          -1.17985110e-04, -6.41444093e-03, 2.16223896e-02,
          2.33107246e-02, 2.92841103e-02, 3.18452865e-02, 1.46139953e-02,
          -9.73024964e-03, -6.65860809e-03, -3.53536382e-03,
          -4.70419368e-03, 3.96174705e-03, 1.22803273e-02,
          2.64252983e-02, 9.70284920e-03, -4.80920309e-03,
          -2.95439214e-02, -2.62363274e-02, -4.50209565e-02,
          -2.73481403e-02, 4.13194904e-03, 1.26140947e-02,
          3.70158590e-02, 1.28038293e-02, -1.25928801e-02,
          1.62703600e-02, -1.03924712e-02, -4.07981034e-03,
          1.88038740e-02, 3.62960771e-02, 2.42070090e-02, 3.10764946e-02,
          2.43823510e-02, 1.90074909e-02, 1.30274566e-02,
          -1.28061902e-02, -1.47703732e-03, 2.88917255e-02,
          4.13423032e-02, 2.60108542e-02, 2.64671594e-02,
          -5.39696775e-03, 9.53316502e-03, -4.46603894e-02,
          -3.75270769e-02, -5.09343147e-02, -2.54651904e-02,
          1.26516623e-02, 2.02167053e-02, 3.66559587e-02, 1.79302264e-02,
          -2.72982288e-02, -5.79147264e-02, -1.83706451e-02,
          -2.09797993e-02, 1.16007607e-02, -7.79279391e-04,
          5.41112665e-03, 4.48075635e-03, -1.48862088e-02,
          -6.30906448e-02, 9.31762345e-03, -3.41260456e-03,
          3.64747201e-03, 3.45836058e-02, 3.60179208e-02, 3.10859904e-02,
          6.83617219e-03, -2.64563528e-03, 4.65539936e-03,
          2.48972559e-03, -4.12699301e-03, 2.55312957e-02,
          4.25556898e-02, 8.93673114e-03, 5.74895693e-03,
          -4.29943763e-02, -4.71681207e-02, -9.91396257e-04,
          -2.72746887e-02, -1.51271559e-02, 5.13841072e-03,
          2.77642012e-02, 2.09203921e-02, 2.31317282e-02,
          -1.11426637e-02, -1.50040006e-02, -3.35534103e-02,
          -1.41104944e-02, -5.81930671e-03, 2.21813750e-02,
          3.79557125e-02, 1.93135217e-02, -1.87028050e-02,
          -3.36819142e-02, -3.64907235e-02, -1.01148793e-02,
          1.41131766e-02, 3.85939307e-03, 2.00986937e-02, 2.50918325e-02,
          1.72951445e-02, 1.00796372e-02, -2.81470586e-02,
          -3.31309922e-02, -7.21316226e-03, 2.68209744e-02,
          1.45487459e-02, 1.63291097e-02, 2.27062181e-02, 3.75035889e-02,
          9.02467966e-03, -5.35890041e-03, -1.25873042e-02,
          5.57348086e-03, 1.01098185e-02, 7.35278102e-03, 1.97987426e-02,
          2.15914045e-02, 6.83501549e-03, -1.35607505e-02,
          -3.79316621e-02, -3.08338031e-02, -1.23246834e-02,
          7.69709656e-03, 5.65901212e-03, 1.07026473e-02,
          -6.74757920e-03, 4.52261791e-03, -2.28967387e-02,
          -2.98034269e-02, -1.53434034e-02, -8.32759310e-03,
          2.52675936e-02, 1.16029698e-02, 7.25096557e-03, 1.33990664e-02,
          -1.39574765e-03, -2.89970008e-03, -2.48239357e-02,
          -1.25200665e-02, 2.20888928e-02, 3.24243307e-02,
          1.08976485e-02, 8.54132138e-03, 8.56511574e-03,
          -3.34956846e-03, -4.23425324e-02, -3.59945372e-02,
          -2.45983377e-02, 1.93994585e-02, 5.51413884e-03,
          4.48633032e-03, 4.26772051e-03, -1.03046698e-02,
          1.24147730e-02, -1.05807250e-02, 1.34900296e-02,
          9.20304190e-03, 5.94699755e-03, 1.45312073e-02, 6.16294798e-03,
          4.76658437e-03, -1.29631180e-02, -2.33691130e-02,
          -3.09004802e-02, -2.10768133e-02, 1.68919191e-02,
          6.91356370e-03, 8.71360209e-03, 4.75916429e-04, 1.51787477e-03,
          1.69415935e-03, -9.93534923e-03, -4.10454720e-02,
          -1.69062354e-02, 9.52445343e-03, 1.28928795e-02,
          3.73171526e-03, -1.72324781e-03, -5.58857573e-03,
          -5.89167187e-03, 4.03934484e-03, -1.16419857e-02,
          -4.14144481e-03, 1.83272902e-02, 1.67227034e-02,
          8.36740900e-03, 5.61116729e-03, 1.39792636e-02,
          -1.77696045e-03, -3.15751508e-02, -2.33564079e-02,
          -2.75070351e-02, 2.26560663e-02, -1.44451577e-03,
          6.30354602e-03, 2.47936114e-03, 5.91580803e-03,
          -1.69886351e-02, -1.09690297e-02, -1.86662339e-02,
          -9.90334712e-03, 2.47741695e-02, 1.00917555e-02,
          6.37041358e-03, 3.64944967e-03, 4.88341728e-04,
          -1.73645448e-02, -1.49756819e-02, 3.54052841e-04,
          -7.18370639e-03, 1.81756113e-02, 1.45461839e-02,
          5.14029153e-03, -1.07792905e-03, -1.15669034e-02,
          -1.54771693e-02, 2.10599676e-02, 1.74970999e-02,
          1.59909707e-02, 2.03465242e-02, 1.97390448e-02, 1.74403656e-03,
          2.94599636e-03, -5.64979995e-03, -3.85620818e-02,
          -2.66210679e-02, -7.75761902e-03, -3.42397690e-02,
          1.52661838e-02, 1.16107976e-02, -6.82925154e-03,
          -7.68845761e-03, -1.13425041e-02, -2.67408323e-02,
          -1.92098282e-02, -3.95643106e-03, -7.12955883e-03,
          3.79440328e-03, 1.35491733e-02, 1.18380180e-02,
          -6.18118513e-03, -6.27303962e-03, -9.54454206e-03,
          1.98040288e-02, 1.39721315e-02, 8.09706096e-03, 1.10656098e-02,
          1.56184519e-02, 2.20794529e-02, -2.70494609e-03,
          -1.01547623e-02, 4.25145682e-03, 9.73715633e-03,
          -7.19976425e-03, -1.58511996e-02, -1.02127530e-02,
          1.09520294e-02, -1.95119460e-03, -6.20276015e-03,
          -1.37891555e-02, -3.45334853e-03, -1.00760022e-02,
          1.60012823e-02, 2.91202706e-03, -1.38201863e-02,
          1.85035961e-03, 3.64746619e-03, -1.23514968e-03,
          -7.09169963e-03, 5.65956859e-03, 5.93284494e-04,
          1.35858590e-02, -9.59114404e-04, -1.27283782e-02,
          -7.92203413e-04, 2.00190097e-02, -4.78332769e-03,
          -1.06682098e-02, -6.22672786e-04, 3.41275183e-04,
          -4.39725677e-03, -5.91146643e-04, 2.31060516e-02,
          1.96651537e-02, -5.09916339e-04, 3.70422984e-03,
          1.96216293e-02, -6.94110803e-03, -1.36502357e-02,
          6.04831148e-03, 1.92086678e-03, 3.17664035e-02, 2.06058305e-02,
          -2.37354124e-03, -2.35090312e-03, -8.85060709e-03,
          -5.66963863e-04, -1.36796152e-02, -2.06049182e-03,
          1.47780180e-02, 1.08535960e-02, 3.99907958e-03, 6.90151379e-03,
          7.34811695e-03, -1.85310729e-02, -1.15890056e-02,
          -1.99695081e-02, -1.86628364e-02, 2.03128788e-03,
          6.73282938e-03, 1.05146747e-02, 4.71815374e-03, 2.46212967e-02,
          3.14713828e-02, -1.73630118e-02, -1.87870711e-02,
          7.17100862e-04, -1.36191454e-02, 1.87921915e-02,
          1.29834460e-02, 4.13994817e-03, 2.77465191e-02, 2.29651947e-02,
          -7.18174828e-03, -3.70585313e-03, -1.59868300e-02,
          -9.41304583e-03, 1.13737900e-02, 1.31589184e-02,
          2.72560921e-02, 1.99027378e-02, -1.52888028e-02,
          -2.37430669e-02, -3.11780293e-02, -1.08264918e-02,
          -9.47388168e-03, -1.97988609e-03, 1.07517783e-02,
          3.97117110e-03, 1.89657044e-02, 1.35185057e-03,
          -2.49572191e-02, -1.12031191e-03, -1.16188247e-02,
          -1.92215070e-02, -1.19644199e-02, 1.34619679e-02,
          -6.38547679e-03, -2.84225517e-03, -1.33688562e-03,
          -3.07395984e-03, 9.67777160e-04, 1.66544880e-04,
          2.16251798e-02, 1.51646798e-02, 1.33780297e-03, 2.84729037e-03,
          -5.31617505e-03, 7.44322455e-03, 5.76518243e-03,
          -1.02711860e-02, -1.21427290e-02, 1.06973927e-02,
          7.33649591e-03, 1.42911160e-02, -1.31035235e-03,
          1.03934286e-02, -5.68306446e-03, -2.00724397e-02,
          -1.74339314e-03, -2.88572581e-03, 1.40313264e-02,
          4.21990128e-03, 3.98362800e-03, -6.21845655e-04,
          1.12733748e-02, 1.83280688e-02, 2.21836101e-03, 1.73069141e-03,
          -9.33063310e-03, -1.10143516e-02, -1.00455610e-02,
          2.58271024e-03, -8.24757479e-03, -2.11671852e-02,
          -1.45843998e-02, -7.66631856e-04, -9.22932196e-03,
          -6.95624575e-03, -2.10479903e-03, 2.50264944e-04,
          1.04822572e-02, 5.59028378e-03, 6.88018324e-03,
          -3.04129533e-03, 4.44512069e-03, -1.00845797e-02,
          -3.93564202e-04, -9.66070965e-03, -1.62700862e-02,
          -4.74179955e-03, -7.24826334e-03, 4.08889027e-03,
          1.06588006e-02, 1.30612322e-03, 2.91572884e-03, 3.36821843e-03,
          -1.45861898e-02, -7.13889673e-03, -6.37420046e-04,
          8.25632643e-03, -4.01702290e-03, 4.63305041e-03,
          -1.30016468e-02, 6.64172461e-03, 1.41334906e-03,
          -1.99559028e-03, -5.62718092e-03, -6.35067513e-03,
          -3.67186475e-03, 4.21994645e-03, -4.82090283e-04,
          -3.61286569e-03, -1.25479009e-02, -9.01180692e-03,
          -1.31480088e-02, -1.79049317e-02, -7.81829469e-03,
          -5.99802844e-03, -1.66150331e-02, -3.41837556e-04,
          1.65387467e-02, 1.71030790e-03, -9.03156027e-03,
          -1.36878723e-02, -2.46266602e-03, -2.06147530e-03,
          -8.92919197e-04, -4.69713379e-03, -1.52986255e-02,
          -2.54961420e-02, -6.31398056e-03, -5.76097844e-03,
          1.16687233e-03, -8.52753688e-03, -1.34264417e-02,
          -2.77262367e-03, 2.01432244e-03, -1.40745848e-04,
          -1.15156109e-02, -1.34729419e-03, 3.15606780e-03,
          -8.07131734e-03, -3.27888457e-03, -1.17086666e-02,
          8.57671257e-04, -3.22859772e-02, -5.63448574e-03,
          -5.16428205e-04, 3.55761126e-03, -1.58193018e-02,
          -1.06638651e-02, 1.65703380e-03, -2.79482966e-03,
          6.59809913e-03, 6.56630052e-03, 1.99702438e-02,
          -2.39021215e-03, -2.72499714e-02, -5.56543795e-03,
          1.40395167e-03, -8.73899437e-04, 3.29553033e-03,
          6.32815179e-04, -5.03251329e-03, 1.01356693e-02,
          -1.41305588e-02, -8.77674017e-03, -4.03393572e-03,
          -1.75383687e-02, -7.71929463e-03, -8.41699541e-03,
          6.94914162e-03, 1.33880107e-02, 1.79664847e-02,
          -3.27948993e-03, -9.49619059e-03, -1.80315562e-02,
          -1.12035992e-02, -1.14839757e-02, 3.03540175e-04,
          8.43696482e-03, 1.55234970e-02, 2.96523962e-02,
          -2.12713219e-02, -3.86670046e-02, -1.47593794e-02,
          8.40960909e-03, 5.37904212e-03, 1.89806009e-03, 4.87728976e-03,
          8.72130878e-03, 2.77979188e-02, -1.44022482e-03,
          -8.00302811e-03, -1.72216533e-05, 2.00185366e-02,
          1.11441370e-02, 2.67708930e-03, 4.78818035e-03, 7.91819114e-03,
          2.40325872e-02, -2.91337352e-02, -5.25582917e-02,
          -2.14744508e-02, 1.46037037e-03, 5.25907893e-03,
          1.25608146e-02, -7.13801757e-03, 3.47962161e-03,
          2.80090515e-02, -1.46543011e-02, -3.87696028e-02,
          -9.99355409e-03, 1.84214395e-02, 8.12639017e-03,
          -7.34072819e-04, 6.33831322e-03, 1.73314405e-03,
          -1.28615578e-03, -1.34413959e-02, 2.53087375e-02,
          1.67591274e-02, 2.24471092e-02, 1.50791770e-02, 1.12508154e-02,
          3.56385461e-03, -1.33172553e-02, -5.99878468e-02,
          -4.03184891e-02, 3.22125293e-02, 2.48097125e-02,
          2.51465067e-02, 1.43755740e-02, 1.03510860e-02, 4.81104758e-03,
          1.92469396e-02, -8.47113319e-03, -5.72283231e-02,
          -2.63633020e-02, 9.17001162e-03, 2.06011720e-02,
          7.24843983e-03, 3.53366486e-03, -1.29413437e-02,
          -2.33346149e-02, -7.63466433e-02, -5.56392036e-02,
          -1.25764422e-02, 8.23175069e-03, -1.82029326e-02,
          -8.13834183e-03, -1.23679582e-02, -1.37812775e-02,
          -1.30495019e-02, -4.18686010e-02, -2.48305313e-02,
          3.51819284e-02, 1.82268471e-02, 1.94774568e-02, 9.11645219e-03,
          -8.94979667e-03, -2.37691123e-02, -7.16618216e-03,
          -1.72365159e-02, -2.46023387e-03, 1.38524957e-02,
          5.29683102e-03, -2.21110531e-03, -8.19411781e-03,
          -2.10318286e-02, -2.51362137e-02, -3.93212885e-02,
          -6.00574911e-02, -4.79001813e-02, -4.07774420e-03,
          -9.05273296e-03, -2.89903744e-03, 5.88365598e-04,
          -1.36926463e-02, -1.61308292e-02, -2.66085137e-02,
          -2.43856516e-02, -3.35710868e-02, 6.30863151e-03,
          -1.57741923e-02, -6.14026655e-03, -1.34400073e-02,
          -1.69219449e-02, -1.78709980e-02, -1.05758412e-02,
          9.70301218e-03, 2.54775677e-02, -1.80443823e-02,
          2.13204557e-03, -2.03182213e-02, -1.90537069e-02,
          -2.46939491e-02, 2.58994731e-03, -2.59074313e-03,
          3.23603563e-02, 4.52600606e-02, 7.11523090e-03,
          -2.64618751e-02, -3.45428288e-02, -1.88624598e-02,
          2.50315038e-03, -2.13443246e-02, -2.81408485e-02,
          -2.32010409e-02, -2.03728992e-02, -1.12530245e-02,
          -3.27956467e-03, -4.65167547e-03, -2.53963675e-02,
          -1.41702695e-02, 9.38058132e-04, -1.15680723e-02,
          4.66914335e-03, 6.94481283e-03, -1.63568091e-02,
          -3.76752727e-02, -2.28937641e-02, -2.11001616e-02,
          1.09867882e-02, 1.49174873e-02, 1.51167624e-02, 2.34550852e-02,
          2.45260373e-02, -7.87138660e-03, -8.62438884e-03,
          -1.77238453e-02, -1.11571681e-02, 6.71293214e-03,
          1.00335721e-02, 1.10881962e-02, 1.21094836e-02,
          -1.02193737e-02, -1.12817790e-02, -2.51075570e-02,
          -9.47612152e-03, 8.28838907e-03, 1.91263665e-04,
          1.67743564e-02, 1.03909178e-02, 1.13784298e-02,
          -1.03730243e-02, -3.20318490e-02, -5.47500923e-02,
          -4.61317748e-02, -3.51000130e-02, 1.69950146e-02,
          3.33103985e-02, 3.37938555e-02, 2.34440770e-02, 1.20375678e-02,
          3.21140103e-02, 9.31619667e-03, 3.49230226e-03, 1.79064870e-02,
          3.14513855e-02, 1.27180130e-03, 2.99683982e-03, 5.04857395e-03,
          -1.58651266e-02, 2.83990405e-03, -8.68963730e-03,
          -2.14797375e-03, 9.18251649e-03, 8.23465828e-03,
          9.41507611e-03, 4.68722917e-03, 9.53465980e-03,
          -1.56281572e-02, -3.83089632e-02, -2.99200583e-02,
          1.43866511e-02, 2.20613126e-02, 1.74027085e-02, 6.08243654e-03,
          9.35315620e-03, 5.12512727e-03, 1.08140856e-02,
          -1.31364551e-03, 2.99870339e-03, 1.48839876e-02,
          1.23144342e-02, 1.18848514e-02, 9.73272696e-03, 8.27217940e-03,
          2.30918843e-02, 1.79943368e-02, -1.03075514e-02,
          -1.61334835e-02, 1.75887775e-02, 2.50348784e-02,
          1.75376888e-02, 1.00841131e-02, 6.49239309e-03, 1.10546798e-02,
          -4.20949748e-03, -3.77680101e-02, -3.47183384e-02,
          1.82370339e-02, 2.52273828e-02, 1.16773471e-02, 1.01396702e-02,
          6.44008303e-03, 7.58381793e-03, -1.49510121e-02,
          -2.48970762e-02, -2.33005788e-02, 2.14520879e-02,
          3.06301508e-02, 1.72678325e-02, 1.41857630e-02, 5.29228803e-03,
          5.94960386e-03, -7.54469819e-03, -2.23317612e-02,
          -2.62036566e-02, 2.76842248e-02, 1.75110158e-02,
          1.13703990e-02, 1.19084166e-02, 2.01228308e-03, 1.85842568e-03,
          -2.44801719e-04, -1.71814431e-02, 5.08293975e-03,
          1.35198897e-02, 1.01945847e-02, 1.44727668e-02, 6.73017325e-03,
          8.54748208e-03, 3.23214638e-03, -2.77207121e-02,
          -3.09301056e-02, -2.13700142e-02, -1.22324331e-02,
          2.16849688e-02, 2.04588193e-02, -8.38457793e-03,
          -3.47940065e-03, 4.15069284e-03, 1.05635275e-03,
          -9.82399285e-03, -4.10518842e-03, -1.52756581e-02,
          4.08137264e-03, 1.55169200e-02, 4.91629960e-03,
          -4.54043271e-03, -1.50745995e-02, -1.30462544e-02,
          -6.83470862e-03, -1.29492041e-02, 5.48205664e-03,
          5.88003430e-04, 2.31034532e-02, -8.00179970e-03,
          6.55039633e-03, 1.28649799e-02, 9.72145330e-03,
          -3.61694209e-03, -2.81543378e-02, -6.17421931e-03,
          2.24763225e-03, 1.46623356e-02, -1.43972561e-02,
          -1.10517936e-02, 1.14271359e-03, 9.25296452e-03,
          -1.06989751e-02, 1.87389608e-02, -4.72916570e-03,
          -8.88280850e-03, -1.32713672e-02, -1.21610668e-02,
          1.24017813e-03, -5.14057139e-03, 8.98159575e-03,
          1.66993067e-02, 2.28499249e-02, 9.65742022e-03, 7.24420091e-03,
          -1.53299067e-02, -1.58400405e-02, 2.34279287e-04,
          1.06418161e-02, 1.35190031e-02, -5.88627672e-03,
          -9.41816834e-04, -7.69388024e-03, -1.11626973e-02,
          -1.37382764e-02, -1.88016035e-02, -2.18795724e-02,
          -9.99978650e-03, -7.15427380e-03, 8.81578773e-03,
          2.35459059e-02, 7.36222649e-03, 3.55129316e-03,
          -2.41581760e-02, 1.66861003e-03, 6.18217839e-03,
          -1.06853461e-02, -6.91158790e-03, -5.53143630e-03,
          9.78849269e-03, 7.45175872e-03, 1.29795056e-02, 1.70169747e-03,
          2.39046011e-02, 1.68981086e-02, -2.41780858e-02,
          -1.76950824e-02, -1.53492512e-02, -1.79069284e-02,
          -5.61712822e-03, -1.63063370e-02, 1.03894658e-02,
          6.05706591e-03, -8.21024552e-03, -6.48566755e-03,
          -2.58815452e-03, -3.09814140e-03, 1.52659416e-02,
          1.54310847e-02, 1.27322804e-02, 2.06873799e-03, 2.43971702e-02,
          2.21178904e-02, 1.03992866e-02, -2.18119612e-03,
          -1.93835143e-02, -1.28656104e-02, -9.65816714e-03,
          -5.61785605e-03, 1.44269597e-02, 2.51273345e-02,
          1.62377413e-02, -1.09590720e-02, -2.49256846e-03,
          -1.37747284e-02, -1.52691733e-02, -1.24836043e-02,
          -1.92515720e-02, 9.98932682e-03, 9.88005567e-03,
          8.72218795e-03, 1.30262515e-02, -2.61346670e-03,
          -1.20631522e-02, -1.04569877e-02, -1.01212328e-02,
          -2.12885235e-02, 2.21313792e-03, 1.68164689e-02,
          2.43063997e-02, 2.25214344e-02, 9.05566197e-03,
          -1.02074640e-02, -2.72756349e-03, -1.14423689e-03,
          -1.76489986e-02, 3.31028155e-03, 5.69900358e-03,
          1.40581578e-02, 2.81490553e-02, 1.05386544e-02,
          -2.19649798e-03, -4.26862249e-03, 2.88651697e-03,
          -1.77107006e-02, -8.48522875e-03, -7.31613080e-04,
          3.73008475e-03, -7.43098278e-03, -1.03102752e-03,
          -1.49147790e-02, -5.78947947e-04, 2.14118417e-03,
          -8.16206634e-03, -7.06900470e-03, -2.07851874e-03,
          1.25597194e-02, 1.15109319e-02, -1.14036992e-03,
          -5.62260672e-03, -3.93326581e-03, -2.58062873e-02,
          -2.15803944e-02, -5.86600981e-05, -5.36216795e-03,
          -2.17487589e-02, -1.91523898e-02, 9.07313917e-03,
          1.41861401e-02, 1.04377782e-02, 1.20313866e-02, 3.36577091e-03,
          -9.59930103e-03, -6.45923940e-03, -2.00072885e-03,
          -9.77015821e-04, -6.03168411e-03, 5.06605534e-03,
          7.32832262e-03, -3.75428656e-03, -1.12749590e-03,
          3.27604078e-03, -2.32910924e-03, 1.44112175e-02,
          1.79907065e-02, 3.18308664e-03, -3.92294023e-03,
          3.25746997e-03, -1.17198946e-02, -1.42837893e-02,
          -8.88994522e-03, -7.56615540e-03, -4.95893555e-03,
          -3.49740591e-03, -2.27263886e-02, -1.13206888e-02,
          9.34649957e-04, 1.76511984e-02, -2.98489537e-03,
          -1.69161726e-02, -2.78337742e-03, 5.87547664e-03,
          3.81902629e-03, 8.67906865e-03, -2.19116490e-02,
          8.23605992e-03, 9.35813598e-03, -1.79091771e-03,
          -2.43816385e-03, -7.22490577e-03, -9.02971532e-03,
          -5.00619551e-03, -9.70892794e-03, -1.27024939e-02,
          6.37806545e-04, 1.74164530e-02, 5.02436003e-03, 8.87597271e-05,
          -7.55552016e-03, -6.91760425e-03, -3.90455313e-03,
          -2.30134055e-02, -1.15312403e-02, -7.36758905e-03,
          1.38128623e-02, -3.98449600e-03, -2.13198513e-02,
          -8.08820594e-03, 6.85669668e-03, 1.02302479e-02,
          -2.10621487e-02, -1.67035628e-02, 1.18121887e-02,
          1.09070344e-02, 9.26409289e-03, -1.52813606e-02,
          -1.43124340e-02, -1.50279477e-02, -1.55732324e-02,
          -1.78589523e-02, -3.30912252e-03, -8.27048998e-03,
          8.36382341e-03, -4.07371670e-03, -1.40375504e-02,
          -1.57003701e-02, -3.88711435e-03, 3.87972291e-03,
          1.93943782e-03, -3.15109873e-03, 1.94250215e-02,
          1.24277957e-02, -9.12971809e-05, -1.85476430e-02,
          -1.48090208e-03, 6.51293807e-03, 8.96867644e-03,
          -9.41609219e-03, -3.52131203e-02, 3.35886772e-03,
          -6.41515944e-03, 4.76025091e-03, -1.51118985e-03,
          1.45825022e-03, 8.57744925e-03, 9.77049116e-03,
          -1.64427646e-02, -2.48281006e-02, -2.76663825e-02,
          -8.67745746e-03, 1.83586939e-03, 5.55419130e-03,
          -3.30674765e-03, 2.53708707e-03, 1.44967092e-02,
          3.00952117e-03, -4.57554832e-02, 2.22160146e-02,
          7.29893474e-03, 8.42452608e-03, -3.02341720e-03,
          1.29814930e-02, 1.39006330e-02, 1.61290038e-02, 1.89774148e-02,
          -6.98499056e-03, -2.42983345e-02, 7.61248637e-03,
          1.27111627e-02, 1.10986475e-02, 5.00551611e-03, 7.31368968e-03,
          1.04824882e-02, -1.60391722e-02, -3.19763161e-02,
          -3.76630798e-02, 6.10722555e-03, 7.01453863e-03,
          1.12689901e-02, 1.56344019e-03, 2.26440020e-02, 3.24080139e-02,
          -9.18199588e-03, -6.36604726e-02, -8.36434960e-03,
          1.24643426e-02, 1.08946944e-02, 2.78439512e-03, 1.70428846e-02,
          2.47337800e-02, 1.64356399e-02, 1.46013098e-02,
          -3.42928395e-02, -6.11670241e-02, -2.11378653e-03,
          1.07995924e-02, 2.09953785e-02, 1.48588652e-02, 3.25975083e-02,
          6.34933040e-02, 4.44373339e-02, -5.21272533e-02,
          -2.78264694e-02, 9.77925118e-03, 1.92332752e-02,
          1.93020348e-02, 1.39407199e-02, 3.61628160e-02, 2.99260654e-02,
          -2.46192738e-02, -4.82735485e-02, 1.00738590e-03,
          1.59927886e-02, 1.57077126e-02, 3.61037068e-03, 1.22973043e-03,
          -3.24706454e-03, -2.74996944e-02, -4.86845225e-02,
          -1.47902146e-02, -9.96070448e-03, -1.94665864e-02,
          3.56995224e-05, -1.13752589e-03, 2.64693294e-02,
          4.30821031e-02, 4.97295149e-02, 1.15217315e-02,
          -6.33904934e-02, -2.12006290e-02, 1.19398329e-02,
          2.58441530e-02, 2.39767339e-02, 3.02728713e-02, 1.61963739e-02,
          -9.77439992e-03, -4.38509136e-02, -4.70562503e-02,
          -3.54482010e-02, -1.97786465e-02, 2.59558521e-02,
          2.49382909e-02, -7.82748964e-03, -2.54603941e-02,
          -2.98066717e-02, -3.22958156e-02, -2.82506342e-04,
          -1.48624284e-02, -1.83383934e-02, 1.49253767e-03,
          6.78494398e-05, -4.13420796e-03, -1.87864471e-02,
          -2.23836731e-02, -3.25310905e-03, 7.71378772e-03,
          -3.24865952e-02, -4.38010041e-03, 1.44845375e-03,
          3.30087519e-03, 1.29771780e-03, -3.21558975e-02,
          -5.14308922e-02, -3.86557952e-02, -2.03017537e-02,
          -2.91648116e-02, -8.03535338e-03, 3.57848145e-02,
          2.22305153e-02, -1.05026988e-02, -1.75279640e-02,
          -4.29742001e-02, -2.92559359e-02, -2.45928355e-02,
          -3.91162410e-02, -7.12707778e-03, 1.23126628e-02,
          1.39635568e-02, -4.68441332e-03, -1.09887393e-02,
          -1.42473280e-02, -3.95594025e-03, 3.27737606e-03,
          -1.87839735e-02, 1.09407667e-03, -5.64138079e-03,
          1.09489367e-04, 3.91350454e-03, -8.75909813e-03,
          -9.20888130e-03, 4.21131123e-03, -3.77554297e-02,
          -2.61766091e-02, -5.79106063e-03, -9.65803582e-03,
          6.17135363e-03, 1.07487086e-02, 8.78824294e-03,
          -1.57094002e-02, -1.60713792e-02, -6.00426383e-02,
          -3.58289070e-02, 6.11786265e-03, 1.11352736e-02,
          2.92383842e-02, 3.17786969e-02, 2.07613241e-02, 6.23151753e-03,
          4.17308975e-03, -2.07525920e-02, -1.62513386e-02,
          5.61737828e-03, 1.89274047e-02, 3.51959951e-02, 1.53867658e-02,
          8.98037013e-03, 1.48440367e-02, -2.88021052e-03,
          -4.18564826e-02, -4.13273498e-02, -1.90718453e-02,
          -4.36289236e-03, 1.61943398e-02, 2.56735925e-02,
          3.16058174e-02, 5.77403558e-03, 9.46552586e-03, 2.08006310e-03,
          3.71395331e-03, 6.94993138e-03, 1.97090656e-02, 1.80142615e-02,
          4.09366842e-03, 1.02063995e-02, 5.93570713e-03,
          -1.45822456e-02, -6.48768917e-02, -4.62151691e-02,
          -1.37866223e-02, 1.45088276e-02, 2.40223911e-02,
          3.24177891e-02, 4.14091572e-02, 1.49714537e-02, 1.13144470e-02,
          -2.52246304e-04, -8.43162066e-04, 9.40751284e-03,
          2.93740910e-02, 3.36050987e-02, 7.07211392e-03, 1.07170139e-02,
          5.08461474e-03, 2.61038002e-02, 1.57023605e-03, 8.22333246e-03,
          1.83689483e-02, 1.46246245e-02, 9.67589486e-03, 3.53896845e-04,
          -5.96573576e-03, -2.16646539e-03, 1.68736931e-02,
          9.11835115e-03, -2.21440848e-02, 2.00257711e-02,
          1.42852543e-02, 3.27741704e-03, 6.39884220e-03, 7.40499236e-04,
          8.78574606e-03, 1.00256158e-02, -1.33518723e-03,
          1.63217019e-02, 1.60622057e-02, 1.88737717e-02, 1.84852947e-02,
          -1.70020119e-03, -2.24994998e-02, 1.63006783e-02,
          -1.00420332e-02, 7.73659162e-03, -2.42846198e-02,
          1.66797359e-02, 2.19823569e-02, 2.28607245e-02, 8.84364452e-03,
          8.40064080e-04, -4.00093989e-03, -3.72797833e-03,
          -2.37107314e-02, -4.16406756e-03, 1.54451812e-02,
          1.05805295e-02, 4.86439699e-03, 1.04358681e-02, 4.00125375e-03,
          -8.10174446e-04, 1.22407200e-02, -5.03790751e-03,
          8.18715617e-03, 5.43144858e-03, 1.75972469e-03, 4.58506541e-03,
          5.35652228e-03, 2.80347234e-03, 1.15093298e-03,
          -1.31098982e-02, -1.93749554e-02, 1.61009526e-03,
          4.14702576e-03, 1.04297372e-02, 8.76443554e-03, 5.40261948e-03,
          1.92689784e-02, 1.94753744e-02, -6.57025399e-03,
          -9.94007476e-03, 2.69353110e-02, 1.99741293e-02,
          8.98053258e-05, -6.43280894e-03, 4.82284371e-03,
          -1.76320877e-03, -1.79209653e-02, -6.41922420e-03,
          -6.35567820e-03, -1.81559566e-02, 4.90251090e-03,
          -2.73564947e-03, 8.28081090e-03, 5.29836398e-03,
          1.67753194e-02, 1.45723801e-02, 4.35308041e-03,
          -5.59312338e-03, -2.26460248e-02, 3.81794432e-03,
          8.00057687e-03, 1.61390845e-02, 3.79257253e-04, 7.60181714e-03,
          -4.55038575e-03, -1.45226531e-03, 7.11252727e-03,
          -8.07130430e-03, 1.02235340e-02, -5.43615920e-03,
          -9.14099813e-03, 2.44635018e-03, 9.08167008e-03,
          -7.88358098e-04, -4.81888698e-03, -2.61991424e-03,
          -2.29294673e-02, 1.46066137e-02, 6.37947768e-03,
          -2.53254664e-03, -1.70032668e-04, 1.49528254e-02,
          7.86601938e-03, -1.84536744e-02, -2.15550642e-02,
          -1.64321605e-02, -5.70119079e-03, -4.28117765e-03,
          2.82838894e-03, 2.43343980e-04, -2.39132764e-03,
          3.21034365e-03, -2.44574714e-03, 9.60048474e-03,
          1.07306549e-02, 1.16373075e-03, 3.99228811e-05,
          -4.07106103e-03, 1.62788748e-03, 1.04104085e-02,
          -9.81063582e-03, -1.42824547e-02, -1.91330817e-02,
          -2.70351637e-02, 9.17979609e-03, 1.58185093e-03,
          -2.10027583e-03, 1.90259367e-02, 2.67086495e-02,
          2.37303507e-03, -1.51550984e-02, 7.81365577e-03,
          -1.05568841e-02, 1.20607186e-02, -1.63480174e-02,
          -4.73535247e-03, 1.84851015e-04, -1.73278768e-02,
          3.22646764e-03, 1.29339388e-02, -3.07906372e-03,
          7.46953674e-03, 8.52530077e-03, 8.48576799e-03,
          -2.71655200e-03, -7.51054101e-03, -4.65354836e-03,
          1.52406730e-02, -8.42410419e-03, -2.61982642e-02,
          -7.43265077e-03, 5.84106566e-03, 1.22870486e-02,
          -1.26279546e-02, 4.64914227e-03, 6.60165725e-03,
          1.32381741e-03, -1.06174103e-03, 1.85259972e-02,
          -5.58875222e-03, 6.34753704e-03, -5.19317575e-03,
          -8.29632301e-03, -2.55926624e-02, -1.10743567e-02,
          -5.74712409e-04, -1.68398470e-02, 2.17441469e-03,
          -9.29051545e-03, -5.29011944e-03, -6.58524688e-03,
          -2.58039329e-02, -5.02808020e-03, 1.48057612e-02,
          2.27080695e-02, 7.69780762e-03, -1.45757953e-02,
          -1.26532838e-03, 6.27026754e-03, -1.19063305e-03,
          -1.46813048e-02, -1.52736735e-02, 7.91404769e-03,
          2.46355757e-02, 5.36902482e-03, 3.18391575e-03, 5.58255380e-03,
          3.68387392e-03, -1.63579322e-02, -1.92706529e-02,
          -1.95162911e-02, 1.33242616e-02, 2.07420308e-02,
          1.31042730e-02, -4.99921199e-03, -4.48675593e-03,
          -6.00882433e-03, -6.02074759e-03, -2.63798926e-02,
          -1.79515406e-02, 6.70965714e-03, 7.51453498e-03,
          8.71444400e-03, 2.31208105e-04, -3.98472510e-03,
          -8.71714950e-03, -1.11052105e-02, -1.22168940e-02,
          -1.67928878e-02, -1.98808443e-02, -3.89139098e-03,
          -1.37419312e-03, 1.11837154e-02, -1.76233111e-03,
          8.05866159e-03, 2.83092703e-03, -8.24134517e-03,
          -1.69064209e-03, -1.50682207e-03, -7.07668811e-03,
          -2.23166943e-02, 3.05391452e-03, 8.53090454e-03,
          9.14911088e-03, 7.65754841e-03, 3.67988803e-04,
          -1.32872984e-02, -1.77804008e-03, 6.00637496e-03,
          1.26273092e-03, 3.32969520e-03, -1.39096649e-02,
          -4.47654584e-03, -8.48764088e-03, -2.45516957e-03,
          -1.45871164e-02, 5.59565425e-03, 3.46569740e-03,
          -5.73336007e-03, 1.35163525e-02, -4.19006683e-03,
          -6.47465279e-03, -2.06184550e-03, -2.73524784e-03,
          9.27322824e-03, 8.43575504e-03, 2.31487793e-03,
          -6.74997456e-04, -1.33650601e-02, 9.66386124e-03,
          9.68763884e-03, 4.41608485e-03, 1.29101845e-02,
          -3.62529908e-03, -1.53512591e-02, -4.19948297e-03,
          -1.37596801e-02, -1.35385515e-02, 1.59270708e-02,
          2.23916788e-02, 7.44891865e-03, 1.26017649e-02,
          -4.87545505e-03, 4.34867106e-03, 7.53546460e-03,
          -4.59508039e-04, -8.45209416e-03, -5.04162570e-04,
          -1.77036040e-03, 2.55706254e-02, 1.29152322e-02,
          -1.39803300e-02, -1.05828419e-02, 9.36087221e-03,
          4.48449515e-03, -1.87346358e-02, -5.43996808e-04,
          8.14949349e-03, -7.41960481e-03, -5.15762717e-03,
          -1.17048575e-02, -2.20620763e-02, -1.71206202e-02,
          -1.54289380e-02, -2.74991617e-03, 8.87526944e-03,
          1.19173890e-02, -1.18626915e-04, -4.43342933e-03,
          -1.21016502e-02, -1.69626269e-02, -4.60631261e-03,
          1.20493798e-02, 7.57005485e-03, 2.25828607e-02, 1.28135066e-02,
          1.84334174e-03, -5.80673944e-03, -1.32371942e-02,
          -1.66017041e-02, -7.22869532e-04, 2.61349278e-03,
          -1.45682497e-02, -8.99267942e-03, -1.17516415e-02,
          -1.84946395e-02, -1.38301533e-02, -1.16595598e-02,
          -1.39522217e-02, 2.29410711e-03, 1.43237924e-02,
          -7.88575853e-04, 1.56413261e-02, 1.19615591e-03,
          7.85331614e-03, -6.22414239e-03, -1.01511618e-02,
          -8.22653715e-03, -9.44339612e-04, -9.44076572e-03,
          -2.63970941e-02, -3.99061246e-03, 3.40030901e-03,
          -5.58663998e-03, -9.81076341e-03, 7.60665769e-03,
          9.69134737e-03, 1.02098677e-02, 9.20153596e-03,
          -2.02786960e-02, -2.17397641e-02, 1.08104683e-02,
          5.24180476e-03, 1.97917325e-04, -1.29153309e-02,
          -5.40272938e-03, 1.01570217e-02, 8.77997093e-03,
          -2.73814686e-02, -2.08694544e-02, -2.73974985e-03,
          -5.47783589e-03, -1.16670066e-02, 9.73758753e-03,
          1.12449592e-02, 1.56094078e-02, 1.79283638e-02,
          -1.01085529e-02, 9.72347683e-04, 1.90197174e-02,
          5.25544304e-03, -6.81432080e-04, 1.77704804e-02,
          2.03963611e-02, 2.08803564e-02, 3.18341255e-02,
          -3.66160870e-02, -5.52375615e-02, 3.89102963e-03,
          1.97651256e-02, 2.05100477e-02, 8.33586510e-03, 1.28234476e-02,
          3.98901105e-02, 2.83565205e-02, -3.67218889e-02,
          -3.98253538e-02, 5.00059640e-03, 1.50125585e-02,
          5.22278529e-03, 1.48444353e-02, 9.84016433e-03, 1.71587709e-02,
          2.73052026e-02, -2.81175356e-02, -9.25224368e-03,
          1.59609746e-02, 9.75288916e-03, 1.19400639e-02, 1.33579345e-02,
          2.32622027e-02, 3.62742729e-02, 3.30972224e-02,
          -2.91641969e-02, -8.38835388e-02, -1.40939793e-02,
          2.59479564e-02, 1.37965556e-03, 2.19755359e-02, 2.84762308e-02,
          3.27615626e-02, 9.63778235e-03, -4.09122407e-02,
          -2.81645861e-02, 1.08969416e-02, 3.34488750e-02,
          1.43743316e-02, 1.76886767e-02, 1.31970290e-02,
          -4.97606583e-03, -4.11566384e-02, -5.71821965e-02,
          -4.08168621e-02, -3.79427373e-02, 1.02323433e-02,
          1.10136867e-02, 1.78743843e-02, 3.02598886e-02, 3.64142433e-02,
          3.20307203e-02, -2.26951092e-02, -5.28021343e-02,
          1.21644437e-02, 3.85035686e-02, 9.49766953e-03, 9.58360545e-03,
          1.84069015e-02, 1.66974831e-02, 8.55940674e-03,
          -3.96252498e-02, -5.91789484e-02, -2.81115826e-02,
          5.91067271e-03, 1.10907024e-02, -7.22054043e-04,
          -1.67080630e-02, -3.15579809e-02, -3.88692170e-02,
          -1.58111453e-02, -4.14848924e-02, -1.80457421e-02,
          2.26342678e-02, 3.73198511e-03, -3.58372554e-03,
          -1.45320352e-02, -4.70667593e-02, -3.52052376e-02,
          -1.29540944e-02, -1.86455846e-02, -6.61582081e-03,
          1.61420852e-02, 1.20476400e-02, -5.46258176e-03,
          1.11775380e-03, -8.41600914e-03, 2.80516426e-04,
          -9.34433378e-03, -3.74326557e-02, -3.03698648e-02,
          -5.69623802e-03, -5.76777989e-03, -5.16132498e-03,
          -3.30907130e-03, -1.97119974e-02, -1.26816817e-02,
          -1.02452040e-02, -1.44761493e-02, -1.01413568e-02,
          -4.17252723e-03, -1.39348041e-02, 5.44243085e-06,
          1.59628447e-02, -2.71139964e-02, -3.22952792e-02,
          -3.36789005e-02, -2.52945460e-02, 1.28943578e-03,
          1.05090542e-02, 1.35080628e-02, 2.85733622e-02, 1.61197688e-02,
          -1.02151921e-02, -3.06962430e-02, -1.88444015e-02,
          -1.20433224e-02, -4.99536050e-03, 8.58776271e-03,
          2.50697471e-02, -2.11946741e-02, -7.04647682e-04,
          -2.50305049e-02, -5.62164048e-03, -2.97658741e-02,
          -1.29855117e-02, 2.82758428e-03, 7.48559134e-03,
          -2.61491630e-02, 1.83829181e-02, -1.51168108e-02,
          -1.93816479e-02, -9.99726262e-03, 1.87258050e-03,
          -4.52329218e-03, 3.94130778e-03, 1.76339373e-02,
          1.03166737e-02, 1.04379943e-02, 3.18432692e-03,
          -2.91647259e-02, -3.30030844e-02, -5.62634990e-02,
          -1.97757147e-02, -9.71640646e-03, 8.82278755e-03,
          1.85854733e-02, 2.29268800e-02, 2.68205851e-02,
          -8.65596347e-03, -1.43188667e-02, 1.82025949e-03,
          -4.22183517e-03, 2.95906793e-04, 1.85988396e-02,
          2.79595573e-02, 8.00502580e-03, -7.28024635e-03,
          -1.72805358e-02, -2.32493896e-02, -9.61738639e-03,
          1.00947758e-02, 1.06217731e-02, 1.93294547e-02, 1.49064232e-02,
          2.62722392e-02, 2.75656246e-02, 2.23026192e-03,
          -3.63934487e-02, 1.66727621e-02, 1.73969846e-02,
          1.70659907e-02, 2.34644786e-02, 3.21501568e-02, 1.74958911e-02,
          1.02639087e-02, 1.15316547e-02, -1.08612597e-03,
          -2.02695932e-02, 1.64469220e-02, 1.44752553e-02,
          1.78773589e-02, 2.57166792e-02, 2.02557910e-02,
          -4.93976008e-03, 9.99819487e-03, -4.00813073e-02,
          -1.17975483e-02, -5.26143471e-03, 1.75637137e-02,
          2.15447526e-02, 3.37683931e-02, 1.94669757e-02, 4.60345158e-03,
          -1.48071512e-03, -2.83825230e-02, 6.44304237e-05,
          2.92866491e-02, 2.60226876e-02, 2.09992677e-02, 2.47820579e-02,
          2.86073573e-02, 1.51088256e-02, -2.86748968e-02,
          -2.94190757e-02, -6.00592326e-03, 2.03522723e-02,
          2.94332560e-02, 1.81934908e-02, 3.13518196e-02, 9.03327018e-03,
          3.74026666e-03, 3.00561753e-03, -3.31015699e-02,
          -2.23198812e-02, -3.21358209e-03, 5.02626086e-03,
          8.90429225e-03, 1.54352635e-02, 4.53856913e-03, 2.09180750e-02,
          2.39582472e-02, -4.76295967e-03, -2.94471364e-02,
          -5.49534522e-03, 2.87615461e-03, 1.72395050e-03,
          -1.23045489e-03, 1.46761173e-02, 1.03826588e-02,
          -2.83299349e-02, -2.05574948e-02, -7.92042585e-04,
          4.07021726e-03, 1.07527180e-02, 1.02352304e-02, 1.96089093e-02,
          1.06173242e-02, 1.55861676e-02, -2.77061923e-03,
          5.93790831e-03, -2.28519831e-02, 1.92619395e-03,
          -3.24047590e-03, -1.96979847e-03, 3.47801414e-03,
          3.29886400e-03, 1.38504070e-03, 4.42780927e-03,
          -3.80122545e-03, -1.04093738e-02, -1.18651204e-02,
          -1.52019638e-04, -1.29535445e-03, -3.72048072e-03,
          -2.75283726e-03, -1.38823679e-02, 5.13331639e-03,
          -5.14405547e-03, -8.34232196e-04, -6.31366810e-03,
          -4.24424466e-03, -5.94750466e-03, -1.77862700e-02,
          5.44543145e-03, 2.72249291e-03, -1.44596526e-03,
          2.89979414e-03, -2.80671380e-02, 2.69064493e-03,
          -2.15831050e-03, -6.82453439e-03, 4.48896503e-03,
          -3.50210094e-03, -1.61648728e-02, 2.70205047e-02,
          7.62744853e-03, -5.95245045e-03, -2.59571895e-03,
          -9.06076655e-03, -1.32729765e-02, -9.90079250e-03,
          6.68638619e-03, -4.53865482e-03, -1.00299148e-02,
          1.37238437e-03, 6.58474572e-04, -1.08548487e-02,
          2.92163389e-03, -9.97368945e-04, -5.59428660e-03,
          1.64654404e-02, 2.83561796e-02, 3.62907350e-03,
          -1.34920673e-02, 1.41795799e-02, -1.41235227e-02,
          7.26916362e-03, -1.23036942e-02, -2.48742034e-03,
          -7.52072735e-03, -3.39292758e-03, 7.15846987e-03,
          1.25458492e-02, 8.00015870e-03, -1.68007482e-02,
          -2.01237872e-02, -1.39760952e-02, -1.48076778e-02,
          -1.66003266e-03, 1.32605778e-02, 1.10636083e-02,
          2.47189682e-02, 1.42220724e-02, -1.74277369e-02,
          -1.52966762e-02, -4.07248037e-03, -1.09327585e-02,
          6.23635389e-03, 1.93645936e-02, 1.21619059e-02,
          -8.24533694e-04, 1.29126282e-02, -1.56870000e-02,
          -2.71707564e-03, -1.32775083e-02, -1.42168300e-03,
          -1.32197188e-02, -5.19034034e-03, -5.14971092e-04,
          -4.35987953e-03, 5.92574244e-03, -8.80196225e-03,
          -6.60260953e-03, -1.54552367e-02, -1.90064367e-02,
          1.12003097e-02, 1.67360585e-02, 2.81970971e-03,
          -2.89922999e-03, 4.82119480e-03, -1.71315875e-02,
          -8.53191037e-03, 2.63663847e-03, -3.18931998e-03,
          8.36762041e-03, 3.07264528e-03, -4.15419089e-03,
          8.74734891e-04, 4.62975586e-03, 8.81610904e-03, 6.90894248e-03,
          7.72126112e-03, -1.81801934e-02, -5.69892023e-03,
          1.13327689e-02, 1.01169189e-02, 9.53030027e-03,
          -3.83685669e-03, -1.76073646e-03, -1.76393136e-03,
          -9.40543320e-03, -1.74855348e-02, -4.38788533e-03,
          4.39572567e-03, -9.63494298e-04, 3.23565933e-03,
          -7.37197290e-04, -1.15931663e-03, -1.66784432e-02,
          -1.42628150e-02, -1.57563966e-02, 1.20324967e-02,
          1.47568900e-02, -8.88789073e-03, 5.73788164e-03,
          -2.37816101e-04, 1.01388525e-02, 1.87868495e-02,
          2.89459247e-03, -1.91291831e-02, 5.16673026e-04,
          1.41001064e-02, 1.35134347e-02, 2.04868782e-02, 1.62208569e-03,
          -8.90798215e-03, -7.03412527e-03, -1.85545012e-02,
          -2.38385610e-02, -1.57692526e-02, 4.65046987e-03,
          8.05945415e-03, 1.11237187e-02, 4.36311774e-03,
          -3.36352992e-03, -1.85167103e-03, -6.12639217e-03,
          -6.75274665e-03, -7.41660269e-03, 3.62901646e-03,
          3.88139510e-03, 1.26022389e-02, 2.72738747e-03,
          -1.48977083e-03, -1.69264134e-02, -1.24158859e-02,
          -1.02588562e-02, -1.89717058e-02, -8.27471539e-03,
          -6.12915168e-03, 6.22899365e-03, -1.35853179e-02,
          1.78896764e-03, -9.99750220e-04, -6.64068060e-03,
          -1.11398874e-02, 4.79416270e-03, -3.13930726e-03,
          2.47539789e-03, -9.90356039e-03, -1.40307201e-02,
          -6.78664958e-03, -1.73597923e-03, -1.66372098e-02,
          -4.46052523e-03, -3.29255499e-03, -5.85644320e-03,
          2.36910000e-03, 1.39232250e-02, -1.57983080e-02,
          -7.66450446e-03, -3.93561134e-03, 1.97068509e-03,
          1.61355900e-04, -1.94265358e-02, -1.33988969e-02,
          9.30962712e-03, 2.58614812e-02, -1.63869988e-02,
          -1.20616574e-02, -5.20818168e-03, -1.21072987e-02,
          -9.21713188e-03, 3.75303905e-03, -9.27863177e-03,
          1.79444230e-03, -4.86672111e-03, -1.67228468e-02,
          -1.04913702e-02, 1.50329117e-02, 1.15106469e-02,
          1.02186678e-02, -1.78236980e-02, -3.10944449e-02,
          -1.12397699e-02, -1.57649000e-03, -3.86442617e-03,
          -1.15707386e-02, 1.50422249e-02, 2.20012404e-02,
          3.33310617e-03, -1.24357445e-02, -1.94695666e-02,
          1.07205547e-02, 1.16625279e-02, -6.49805972e-03,
          -8.69112462e-03, -7.79002020e-03, -1.91241596e-02,
          -8.81836377e-03, -5.08843595e-03, -8.25250242e-03,
          6.64701452e-03, 1.38379009e-02, -1.92185375e-03,
          7.68093998e-03, 1.67475324e-02, 6.28229277e-03,
          -1.61669124e-03, -6.27192203e-03, -2.14945599e-02,
          -4.85593081e-03, 2.86144437e-03, 3.62243372e-05,
          -8.63294862e-03, 1.43389869e-02, 2.27877907e-02,
          4.10491088e-03, 4.32104990e-03, -1.21487761e-02,
          -1.10510392e-02, -1.09322951e-03, -1.89487040e-02,
          -3.30584496e-03, 2.23774426e-02, 8.83964263e-03,
          4.36117826e-03, -1.87074859e-02, -1.09724663e-02,
          -8.08049692e-04, 5.15501574e-03, -9.74722579e-03,
          4.46917955e-03, 1.00027230e-02, -1.70994978e-02,
          -2.12159622e-02, 4.30662744e-03, 2.99295015e-03,
          -4.20439243e-03, 2.09965254e-03, -6.00708695e-03,
          -4.02949424e-03, 1.58820972e-02, 5.87576535e-03,
          -9.90277529e-03, -6.90214802e-03, -1.79180186e-02,
          -2.59015635e-02, -1.25889862e-02, -3.38005014e-02,
          -1.21417521e-02, 5.85573306e-03, -1.61092896e-02,
          -7.11324904e-03, -9.08168405e-03, -6.10307883e-03,
          3.18886642e-03, -1.08401319e-02, -1.62581429e-02,
          -1.40632465e-02, 4.39850846e-03, -4.88600461e-03,
          -2.39685774e-02, 1.08722830e-02, 1.02829030e-02,
          1.60625167e-02, 1.84462965e-02, -2.69089825e-02,
          -2.58900635e-02, 2.91674584e-02, 1.77138336e-02,
          -2.33152742e-03, -3.77863646e-03, 1.36637799e-02,
          2.85992064e-02, 2.86329146e-02, -3.51135582e-02,
          -7.45537281e-02, -3.78869101e-03, 2.36869976e-02,
          -1.61431953e-02, 5.11935353e-03, 1.24322844e-03,
          1.18618384e-02, 5.48697542e-03, -1.02788350e-02,
          -1.20319799e-02, 3.47531121e-03, -2.00195946e-02,
          -2.23813057e-02, 1.56964399e-02, 9.77001525e-03,
          1.68897696e-02, 1.42103005e-02, -3.05160079e-02,
          -5.78955747e-02, 1.76764000e-02, 4.80091758e-02,
          1.96495596e-02, 2.39104591e-02, 2.67214887e-02, 4.23451215e-02,
          4.10724320e-02, -1.98016390e-02, -7.77857974e-02,
          -5.88676566e-03, 1.96370985e-02, 2.33321209e-02,
          4.01141448e-03, 1.63703673e-02, 1.79289486e-02, 2.50351848e-03,
          -7.82289635e-03, -6.18935935e-02, -2.46202815e-02,
          -2.39730570e-02, -7.24456366e-03, 2.47840136e-02,
          1.95455141e-02, 2.61768829e-02, 2.60883793e-02,
          -2.53628716e-02, -7.40428045e-02, -2.41860356e-02,
          2.13452782e-02, 4.58474942e-02, 1.02538262e-02, 3.45105529e-02,
          3.23127769e-02, 3.43217514e-02, 3.96389291e-02,
          -1.92966294e-02, -4.12172228e-02, -2.59506498e-02,
          -1.31815495e-02, -1.90664642e-02, 3.09401861e-04,
          2.00173468e-03, 8.92611593e-03, 9.62495804e-03,
          -3.53530534e-02, -4.70189601e-02, -4.60369065e-02,
          -3.35943997e-02, -3.55968215e-02, -3.95309441e-02,
          -3.05042751e-02, 9.98230767e-04, -2.33883341e-03,
          6.14000624e-03, -2.10531596e-02, -1.62662100e-02,
          -4.32329848e-02, -8.50120559e-03, 1.82518922e-02,
          1.91305745e-02, 3.96061428e-02, 5.34482226e-02, 3.25527638e-02,
          -1.46611165e-02, -1.22791482e-02, -2.12623943e-02,
          -2.20548213e-02, -1.97307374e-02, -6.30871812e-03,
          2.92009488e-02, 3.52689102e-02, 3.05966381e-02,
          -1.35988719e-03, -3.48091614e-03, -2.23448593e-02,
          -6.06807098e-02, -3.64123136e-02, -4.45600860e-02,
          -1.67129387e-03, -5.48978411e-02, -3.68909998e-04,
          -2.52650585e-03, -4.27094894e-03, -6.24239929e-02,
          -1.63402949e-02, -2.09649894e-02, -3.16510685e-02,
          -5.40135661e-03, 4.27080179e-03, 1.05246175e-02,
          2.24384926e-02, 2.36886535e-02, -4.91067162e-03,
          -1.22182835e-02, -1.24805104e-02, -5.63523732e-03,
          3.59897800e-02, 2.76779067e-02, 2.25945860e-02, 2.36554127e-02,
          1.88408419e-02, 6.23696158e-03, -1.80744054e-03,
          -9.86861181e-04, -1.10507486e-02, 1.73273857e-03,
          2.76203901e-02, 2.55182944e-02, 3.58581990e-02, 3.46186459e-02,
          1.90070644e-02, -1.16117317e-02, -2.37077940e-02,
          -2.69887261e-02, -3.49878557e-02, 8.40653758e-03,
          9.98519361e-03, 1.22591751e-02, 1.81085132e-02, 5.02857985e-03,
          1.70006678e-02, 4.64738347e-03, -4.28543705e-03,
          -4.10284139e-02, -1.14427274e-03, 2.06146389e-02,
          2.42537372e-02, 2.58561466e-02, 2.57119499e-02, 1.10673457e-02,
          6.36857608e-03, -1.55809661e-02, -1.53988954e-02,
          1.87453087e-02, 2.63420511e-02, 2.87348144e-02, 3.01501025e-02,
          2.15543434e-02, 3.45059410e-02, -1.88175645e-02,
          -3.23478505e-02, -4.03482318e-02, 2.56507266e-02,
          5.56468181e-02, 2.70685442e-02, 2.77782176e-02, 2.82299221e-02,
          9.79747158e-03, 3.62227834e-03, -1.19653791e-02,
          -2.59259064e-02, 1.96774881e-02, 3.01974341e-02,
          2.15569269e-02, 1.74945295e-02, 1.78781487e-02, 1.52477510e-02,
          1.39480326e-02, -3.14766914e-02, -3.12242806e-02,
          1.00797806e-02, 3.42954956e-02, 2.34768800e-02, 1.30626922e-02,
          1.66564714e-02, 2.20359396e-02, 1.00912144e-02,
          -2.02988144e-02, -3.44720967e-02, 3.29930671e-02,
          3.64033133e-02, 2.11655404e-02, 1.53707825e-02, 2.14266889e-02,
          1.60221420e-02, 3.33127230e-02, -2.32262239e-02,
          -5.23210727e-02, -1.06572993e-02, 3.25642824e-02,
          9.51251853e-03, 6.83767302e-03, 2.14431882e-02, 9.19399690e-03,
          1.42040616e-02, -3.00130732e-02, -3.11214365e-02,
          -4.88141412e-03, 4.30185255e-03, -5.25469566e-03,
          -5.67950541e-04, 1.28369015e-02, 1.23416893e-02,
          1.59768108e-02, 7.52787571e-03, 8.44664779e-03, 1.08134057e-02,
          2.76223844e-04, -2.62450632e-02, -1.72312148e-02,
          -6.67074637e-04, 1.30538410e-02, 2.59031206e-02,
          -9.20482632e-03, -4.19615395e-02, -1.08890627e-02,
          1.80006202e-03, -6.18200656e-03, -8.20885133e-03,
          9.34331026e-03, 1.27350725e-02, 1.65683739e-02, 8.15015938e-03,
          3.97284189e-03, 1.02331955e-02, 1.95756275e-03,
          -5.41398674e-03, -1.09086437e-02, -4.75175492e-03,
          -2.42626294e-03, 7.17353029e-03, 4.17783530e-03,
          1.11935847e-03, -5.54143451e-03, -3.18811066e-03,
          -1.81269962e-02, -2.30257958e-02, -9.40393843e-03,
          -1.66621916e-02, -6.68284483e-03, 1.31326588e-02,
          8.04229546e-03, -2.10473407e-02, -6.65012980e-03,
          -6.08842913e-03, -1.23171983e-02, -1.18076112e-02,
          5.93082095e-03, -5.38378442e-03, 8.98824539e-03,
          1.04812374e-02, -5.17408317e-03, -1.23605244e-02,
          -1.23226829e-02, -1.14686042e-02, 3.90145869e-04,
          -5.04210242e-04, -5.58956107e-03, 9.19141807e-03,
          1.22829815e-02, 1.03538698e-02, -3.35450983e-03,
          -8.60569254e-03, -7.89323449e-03, -7.03802612e-03,
          -2.32573543e-02, -4.54118522e-03, 1.42787639e-02,
          1.59027744e-02, -1.14286260e-03, -8.26757587e-03,
          -1.76553316e-02, -1.90735552e-02, -2.98659317e-02,
          -1.07017625e-02, 1.61694363e-02, 1.17148692e-02,
          3.29551287e-02, 1.52758425e-02, -2.21881364e-02,
          -1.92951579e-02, -1.67074539e-02, -2.29378492e-02,
          -1.60159096e-02, -8.25650152e-03, 1.93201825e-02,
          2.72147227e-02, 3.75350262e-03, -1.07197033e-03,
          -2.23491155e-02, -1.75366923e-02, -3.08126025e-02,
          -2.60201260e-03, 1.57664809e-02, 1.67500563e-02,
          1.73221901e-02, 1.60465036e-02, -3.51123954e-03,
          -1.49009172e-02, -1.85219180e-02, -2.09603570e-02,
          2.45720125e-03, 7.01056421e-03, -9.16874222e-03,
          1.26623036e-03, -7.21842051e-03, -1.32138580e-02,
          -9.42687038e-03, 8.85582715e-03, -1.46659988e-03,
          -5.06447861e-03, -9.30296443e-03, -2.01521534e-02,
          -7.87855126e-03, 1.60535448e-04, 6.48811320e-03,
          4.32845764e-03, 9.30913538e-03, -1.16635375e-02,
          -2.09286506e-03, -8.82790599e-04, -2.33876170e-03,
          5.43817598e-03, -4.33376897e-03, 1.37675728e-03,
          -8.02432070e-04, 1.14845699e-02, -2.69293494e-04,
          -1.38759995e-02, -1.91756878e-02, -2.38211267e-02,
          3.27927235e-04, -3.36612621e-03, 1.78497937e-02,
          3.27336299e-03, 2.35675331e-02, 3.81818879e-03,
          -5.79941319e-03, -3.70020629e-04, -2.33378019e-02,
          -1.67651307e-02, 3.65136111e-05, 2.23581791e-02,
          2.18768157e-02, 1.19924452e-02, -5.85202919e-03,
          -1.22409323e-02, 2.90559512e-03, -2.08631381e-02,
          -2.13104207e-02, -2.15049963e-02, -1.41493566e-02,
          -3.87514080e-03, -1.33416820e-02, -3.96920741e-03,
          -1.26783662e-02, -2.20887107e-03, -1.32098133e-02,
          -1.00256586e-02, -4.27752407e-03, 2.33274512e-02,
          2.34689228e-02, 2.69011911e-02, 1.01162381e-02,
          -9.51532926e-03, -4.92376974e-03, -1.39949722e-02,
          -2.59032156e-02, -9.19934269e-03, 9.12432373e-03,
          9.88437328e-03, 1.44493021e-02, 4.76740720e-03,
          -8.59067962e-03, -4.26651491e-03, -3.12586548e-03,
          -1.74583588e-03, -2.05872245e-02, 8.93915165e-03,
          1.38018187e-02, -7.86671473e-04, -3.74832377e-03,
          -1.29777631e-02, -1.96550954e-02, -4.25553322e-03,
          -1.61637701e-02, -6.17277110e-03, -1.03146397e-03,
          2.64135730e-02, -6.96835946e-03, -3.59622133e-03,
          3.30472807e-03, 5.83127514e-03, 7.00960215e-03,
          -2.76336093e-02, -2.69790664e-02, 1.54783754e-02,
          2.04401501e-02, 1.30789645e-04, -7.74896052e-03,
          -2.38688709e-03, 4.64111188e-04, 1.56520680e-02,
          -5.93787059e-03, -1.72021287e-03, 2.38605700e-02,
          2.37263516e-02, -1.77779270e-03, -5.35512762e-03,
          -9.71850194e-03, -2.14625206e-02, -1.23674814e-02,
          -2.58958694e-02, 2.50936346e-03, 1.34502482e-02,
          2.88639236e-02, 8.22390616e-03, -5.55610703e-03,
          -4.27841349e-03, -2.38190349e-02, -2.23760139e-02,
          -2.68653538e-02, -9.69887152e-03, 1.32783158e-02,
          1.77104603e-02, 1.83779988e-02, 2.10845331e-03, 8.96505266e-03,
          -1.24594579e-02, -2.49756151e-03, -1.17733413e-02,
          -4.37626004e-04, 3.04916427e-02, 3.02806403e-02,
          1.53519167e-02, -2.27470282e-05, 2.28761490e-02,
          -3.87508515e-03, -5.80835203e-03, -2.27001049e-02,
          -1.93763655e-02, 3.07861972e-03, 1.34744747e-02,
          2.68042516e-02, 2.10883413e-02, 3.13702715e-03,
          -1.60205439e-02, -1.42446086e-02, -5.61414985e-03,
          -1.49969636e-02, 1.40515883e-02, 1.58600733e-02,
          1.53808733e-02, 4.31924034e-03, 2.55323551e-03,
          -1.50626739e-02, -2.17839098e-03, 7.11657200e-03,
          -3.85921225e-02, 1.36414608e-02, 1.41009977e-02,
          9.54056997e-03, 2.69586081e-03, 1.94307584e-02,
          -8.40897579e-03, -3.79004749e-03, -6.05124235e-03,
          -2.81639192e-02, -2.50174548e-03, 1.30612580e-02,
          1.54080661e-02, 2.20419429e-02, 1.05672395e-02,
          -1.24766398e-02, -1.40983576e-03, 9.08955187e-03,
          -2.03656405e-02, 1.05808666e-02, -4.31220134e-04,
          -9.24127176e-04, 3.27854534e-03, -8.18681438e-03,
          -1.51110850e-02, -1.14096589e-02, 1.42067671e-03,
          -2.73915138e-02, -6.07164402e-04, 2.02115090e-03,
          -1.68039296e-02, -1.68860536e-02, -1.40026957e-02,
          -1.15373852e-02, 1.03081502e-02, 9.85976215e-03,
          -8.73366557e-03, 4.92538966e-04, -5.27114095e-03,
          -4.66374168e-03, -1.87611915e-02, -3.51272267e-03,
          -2.19569784e-02, -4.31833696e-03, 5.41949179e-03,
          -1.97674446e-02, -1.13556720e-02, -2.19535306e-02,
          -2.66980454e-02, -1.93561390e-02, -1.30479848e-02,
          -9.75936931e-03, 1.98396053e-02, 1.24414461e-02,
          -9.70186107e-03, -7.91011471e-03, -1.42313670e-02,
          -1.20164715e-02, -1.08591020e-02, -3.17901862e-03,
          -7.10794330e-03, 1.01747923e-03, -8.01848061e-03,
          -1.08936457e-02, -2.21910477e-02, -1.60546973e-03,
          8.56011733e-03, -3.65308532e-03, 6.66405261e-03,
          3.27510992e-03, -6.67743850e-03, -7.06734043e-03,
          -3.18660364e-02, -5.01688160e-02, -1.04707235e-03,
          4.82381321e-02, 2.38185041e-02, -6.13968400e-03,
          -5.61150350e-03, 8.48675892e-03, -5.19200834e-03,
          -2.12583058e-02, -1.57999515e-03, -5.60582615e-03,
          2.14417353e-02, -7.80333206e-03, -9.16524976e-03,
          5.63766574e-03, -4.15635668e-03, -1.07289506e-02,
          -2.69587208e-02, -2.04975810e-02, -1.88441295e-02,
          1.90814640e-02, -3.80866951e-03, 1.45982141e-02,
          1.37947714e-02, 6.78586541e-03, 1.05988523e-02,
          -1.34459222e-02, -6.36876002e-02, -2.67292447e-02,
          3.23938057e-02, 3.07776351e-02, 2.82737799e-02, 2.68733092e-02,
          1.62466690e-02, 1.97807867e-02, 2.50554420e-02,
          -1.48337567e-02, -3.91721278e-02, -6.52808230e-03,
          2.05856785e-02, -1.17634563e-02, 1.18095726e-02,
          3.08774039e-03, 6.53102808e-03, -9.81354620e-03,
          -2.48423852e-02, -3.35537903e-02, -5.89365885e-03,
          3.86092369e-03, 1.36684570e-02, 1.53746074e-02, 8.97567999e-03,
          1.70079712e-02, -2.31995992e-03, -1.76042970e-02,
          -4.72411327e-02, -1.31737432e-02, -4.98705823e-03,
          2.34254617e-02, 2.59787068e-02, 1.49642453e-02, 2.34684180e-02,
          3.38733271e-02, 1.28697110e-02, -2.83272732e-02,
          -2.52561048e-02, 7.98131526e-03, 1.30802114e-02,
          3.69204697e-03, -6.52224477e-03, 1.07843038e-02,
          1.44655658e-02, 4.98677418e-03, -3.67011758e-03,
          -1.81630743e-03, 1.82347298e-02, 1.72907542e-02,
          1.14005487e-02, 9.50008724e-03, 1.60759706e-02,
          -2.30396669e-02, -1.95270311e-02, -5.42548522e-02,
          -5.19857742e-02, -2.77032778e-02, 1.27505912e-02,
          -2.13642418e-02, 4.46482981e-03, 3.63019499e-04,
          -3.16297151e-02, -2.30917949e-02, -2.30993461e-02,
          -4.35808524e-02, -5.08581102e-03, 1.01788845e-02,
          1.34429999e-03, 2.74426071e-03, 7.74952164e-03, 1.55526865e-02,
          3.98416771e-03, 7.90304318e-03, 7.50351651e-03, 2.12464258e-02,
          9.01538064e-04, 7.24198762e-03, -1.82380807e-02,
          -2.42619240e-03, 1.82940159e-02, 7.85755366e-03,
          1.21565610e-02, 5.43918740e-03, -7.54956435e-03,
          -1.39183728e-02, -1.19526880e-02, 1.12068448e-02,
          3.86612932e-03, -8.25031102e-03, -1.03726564e-02,
          -6.71453821e-03, -2.37514041e-02, 1.24005983e-02,
          -3.56435180e-02, -2.13473942e-02, -6.09796122e-02,
          -7.19259493e-03, 1.34822645e-03, 5.65756392e-03,
          -2.18645576e-03, -1.87354311e-02, -1.78910717e-02,
          1.17676368e-03, 1.48381339e-02, -2.61316095e-02,
          -8.36498197e-03, 9.04555153e-03, 6.95745507e-03,
          1.04378713e-02, 8.28774646e-03, -1.19657873e-03,
          1.20333256e-02, -2.07500290e-02, -1.81178320e-02,
          -2.74282731e-02, 1.76000055e-02, 1.56310331e-02,
          8.11664667e-03, 8.28385446e-03, 1.18072042e-02,
          -1.62427146e-02, -1.61226392e-02, -6.85483664e-02,
          2.34225043e-03, 2.24628355e-02, 1.17828641e-02, 9.90492292e-03,
          9.16121248e-03, -1.67022299e-04, -1.85707714e-02,
          -1.87305529e-02, -1.99248139e-02, -9.30491369e-03,
          2.50953194e-02, 2.36663334e-02, 2.29299553e-02, 1.41291413e-02,
          2.65300041e-03, -2.34530744e-04, -1.28195714e-02,
          -5.09040989e-03, -1.46229891e-02, 8.05676263e-03,
          6.14322349e-03, 3.90499644e-03, 1.94917840e-03,
          -3.28172068e-03, 7.54709356e-04, -3.57549381e-03,
          -1.03355190e-02, -2.52046641e-02, -5.20843221e-03,
          3.75745841e-03, -7.39661802e-04, -2.86106893e-04,
          3.75880132e-04, -2.18316186e-02, -1.51130846e-02,
          -9.35058855e-03, 4.11163876e-03, 7.27645773e-03,
          6.10344484e-03, 1.63497385e-02, 3.49610299e-03,
          -1.34431906e-02, -2.54004933e-02, -9.85491276e-03,
          5.68838604e-03, 6.78389752e-03, 9.30516049e-03, 7.14815501e-03,
          1.72113329e-02, 8.40501580e-03, -1.12195648e-02,
          -3.52037186e-03, -1.37636559e-02, -1.67104658e-02,
          -3.50080431e-02, -1.83603559e-02, 2.33547296e-03,
          8.22448637e-03, -1.71418104e-03, -8.09479738e-04,
          5.74902352e-03, -3.37407668e-03, 4.08134045e-04,
          6.98435819e-04, -3.79072852e-03, -3.22760781e-03,
          1.10358605e-02, 2.09033303e-03, 2.05177115e-03,
          -2.17715520e-02, -1.93005744e-02, -1.81591250e-02,
          -1.01765972e-02, 2.46172305e-03, 8.69380403e-03,
          2.27444079e-02, 1.05094537e-02, -2.68212217e-03,
          1.12403044e-02, 7.04786181e-03, 3.79088451e-03,
          -7.44777499e-04, -1.05919165e-03, 1.08182263e-02,
          -2.80683534e-03, -1.05053815e-03, 1.02185719e-02,
          1.10257491e-02, -1.19542815e-02, 6.60706731e-03,
          2.27679673e-04, 5.32228779e-03, -7.81614706e-03,
          -2.13297945e-03, -2.32708664e-03, 1.34967640e-02,
          1.69044677e-02, -6.35332288e-03, -3.43119772e-03,
          -4.61088400e-03, 8.85560922e-03, -1.26448600e-02,
          -1.41268282e-03, -6.50912290e-03, 1.26295639e-02,
          2.21101269e-02, 1.21568395e-02, 6.41979324e-03,
          -1.67737324e-02, 1.00302728e-04, -3.48878768e-03,
          -2.03670301e-02, -8.98823701e-03, 2.55467296e-02,
          1.35593386e-02, 1.19913453e-02, -1.21367245e-03,
          -2.78205727e-04, 4.31427965e-03, -1.25093531e-04,
          -1.17794964e-02, -3.63082904e-03, 3.07183340e-02,
          4.04596282e-03, -8.23945925e-03, -1.35975634e-03,
          7.65693234e-03, 4.77123354e-03, -7.54756760e-03,
          -1.24408910e-02, -9.59663466e-03, -6.93906751e-03,
          -7.36215711e-03, 3.99202388e-03, 4.05968260e-03,
          -1.14214327e-02, 1.78136304e-03, 8.43235478e-03,
          -6.39352947e-03, -1.29703172e-02, -1.19735468e-02,
          -4.93011810e-03, -1.54758515e-02, -2.67469920e-02,
          8.23667459e-03, -1.15906307e-02, -2.77220714e-03,
          -3.41520365e-03, -2.90143071e-04, 1.19503886e-02,
          -2.06978954e-02, -1.16322869e-02, -1.96689982e-02,
          -7.82842468e-03, -8.24282970e-03, 7.43041141e-03,
          1.79669000e-02, 8.93757492e-03, -8.51791631e-03,
          -4.23773285e-03, -2.57265707e-03, -1.48527688e-04,
          -1.23281702e-02, -3.67783156e-04, 1.74579695e-02,
          8.83805100e-03, -1.57404621e-03, -6.48763822e-03,
          -7.71437353e-03, -2.95868749e-03, -1.40949162e-02,
          5.24852052e-03, -3.45616811e-03, 1.85177691e-04,
          -6.83278032e-03, 4.34987945e-03, -9.15568729e-04,
          -1.50048966e-02, -1.05214128e-02, -1.51415141e-02,
          -8.57972633e-03, 7.69238034e-03, 1.43058347e-02,
          1.17139183e-02, -5.04810503e-03, -1.54070938e-02,
          -2.60369224e-03, 1.28472492e-03, -6.03529904e-03,
          1.68812321e-03, -3.15570831e-03, -3.86761152e-03,
          -1.75172556e-02, -1.89479366e-02, -8.32788739e-03,
          -5.05020900e-04, 1.22753568e-02, -1.22159105e-02,
          -2.70661642e-03, -5.17738750e-03, -3.85159068e-03,
          1.47125190e-02, 1.24715501e-02, 5.04335715e-03,
          -3.76852509e-03, -8.05724226e-03, -1.89765394e-02,
          -6.62002480e-03, -1.93678029e-03, 1.48685547e-04,
          1.88228302e-02, 8.03485885e-03, 1.31943240e-03,
          -4.29596548e-05, 1.33678680e-02, -3.28057329e-03,
          6.30649831e-03, 4.90606902e-03, -9.17789526e-03,
          -1.06441155e-02, -1.73320305e-02, -8.65792483e-03,
          -4.77692625e-03, -1.44747235e-02, -2.41943169e-02,
          -8.53605859e-04, -9.63345822e-03, -4.83664277e-04,
          9.74566583e-03, 5.39599406e-03, -9.19924583e-03 ]
   decision_functions:
      -
         sv_count: 1
         rho: -2.3801180087979290e+00
         alpha: [ 1. ]
         index: [ 0 ]
