%YAML:1.0
my_svm: !!opencv-ml-svm
   svm_type: C_SVC
   kernel: { type:LINEAR }
   C: 1.
   term_criteria: { epsilon:2.2204460492503131e-16, iterations:100 }
   var_all: 3780
   var_count: 3780
   class_count: 2
   class_labels: !!opencv-matrix
      rows: 1
      cols: 2
      dt: i
      data: [ -1, 1 ]
   sv_total: 1
   support_vectors:
      - [ -1.24423187e-02, 3.71592748e-03, 1.65811088e-02,
          -6.80694031e-03, -1.68752186e-02, -9.06430557e-03,
          2.07214523e-02, 1.25317508e-02, -4.12143255e-03,
          9.23710596e-03, 1.52275860e-02, -5.15094819e-03,
          -1.42191807e-02, -1.66594200e-02, -8.19028821e-03,
          1.48482360e-02, -1.88285951e-03, 9.29579604e-03,
          -1.89134013e-02, -1.47636095e-02, 1.17976218e-02,
          -1.30835688e-02, -1.05358250e-02, -5.52181713e-03,
          8.06779414e-03, 6.83214702e-03, -6.21472660e-04,
          -5.82354609e-04, -1.21149113e-02, -1.60025880e-02,
          -3.04229576e-02, -2.03179587e-02, -6.77464050e-05,
          1.04888212e-02, -7.28003564e-04, 9.95298941e-03,
          1.23493550e-02, 3.17875966e-02, 7.26873695e-04,
          -1.69944428e-02, -1.85208849e-03, 1.69251289e-03,
          -8.98999104e-04, -1.34809790e-02, 1.04407305e-02,
          1.36898877e-03, -1.72754414e-02, -9.57060698e-03,
          -3.08121624e-03, 3.86347319e-03, 1.36979800e-02,
          9.09643434e-03, -1.03281513e-02, 2.65235431e-04,
          -1.54371466e-02, -8.00208095e-03, -1.94852445e-02,
          -1.97655912e-02, -2.16572080e-02, -2.72946223e-03,
          -1.48829853e-03, -5.46849007e-03, 6.45787409e-03,
          -1.50312828e-02, -2.61525530e-02, -2.52631847e-02,
          -3.79998004e-03, -2.26051151e-03, 2.09696125e-03,
          5.56041440e-03, -1.22387195e-02, -4.35193442e-03,
          1.50038032e-02, -9.53428820e-03, -2.63536419e-03,
          -7.49787359e-05, -1.61869766e-03, -9.17406433e-05,
          -8.66683852e-03, -7.88066629e-03, 1.11732865e-03,
          -1.65232952e-04, 4.74950625e-03, 2.23366613e-03,
          -2.21170466e-02, -1.80796683e-02, -1.29314568e-02,
          -7.52690015e-03, -1.21623380e-02, -5.47224330e-03,
          -5.87831542e-04, -1.71269961e-02, -6.52281009e-03,
          -6.72548497e-03, 1.58576644e-03, -3.83964321e-03,
          -4.81021311e-03, -6.51127007e-03, -5.05999988e-03,
          3.75577318e-03, -2.08420344e-04, 1.13500340e-03,
          -2.15054099e-02, -2.21609920e-02, -2.37090718e-02,
          -5.19678509e-03, -2.99837394e-03, -4.36970172e-03,
          -2.19438300e-02, -9.23956186e-03, -6.46878127e-03,
          -1.39777912e-02, -2.15291250e-02, -3.00081214e-03,
          -9.17893369e-03, -1.19939530e-02, -1.15307849e-02,
          -9.01126582e-03, -4.07824107e-03, -1.37942350e-02,
          -2.74183806e-02, -9.25267674e-03, 1.00738406e-02,
          9.25400387e-03, 2.53913319e-03, -1.66610666e-02,
          -7.49596814e-03, -3.52281751e-03, 7.77419982e-03,
          1.22264856e-02, -1.57088861e-02, -1.95576027e-02,
          -6.00095047e-03, -6.12797157e-04, -8.61744490e-03,
          -5.83771290e-03, -1.74703589e-03, -1.61291882e-02,
          -1.55879790e-03, -3.57053848e-03, 9.73196421e-03,
          4.70091961e-03, -1.66685833e-03, -1.64251775e-02,
          -2.19510868e-02, 2.55653122e-03, -1.17554199e-02,
          -2.49871481e-02, 6.66982844e-04, 2.86567910e-03,
          1.52517408e-02, 3.27465881e-04, -2.16050670e-02,
          -6.38034288e-03, -1.33221587e-02, -1.74782462e-02,
          -2.85831448e-02, -1.55113582e-02, 3.26232496e-03,
          2.31654029e-02, 2.00910755e-02, -1.17710233e-02,
          -8.71707592e-03, 5.61952475e-04, -1.91848762e-02,
          -3.72185111e-02, 5.24481293e-03, 1.67923998e-02,
          1.90316029e-02, -4.46299191e-06, -1.73182227e-02,
          1.35082668e-02, -1.77835114e-03, -1.11192688e-02,
          -3.59722711e-02, -1.35436107e-03, 7.15266820e-03,
          2.41803080e-02, 1.90452244e-02, 8.34509730e-03,
          -1.15357218e-02, -1.98756494e-02, -3.18157785e-02,
          -1.81873981e-02, -1.92513987e-02, -6.13143668e-03,
          1.46297133e-02, 1.41089708e-02, -2.44009513e-02,
          -3.51350233e-02, -3.22883166e-02, -3.45080439e-03,
          1.68242282e-03, -2.61516497e-03, 6.14130590e-03,
          1.66952554e-02, 1.71463545e-02, -2.83902977e-02,
          5.36150392e-03, 3.05440812e-03, -2.04512905e-02,
          -1.60794146e-02, 1.83542655e-03, 5.55652892e-03,
          1.86518393e-02, 2.00633463e-02, 9.42680426e-03, 2.67019379e-03,
          3.42224389e-02, 3.72558311e-02, 1.88046950e-03, 1.53773166e-02,
          1.83913745e-02, 2.11044289e-02, 2.31840294e-02, 4.79167467e-03,
          -3.70987356e-02, -9.10836551e-03, 1.17370728e-02,
          5.74864866e-03, 8.09192285e-03, 1.49691189e-02, 1.99622959e-02,
          1.99056603e-02, -3.15850191e-02, -3.51198539e-02,
          -4.32637371e-02, -2.24813297e-02, 5.61628351e-03,
          3.58196371e-03, 2.15019416e-02, 1.02428207e-02,
          -4.67855576e-03, -3.54210101e-02, 7.89649598e-03,
          8.94168112e-03, -4.28240281e-03, 6.65845536e-03,
          1.75831895e-02, 2.33722907e-02, 2.59004571e-02, 1.51886242e-02,
          -2.43581497e-04, 3.59734520e-02, 1.79943889e-02,
          -3.77983064e-03, 1.05295302e-02, 2.70738974e-02,
          2.67110690e-02, 1.88226607e-02, -5.32507524e-03,
          3.04110348e-04, -2.79754288e-02, -2.02479046e-02,
          -1.59791876e-02, 8.14935379e-03, 1.22278146e-02,
          1.92601625e-02, 1.76896509e-02, -1.37627292e-02,
          -1.70350838e-02, -2.26726886e-02, -3.27547975e-02,
          1.17897429e-03, 1.18314298e-02, 1.68058369e-02, 2.03924812e-02,
          7.55950669e-03, -2.38683503e-02, 1.15276244e-03,
          1.70497335e-02, 5.99189516e-05, -9.72768664e-03,
          1.53121063e-02, 2.36111693e-02, 2.40470115e-02, 1.53403170e-02,
          -1.17353518e-02, -1.87205733e-03, -1.16355121e-02,
          -1.95164066e-02, 1.70198027e-02, 2.82893237e-02,
          2.37119962e-02, 1.86103042e-02, -1.96228307e-02,
          -1.40928077e-02, 1.17330533e-02, 1.05660595e-03,
          -1.84314791e-02, 4.93372278e-03, 9.45248641e-03,
          1.06668286e-02, 1.71617642e-02, 1.37399882e-03,
          -5.81970401e-02, -3.76308225e-02, 1.53582133e-02,
          9.61965788e-03, 7.84033164e-03, 6.22889772e-03, 2.10102834e-02,
          1.56280454e-02, -1.54633354e-02, -2.52658278e-02,
          -4.61955108e-02, 1.87660684e-04, -1.50134123e-03,
          1.19448956e-02, 1.54519361e-02, 1.33048277e-02, 1.73430759e-02,
          1.21561636e-03, -1.36607820e-02, 4.03547008e-03,
          2.11067926e-02, 1.53166978e-02, 1.40223093e-02, 1.49390642e-02,
          2.11259164e-02, 1.93464849e-02, -1.93941928e-02,
          -4.97125685e-02, -1.29257292e-02, 1.34678325e-02,
          1.20433355e-02, 1.15183583e-02, 3.12948879e-03, 9.80834011e-03,
          8.30051117e-03, -3.13557088e-02, -4.40005586e-02,
          -5.97381499e-03, 8.30024946e-03, 1.23998290e-02,
          7.02466210e-03, -4.42312704e-03, 8.62341933e-03,
          2.83477623e-02, -1.37792090e-02, -1.59270409e-02,
          -9.99992993e-03, 2.13766824e-02, 1.51410624e-02,
          1.30824884e-02, 1.34761743e-02, 1.56595577e-02, 1.80044286e-02,
          -4.39075828e-02, -4.44371663e-02, 1.96211077e-02,
          1.46368081e-02, 1.42525723e-02, 1.75153017e-02, 1.26460353e-02,
          5.73449768e-03, 1.51038887e-02, -1.54233174e-02,
          -5.47327586e-02, 1.02786534e-02, 8.96125493e-05,
          6.03322871e-03, -7.04882899e-03, -1.02671944e-02,
          -5.83019760e-03, 2.34127585e-02, 5.59900363e-04,
          -1.52433775e-02, -9.59270727e-03, 1.02036744e-02,
          2.82043163e-02, 7.56555237e-03, -1.04925325e-02,
          -7.98215065e-03, 1.47631560e-02, 1.24313775e-03,
          -4.31162771e-03, -1.02566965e-02, -2.60771415e-03,
          -9.40583937e-04, -6.50801696e-03, -1.03934892e-02,
          -2.12665703e-02, -9.15350206e-03, -1.31893950e-02,
          -4.31236699e-02, 3.41677712e-03, 2.96279462e-03,
          1.73100997e-02, -3.54481349e-03, -1.66797936e-02,
          -1.38646793e-02, 1.91804499e-03, -7.70888990e-03,
          -1.02669187e-02, 5.01304772e-03, 4.91186418e-03,
          3.77689786e-02, 1.53696965e-02, -1.21526904e-02,
          -1.96966957e-02, 1.82543485e-03, -2.68578180e-03,
          -2.15150714e-02, -2.29956508e-02, 1.83220897e-02,
          1.92632563e-02, -1.12188677e-03, -1.31134149e-02,
          -2.65766699e-02, -4.37534740e-03, -4.88513941e-03,
          -3.95222567e-03, 8.79566371e-03, 5.01347799e-03,
          3.20656039e-02, 1.89879034e-02, -1.43647213e-02,
          -3.89186665e-02, -1.17972111e-02, -4.93115792e-03,
          -1.59228463e-02, -7.00951600e-03, 9.78794787e-03,
          1.34950336e-02, 3.35988560e-04, -2.10444443e-02,
          -2.53950115e-02, 6.45124167e-03, 1.26898596e-02,
          2.82139368e-02, 2.27822382e-02, 1.64975617e-02,
          -5.64135471e-03, -2.12270161e-03, -1.97635056e-03,
          -1.30532244e-02, -1.66442730e-02, -2.59508751e-02,
          -6.92065945e-03, 1.71357151e-02, -2.09591025e-03,
          -1.15041425e-02, 4.65722429e-03, 1.90654807e-02,
          -4.39257314e-03, -1.74828768e-02, -1.53012294e-02,
          -2.57202133e-04, 7.24947313e-03, 1.71259604e-02,
          2.92269024e-03, 1.25379150e-03, -1.18515324e-02,
          -8.69925413e-03, -1.45673146e-02, -4.39902442e-03,
          2.11712122e-02, 2.59025451e-02, 1.45745864e-02,
          -1.59490537e-02, -1.81155708e-02, 8.49706866e-03,
          2.92852311e-03, -2.14235950e-02, -2.34173946e-02,
          9.14525997e-04, 1.30636916e-02, -3.26539064e-03,
          1.18522383e-02, 1.22159123e-02, 7.88108539e-03,
          -6.79071993e-03, -1.19745424e-02, -2.07515014e-03,
          8.62025749e-03, -9.91585292e-03, 5.77606168e-03,
          1.02668460e-02, -7.27945706e-03, -2.14397553e-02,
          -1.46033550e-02, -7.13024102e-03, -1.38972774e-02,
          -7.49193644e-03, -1.64391361e-02, 1.55074671e-02,
          -9.58221592e-03, -1.06340395e-02, 2.62968801e-03,
          -5.22855390e-03, -1.79607645e-02, -9.58563108e-03,
          2.65321024e-02, 6.94178743e-03, -3.45367100e-03,
          -1.01777110e-02, 8.69196560e-03, -1.33096455e-02,
          -2.56565120e-03, 4.97527141e-03, -4.84013092e-03,
          1.44634619e-02, -5.54846076e-04, 4.03640745e-03,
          1.24719099e-03, 1.79668970e-03, -2.88122687e-02,
          -1.42382225e-02, 9.54430288e-05, 9.01928451e-03,
          2.57196696e-03, -8.65179207e-03, 3.89551232e-03,
          -4.78881737e-03, -3.44805536e-03, -3.36774923e-02,
          -1.59191452e-02, 6.16298197e-03, 1.70248318e-02,
          1.64108183e-02, -6.63399883e-03, -1.14068901e-02,
          7.51475291e-03, 1.92278549e-02, -1.83536820e-02,
          -1.49334455e-02, 1.59233399e-02, 4.44784574e-03,
          2.06750743e-02, -3.80199542e-03, 2.20155949e-03,
          6.21209340e-03, 3.38539341e-03, -1.93705410e-02,
          -1.48574430e-02, -6.85370574e-03, 3.77496961e-03,
          2.90785506e-02, -4.61673969e-03, 1.98509384e-04,
          3.99395404e-03, 1.69671848e-02, 2.73031592e-02,
          -4.01235977e-03, -1.56319386e-03, -9.80725512e-03,
          -3.56669049e-03, 1.16142090e-02, -3.62863229e-03,
          -1.64814554e-02, -8.37831199e-03, -2.01983526e-02,
          -9.04268026e-03, 1.64255518e-02, 7.31467549e-03,
          9.20568313e-03, 6.08783774e-03, -5.53504564e-03,
          -2.89172633e-03, 6.39879704e-03, -3.11651063e-04,
          -1.57868117e-02, -1.12574548e-02, -8.80466308e-03,
          -9.35461465e-03, -5.49295044e-04, 1.08087379e-02,
          -1.35930842e-02, -1.11756916e-03, -1.72699895e-02,
          -1.40702464e-02, -1.09266834e-02, 1.70131978e-02,
          6.28265087e-03, 1.02277007e-02, -1.46904364e-02,
          -2.38248426e-02, -1.66452248e-02, -1.35301379e-02,
          -4.00469266e-03, 7.28620449e-03, 5.11167431e-03,
          3.07182432e-03, 4.55368171e-03, -7.44836172e-03,
          -1.42683554e-02, -9.09250043e-03, 1.36694051e-02,
          -8.94838595e-04, -4.31080675e-03, -2.09655557e-02,
          -1.72228087e-02, 6.06233440e-03, -2.97862850e-03,
          -2.88177989e-02, -9.83971637e-03, -1.08918147e-02,
          -7.96487846e-04, -2.63799727e-03, 2.25903513e-03,
          -2.40799607e-04, 6.21694187e-03, -3.80282803e-03,
          -2.11568992e-03, 4.65505663e-03, 1.87205784e-02,
          1.57419369e-02, -7.49161746e-03, -2.31955033e-02,
          -2.06947047e-02, -7.72639993e-04, -1.10901508e-03,
          -3.69776716e-03, 1.41243497e-03, -3.34389834e-03,
          -1.85568463e-02, -1.54615669e-02, -2.79983338e-02,
          -1.67505294e-02, 3.94406542e-03, 3.68549931e-03,
          -3.45072220e-03, 2.05933284e-02, -7.57660344e-03,
          -3.37710306e-02, -1.56656634e-02, -8.66556715e-04,
          4.51743091e-03, 4.46770852e-03, -5.71671641e-03,
          5.84805571e-03, 1.95083227e-02, 2.14874800e-02,
          -6.36719959e-03, -3.05017270e-02, -3.55933048e-02,
          -1.66633353e-02, -5.98102342e-03, -1.05321025e-02,
          -1.79757141e-02, 1.61579195e-02, 1.02475164e-02,
          -2.29247920e-02, -2.50695292e-02, -1.07711116e-02,
          5.57269063e-03, -4.07599797e-03, -7.36086397e-03,
          -1.62778143e-02, 2.06058566e-02, 3.14075779e-03,
          -3.22600119e-02, -2.77185868e-02, -2.50208797e-03,
          -5.39764110e-03, -3.26409680e-03, 6.51995977e-03,
          3.76177556e-03, -1.26818381e-02, -5.33505110e-03,
          -1.55328931e-02, 2.82689114e-03, -2.16698227e-03,
          -8.12768098e-03, -2.39439309e-03, -5.73172560e-03,
          -3.09052654e-02, 3.84133123e-03, -4.18940326e-03,
          -2.59966291e-02, -2.59870496e-02, -3.79559165e-03,
          -4.52620763e-04, 1.55599846e-03, 1.11310966e-02,
          2.73117876e-05, 6.95175040e-05, 5.72138513e-03,
          -1.74624268e-02, -1.07614258e-02, -4.97662928e-03,
          -1.07583134e-02, 8.88936874e-03, -7.24369381e-03,
          -3.09964363e-03, -5.32589629e-02, -4.04268317e-02,
          -1.23464419e-02, 1.02640297e-02, 1.29240630e-02,
          8.41754780e-04, -1.26607716e-02, 1.00577893e-02,
          2.42559072e-02, -1.49145797e-02, -4.51209322e-02,
          1.89494237e-03, 9.78140999e-03, 2.42395625e-02, 1.93300173e-02,
          4.69515100e-03, 2.14401763e-02, 2.48771254e-02, 4.44214744e-03,
          -1.89109594e-02, -3.18568982e-02, -1.21442843e-02,
          9.74385813e-03, 1.89196703e-03, 9.30982456e-03, 1.69685632e-02,
          3.05192806e-02, 2.29764283e-02, -6.81744143e-03,
          -6.74546370e-03, -5.93554508e-03, 1.28718298e-02,
          1.41401645e-02, 6.83787791e-03, -3.14762746e-03,
          2.46651378e-02, -3.37008014e-03, -4.12287265e-02,
          1.28579745e-02, 1.27541376e-02, 2.63807457e-02, 2.17708461e-02,
          -3.65770466e-05, -2.08750856e-03, 6.32190052e-03,
          -2.02912814e-03, -1.49057414e-02, 1.88786667e-02,
          2.04210728e-02, 2.85915956e-02, 2.67666727e-02, 1.27322292e-02,
          -4.74663248e-04, 1.57677964e-03, 4.74322168e-03,
          -1.87726330e-03, 2.11703591e-03, 6.69787405e-03,
          2.44775377e-02, 1.13925617e-02, -3.23725352e-03,
          -2.37932988e-02, -2.07902659e-02, -4.52443436e-02,
          -1.96561217e-02, -6.66243630e-03, 1.61988977e-02,
          4.27765213e-02, 1.17802555e-02, -1.35169104e-02,
          1.13267777e-02, -7.08796224e-03, -3.03188292e-03,
          1.09414225e-02, 3.40139344e-02, 2.30338369e-02, 2.92719826e-02,
          2.38378365e-02, 2.05055960e-02, 5.89227397e-03,
          -1.74776334e-02, -3.42665520e-03, 2.35757791e-02,
          4.46596555e-02, 2.89901495e-02, 2.65154857e-02,
          -7.31635932e-03, 2.27705715e-03, -3.92759629e-02,
          -3.40721793e-02, -4.35550101e-02, -1.41522232e-02,
          1.64360125e-02, 2.69291140e-02, 4.43077758e-02, 2.35368367e-02,
          -2.21482888e-02, -5.64818941e-02, -3.05277072e-02,
          -3.59453820e-02, 9.60115436e-03, 9.02968459e-03,
          1.20860301e-02, 1.24013200e-02, -1.99741311e-02,
          -6.54122084e-02, 1.95559557e-03, -1.27698658e-02,
          2.54358468e-03, 3.52393202e-02, 3.89301665e-02, 2.87812091e-02,
          2.61226553e-03, -1.03174374e-02, -1.42448512e-03,
          -6.47077058e-03, -8.58375710e-03, 2.74735931e-02,
          4.79005389e-02, 1.35477893e-02, 5.32014761e-03,
          -5.99948503e-02, -5.30255474e-02, -9.69686173e-03,
          -2.07982715e-02, -2.58903913e-02, -9.27192345e-03,
          2.77580991e-02, 2.32350212e-02, 3.25405747e-02,
          -5.01114829e-03, -1.38557078e-02, -2.81776320e-02,
          -8.03464931e-03, -7.22831488e-03, 2.89760698e-02,
          4.55171876e-02, 2.98097152e-02, -1.18939113e-02,
          -3.78934033e-02, -2.65157204e-02, 3.91057547e-04,
          9.78747755e-03, 2.21278123e-03, 1.83669161e-02, 2.46015359e-02,
          1.95126608e-02, 4.43873648e-03, -3.68386880e-02,
          -2.65797377e-02, -7.00353039e-03, 2.58481614e-02,
          1.32409809e-02, 1.56679880e-02, 2.03657057e-02, 3.16338278e-02,
          4.43912810e-03, -1.03047369e-02, -1.08500700e-02,
          8.97265319e-03, 1.52107989e-02, 9.46750026e-03, 2.24420205e-02,
          2.64762044e-02, 1.96247995e-02, -1.40378578e-02,
          -4.65142317e-02, -2.38256697e-02, -6.03352953e-03,
          9.28412005e-03, 7.35105388e-03, 7.88722932e-03,
          -1.03311017e-02, -5.14317118e-03, -2.71087512e-02,
          -2.72480398e-02, -7.86930881e-03, -1.16604404e-03,
          2.61579361e-02, 1.26464963e-02, 9.63076297e-03, 1.39709245e-02,
          -1.69621734e-03, -5.27012208e-03, -3.13722081e-02,
          -3.74848279e-03, 2.63182577e-02, 3.16074640e-02,
          1.34598110e-02, 1.40154520e-02, 1.15465457e-02,
          -2.66586035e-03, -3.82499285e-02, -2.88935546e-02,
          -2.27247719e-02, 1.94482747e-02, 5.53466752e-03,
          5.09029068e-03, 3.26426444e-03, -1.27262855e-02,
          -4.04839357e-03, -1.94031224e-02, 1.53959896e-02,
          9.97459888e-03, 1.41362641e-02, 1.29310433e-02, 6.95571722e-03,
          3.59588838e-03, -1.35925375e-02, -2.20848937e-02,
          -2.92834751e-02, -9.02148895e-03, 2.22395826e-02,
          9.04429611e-03, 8.76034983e-03, 4.32629092e-03, 8.59814417e-03,
          5.57740266e-03, -1.19212633e-02, -4.39174399e-02,
          -1.84788592e-02, 1.50642358e-02, 1.33545976e-02,
          3.48769571e-03, 1.49981712e-03, -1.74024003e-03,
          -1.75773783e-03, 8.72367341e-03, -1.51923215e-02,
          -1.02647264e-02, 1.84998214e-02, 1.29511636e-02,
          6.50672801e-03, 5.06185275e-03, 1.28813256e-02,
          -4.23701887e-04, -2.62250416e-02, -2.22994052e-02,
          -1.72304288e-02, 2.50630062e-02, -4.81949974e-04,
          4.68101352e-03, -2.20067310e-03, 8.06479435e-03,
          -1.40502760e-02, -1.51596395e-02, -2.48299707e-02,
          -1.27102165e-02, 2.50711888e-02, 8.37969221e-03,
          2.45935470e-03, 7.96060637e-03, 1.43127590e-02,
          -1.18295951e-02, -1.20504806e-02, -5.86721115e-03,
          -1.00775911e-02, 1.27277896e-02, 1.24792112e-02,
          3.53211910e-03, 4.96693840e-03, -4.50470112e-03,
          -1.62525270e-02, 1.42465001e-02, 1.00012971e-02,
          1.45346597e-02, 2.58011390e-02, 2.39886250e-02,
          -9.91569250e-04, -1.42995603e-04, -2.18490561e-04,
          -3.64367962e-02, -2.44982075e-02, -1.41253695e-02,
          -3.16769108e-02, 1.44116944e-02, 7.00392108e-03,
          -5.52706979e-03, -7.44217448e-03, -1.05772596e-02,
          -2.39029862e-02, -1.84933320e-02, 5.58478350e-04,
          -7.49182887e-03, 1.11618089e-02, 1.52923819e-02,
          9.29131079e-03, -5.28703816e-03, -3.87535966e-03,
          -6.94634998e-03, 1.38285924e-02, 6.23610616e-03,
          7.02566700e-03, 1.42429145e-02, 1.69297326e-02, 1.65139902e-02,
          -3.77450488e-03, -7.86058232e-03, 1.11329127e-02,
          1.10072726e-02, -5.39422035e-03, -1.56010734e-02,
          -1.15119973e-02, 1.13956500e-02, -2.02659541e-03,
          -1.25752855e-02, -2.31012721e-02, -4.98782517e-03,
          -1.38714369e-02, 1.72257088e-02, 6.20055432e-03,
          -2.69910018e-03, 6.19282573e-03, 7.12735439e-03,
          -5.41893253e-03, -9.80579760e-03, 7.41769327e-03,
          -5.04687312e-04, 1.67376250e-02, -3.34442640e-03,
          -1.46091850e-02, 3.17540113e-03, 1.95128135e-02,
          -6.48493180e-03, -7.70280743e-03, 3.57669196e-03,
          2.17932998e-03, -3.74475581e-04, -6.76424289e-03,
          2.41146199e-02, 1.56142516e-02, -2.02970370e-03,
          4.45919868e-04, 2.11765040e-02, -2.57363915e-03,
          -1.50901228e-02, 9.91930533e-03, 3.70969786e-03,
          3.42124626e-02, 1.91620458e-02, 2.24290625e-03, 7.82931515e-04,
          -6.84760557e-03, -2.00749934e-03, -1.35143343e-02,
          -2.59350124e-03, 4.95709199e-03, 9.34338477e-03,
          8.68631527e-03, 6.67292438e-03, 7.61179160e-03,
          -1.81607213e-02, -1.22778043e-02, -2.35089753e-02,
          -1.84129234e-02, -5.35614369e-03, 3.03091598e-03,
          1.50265200e-02, -1.03843131e-03, 2.60687843e-02,
          3.46366726e-02, -1.10853277e-02, -1.94387101e-02,
          2.70868046e-03, -1.34621449e-02, 1.97954774e-02,
          1.22106867e-02, 6.38192752e-03, 3.08255106e-02, 1.70562025e-02,
          -4.90580965e-03, -3.50324740e-03, -2.20266264e-02,
          -1.31438486e-02, 7.18354108e-03, 8.91539920e-03,
          2.20128428e-02, 1.85025744e-02, -7.83614349e-03,
          -1.64491106e-02, -3.12133078e-02, -1.09203467e-02,
          -1.56828146e-02, -8.65079649e-03, 1.44099593e-02,
          1.19112367e-02, 1.95561107e-02, 4.79414547e-03,
          -2.36630794e-02, 2.78634980e-04, -1.59274917e-02,
          -2.26442963e-02, -1.80406738e-02, 1.42188873e-02,
          -7.56931072e-03, -3.28823063e-03, -6.37265434e-03,
          -1.11905113e-02, -1.14632593e-02, -5.13044279e-03,
          1.60914008e-02, 7.42720207e-03, -6.59515672e-06,
          -1.32934505e-03, -8.00771080e-03, 9.10765119e-03,
          5.42011950e-03, -1.34355268e-02, -8.20379239e-03,
          1.42144170e-02, 2.48223922e-04, 1.10342177e-02,
          -2.60486500e-03, 2.72735651e-03, -1.00146662e-02,
          -1.69529635e-02, 1.71831660e-02, 3.24674038e-04,
          9.01122950e-03, -7.30729371e-04, 1.44020934e-03,
          -6.56453613e-03, 9.91627574e-04, 1.62740406e-02,
          4.97513637e-03, -1.03604549e-03, -4.55899537e-03,
          -9.92636383e-03, -1.12942560e-02, -1.01975293e-03,
          -8.73911567e-03, -2.10473835e-02, -9.41894483e-03,
          4.74926503e-03, -6.12716656e-03, -3.27621796e-03,
          -3.31958267e-03, -4.95288754e-03, 9.04056989e-03,
          4.98907035e-03, 9.72039253e-03, -3.94186383e-04,
          6.89260289e-03, -1.07833957e-02, -6.26454549e-03,
          -1.51184984e-02, -1.96539834e-02, -3.01832845e-03,
          -1.20583242e-02, 6.78896788e-04, 1.25512024e-02,
          4.32181312e-03, -3.82434460e-03, 8.17751233e-03,
          -1.24780340e-02, -9.98568907e-03, -8.79916269e-03,
          1.16664171e-02, 6.65338850e-03, -2.32269042e-04,
          -2.37618778e-02, -3.62647092e-03, -4.81561478e-03,
          -1.06342044e-03, -6.72308542e-03, -1.08575560e-02,
          -1.32265012e-03, 7.03226775e-03, 5.90737443e-04,
          -4.29383060e-03, -1.36519093e-02, -1.53597407e-02,
          -1.56654716e-02, -1.58128086e-02, -5.33957267e-03,
          -4.40947991e-03, -1.45051805e-02, -1.89408241e-03,
          7.83494301e-03, -2.49938061e-03, -1.15808798e-02,
          -1.29034510e-02, 1.99596019e-04, -6.22849795e-04,
          4.94266395e-03, 1.40622375e-03, -2.40559820e-02,
          -3.40926535e-02, -1.36775281e-02, -4.86085890e-03,
          2.83726584e-03, -1.43295934e-03, -1.48526710e-02,
          -2.14297604e-03, 2.79746740e-03, -8.55596457e-03,
          -1.45676909e-02, -4.41961782e-03, 5.62343514e-03,
          -9.45200864e-03, -1.06093928e-03, -1.49827395e-02,
          -3.52762709e-03, -3.28963436e-02, -7.76033290e-03,
          -3.55162495e-03, 4.22455836e-04, -1.71894915e-02,
          -1.14485519e-02, -3.81023623e-03, -4.92350617e-03,
          7.66445010e-04, 6.44663756e-04, 2.23693885e-02, 5.10809128e-04,
          -2.23405678e-02, -7.97083043e-03, -8.32431309e-04,
          -8.64909403e-03, 1.24499144e-03, -4.48525371e-03,
          -7.06229638e-03, 8.89058132e-03, -1.05616385e-02,
          -5.63654583e-03, 2.85403500e-03, -1.75206568e-02,
          -9.10771452e-03, -1.21162301e-02, -3.93052911e-03,
          7.29891006e-03, 2.32181363e-02, -9.11939610e-03,
          -1.52986581e-02, -1.72761828e-02, -1.37815466e-02,
          -1.24046523e-02, -8.12881254e-03, 8.13504867e-03,
          7.52223842e-03, 3.06865778e-02, -2.40086466e-02,
          -4.23091203e-02, -1.91644412e-02, 1.04786847e-02,
          3.52832954e-03, 3.84872593e-03, 7.79630942e-03, 1.10577336e-02,
          3.93135883e-02, -4.05670144e-03, -4.94577317e-03,
          -6.64037827e-04, 1.80514548e-02, 1.18276561e-02,
          3.41994269e-03, -2.91583571e-03, -3.97013937e-04,
          1.61902793e-02, -3.13830599e-02, -5.99836670e-02,
          -2.89143901e-02, 1.80100452e-03, 5.54363383e-03,
          7.18333339e-03, -9.34179407e-03, 2.82028544e-04,
          3.01667638e-02, 9.24932025e-03, -1.22421896e-02,
          -8.95158388e-03, 1.99070256e-02, 5.06832264e-03,
          -5.11646690e-03, 1.07428925e-02, 2.41462211e-03,
          5.52491983e-03, -1.55954100e-02, 2.14160811e-02,
          1.78582408e-02, 2.37057861e-02, 1.68058723e-02, 8.78279842e-03,
          3.72308772e-04, -1.82775818e-02, -4.74969894e-02,
          -2.23180931e-02, 3.34991850e-02, 3.18410024e-02,
          3.26345302e-02, 1.49327982e-02, 2.69193249e-03, 9.80259385e-03,
          1.64276715e-02, -1.08608054e-02, -5.26737683e-02,
          -2.52190679e-02, 6.17186120e-03, 1.89413577e-02,
          7.30496692e-03, 4.96378355e-03, -1.78418588e-02,
          -2.99563687e-02, -7.71080181e-02, -6.49342984e-02,
          -1.85509361e-02, 4.83172201e-03, -1.60832629e-02,
          -3.64459492e-03, -8.23323335e-03, -1.55174006e-02,
          -9.31954384e-03, -2.69693360e-02, -6.51168963e-03,
          4.00783755e-02, 2.52446793e-02, 2.55063809e-02, 6.42281631e-03,
          -1.55321462e-02, -2.56305039e-02, -3.74770910e-03,
          -2.54391301e-02, -5.74001623e-03, 1.77940242e-02,
          8.14722758e-03, 1.10993197e-03, -1.08610382e-02,
          -2.71621160e-02, -2.53081545e-02, -3.35355736e-02,
          -5.49524203e-02, -4.99345064e-02, -6.65551145e-03,
          -5.40567935e-03, -3.93589586e-03, 3.21035134e-03,
          -1.03306863e-02, -1.85812172e-02, -2.74647903e-02,
          -3.12670246e-02, -4.17337939e-02, 6.33297162e-03,
          -1.95148960e-02, -1.52586326e-02, -1.82424337e-02,
          -1.92751437e-02, -1.13724535e-02, -1.09115969e-02,
          -6.72072696e-04, 1.61596686e-02, -2.18251850e-02,
          1.66345458e-03, -1.75018776e-02, -1.89805031e-02,
          -1.77326649e-02, 6.56793173e-03, -1.57591107e-03,
          3.49684246e-02, 4.00041975e-02, 7.35616684e-03,
          -2.75326855e-02, -3.57420631e-02, -1.55269494e-02,
          1.79492217e-02, -2.26620510e-02, -2.87372172e-02,
          -1.53030995e-02, -2.24567819e-02, -1.33127607e-02,
          -8.70316662e-03, -8.33074562e-03, -2.86598094e-02,
          -1.69052016e-02, -1.88680924e-03, -1.66536812e-02,
          1.36130890e-02, 1.31856054e-02, -1.01990765e-02,
          -3.39053981e-02, -2.40913164e-02, -2.64584031e-02,
          3.55607690e-03, 1.85968131e-02, 1.94167718e-02, 3.25258635e-02,
          3.02371252e-02, -4.68499027e-03, -1.31172175e-02,
          -2.70262584e-02, -5.97338006e-03, 1.51877832e-02,
          1.60765518e-02, 2.15106849e-02, 2.25667264e-02,
          -6.55348459e-03, -2.58087236e-02, -3.79638001e-02,
          -9.08167660e-03, 7.32333912e-03, 4.29417333e-03,
          1.66934524e-02, 6.75925892e-03, 1.72609016e-02, 5.80352207e-04,
          -2.56367177e-02, -4.72442247e-02, -4.82272096e-02,
          -3.47942896e-02, 1.44231757e-02, 3.28084826e-02,
          3.27977277e-02, 2.66715940e-02, 1.80578865e-02, 3.06464974e-02,
          -2.05910485e-03, -8.54766369e-03, 1.11938547e-02,
          2.61303503e-02, 1.20465946e-03, 4.84051369e-03, 6.79391995e-03,
          -2.10783649e-02, -9.33736842e-03, -1.22040026e-02,
          8.91963765e-03, 1.18929893e-02, 1.06852921e-02, 8.12763907e-03,
          5.86411823e-03, 1.16614029e-02, -1.09311771e-02,
          -2.90342793e-02, -2.46845279e-02, 2.80404314e-02,
          2.57986933e-02, 1.93620417e-02, 4.47732909e-03, 9.41506401e-03,
          5.13618393e-03, 3.29977949e-03, -2.71604583e-03,
          -9.15125292e-03, 3.60152265e-03, 1.00490507e-02,
          1.00297639e-02, 8.57063569e-03, 1.07805450e-02, 2.95311920e-02,
          2.33178064e-02, 9.50029306e-03, -9.31709292e-05,
          2.07782555e-02, 2.50842758e-02, 1.75025314e-02, 1.12300431e-02,
          9.05963220e-03, 1.40422694e-02, -2.34798630e-04,
          -3.30660753e-02, -3.52700055e-02, 1.78922471e-02,
          2.59952024e-02, 1.41778076e-02, 1.24120256e-02, 6.28603250e-03,
          1.07385637e-02, -1.24914134e-02, -2.28222273e-02,
          -2.62732208e-02, 1.40697313e-02, 2.79465690e-02,
          1.92075558e-02, 1.62229501e-02, 1.12167513e-02, 1.39406007e-02,
          -6.95333211e-03, -1.53951738e-02, -1.31588820e-02,
          1.96492672e-02, 2.09639631e-02, 1.46843074e-02, 1.44378813e-02,
          4.14187368e-03, 6.43191999e-03, -4.76272451e-03,
          -1.23415207e-02, 7.22848950e-03, 8.93684383e-03,
          1.03573781e-02, 1.57680158e-02, 8.88717826e-03, 6.86393958e-03,
          2.24724691e-03, -2.83265058e-02, -2.82809790e-02,
          -2.23113988e-02, -1.15192914e-02, 1.73042975e-02,
          2.18925904e-02, -3.56757757e-03, -3.23358574e-03,
          -3.09663563e-04, -1.36617094e-03, -1.70837343e-02,
          -2.35220068e-03, -1.08621614e-02, 9.18679219e-03,
          2.05299985e-02, 3.41132889e-03, -4.42122947e-03,
          -1.21707423e-02, -1.38764009e-02, -5.52702695e-03,
          -1.14255724e-02, 4.70275758e-03, -5.00346534e-03,
          2.06456594e-02, -5.32637490e-03, 8.34488031e-03,
          8.96527432e-03, 2.76951399e-03, -7.83925876e-03,
          -2.92937923e-02, -1.94031035e-03, 1.22034857e-02,
          2.45316271e-02, -9.87990573e-03, -1.10610127e-02,
          -3.42318579e-03, 4.40485915e-03, -1.64921451e-02,
          1.98971052e-02, 1.86072278e-03, -2.64282571e-03,
          -5.21449093e-03, -1.31337473e-03, 1.39415497e-04,
          -1.23316916e-02, 1.70920836e-03, 1.73715781e-02,
          2.11270973e-02, 1.30720399e-02, 1.04762539e-02,
          -7.27922423e-03, -1.74667202e-02, 1.36047578e-03,
          4.01071692e-03, 8.13230779e-03, -8.94558430e-03,
          -3.42614739e-03, -1.03667974e-02, -3.75590636e-03,
          -6.32992433e-03, -2.09962856e-02, -2.19834466e-02,
          -1.73573904e-02, -1.40871136e-02, 3.84442462e-03,
          1.87252760e-02, -2.39868369e-03, 8.87499470e-03,
          -2.30632480e-02, 1.05056874e-02, 1.07853282e-02,
          -1.43160680e-02, -6.09071925e-03, -4.60906420e-03,
          5.41248359e-03, 5.79202781e-03, 1.18050994e-02, 9.12217423e-03,
          2.13761646e-02, 2.00886596e-02, -2.37233844e-02,
          -1.50095345e-02, -1.64073016e-02, -2.10579857e-02,
          -1.03901159e-02, -2.11658459e-02, 9.52931866e-03,
          9.73429810e-03, -9.89372469e-03, -1.32259345e-02,
          -4.11159731e-03, -5.33313071e-03, 1.65937580e-02,
          1.46173937e-02, 2.10856367e-02, 4.56900010e-03, 2.32179631e-02,
          2.22834982e-02, 8.41456652e-03, 5.91930235e-04,
          -2.36016791e-02, -1.38422968e-02, -9.15041286e-03,
          -4.60922159e-03, 1.18285455e-02, 1.90234147e-02,
          1.88859459e-02, -3.29502090e-03, 1.14242116e-03,
          -1.35429343e-02, -1.06753670e-02, -1.29272062e-02,
          -2.45874897e-02, 8.11882690e-03, 1.04166633e-02,
          6.56584045e-03, 1.39413988e-02, -1.36432785e-03,
          -1.30826039e-02, -6.86009461e-03, -5.72352903e-03,
          -1.69949010e-02, 4.27705515e-03, 1.06592579e-02,
          1.71115436e-02, 2.27469839e-02, 6.51005562e-03,
          -7.75336288e-03, -1.42093835e-04, 2.11411789e-05,
          -1.59088224e-02, -3.40629183e-03, -2.07960489e-03,
          7.38568371e-04, 3.08623724e-02, 1.21142939e-02, 8.99874663e-04,
          -4.99214511e-03, 3.11878347e-03, -1.38846375e-02,
          -1.82645768e-02, -7.07872817e-03, -6.41163299e-03,
          -1.40399821e-02, 2.17765663e-03, 8.41686781e-03,
          2.01513665e-03, -2.00640410e-03, -1.21862805e-02,
          -1.00069810e-02, -4.41002147e-03, 4.06371616e-03,
          8.39400198e-03, -3.04687797e-04, -4.74252459e-03,
          -6.71568653e-03, -3.12142503e-02, -2.15775091e-02,
          -2.56479415e-03, -1.02074435e-02, -2.77803671e-02,
          -2.78402623e-02, 6.08348055e-03, 8.22507031e-03,
          4.28885920e-03, 5.30847674e-03, -1.88008614e-03,
          -1.29681434e-02, -7.85444584e-03, -1.30348653e-03,
          -4.72976593e-04, 1.43222569e-05, -5.88697985e-05,
          4.58866917e-03, -5.92043530e-03, 3.78059718e-04,
          5.64371003e-03, -5.71972411e-03, 8.48541036e-03,
          1.46326218e-02, 7.84810260e-03, -5.19696018e-03,
          5.03133982e-03, -1.22485412e-02, -1.58177316e-02,
          -1.45581802e-02, -9.44731012e-03, -3.71436379e-03,
          -1.15087060e-02, -2.45641544e-02, -1.36970440e-02,
          -4.78050148e-04, 1.58388689e-02, -6.62952289e-03,
          -1.87675934e-02, -2.81871995e-03, 9.59688239e-03,
          7.15614529e-03, 1.55786844e-02, -1.90003887e-02,
          5.71182976e-03, 5.77203464e-03, -4.28289082e-03,
          -6.52244547e-03, -1.03681991e-02, -8.52899067e-03,
          -6.96402742e-03, -9.84941516e-03, -7.63974106e-03,
          -1.08930753e-05, 2.02509630e-02, 1.24411040e-03,
          -4.90657799e-03, -4.21267375e-03, -7.71170901e-03,
          -1.16003780e-02, -1.97302271e-02, -1.11977896e-02,
          -6.27015997e-03, 1.03481887e-02, -2.97479797e-03,
          -2.07756590e-02, -9.28277522e-03, -1.18891185e-03,
          5.24788070e-03, -1.67306308e-02, -1.76895149e-02,
          1.76706128e-02, 8.35120212e-03, 4.14782995e-03,
          -1.64858811e-02, -1.86304022e-02, -1.75142568e-02,
          -1.97507311e-02, -2.07474586e-02, 8.23070412e-04,
          -6.95932610e-03, 1.63107775e-02, 4.32332838e-03,
          -1.65399779e-02, -1.98359005e-02, -1.00636138e-02,
          2.11375766e-04, 2.33475724e-03, -2.07972410e-03,
          1.89884007e-02, 1.43344989e-02, -1.80521602e-04,
          -1.75718982e-02, -5.61202830e-03, 9.84329614e-04,
          3.93414544e-03, -7.30614318e-03, -2.99929455e-02,
          6.30230736e-03, -6.75098551e-03, -9.01907973e-04,
          -4.37590200e-03, -1.02605438e-03, 4.23179334e-03,
          9.16277990e-03, -1.43002318e-02, -2.26260573e-02,
          -3.31553742e-02, -1.31757027e-02, -2.41854647e-03,
          7.45266443e-05, -1.02285445e-02, -7.75245298e-03,
          8.43586493e-03, 6.65241433e-03, -4.14398909e-02,
          2.95083113e-02, 7.88039528e-03, 4.34725638e-03,
          -5.94566017e-03, 2.97295465e-03, -7.11874804e-04,
          -3.84807296e-04, 1.86388921e-02, 1.52391579e-03,
          -1.70562640e-02, 1.83212776e-02, 1.15745999e-02,
          3.13965813e-03, 3.95577587e-03, 7.91896414e-03, 1.27238957e-02,
          -9.30413604e-03, -3.37160155e-02, -4.34192978e-02,
          2.59767682e-03, 5.71214268e-03, 1.06149120e-02,
          -3.61992838e-03, 2.15480104e-02, 3.69975455e-02,
          1.74405649e-02, -4.61934581e-02, -1.56882394e-03,
          1.19546680e-02, 9.59986914e-03, 1.23149937e-03, 1.32438736e-02,
          1.39127513e-02, 1.30116264e-03, 5.88763086e-03,
          -2.41060555e-02, -5.99915758e-02, 6.30744221e-03,
          9.96845402e-03, 1.77059770e-02, 1.39700035e-02, 2.73075588e-02,
          5.33044338e-02, 4.01795022e-02, -2.49587800e-02,
          -2.14116722e-02, 6.23949012e-03, 1.79601703e-02,
          1.71698425e-02, 1.59691758e-02, 3.28302830e-02, 2.83000153e-02,
          -9.56712663e-03, -3.65947150e-02, 2.40020966e-03,
          1.53331226e-02, 1.30513571e-02, 3.89561756e-03, 1.74719386e-03,
          -8.97175167e-03, -2.97173075e-02, -4.45521362e-02,
          -1.33486232e-02, -8.49540159e-03, -1.57193970e-02,
          8.52904283e-03, 7.63547653e-03, 2.29909178e-02, 3.85776758e-02,
          4.39546481e-02, 4.54365695e-03, -5.26568480e-02,
          -2.05700211e-02, 5.46871638e-03, 2.27356385e-02,
          1.60287116e-02, 2.12740824e-02, 5.42687858e-03,
          -5.18725440e-03, -3.98742929e-02, -4.48937640e-02,
          -2.68206485e-02, -2.35992204e-02, 2.15074513e-02,
          2.28563994e-02, -1.03762411e-02, -2.50775982e-02,
          -2.23524850e-02, -2.83888243e-02, -1.91164156e-03,
          -1.20204976e-02, -1.47319557e-02, 1.21743185e-02,
          7.42100691e-03, -1.55548183e-02, -2.54980493e-02,
          -2.06506159e-02, -2.40361536e-04, 1.05793299e-02,
          -3.39651778e-02, -1.09762251e-02, -1.96610345e-03,
          -3.48170218e-03, -3.16972379e-03, -3.60081419e-02,
          -4.44114730e-02, -3.74229439e-02, -1.67533737e-02,
          -2.32044235e-02, -4.93790628e-03, 3.65552753e-02,
          2.29904912e-02, -1.51359625e-02, -1.95677113e-02,
          -4.75845747e-02, -3.71878371e-02, -2.16276422e-02,
          -4.32373323e-02, -8.31616670e-03, 1.36958156e-02,
          6.73023378e-03, -6.74095936e-03, -1.28176082e-02,
          -7.71496585e-03, 2.88123707e-03, 1.37643376e-02,
          -1.66205559e-02, -2.89970427e-03, -9.41386353e-03,
          -2.65280507e-03, 1.38380902e-03, -4.94964793e-03,
          -1.39112608e-03, 1.52043523e-02, -3.23284678e-02,
          -2.74850689e-02, -9.72886477e-03, -1.32639436e-02,
          1.13352970e-03, 9.20099579e-03, 4.99419821e-03,
          -2.47126389e-02, -2.29929779e-02, -5.06780334e-02,
          -3.16048078e-02, 2.95982999e-03, 1.16707040e-02,
          2.68077161e-02, 2.54144929e-02, 9.28109977e-03,
          -3.66318563e-04, 3.64689832e-03, -1.27886571e-02,
          -1.05916681e-02, 7.70937884e-03, 1.98547561e-02,
          3.06275003e-02, 9.82778892e-03, 1.17920656e-02, 1.63357761e-02,
          2.87574250e-03, -3.38142402e-02, -3.39276828e-02,
          -2.24843137e-02, -6.35106675e-03, 1.13242762e-02,
          1.71770360e-02, 2.81902291e-02, -2.84424447e-03,
          2.35009659e-03, -1.37036004e-05, 1.41249551e-02,
          5.26356604e-03, 1.68595389e-02, 1.26795396e-02,
          -6.32821349e-04, 5.60422428e-03, 3.42079555e-03,
          -1.06300060e-02, -5.78561015e-02, -4.29594591e-02,
          -1.53190056e-02, 1.10280970e-02, 2.16102228e-02,
          2.89195776e-02, 4.00161035e-02, 1.82488794e-03, 3.69285233e-04,
          6.70347782e-03, 6.19693054e-03, 1.11978156e-02, 3.05395778e-02,
          3.21598649e-02, 5.86792314e-03, 1.01737184e-02,
          -2.66316906e-03, 1.65764466e-02, -3.83885973e-03,
          -1.12139795e-03, 1.31062716e-02, 1.49278268e-02,
          9.55563318e-03, 3.27916234e-03, -2.44813069e-04,
          2.24243850e-03, 2.98321303e-02, 1.46728382e-02,
          -8.07702634e-03, 2.36018263e-02, 1.69311315e-02,
          7.10911723e-03, 4.16722335e-03, -2.05146940e-03,
          -4.44216700e-03, 2.04968359e-03, 8.98994738e-04,
          7.31348060e-03, 1.62509941e-02, 2.13125739e-02, 1.82347056e-02,
          5.98916318e-04, -1.87843572e-02, 1.62430108e-02,
          7.34557863e-03, 1.88163072e-02, -2.30930503e-02,
          2.24101711e-02, 2.82460470e-02, 2.55230870e-02, 1.05088223e-02,
          6.95865927e-03, 1.24709110e-03, 1.59019686e-03,
          -1.82223134e-02, -1.63761701e-03, 1.94651838e-02,
          1.47122610e-02, 7.40881171e-03, 1.18847648e-02, 3.35825537e-03,
          5.12032909e-03, 1.92792565e-02, -8.75042379e-03,
          -4.10722569e-03, 6.41970662e-03, 4.81269509e-03,
          5.85617265e-03, 8.90467688e-03, 8.78773537e-03, 2.78097694e-04,
          3.60278203e-03, -1.48439882e-02, -2.09779874e-03,
          9.73768439e-03, 1.30179422e-02, 1.03207622e-02, 5.94145106e-03,
          1.81934703e-02, 1.82716977e-02, -1.10744324e-03,
          -1.26156118e-02, 1.87896304e-02, 1.79688521e-02,
          -2.57297279e-03, -6.44458830e-03, 3.93928541e-03,
          -3.19077726e-03, -1.33201825e-02, 1.55991045e-04,
          -8.61071981e-03, -2.36529652e-02, 8.77531990e-03,
          -4.00330173e-03, 5.59972553e-03, 8.30396265e-03,
          1.98120438e-02, 1.01369722e-02, 7.52044283e-03,
          -2.58629769e-03, -2.34440938e-02, 6.27908483e-03,
          1.60531588e-02, 2.02814396e-02, 1.19012652e-03, 9.98876756e-04,
          -3.69026558e-03, 1.56399107e-03, 3.83276190e-03,
          -1.15716662e-02, 7.64299650e-03, -6.79504732e-03,
          -5.14236744e-03, 9.81986057e-03, 6.40348205e-03,
          -4.02762438e-04, -1.12158095e-03, -3.31723946e-03,
          -2.63708588e-02, 1.02558862e-02, 7.13116350e-03,
          4.74130874e-03, -1.54308218e-05, 1.44438697e-02,
          1.07632205e-03, -1.28268674e-02, -1.63174812e-02,
          -2.12370418e-02, -4.96281451e-03, 3.88516323e-03,
          1.00360457e-02, -1.89883809e-03, -5.64490724e-03,
          -3.82815488e-03, -1.92122895e-03, 7.78465904e-03,
          1.17897801e-02, -3.27770867e-05, 4.74300794e-03,
          -1.12895505e-04, 8.21380876e-03, 7.72660784e-03,
          -1.43414540e-02, -1.31465308e-02, -1.97226107e-02,
          -3.66835035e-02, 4.82014101e-03, -1.76561379e-03,
          3.06335627e-03, 2.09639687e-02, 2.63764206e-02,
          -7.74352928e-04, -1.99711155e-02, 6.97505102e-03,
          -1.59276985e-02, 1.20510962e-02, -1.54957604e-02,
          1.93615502e-03, -4.84437711e-04, -2.18046289e-02,
          -5.14062634e-03, 9.88657959e-03, -5.21976268e-03,
          1.20445509e-02, 9.05641448e-03, 1.47056179e-02, 1.50003261e-03,
          -1.32977758e-02, -9.27785039e-03, 1.27258729e-02,
          -1.02423765e-02, -2.39017420e-02, -1.20009417e-02,
          -5.91411197e-04, 1.44504067e-02, -9.37445462e-03,
          7.85625447e-03, 5.92619181e-03, 9.00729210e-05,
          -7.07723619e-03, 1.83943883e-02, -4.51104948e-03,
          9.10881814e-03, -1.06410694e-03, -2.18113512e-03,
          -2.16616169e-02, -9.03322268e-03, 2.69563193e-03,
          -1.65277869e-02, 4.42482717e-03, -1.07290018e-02,
          -8.21603835e-03, -2.91889277e-03, -2.90442258e-02,
          -9.42280516e-03, 9.89433099e-03, 2.53529493e-02,
          7.00754253e-03, -1.15202796e-02, -4.91500646e-03,
          3.96964001e-03, 8.86132300e-04, -1.39482012e-02,
          -1.62384454e-02, -4.30497981e-04, 2.55749505e-02,
          9.17828735e-03, 3.90503230e-03, -1.34532782e-03,
          8.03634815e-04, -1.74121745e-02, -2.00330168e-02,
          -1.93728525e-02, 1.88210923e-02, 2.54671946e-02,
          1.90301072e-02, -9.51511320e-04, -5.40800067e-03,
          -7.85668008e-03, -1.08419091e-03, -3.16818133e-02,
          -2.13248413e-02, 7.30542000e-03, 4.59440611e-03,
          1.13497451e-02, 5.86737087e-03, 3.10984440e-04,
          -5.33439033e-03, -8.25624727e-03, -1.05700409e-02,
          -1.77520979e-02, -2.72078644e-02, -1.24605121e-02,
          -4.81173862e-03, 2.72544078e-03, -1.28694139e-02,
          2.49053957e-03, -2.84866127e-03, -1.21495295e-02,
          -2.87610642e-03, -1.21367991e-03, -1.37592657e-02,
          -1.97959039e-02, -5.09869016e-04, 9.51917842e-03,
          1.49589134e-02, 9.33081657e-03, 1.48407312e-03,
          -1.80913955e-02, -4.93126456e-03, 7.58979889e-03,
          1.47830672e-03, 7.16528157e-03, -2.25555766e-02,
          -7.02311611e-03, 5.65240672e-03, 6.20843703e-03,
          -1.17101353e-02, -3.94491805e-03, 2.75427918e-03,
          -8.68858304e-03, 1.15701798e-02, -4.20071790e-03,
          -4.68248595e-03, -1.99766946e-03, -2.39529298e-03,
          4.24044766e-03, 9.42942966e-03, 2.35820888e-03, 3.33317555e-03,
          -1.25296032e-02, 1.50868138e-02, 1.16899759e-02,
          3.60904215e-03, 9.73826088e-03, -5.25400043e-03,
          -1.41574200e-02, -4.64442186e-03, -1.36410873e-02,
          -1.40350536e-02, 1.29633332e-02, 2.43274849e-02,
          1.63667707e-03, 8.79434962e-03, -5.07939793e-03,
          -1.00028084e-03, 9.69517510e-03, 6.70076907e-03,
          -1.43634053e-02, 6.03327062e-03, 1.57289513e-04,
          7.13714398e-03, 5.40657016e-03, -1.00380275e-02,
          -1.38455862e-02, 1.14466138e-02, 1.20865908e-02,
          -2.50471309e-02, -3.39670340e-04, -3.16530722e-03,
          -1.34562245e-02, -3.48557415e-03, -1.27878934e-02,
          -2.39597037e-02, -2.19463818e-02, -2.28766687e-02,
          -6.10362226e-03, 7.67250638e-03, 1.66988857e-02,
          7.16239493e-03, -4.77362657e-03, -1.59393400e-02,
          -1.83392707e-02, -5.51725971e-03, 4.50226013e-03,
          6.24997588e-03, 1.73069015e-02, 1.31680956e-02, 4.25284635e-03,
          -5.19733550e-03, -9.99386236e-03, -1.74387731e-02,
          -1.89506973e-03, 6.63214037e-03, -1.89219434e-02,
          -1.29839052e-02, -2.23306138e-02, -1.64135471e-02,
          -1.18068010e-02, -1.38105117e-02, -9.36524943e-03,
          1.21740038e-02, 1.63383186e-02, -1.15485478e-03,
          1.19669205e-02, -4.44134744e-03, 3.86832282e-03,
          -3.66295129e-03, -1.30534926e-02, -1.16394563e-02,
          -1.59590109e-03, -1.28613943e-02, -2.66847704e-02,
          8.98044964e-04, 1.71343994e-03, -1.08196782e-02,
          -1.21454718e-02, 2.77362089e-03, 4.76983842e-03,
          3.12766782e-03, 7.02946098e-04, -2.30829362e-02,
          -1.74910761e-02, 1.80535261e-02, 3.71128367e-03,
          -4.89368103e-03, -9.18975659e-03, -1.75100029e-03,
          1.10314619e-02, 7.21989246e-03, -3.50514054e-02,
          -2.56053209e-02, -6.21254556e-03, -7.23313028e-03,
          -9.07822512e-03, 1.68499518e-02, 1.47769339e-02,
          1.72914397e-02, 1.02903536e-02, -1.20110493e-02,
          -7.80918961e-03, 1.60902776e-02, 1.25754094e-02,
          6.27861824e-03, 1.79379936e-02, 2.08442025e-02, 1.50464512e-02,
          2.29075942e-02, -3.26288752e-02, -5.43554761e-02,
          1.27264895e-02, 1.43343331e-02, 1.97003987e-02, 1.32234097e-02,
          1.47935264e-02, 3.64885628e-02, 1.88108031e-02,
          -2.34298781e-02, -3.53712216e-02, -4.33803070e-03,
          1.94174703e-03, 6.67224312e-03, 2.19266843e-02, 1.33998869e-02,
          2.42912974e-02, 3.05493660e-02, -2.50194687e-02,
          -1.13816326e-02, 1.97319482e-02, 2.38863118e-02,
          1.70092769e-02, 9.91133042e-03, 1.90132614e-02, 3.83611508e-02,
          3.09195984e-02, -3.10407914e-02, -8.95539373e-02,
          -1.85864978e-02, 1.92088876e-02, -2.41239602e-03,
          2.80323140e-02, 2.89222095e-02, 2.90730856e-02, 2.09515844e-03,
          -4.00930271e-02, -2.49364879e-02, -1.73931930e-03,
          2.70428713e-02, 1.33538041e-02, 2.09648814e-02, 9.32074152e-03,
          -9.15896893e-03, -3.79124880e-02, -4.64366339e-02,
          -3.13627757e-02, -2.89177019e-02, 1.73950139e-02,
          2.09426805e-02, 1.90915577e-02, 2.96689197e-02, 3.99558097e-02,
          2.92714424e-02, -2.66925693e-02, -5.68848699e-02,
          4.20974793e-05, 2.35875696e-02, 6.19630190e-03, 1.44209340e-02,
          1.69166196e-02, 2.29850542e-02, 1.20057939e-02,
          -3.08798831e-02, -5.40541410e-02, -2.54129507e-02,
          -1.07179990e-03, 1.42471567e-02, -7.56746012e-05,
          -1.70712862e-02, -3.66509520e-02, -3.47892903e-02,
          -1.33158267e-02, -3.24040949e-02, -1.02042854e-02,
          2.78771278e-02, 1.09305475e-02, -5.34085557e-03,
          -1.51941106e-02, -5.18163592e-02, -3.34623419e-02,
          -8.65930505e-03, -2.73880921e-02, -1.32965501e-02,
          1.72304362e-02, 1.41933495e-02, -2.01757718e-03,
          2.40890705e-03, -3.56074772e-03, 9.83513240e-03,
          -1.33286137e-02, -4.01600413e-02, -2.67446563e-02,
          -5.58217475e-03, -6.49153115e-03, -1.06454911e-02,
          -3.84088838e-03, -2.14145370e-02, -1.68228860e-03,
          -1.27495378e-02, -2.60000564e-02, -1.68053098e-02,
          -7.35292118e-03, -2.28510015e-02, -8.90863186e-04,
          1.46438209e-02, -2.85876002e-02, -3.16843875e-02,
          -2.60912906e-02, -2.15141717e-02, -1.71533233e-04,
          1.16936341e-02, 1.33734709e-02, 2.26351675e-02, 5.19494014e-03,
          -1.99554898e-02, -2.80656349e-02, -1.07410215e-02,
          3.71560076e-04, -7.20767654e-04, 1.04621835e-02,
          2.24292483e-02, -3.54302526e-02, -1.01416782e-02,
          -2.93647386e-02, -5.38794557e-04, -2.37700511e-02,
          -1.08012538e-02, 4.69939876e-03, 5.48030855e-03,
          -2.97781955e-02, 6.60894439e-03, -2.55492106e-02,
          -2.83832997e-02, -8.13929457e-03, 1.38275446e-02,
          5.40465862e-03, 1.11864358e-02, 1.56721622e-02, 1.47486236e-02,
          9.85085871e-03, -4.90439963e-03, -3.53573672e-02,
          -3.31481360e-02, -5.08332178e-02, -6.99884864e-03,
          -3.18135251e-03, 1.20366467e-02, 1.54238725e-02,
          2.28446443e-02, 1.98296010e-02, -2.00126041e-02,
          -2.10653525e-02, 1.01248501e-02, 6.46746671e-03,
          4.65639960e-03, 2.17693355e-02, 2.53075305e-02, 3.20337480e-03,
          -2.26086322e-02, -2.76975259e-02, -2.91483644e-02,
          -1.70112820e-03, 2.72933934e-02, 1.90675035e-02,
          2.27687601e-02, 1.28799062e-02, 2.34496649e-02, 1.85415652e-02,
          7.78763846e-04, -3.20781693e-02, 1.25085637e-02,
          3.02502979e-02, 2.31916700e-02, 2.79509295e-02, 3.17672826e-02,
          1.34290382e-02, 4.05392237e-03, 2.65429937e-03,
          -9.14955963e-05, -2.36542113e-02, 9.95009579e-03,
          1.33509794e-02, 1.88806783e-02, 2.34568268e-02, 1.71459448e-02,
          -9.98025201e-03, 1.97548084e-02, -3.39768603e-02,
          -9.63796023e-03, -1.31551549e-03, 2.10039709e-02,
          2.44196150e-02, 3.27806175e-02, 1.85154974e-02, 3.76201794e-03,
          1.07615534e-02, -2.18535233e-02, -1.16247274e-02,
          2.40319166e-02, 2.48601623e-02, 2.10445039e-02, 2.36162990e-02,
          2.87847351e-02, 1.66634303e-02, -1.58562008e-02,
          -2.27726735e-02, -1.43722584e-02, 2.34884992e-02,
          2.94915829e-02, 1.91128459e-02, 2.69239154e-02, 1.08433049e-02,
          2.52083340e-03, 4.56534559e-03, -2.70361528e-02,
          -1.81939472e-02, 3.67984804e-03, 1.02607645e-02,
          8.97493400e-03, 1.44482553e-02, 5.74448658e-03, 2.29829066e-02,
          2.52073444e-02, -7.51139922e-03, -2.77512390e-02,
          -6.29238272e-03, 1.84606120e-03, -6.89969119e-03,
          -4.60339710e-03, 1.49664888e-02, 1.07548796e-02,
          -1.65086035e-02, -1.29569694e-02, 3.19946354e-04,
          8.57522059e-03, 1.23143131e-02, 1.47689562e-02, 1.86444316e-02,
          6.99704513e-03, 1.62598956e-02, 8.23782571e-03, 1.10735800e-02,
          -1.93022210e-02, 8.24197778e-05, -5.57026360e-03,
          -3.76011804e-03, 2.35822028e-03, 2.56874366e-03,
          -1.07322587e-03, 7.10399775e-03, -3.10326600e-03,
          -1.27256326e-02, -8.06398038e-03, -2.22484628e-03,
          -7.57994317e-03, -5.37209585e-03, -9.80247627e-04,
          -1.45878773e-02, 4.57573542e-03, -3.89280519e-03,
          -4.98722307e-03, -3.15802125e-03, -3.12147953e-04,
          -3.18736536e-03, -9.36530717e-03, 3.61723080e-03,
          3.33768618e-03, 6.56617014e-03, 4.75861924e-03,
          -2.70636994e-02, 3.58462008e-03, -4.65565687e-03,
          -1.16744880e-02, 1.59916352e-03, -3.04013351e-03,
          -1.40811736e-02, 2.80327462e-02, 7.94672035e-03,
          -3.76900961e-03, 2.05920544e-03, 3.64063215e-03,
          -3.18488060e-03, -8.92366562e-03, 9.02138837e-03,
          -1.62723346e-03, -1.16273817e-02, -2.38448591e-03,
          -7.48659205e-03, -1.69123653e-02, -3.26409267e-04,
          -5.64590050e-03, -7.34285871e-03, 2.04238743e-02,
          2.53852010e-02, 4.27542580e-03, -1.49918087e-02,
          1.51941869e-02, -1.34249236e-02, 7.01908581e-03,
          -1.22655071e-02, -1.93474372e-03, -7.06272386e-03,
          5.46340458e-03, 1.55883748e-02, 1.76387616e-02, 5.76812541e-03,
          -1.76044758e-02, -2.16950271e-02, -1.56109342e-02,
          -2.35189982e-02, -1.24784512e-03, 1.92627795e-02,
          1.75773427e-02, 3.14366296e-02, 1.81473438e-02,
          -1.85581967e-02, -2.40058880e-02, -8.90796073e-03,
          -1.27272662e-02, 8.79726466e-03, 1.44818341e-02,
          1.21629629e-02, -2.01383210e-03, 1.55599890e-02,
          -1.20993564e-02, 2.99396081e-04, -1.00094806e-02,
          1.71172409e-03, -9.65042878e-03, -1.36447651e-03,
          2.57998356e-03, -3.33281670e-04, 4.85859439e-03,
          -1.06597906e-02, -7.23607047e-03, -1.62212998e-02,
          -2.51664631e-02, 9.90406983e-03, 1.62620936e-02,
          -1.90544745e-03, 1.66179158e-03, 9.25879460e-03,
          -1.80526655e-02, -1.32265557e-02, 5.97566395e-05,
          2.64905766e-03, 6.65834732e-03, 4.00605472e-03,
          -8.54951516e-03, 6.94575580e-03, 4.67297202e-03,
          3.19405990e-05, -4.04980453e-03, 3.68894567e-03,
          -1.70368608e-02, -3.19242454e-03, 1.77257322e-02,
          1.46387098e-02, 1.56185832e-02, -6.78126235e-03,
          -6.12010760e-03, -7.58100068e-03, -1.23328213e-02,
          -2.01597270e-02, -5.31289633e-03, 8.48386530e-03,
          2.84478883e-03, 6.30194694e-03, 4.57454193e-03,
          -2.54381704e-03, -1.92797687e-02, -1.66991521e-02,
          -1.12919938e-02, 1.62403267e-02, 1.14123533e-02,
          -1.35126440e-02, 7.81226903e-03, -1.57804764e-03,
          1.71922171e-03, 3.59237962e-03, 3.86904296e-03,
          -1.53681487e-02, 4.92757838e-03, 8.71758536e-03,
          8.76371842e-03, 2.30443850e-02, 1.78726064e-03,
          -1.69422105e-02, -1.12749599e-02, -1.62423272e-02,
          -1.40173808e-02, -2.16053855e-02, 4.66867303e-03,
          8.48235842e-03, 1.52394222e-02, 5.40719368e-03,
          -5.45460079e-03, -3.15990910e-04, -9.36108734e-03,
          -1.00374250e-02, -7.85304885e-03, -4.79129422e-03,
          2.51899892e-03, 1.41263362e-02, 2.07694736e-03,
          -8.52755923e-03, -2.21852046e-02, -1.55412927e-02,
          -9.86734871e-03, -2.49377526e-02, -9.14348010e-03,
          -1.16977440e-02, 1.03491060e-02, -1.26387840e-02,
          4.05147392e-03, 4.08360269e-03, -4.00805380e-03,
          -1.06900400e-02, 2.18850072e-03, -2.04863283e-03,
          -2.29778676e-03, -5.80224674e-03, -1.17391571e-02,
          -1.01767713e-02, -4.84659616e-03, -1.45668518e-02,
          -5.31576248e-03, -2.30696728e-03, -8.54070950e-03,
          7.71764806e-03, 1.75427478e-02, -1.89919341e-02,
          -1.01749739e-02, -1.15200551e-02, -1.71984750e-04,
          2.94428295e-03, -1.64438356e-02, -1.51704485e-02,
          7.51407212e-03, 2.72197854e-02, -1.82404835e-02,
          -9.03979782e-03, -9.87832341e-03, -1.17363576e-02,
          -4.59929276e-03, 5.17512439e-03, -1.13245547e-02,
          3.64105077e-03, -3.57753667e-03, -1.46168554e-02,
          -1.42836859e-02, 2.64218473e-03, 2.14689728e-02,
          1.51259219e-02, -1.58965271e-02, -3.21958587e-02,
          -1.86492838e-02, -3.68822343e-03, -1.64067023e-03,
          -9.34765581e-03, 3.93057056e-03, 5.30472957e-03,
          -1.11765228e-03, -1.21386228e-02, -2.40247864e-02,
          6.26013242e-03, 1.65472329e-02, -6.70304568e-03,
          -8.66993330e-03, -1.15437675e-02, -1.76465493e-02,
          -8.01010616e-03, -7.64057087e-03, -1.00510940e-02,
          1.03333276e-02, 2.21268851e-02, -1.00831872e-04,
          8.44452996e-03, 1.76181104e-02, 2.49991921e-04,
          -4.53741523e-04, 4.83092247e-03, -2.60906965e-02,
          -1.68053284e-02, -4.36805328e-03, 2.46273074e-03,
          -5.18296612e-03, 1.18460506e-02, 2.13979371e-03,
          1.24690635e-02, 2.99517391e-03, -1.68945510e-02,
          -1.96906291e-02, -5.50975045e-03, -2.50130668e-02,
          -2.87779677e-03, 2.58370228e-02, 9.29163210e-03,
          2.85343197e-03, -1.87342428e-02, -8.22428241e-03,
          2.69945106e-03, 1.51330698e-02, -3.73737537e-03,
          2.59688101e-03, 7.26112397e-03, -1.93135533e-02,
          -1.74993351e-02, 5.00521483e-03, 1.02544995e-03,
          -5.58457756e-03, 3.41549423e-03, 2.19109142e-03,
          -2.27415585e-03, 2.06971765e-02, 1.17978053e-02,
          -5.40262694e-03, -2.11773030e-02, -2.03052182e-02,
          -2.55638268e-02, -1.19151743e-02, -3.57748382e-02,
          -1.06306616e-02, 8.13980494e-03, -1.74415391e-02,
          -2.56045032e-02, -1.24399960e-02, -1.36155142e-02,
          -3.59370280e-03, -1.73462424e-02, -1.95271950e-02,
          -1.51812686e-02, 3.70573252e-03, -9.79854260e-03,
          -2.86015701e-02, 7.58766662e-03, 4.27059317e-03,
          1.25660170e-02, 1.79345068e-02, -1.81063730e-02,
          -2.80126669e-02, 3.27772275e-02, 2.40623299e-02,
          -4.27662674e-03, -6.74488256e-03, 1.06221568e-02,
          2.71426011e-02, 2.71262676e-02, -2.00960487e-02,
          -6.78765476e-02, 3.03862826e-03, 2.87325941e-02,
          -1.98723339e-02, 1.10555987e-03, -5.59887057e-03,
          6.53577130e-03, -1.00915250e-03, -1.43780978e-02,
          -1.48142297e-02, 2.09077640e-04, -2.38538533e-02,
          -2.80826297e-02, 1.50977224e-02, 6.11514086e-03,
          1.60871670e-02, 1.72035266e-02, -2.99414545e-02,
          -5.69298267e-02, 1.79886520e-02, 4.53318171e-02,
          1.93863343e-02, 2.18551327e-02, 2.47416310e-02, 4.20319661e-02,
          3.80176380e-02, -2.29399391e-02, -8.71308446e-02,
          -8.77189264e-03, 1.81975812e-02, 1.99916493e-02,
          -1.50025846e-03, 1.15678227e-02, 1.72824003e-02,
          5.11648541e-04, -1.60562787e-02, -6.15566410e-02,
          -2.50842292e-02, -2.63609607e-02, -1.47193726e-02,
          2.53468938e-02, 1.72045678e-02, 2.19671745e-02, 2.63304710e-02,
          -2.94162426e-02, -7.84905404e-02, -1.45693785e-02,
          2.33640764e-02, 6.21097237e-02, 8.10110755e-03, 2.42907293e-02,
          2.52530854e-02, 3.01232617e-02, 3.22864242e-02,
          -1.87506881e-02, -3.29439007e-02, -9.36578121e-03,
          7.49828247e-03, -2.07091533e-02, -2.37126253e-03,
          5.17303450e-03, 1.31873749e-02, 1.32574672e-02,
          -2.84042414e-02, -4.29648422e-02, -4.01755758e-02,
          -3.65979895e-02, -4.70876731e-02, -4.08581086e-02,
          -2.89242379e-02, 3.86441615e-03, -3.48594249e-03,
          -6.59887271e-04, -2.50281524e-02, -1.90840680e-02,
          -5.85518852e-02, -6.02837186e-03, 1.24491854e-02,
          1.45870661e-02, 3.34445350e-02, 4.90470901e-02, 3.86371464e-02,
          -2.44556088e-03, 4.73321415e-03, -1.75916753e-03,
          -1.70403756e-02, -1.76309012e-02, -3.94034851e-03,
          2.10848302e-02, 3.26911360e-02, 3.29626463e-02, 7.61261676e-03,
          1.00007430e-02, -5.99782821e-03, -7.63529688e-02,
          -4.83910367e-02, -4.79975082e-02, -7.08951789e-04,
          -5.00743128e-02, -3.71865788e-03, -5.58541948e-03,
          -8.89062602e-03, -7.74749815e-02, -2.18469892e-02,
          -3.06431688e-02, -3.47345509e-02, -8.96445848e-03,
          1.34269213e-02, 9.28206835e-03, 2.49292701e-02, 2.25423239e-02,
          -1.79758051e-03, 1.97609235e-03, -3.44879716e-03,
          -3.92546970e-03, 4.05183621e-02, 3.42710018e-02,
          2.51513012e-02, 2.71176565e-02, 2.27398332e-02, 7.86097068e-03,
          2.08386406e-03, 1.07336231e-02, -9.54763436e-06,
          2.36369506e-03, 2.77308561e-02, 2.67683566e-02, 3.33932340e-02,
          3.34278829e-02, 7.25976797e-03, -1.72978770e-02,
          -2.62966752e-02, -4.05458882e-02, -4.62415516e-02,
          7.05654873e-03, 1.12268431e-02, 1.30027952e-02, 1.92473624e-02,
          7.36441324e-03, 1.41256256e-02, 1.08098350e-02, 3.03506874e-03,
          -4.77566943e-02, -6.70228945e-03, 2.07650624e-02,
          2.47927401e-02, 2.52711531e-02, 2.41864398e-02, 7.87918177e-03,
          1.28533961e-02, -8.64219479e-03, -2.10883804e-02,
          1.54901370e-02, 2.56015304e-02, 2.69624535e-02, 2.90561914e-02,
          1.61632467e-02, 2.94243675e-02, -2.18778420e-02,
          -2.44050473e-02, -3.35534625e-02, 3.07793375e-02,
          5.96185923e-02, 2.76107211e-02, 2.66213845e-02, 2.67272070e-02,
          9.07671824e-03, 8.17892980e-03, -8.10068753e-03,
          -2.60790959e-02, 1.89178512e-02, 2.85240971e-02,
          2.24965774e-02, 1.73868611e-02, 1.74626913e-02, 1.89626031e-02,
          1.34769464e-02, -2.98382211e-02, -2.51356475e-02,
          1.69718005e-02, 3.96946892e-02, 2.65539698e-02, 1.72404684e-02,
          1.64429545e-02, 1.86104216e-02, 1.35160200e-02,
          -2.10013911e-02, -3.10652032e-02, 3.40671390e-02,
          3.65157761e-02, 1.97471660e-02, 1.34142479e-02, 2.35189926e-02,
          1.40550667e-02, 3.10879461e-02, -3.15113738e-02,
          -5.48472703e-02, -1.35033438e-02, 3.89729999e-02,
          1.10335136e-02, 8.89720209e-03, 2.34546736e-02, 1.51803903e-02,
          1.55997677e-02, -2.83217020e-02, -3.15531678e-02,
          -4.17686347e-03, 1.26688806e-02, 2.61566904e-03,
          1.22799743e-02, 1.54145285e-02, 7.11546000e-03, 1.31267169e-02,
          9.04467702e-03, 6.68826699e-03, 6.66365819e-03, 5.20289876e-03,
          -1.72982980e-02, -8.64114985e-03, 4.82315925e-04,
          1.79842561e-02, 2.68360153e-02, -1.69525910e-02,
          -4.96701375e-02, -1.54301608e-02, 1.09360674e-02,
          -2.28575547e-03, -4.42682486e-03, 1.41124874e-02,
          1.48384087e-02, 1.93106402e-02, 9.87950712e-03,
          -1.96743710e-03, 4.21982520e-04, -5.07645251e-04,
          -2.65489006e-03, -1.28166499e-02, -5.89248398e-03,
          -4.17104270e-03, -2.29103048e-03, 7.04207364e-03,
          9.45202541e-04, -8.16018227e-03, -5.84068056e-03,
          -1.81624405e-02, -1.92426946e-02, -8.13042279e-03,
          -9.25265439e-03, -1.10887112e-02, 1.51888421e-02,
          5.91992168e-03, -1.76164471e-02, -4.51120408e-03,
          -3.02162417e-03, -3.91680188e-03, -1.12666059e-02,
          5.57374815e-03, -9.94656235e-04, 1.36643117e-02,
          9.64804180e-03, -1.08592780e-02, -1.91662330e-02,
          -1.70632675e-02, -1.64595991e-02, -8.31721758e-04,
          4.05616546e-03, -5.18863183e-03, 6.74751541e-03,
          1.68775916e-02, 1.10339504e-02, 1.46777800e-03,
          -7.34373694e-03, -1.54013105e-03, 1.65425311e-03,
          -2.00385675e-02, -5.83878835e-04, 1.96484216e-02,
          1.92684066e-02, 7.15039205e-03, -6.30246196e-03,
          -1.96738187e-02, -1.86907146e-02, -3.22367921e-02,
          -1.00233071e-02, 1.70077123e-02, 7.55689619e-03,
          2.87606828e-02, 2.03603618e-02, -2.56564450e-02,
          -3.03330943e-02, -1.89469233e-02, -2.18084548e-02,
          -1.29219051e-02, -9.45779402e-03, 1.58413779e-02,
          3.38444375e-02, 1.17984014e-02, 3.26011772e-03,
          -2.17522327e-02, -1.44167040e-02, -2.70396508e-02,
          -4.85503953e-03, 7.90407043e-03, 3.47267441e-03,
          1.63423140e-02, 2.04503704e-02, -1.22311490e-03,
          -1.91859230e-02, -2.35083308e-02, -1.70415025e-02,
          1.42823497e-03, 2.08125450e-03, -2.05248520e-02,
          -5.06655732e-03, -6.47605117e-03, -1.05438558e-02,
          -7.97847100e-03, 1.39162308e-02, 2.91443104e-03,
          -4.77661006e-03, -1.34175625e-02, -3.05691678e-02,
          -8.37697554e-03, 5.78407140e-04, 5.53204445e-03,
          3.04688327e-03, 8.58057104e-03, -1.07642766e-02,
          -2.69297161e-03, -2.01617484e-03, -1.41625088e-02,
          1.81841967e-03, 7.76284505e-05, 1.06910858e-02, 8.17335211e-03,
          9.13115032e-03, 2.06214981e-03, -1.19752390e-02,
          -2.03795694e-02, -2.46359855e-02, 6.79886341e-03,
          -1.17340579e-03, 1.96754951e-02, 1.17174797e-02,
          1.85616240e-02, 1.65146985e-03, -2.01438740e-03,
          -4.62005986e-03, -2.90276464e-02, -1.57062225e-02,
          -1.97813986e-03, 2.12065931e-02, 1.27642322e-02,
          1.26065817e-02, -3.13921738e-03, -7.33740907e-03,
          -3.22258635e-03, -2.42384765e-02, -1.46206124e-02,
          -1.96544342e-02, -1.76275838e-02, -6.36396790e-03,
          -5.28844120e-03, 2.99354759e-03, -1.11773955e-02,
          -2.88797636e-03, -1.20141879e-02, -2.18344012e-05,
          -5.49491553e-04, 2.37517767e-02, 1.77544598e-02,
          2.42794976e-02, 1.50661701e-02, -1.50688225e-02,
          -7.16115255e-03, -1.82341747e-02, -2.76125427e-02,
          -4.86331293e-03, 1.12115722e-02, 1.28620444e-02,
          1.80805419e-02, 4.55678627e-03, -1.53585784e-02,
          -1.11175440e-02, -4.90797404e-03, -3.14634689e-03,
          -2.01702677e-02, 8.62953998e-03, 2.04222016e-02,
          3.42831598e-04, -7.75100524e-03, -1.57951005e-02,
          -2.82777995e-02, -8.61357711e-03, -1.84202529e-02,
          -5.83211146e-03, -3.17187095e-03, 2.72226986e-02,
          -3.45327193e-03, -4.65600938e-03, -2.08813930e-03,
          -4.74429317e-03, 8.48340895e-03, -2.36091744e-02,
          -2.79357396e-02, 1.44907292e-02, 2.08085217e-02,
          4.01925034e-04, -1.40426494e-02, 2.51924945e-03,
          -6.31504040e-03, 2.10519321e-02, -6.51319418e-03,
          -2.58915196e-03, 1.96724981e-02, 2.85126474e-02,
          6.43026037e-03, -7.01945974e-04, -1.05882986e-02,
          -2.79481821e-02, -1.59930754e-02, -2.70992685e-02,
          8.29873141e-03, 1.60773955e-02, 2.34738253e-02, 9.51523706e-03,
          -3.83170554e-03, -5.76350512e-03, -2.96648461e-02,
          -2.70427186e-02, -2.98762675e-02, -9.73937847e-03,
          1.45259090e-02, 1.49521418e-02, 1.28831733e-02,
          -5.66924224e-04, 1.21241920e-02, -1.27259204e-02,
          -1.00269553e-03, -1.37051176e-02, 2.09352421e-03,
          3.50086465e-02, 3.78611535e-02, 2.19747480e-02, 6.38682116e-03,
          2.51718014e-02, -7.26127578e-03, -5.89031866e-03,
          -2.49307342e-02, -2.25075018e-02, 5.68986498e-03,
          1.81288887e-02, 2.90820822e-02, 1.99908558e-02, 1.10152876e-03,
          -2.12608185e-02, -2.05387957e-02, -1.23250289e-02,
          -2.21336391e-02, 9.96813364e-03, 1.21922959e-02,
          1.01435520e-02, 3.32010747e-03, 1.90712651e-03,
          -1.81847382e-02, -6.67050108e-03, 8.96618352e-04,
          -4.80181389e-02, 8.31679255e-03, 1.26650957e-02,
          1.07810218e-02, 3.48721398e-03, 2.31260061e-02,
          -1.16142472e-02, -1.26755927e-04, -9.84217855e-04,
          -3.33500728e-02, -4.79288539e-03, 1.18047819e-02,
          1.66729186e-02, 2.56082620e-02, 1.36529412e-02,
          -9.88738518e-03, 5.42054186e-03, 1.75436661e-02,
          -2.88055968e-02, 1.07500162e-02, -1.60474956e-05,
          8.41859612e-04, 1.66625790e-02, -1.16918022e-02,
          -2.00266223e-02, -1.18512660e-02, -1.06007874e-03,
          -3.86061743e-02, -5.59093617e-03, 6.07247697e-03,
          -1.46698635e-02, -2.39491090e-02, -1.23026855e-02,
          -1.85182020e-02, 1.00524947e-02, 6.12655003e-03,
          -2.22491529e-02, -1.11699793e-02, -7.90262967e-03,
          -2.29454949e-03, -2.29524057e-02, -1.08051405e-03,
          -2.15168744e-02, -7.88981502e-04, 8.17731116e-03,
          -2.46176627e-02, -1.22756576e-02, -1.79170463e-02,
          -2.58752927e-02, -6.78947009e-03, -8.50013457e-03,
          -8.85965768e-03, 2.24105250e-02, 1.81862433e-02,
          -1.04005001e-02, -1.06275929e-02, -1.64066274e-02,
          -1.26080941e-02, 1.46764098e-03, 1.06277480e-03,
          -9.32728313e-03, 9.65818239e-04, -8.11213441e-03,
          -1.51856048e-02, -2.71700118e-02, -2.84223002e-03,
          8.39368720e-03, -6.61304640e-03, 1.20968213e-02,
          1.09164801e-03, -7.32005341e-03, -6.67495420e-03,
          -3.00395768e-02, -4.61451449e-02, -2.12229928e-03,
          4.17036042e-02, 2.31782030e-02, 3.01859132e-03,
          -4.98940470e-03, 8.43237340e-03, -2.24968605e-03,
          -1.88384857e-02, -1.62121421e-03, -1.79056376e-02,
          1.54846329e-02, 2.16370472e-03, -6.34934986e-03,
          3.43674934e-03, -7.12770643e-03, -1.15691675e-02,
          -1.94814838e-02, -1.63803007e-02, -2.05219593e-02,
          2.05826145e-02, 6.53532753e-03, 1.62085332e-02, 1.36970961e-02,
          7.03133456e-03, 1.13902446e-02, -1.21307764e-02,
          -6.25873134e-02, -2.97178924e-02, 2.80370042e-02,
          3.28300446e-02, 2.92195659e-02, 2.12550852e-02, 1.60827283e-02,
          1.86616667e-02, 2.40502506e-02, -1.36890542e-02,
          -4.09013033e-02, -6.47081761e-03, 2.32462566e-02,
          -7.75298243e-03, 1.26155866e-02, 1.73088012e-03,
          5.62865101e-03, -6.67689648e-03, -2.39421353e-02,
          -3.65730450e-02, -9.93658789e-03, 2.53411271e-02,
          1.78053267e-02, 1.88951977e-02, 6.71430398e-03, 1.55541757e-02,
          -8.12932034e-04, -1.50180245e-02, -5.25461622e-02,
          -1.89981982e-02, -4.38230811e-03, 3.28970514e-02,
          2.42262613e-02, 1.43500539e-02, 2.09997911e-02, 3.06821410e-02,
          1.08225066e-02, -2.45193802e-02, -2.13820841e-02,
          1.88693721e-02, 3.37111652e-02, 4.99769067e-03,
          -7.84995966e-03, 8.14398285e-03, 1.21741146e-02,
          2.15343200e-03, -5.44829236e-04, 4.47102217e-03,
          4.43874076e-02, 1.73330791e-02, 1.67254284e-02, 4.83870832e-03,
          1.45638427e-02, -2.06740946e-02, -1.70298479e-02,
          -5.32566495e-02, -5.72636239e-02, -4.63586822e-02,
          5.57071529e-03, -2.39439365e-02, -5.26014296e-03,
          -3.35585419e-03, -3.12306527e-02, -2.23457273e-02,
          -2.28335429e-02, -4.65886965e-02, -1.29660303e-02,
          2.28129420e-02, 9.06914938e-03, 1.17819931e-03, 7.39581604e-03,
          1.31881684e-02, 2.97910790e-03, 5.19563491e-03, 3.67443496e-03,
          2.18769964e-02, -2.71256571e-03, 7.53958989e-03,
          -1.95294283e-02, -7.18657533e-03, 1.72583852e-02,
          8.85007344e-03, 1.03110773e-02, 1.69343594e-03,
          -1.73935983e-02, -1.68681983e-02, -1.41200386e-02,
          6.44963374e-03, 5.94374165e-03, -7.90440757e-03,
          -1.03831580e-02, -7.43708434e-03, -2.33460553e-02,
          6.98619382e-03, -3.59921157e-02, -2.11123731e-02,
          -4.48978581e-02, 1.29304482e-02, 8.43714457e-03,
          7.98409339e-03, -1.92145363e-03, -2.23103818e-02,
          -2.72272602e-02, -2.25023483e-03, 1.37641374e-02,
          -2.49977428e-02, -9.61725879e-03, 9.63179767e-03,
          8.98924936e-03, 1.00175217e-02, 7.78019894e-03,
          -3.13720130e-03, 1.02746580e-02, -2.31974665e-02,
          -2.18318533e-02, -2.46137436e-02, 2.32783705e-02,
          2.05430370e-02, 9.05991532e-03, 9.55493469e-03, 1.34504102e-02,
          -2.53214426e-02, -1.31585691e-02, -5.98566681e-02,
          1.28853563e-02, 2.91191004e-02, 1.57798585e-02, 8.45646672e-03,
          6.62401551e-03, -5.21780737e-03, -1.89872589e-02,
          -1.93430763e-02, -2.23476905e-02, -1.47001678e-02,
          2.98330821e-02, 3.14591900e-02, 2.28229109e-02, 1.51147405e-02,
          1.80034176e-03, -1.36741879e-03, -1.18538011e-02,
          -1.19418669e-02, -1.68544911e-02, 1.72110926e-02,
          1.57241225e-02, 6.07578037e-03, 3.00746784e-03, 1.68518163e-03,
          1.41031283e-03, 9.03557637e-04, -1.92904435e-02,
          -3.44561376e-02, -1.55405304e-03, 1.31642660e-02,
          4.97022877e-03, 9.40764614e-04, 5.66894747e-03,
          -1.86207332e-02, -2.31035203e-02, -1.52479522e-02,
          -1.13608195e-02, 9.20672994e-03, 1.53158549e-02,
          2.20597461e-02, 1.18858702e-02, -8.11990537e-03,
          -2.43205652e-02, -1.74990594e-02, -6.46588113e-03,
          -6.29050517e-03, 2.04896554e-02, 2.11984999e-02,
          2.81369444e-02, 1.28996922e-02, -1.04986038e-02,
          1.98156596e-03, -9.36964713e-03, -2.09389366e-02,
          -4.71797585e-02, -1.83976591e-02, 8.62889085e-03,
          1.49286883e-02, -9.48188594e-04, 4.99472860e-03,
          9.27739684e-03, -8.14340819e-05, -1.43673667e-03,
          -5.58342459e-03, -8.01127870e-03, -4.24494315e-03,
          1.02533223e-02, -5.51843295e-05, 3.20726866e-03,
          -1.80953592e-02, -1.93270165e-02, -2.37721205e-02,
          -2.20636055e-02, 7.34726293e-03, 2.04533413e-02,
          3.46919708e-02, 1.13350991e-02, -2.42158910e-03,
          9.02156904e-03, 1.68399606e-03, 5.12716640e-03,
          -4.17133607e-03, 2.17984244e-03, 1.37423128e-02,
          3.56170652e-03, 7.25194160e-03, 1.29822325e-02, 1.24620060e-02,
          -3.70160956e-03, 1.03829792e-02, -6.71953137e-04,
          2.60387477e-03, -1.73210055e-02, -1.37101887e-02,
          -5.45180449e-03, 1.53182512e-02, 2.05634478e-02,
          8.06892815e-04, -3.47257615e-03, -1.98888942e-03,
          9.20495950e-03, -8.55495315e-03, 2.92749697e-04,
          -3.30153271e-03, 2.02172026e-02, 1.84440240e-02,
          4.03893692e-03, 7.01078633e-03, -1.55612500e-02,
          5.42183034e-03, -7.47818081e-03, -2.05918849e-02,
          -3.89115582e-03, 2.67202649e-02, 1.66884977e-02,
          8.00670777e-03, 6.69739395e-03, -1.08199159e-03,
          6.18912792e-03, 6.44883548e-05, -8.79561435e-03,
          -3.87446140e-04, 3.04162819e-02, 6.66527962e-03,
          -9.08880588e-03, -4.52207401e-03, 1.08225616e-02,
          3.26079456e-03, -4.35672561e-03, -6.82089850e-03,
          -4.74621123e-03, -6.70637749e-03, -1.30417692e-02,
          -4.10148501e-03, -8.81728716e-03, -1.27013586e-02,
          -2.98717816e-04, 7.66591262e-03, -5.16978325e-03,
          -6.01994013e-03, -9.70060937e-03, -3.04433331e-03,
          -1.57908369e-02, -1.76383276e-02, 3.95602640e-03,
          -1.16240727e-02, -4.16962663e-03, -2.14150711e-03,
          8.62671877e-04, 1.12664737e-02, -2.14776602e-02,
          -1.14850849e-02, -1.10417800e-02, -1.24113215e-02,
          -1.43040409e-02, 8.29853583e-04, 6.18585292e-03,
          9.57421772e-03, -6.54343050e-03, -1.00115594e-02,
          -3.88973946e-04, -6.28847489e-03, -1.14576528e-02,
          -5.58363413e-03, 1.36221638e-02, 9.49646998e-03,
          1.43480732e-03, -2.27422360e-03, -1.08727729e-02,
          -1.84983292e-04, -1.32370302e-02, 1.45393321e-02,
          1.17750559e-03, -5.53016970e-03, -8.64512939e-03,
          1.79687305e-03, 9.35817778e-04, -1.89007912e-02,
          -8.87263846e-03, -5.34039224e-03, -2.64836266e-03,
          6.27360307e-03, 7.76900304e-03, -1.79259060e-03,
          -1.71658350e-03, -1.46235796e-02, -9.52051207e-03,
          -5.84257534e-03, -5.51639404e-03, 1.15263518e-02,
          -9.84778628e-04, -4.39068349e-03, -2.66007837e-02,
          -2.21900623e-02, -1.49895186e-02, 5.10205375e-03,
          1.05854766e-02, -8.27189628e-03, 6.56752428e-03,
          1.81839324e-03, -8.60280078e-03, 1.08096832e-02,
          1.20337754e-02, 1.21041108e-02, -9.40890459e-05,
          -4.38891444e-03, -2.50789765e-02, -6.23732107e-03,
          4.53774445e-03, 2.33599660e-03, 1.72991548e-02, 8.12708866e-03,
          2.10319253e-04, 5.15727466e-03, 1.08215623e-02,
          -1.43726426e-03, 1.15480786e-02, 7.24206585e-03,
          -6.18730439e-03, -1.32712899e-02, -2.42592171e-02,
          -9.45195556e-03, 2.84042821e-04, -1.01158740e-02,
          -1.98009983e-02, -1.16050197e-03, -1.78611372e-02,
          -3.81701649e-03, 4.71965829e-03, 1.16510049e-03,
          -1.32640516e-02 ]
   decision_functions:
      -
         sv_count: 1
         rho: -2.4176235451079013e+00
         alpha: [ 1. ]
         index: [ 0 ]
