%YAML:1.0
my_svm: !!opencv-ml-svm
   svm_type: C_SVC
   kernel: { type:LINEAR }
   C: 1.0000000000000000e+11
   term_criteria: { epsilon:2.2204460492503131e-16, iterations:100 }
   var_all: 3780
   var_count: 3780
   class_count: 2
   class_labels: !!opencv-matrix
      rows: 1
      cols: 2
      dt: i
      data: [ -1, 1 ]
   sv_total: 1
   support_vectors:
      - [ -2.86285821e-02, 3.92641574e-02, -3.41336476e-03,
          -4.73781750e-02, -4.41011414e-02, -8.33230745e-03,
          -1.23443147e-02, -6.31886795e-02, -6.87902793e-02,
          1.15334056e-02, 4.76572141e-02, -5.65847866e-02,
          -2.57722922e-02, 1.03461649e-02, 6.70754313e-02,
          1.80389211e-02, -7.79790804e-03, -4.06615715e-03,
          -1.84220877e-02, 5.81687875e-02, -3.49057354e-02,
          1.40947914e-02, 4.45674360e-02, -5.96093386e-02,
          -3.21157090e-02, -3.26745696e-02, -6.14237897e-02,
          5.14523759e-02, -6.28653839e-02, -1.38447359e-01,
          -3.82889025e-02, 4.33480628e-02, 2.70892903e-02,
          -3.04148197e-02, -9.13153635e-04, 3.72045152e-02,
          -1.86813921e-02, -8.85151140e-03, -6.56219870e-02,
          4.55849022e-02, 2.81090885e-02, 5.54699898e-02, 1.49410451e-02,
          -1.44009222e-03, -4.53914404e-02, 1.51711947e-03,
          4.33803834e-02, -1.73470154e-02, 3.67341824e-02,
          5.00385137e-03, 3.53401974e-02, 3.87162156e-02,
          -3.40653840e-03, -7.97871649e-02, 9.51670390e-03,
          -8.20200443e-02, -1.09922700e-01, 1.59082301e-02,
          5.67330755e-02, 7.52214044e-02, -3.31850983e-02,
          5.43385278e-03, -6.49687201e-02, 4.23024641e-03,
          1.38530019e-03, -3.18121836e-02, 8.08163546e-03,
          2.73834858e-02, -3.32661420e-02, -3.22837085e-02,
          -4.25950177e-02, -8.33485797e-02, 3.64771411e-02,
          5.95261194e-02, 1.76985338e-02, 4.14281450e-02,
          -3.14638391e-02, -5.54616563e-03, 2.28783563e-02,
          2.15831250e-02, 9.37272701e-03, 8.13225582e-02, 5.51446006e-02,
          1.10354079e-02, 4.50463966e-02, -4.85334098e-02,
          2.59069093e-02, 5.53785414e-02, -2.55602151e-02,
          2.66907476e-02, 1.58388782e-02, 1.66575238e-02,
          -5.97834699e-02, 2.18136869e-02, -9.02223773e-03,
          -5.26825860e-02, -3.65603305e-02, -5.10285050e-02,
          -6.39148951e-02, 6.37411252e-02, -1.47159686e-02,
          -1.11679234e-01, 5.81955574e-02, 7.37891998e-03,
          1.25763789e-02, 6.90433569e-03, -5.16582318e-02,
          3.88510376e-02, 5.67882583e-02, 5.17350286e-02, 7.93687161e-03,
          7.35392943e-02, -2.64928471e-02, 6.38196524e-03,
          3.19827609e-02, -4.09052148e-02, -2.10816395e-02,
          -4.97017205e-02, 3.03505883e-02, -5.76260360e-03,
          7.63777718e-02, -2.20850725e-02, -3.27025959e-03,
          2.10677292e-02, -5.59780234e-03, -4.52537611e-02,
          -1.00808835e-03, -2.21571345e-02, -9.03246254e-02,
          6.31180853e-02, -2.48855632e-02, 1.70629080e-02,
          3.41243334e-02, 3.39362328e-03, -6.40585320e-03,
          -8.25965554e-02, -5.91735989e-02, -5.55999912e-02,
          4.74820510e-02, 2.46085823e-02, 1.03951590e-02, 8.58414639e-03,
          -1.36015033e-02, -3.99120562e-02, -2.34577302e-02,
          6.04049675e-02, 2.84929127e-02, 8.14632624e-02, 4.39186729e-02,
          -1.03475349e-02, -7.46247685e-03, 4.81754467e-02,
          -1.25029972e-02, 5.03307991e-02, 5.18309139e-02,
          4.32233931e-03, 6.87530711e-02, 5.85634373e-02,
          -1.20958462e-02, -2.28684135e-02, 3.34140286e-02,
          -4.28902498e-03, -3.33959907e-02, 5.71683748e-03,
          -3.88309062e-02, 6.61271438e-02, 9.00422856e-02,
          -6.38551963e-03, -4.07984927e-02, -1.87561773e-02,
          -6.20600916e-02, 2.07337160e-02, 5.92581276e-03,
          -6.24931529e-02, 2.14101430e-02, 1.93419196e-02,
          -9.26350243e-03, -5.33625260e-02, 4.64287922e-02,
          2.40047108e-02, 2.19948031e-02, 5.08442149e-02, 4.77768714e-04,
          3.63755301e-02, -2.90301372e-03, -2.90119853e-02,
          -3.75323296e-02, -1.83739122e-02, -4.33934778e-02,
          2.96161082e-02, 5.85926436e-02, -3.64227244e-03,
          -3.77575420e-02, 4.95900493e-03, 2.63362676e-02,
          5.71012031e-03, -3.54035981e-02, -2.54316051e-02,
          6.71582995e-03, 5.04917372e-03, -1.82100106e-02,
          -1.85643639e-02, -2.13296972e-02, -5.45219937e-03,
          -3.80643941e-02, 5.10463165e-03, -1.91380903e-02,
          8.35530111e-04, 3.47595513e-02, 2.80648209e-02, 2.28177616e-03,
          -7.65682478e-03, 1.07670510e-02, -2.73328088e-02,
          -1.37326298e-02, -1.86278112e-02, 2.73957732e-03,
          3.78860012e-02, 2.10415572e-02, -1.77304558e-02,
          2.12602085e-03, 7.10800812e-02, 6.88622370e-02,
          -1.25258556e-02, -5.18270358e-02, -6.06909208e-02,
          3.70356813e-02, 6.28165901e-02, 2.98579037e-02,
          -3.67215127e-02, 3.26978788e-02, 4.41204831e-02,
          -1.34727890e-02, -9.57550704e-02, -1.66404322e-02,
          3.38467397e-02, 2.73904614e-02, -2.14751158e-03,
          3.17425886e-03, 9.05947294e-03, -9.25730541e-03,
          -2.18932759e-02, -3.18775848e-02, -2.49999091e-02,
          2.74364706e-02, -1.93666643e-03, -2.11208034e-02,
          1.54114189e-02, -2.55487245e-02, 1.06139360e-02,
          -3.21069509e-02, -4.33267877e-02, -7.48106763e-02,
          3.85256521e-02, 7.68379718e-02, 5.60283586e-02,
          -4.45766971e-02, 1.03349872e-02, 4.00895886e-02,
          2.33900268e-02, -4.62990515e-02, -7.35116471e-03,
          3.68058234e-02, 3.39336917e-02, 1.82161108e-02,
          -5.88840023e-02, -9.18664970e-03, 1.63122416e-02,
          9.89297479e-02, 5.62572815e-02, -4.69462341e-03,
          2.29885802e-02, 3.13464850e-02, -2.50040530e-03,
          1.71428230e-02, 3.76353674e-02, 1.04626305e-02,
          -1.37397402e-03, -1.08592249e-02, -8.06662720e-03,
          -8.46161321e-03, -2.42951140e-02, -8.28750804e-03,
          -2.01190934e-02, 4.47257534e-02, -1.03981206e-02,
          3.48854139e-02, 2.23690197e-02, -4.61665578e-02,
          3.39354984e-02, 2.61544641e-02, 4.85096052e-02,
          -2.85293683e-02, -8.94675869e-03, 3.42188552e-02,
          5.78963384e-02, 3.62664387e-02, -5.16100079e-02,
          -2.98671983e-03, 3.77202295e-02, 2.35363133e-02,
          -2.74662171e-02, 1.32936602e-02, 1.38375079e-02,
          -7.29456358e-03, -3.32196406e-03, -3.41711007e-02,
          -1.64300632e-02, -5.72857112e-02, 2.27851863e-03,
          4.91996296e-02, 3.87290902e-02, 1.84434874e-03, 3.14714462e-02,
          -2.60091061e-03, -8.03861618e-02, -8.16766322e-02,
          -1.50502566e-02, -1.18478406e-02, 2.19146013e-02,
          4.86040451e-02, 7.48038068e-02, 2.48815287e-02,
          -3.70530710e-02, -2.05843598e-02, 2.96128839e-02,
          6.67939708e-02, 1.22178942e-02, 3.10837571e-03, 1.81541760e-02,
          -1.79345291e-02, -3.56842093e-02, 6.75282627e-03,
          -5.68487309e-03, 8.26405548e-03, 6.18555173e-02,
          3.84626687e-02, 4.50295955e-02, 3.42050195e-02, 1.56134469e-02,
          8.22806079e-03, -1.77078694e-03, -7.35035166e-02,
          -2.68002748e-02, 4.46189679e-02, -7.19930511e-03,
          1.34978080e-02, 1.61295645e-02, -3.07771172e-02,
          -1.77411251e-02, -3.52313519e-02, -7.16957152e-02,
          3.61075485e-03, 1.03191368e-03, 1.66758467e-02, 9.17950645e-02,
          1.26920883e-02, -6.71009347e-02, -3.14120650e-02,
          -3.82475890e-02, -1.98516948e-03, -3.74877290e-03,
          5.37791513e-02, 3.56920296e-03, 3.99773084e-02, 1.86321735e-02,
          1.33587597e-02, 9.20112804e-03, 1.39024295e-03, 6.22451631e-03,
          -1.91421073e-04, 5.19709438e-02, 5.89548089e-02,
          4.96141315e-02, 7.39242733e-02, 4.00143042e-02,
          -4.74208109e-02, 6.62710471e-03, -4.71812002e-02,
          -5.15515134e-02, 9.05117558e-05, -5.07639088e-02,
          2.18173917e-02, -2.67204791e-02, -1.89686399e-02,
          -1.87099702e-03, 2.38758465e-03, 3.72308120e-02,
          -2.25170981e-02, 2.48327199e-02, -1.36747891e-02,
          3.81274102e-03, 2.50539575e-02, -4.66077775e-02,
          1.83639731e-02, 7.61118308e-02, -5.67918411e-03,
          1.92202535e-02, 3.36264968e-02, 5.16503565e-02, 3.34240356e-03,
          6.01939149e-02, 3.18494253e-02, -1.70804244e-02,
          2.21638791e-02, -2.44014487e-02, 8.14507995e-03,
          3.57051454e-02, -8.56934860e-02, -2.29672566e-02,
          2.12053973e-02, 3.07924114e-02, -4.44223061e-02,
          1.73340971e-03, 3.26199755e-02, 1.49763478e-02, 4.26945575e-02,
          -2.02831649e-03, -2.68755164e-02, 7.46591985e-02,
          -4.11009118e-02, -4.50552412e-04, 6.33597523e-02,
          7.34310783e-03, -8.27912707e-03, 8.80713481e-03,
          -7.22122490e-02, -4.37598340e-02, 2.91052926e-02,
          -1.26157766e-02, -3.10200099e-02, 7.53710466e-03,
          -1.78401824e-02, -9.83072538e-03, 5.23574874e-02,
          -5.84242754e-02, -3.33432034e-02, 8.29203874e-02,
          8.24456662e-02, -3.41791250e-02, -6.55147247e-03,
          -2.02676356e-02, 2.97651184e-03, 4.58510360e-03,
          -7.21678138e-02, -7.22563118e-02, 7.03580156e-02,
          6.32604957e-02, -4.53966781e-02, -2.43340712e-02,
          1.39840413e-02, 5.05800452e-03, 4.80340980e-02,
          -5.13484236e-03, -1.48350615e-02, -1.67495962e-02,
          3.32292579e-02, -2.81047300e-02, 1.22560933e-02,
          3.67427804e-02, 1.57631524e-02, 1.25496360e-02,
          -9.22961086e-02, -2.64998153e-02, -3.97613682e-02,
          -1.40698962e-02, -5.40924966e-02, -1.57392095e-03,
          1.53384944e-02, 1.57017466e-02, 1.50766643e-02,
          -6.28199354e-02, -1.25872001e-01, 6.16074763e-02,
          4.20238040e-02, 1.04328310e-02, 2.05793548e-02, 1.81516130e-02,
          -2.08578072e-02, 3.17305960e-02, 3.78387310e-02,
          -7.43742511e-02, 5.81828393e-02, 6.78921351e-03,
          1.51547207e-03, 5.51403277e-02, 6.05276227e-02, 2.32546069e-02,
          -1.45553416e-02, -9.88796651e-02, -8.68265629e-02,
          -4.93666390e-03, 3.67983989e-02, 3.40666883e-02,
          7.37936646e-02, 3.91238630e-02, -3.86342779e-02,
          -1.99723132e-02, -3.29536758e-02, -7.42878243e-02,
          1.69142466e-02, 2.69087125e-02, 6.18138500e-02, 4.70884629e-02,
          1.70903187e-02, -9.20903673e-08, 5.35727665e-02,
          4.46487926e-02, -1.19172581e-01, 2.50395220e-02,
          1.55912973e-02, 2.24350318e-02, 3.17573734e-02,
          -3.08117699e-02, 4.91112424e-03, 9.92786959e-02,
          1.08741447e-01, -4.74689938e-02, 1.05553027e-02,
          -4.92824754e-03, 1.19289588e-02, -2.02523563e-02,
          1.80013552e-02, -6.66271746e-02, 4.82812204e-04,
          -5.80790304e-02, -1.36743352e-01, -2.74935141e-02,
          2.12394539e-02, 6.19336814e-02, 6.31428659e-02,
          -3.46785574e-03, 2.09598499e-03, 1.84169356e-02,
          -3.85909379e-02, -9.52173471e-02, 1.20119881e-02,
          4.48235571e-02, 3.82920839e-02, 2.67263334e-02,
          -1.59661863e-02, 7.75681958e-02, 2.93060336e-02,
          8.31874683e-02, 5.77598959e-02, -2.06037164e-02,
          -2.10872889e-02, -5.38583938e-03, -5.59077077e-02,
          2.98311859e-02, -3.83263491e-02, -7.18308017e-02,
          -1.65154822e-02, 3.19222510e-02, -1.55514488e-02,
          -2.21152734e-02, 3.79954427e-02, 7.07606524e-02,
          -5.95099144e-02, -1.88354664e-02, 3.47191766e-02,
          5.34574501e-02, 4.12757844e-02, 1.06452266e-02, 1.07054804e-02,
          1.06752738e-02, -7.40251839e-02, -3.34139876e-02,
          -9.40993503e-02, -7.97823966e-02, -1.37313725e-02,
          1.32929469e-02, -3.67156826e-02, 3.37609686e-02,
          3.50186676e-02, 3.55951861e-02, 7.76623783e-04,
          -2.06914265e-02, -1.90968737e-02, 4.80630957e-02,
          7.60757551e-02, 5.30691966e-02, -3.01766326e-03,
          6.57503083e-02, 8.88304319e-03, 6.66781282e-03, 2.03234819e-03,
          -5.23542985e-02, 3.48444991e-02, 7.29882231e-05,
          -5.88937737e-02, -3.01502068e-02, 3.31343412e-02,
          -5.46583757e-02, -2.36187596e-02, -1.20063759e-02,
          -3.45848836e-02, 6.52685389e-02, 2.41799615e-02,
          -5.32795722e-03, -1.82360932e-02, 7.05466745e-03,
          4.74237092e-03, -1.95561424e-02, -3.39821279e-02,
          -1.86211802e-02, 6.50313050e-02, 2.40228474e-02,
          -4.41142544e-02, -6.16403483e-02, -3.90202776e-02,
          -3.83287780e-02, 6.18188120e-02, -3.81749014e-05,
          -7.79609457e-02, 5.31158745e-02, 2.38554012e-02,
          -3.14041600e-02, 4.26207157e-03, 3.01704053e-02,
          -4.03010920e-02, 6.75667226e-02, -1.25921164e-02,
          -8.03466067e-02, 5.66884689e-02, 5.24244122e-02,
          -6.05330383e-03, 3.41056921e-02, 1.61533840e-02,
          3.34089808e-03, -1.73427761e-02, -3.83254029e-02,
          -8.39178637e-02, 1.79554578e-02, -2.09587952e-03,
          -4.51007858e-03, -9.89686418e-03, 1.76985674e-02,
          -1.70657795e-03, -7.65633071e-03, -3.81153524e-02,
          -8.81446153e-02, 1.50905913e-02, 2.68203150e-02,
          6.27928134e-03, -8.74014199e-03, 3.18570086e-03,
          6.21787366e-03, 6.30072355e-02, -5.25279343e-03,
          -6.40084669e-02, 1.25697032e-02, -2.58991532e-02,
          5.41669875e-03, 1.56738535e-02, 5.65732047e-02, 4.05422300e-02,
          5.96266892e-03, -1.88044421e-02, -8.91426951e-02,
          5.26595823e-02, 3.72026861e-02, 7.05485558e-03, 3.97974551e-02,
          2.87629589e-02, -1.26406001e-02, -3.72054875e-02,
          -7.80227361e-03, -6.43362924e-02, 6.45728223e-03,
          -4.98401839e-03, 6.59629330e-03, -5.64898327e-02,
          4.84749582e-03, 5.30086495e-02, -4.09317948e-02,
          -8.34858418e-02, -7.70485774e-02, 1.31341787e-02,
          6.29703328e-02, 4.30674888e-02, -3.17095146e-02,
          -1.95505675e-02, 1.10964896e-02, 1.77522767e-02,
          -1.41965728e-02, -7.02386722e-02, 8.25334862e-02,
          5.52466363e-02, -1.33626834e-02, -7.55547285e-02,
          -1.99263021e-02, -2.27363370e-02, 4.86776941e-02,
          -2.66789347e-02, -5.22553213e-02, 2.32975949e-02,
          4.32272479e-02, 6.71025412e-03, -2.84836739e-02,
          1.70215610e-02, 2.53040791e-02, 1.19643286e-02,
          -8.63627568e-02, -6.20482303e-02, 7.40165561e-02,
          6.90832958e-02, 1.76561326e-02, -4.19003740e-02,
          -3.53593975e-02, 2.84770522e-02, 1.17638279e-02,
          -4.21449691e-02, -6.53062016e-02, 3.39571945e-02,
          4.65941206e-02, 1.23168044e-02, -9.27370861e-02,
          -5.39345853e-02, 3.94525044e-02, 1.74298696e-02,
          1.26579115e-02, -2.75918804e-02, -1.90904662e-02,
          -1.08914496e-02, -2.73792427e-02, -8.06068704e-02,
          8.75933748e-03, 3.50322090e-02, 5.24010956e-02, 3.17872986e-02,
          1.78528726e-02, 1.85327809e-02, 9.30359401e-03, 1.47371106e-02,
          -6.87171146e-02, 1.30852973e-02, 8.93833488e-02,
          -8.15727934e-03, -2.94277482e-02, -6.79240748e-02,
          -2.14073118e-02, 7.63986434e-04, -4.79852967e-03,
          -1.09975919e-01, -7.63816908e-02, 2.06139032e-02,
          1.99045800e-02, 2.57585328e-02, -2.50718631e-02,
          6.99298503e-03, 3.86567600e-02, -1.45785687e-02,
          -1.33861095e-01, -2.65486389e-02, 1.94540825e-02,
          9.83763300e-03, 3.32602486e-02, 3.13152038e-02, 3.63683775e-02,
          1.76732391e-02, -9.56079457e-03, -1.07652299e-01,
          -9.96342395e-03, 9.32340603e-03, 7.25603104e-03,
          6.16137171e-03, 5.32131968e-03, 1.73974980e-03, 4.11195904e-02,
          8.49160273e-03, -6.75734803e-02, -1.07501205e-02,
          4.60910313e-02, 1.87213570e-02, 2.42067296e-02,
          -3.13404687e-02, -1.22804437e-02, 1.94362737e-03,
          1.72148086e-02, -9.79574472e-02, -3.59271206e-02,
          1.03241559e-02, -3.83249335e-02, -7.00153271e-03,
          1.49185797e-02, 3.72154303e-02, 7.72919431e-02, 5.42030707e-02,
          -3.53519060e-02, -4.20195051e-02, -2.61697918e-02,
          6.03677109e-02, 3.70903648e-02, 7.97532219e-03, 3.21596488e-03,
          4.43577245e-02, 5.05028106e-02, -3.79079953e-02,
          -3.60382311e-02, 8.31533447e-02, 3.18628252e-02,
          4.54018638e-02, -3.01098321e-02, -2.10355390e-02,
          2.41420958e-02, 2.72330046e-02, -1.59470625e-02,
          3.02055385e-02, 6.45464063e-02, -2.53703836e-02,
          4.50072326e-02, 4.75892760e-02, 2.87147556e-02, 5.70783615e-02,
          2.03832965e-02, -3.93121876e-02, -4.17954624e-02,
          1.34418197e-02, -2.32394203e-03, -2.84899510e-02,
          -3.68484519e-02, -1.86345764e-02, 9.26573351e-02,
          -4.83758040e-02, -4.56886962e-02, -3.51941250e-02,
          4.62916903e-02, -2.98427232e-02, 1.80220269e-02,
          -5.30339070e-02, -5.50611131e-02, 5.85579351e-02,
          1.69413462e-02, -1.88398454e-02, 1.39464242e-02,
          2.45438684e-02, -4.37601730e-02, -2.17907913e-02,
          -3.23793888e-02, -2.29135901e-02, 6.32145554e-02,
          4.02732268e-02, 2.04788633e-02, 1.91655625e-02,
          -3.17194238e-02, 1.21694608e-02, 2.16946076e-03,
          2.77845538e-03, -3.18553075e-02, 2.78967898e-02,
          -4.71842885e-02, -8.46213847e-02, -1.99971478e-02,
          1.83519647e-02, -2.20337347e-03, 1.10001620e-02,
          3.72295603e-02, -4.82526189e-03, 4.21217047e-02,
          -9.32101102e-04, -2.98636779e-02, 1.67920664e-02,
          3.51859233e-03, -3.52755636e-02, 1.13863088e-02,
          2.68082656e-02, 1.11789927e-02, 8.60317890e-03, 1.46909500e-03,
          -4.59169298e-02, 2.05877405e-02, -6.86656311e-02,
          -6.34715185e-02, 1.95574239e-02, -5.42193232e-03,
          3.20736342e-03, 5.72300814e-02, -2.02341378e-02,
          -4.57032621e-02, -3.86663293e-03, -6.10879138e-02,
          6.45907521e-02, 5.35686314e-02, 4.52652760e-02, 2.64540389e-02,
          2.26323828e-02, 2.32124962e-02, -2.32417695e-02,
          1.87177621e-02, 3.76907401e-02, 7.85526559e-02, 4.65206318e-02,
          -6.63047051e-03, 1.29351215e-02, 2.76843719e-02,
          -9.53422766e-03, -2.26899739e-02, 4.38268520e-02,
          1.23382930e-03, -2.10683346e-02, 2.86865942e-02,
          1.43552152e-03, -3.44725735e-02, 7.98346475e-03,
          3.55050527e-03, -5.87114133e-03, 2.34227180e-02,
          1.65438373e-02, 7.98470713e-03, 3.05012967e-02, 4.94091213e-02,
          1.78418122e-02, -1.15165291e-02, 2.13532448e-02,
          -4.80248854e-02, 5.25824837e-02, 3.66213247e-02,
          4.09367867e-02, 6.07838072e-02, -1.83379799e-02,
          1.41530205e-02, -1.80469304e-02, -5.82929794e-03,
          1.91549454e-02, 5.55233359e-02, 4.04915139e-02, 4.57726568e-02,
          6.42631054e-02, 7.07609653e-02, 1.07922763e-01, 3.05802170e-02,
          -1.02072489e-02, 7.28458026e-03, 1.17052570e-02,
          7.19253495e-02, -7.04248808e-03, 3.18766050e-02,
          3.78041975e-02, 9.32524540e-03, 4.90559451e-03, 2.91706398e-02,
          -4.84659970e-02, 5.20417579e-02, 5.75609878e-02,
          -4.84239645e-02, 5.89268189e-03, 1.68887619e-02,
          -1.80902053e-02, -1.99961346e-02, 4.92507592e-02,
          1.87037382e-02, 5.02781719e-02, 1.37178255e-02,
          -4.47501196e-03, 1.83463190e-02, 4.31603938e-02,
          3.42842750e-02, 3.77675854e-02, -3.52785364e-02,
          -5.41327596e-02, -1.30154681e-03, 1.49574503e-02,
          -4.66128737e-02, -5.74655458e-02, -4.83764373e-02,
          -4.11134809e-02, -8.23165849e-03, 1.59411272e-03,
          -4.51836698e-02, -4.21357788e-02, -4.43364196e-02,
          -4.03136387e-02, 3.85806970e-02, 6.12235144e-02,
          2.28328183e-02, 6.05214247e-03, -2.04223040e-02,
          4.75669950e-02, 1.83853302e-02, -4.41024229e-02,
          -7.96919502e-03, 3.07445582e-02, 4.05763239e-02,
          1.17272390e-02, -2.45378185e-02, -8.11469853e-02,
          -2.50650337e-03, -2.61633210e-02, -5.23712635e-02,
          -4.28183712e-02, -8.28761980e-03, 3.89027409e-02,
          2.67098472e-02, -4.71180640e-02, -2.86616255e-02,
          -2.03899369e-02, -1.58822238e-02, -5.66879734e-02,
          4.41762758e-03, -2.28351839e-02, 1.31178517e-02,
          1.47181703e-02, 1.53104775e-02, -5.70119098e-02,
          -1.16230594e-02, -1.47844879e-02, -4.09183130e-02,
          1.67650804e-02, -3.89966229e-03, -2.37486437e-02,
          -6.01595193e-02, -6.07425831e-02, -4.30488922e-02,
          8.01303051e-03, 1.98283922e-02, 2.02116333e-02, 6.09064428e-03,
          -2.70200614e-02, -8.23432673e-03, -1.45256473e-02,
          -3.33801284e-02, 2.24950258e-02, 3.80850025e-02,
          4.39270958e-02, 1.94741115e-02, 4.54979613e-02,
          -3.19384113e-02, -3.69137526e-02, -9.49978754e-02,
          2.05899663e-02, 7.32947700e-03, -1.90455876e-02,
          -3.92811792e-03, 9.02477466e-03, 9.15108062e-03,
          -8.52928497e-03, 2.64222622e-02, 1.57452915e-02,
          1.71961579e-02, 5.83334565e-02, 9.09086131e-03,
          -1.46684004e-02, -3.36358026e-02, -2.35103760e-02,
          -7.77080804e-02, 2.27204654e-02, 9.76744923e-04,
          -7.98449516e-02, -3.11633404e-02, 1.55037902e-02,
          3.80368195e-02, 4.05719578e-02, -3.64459269e-02,
          -1.67640913e-02, 5.54489065e-03, 4.05542640e-04,
          -6.20414950e-02, -1.18930750e-02, -1.47495419e-02,
          4.99675330e-03, 1.39999483e-02, 4.07047896e-03,
          -1.61967799e-02, 5.37443571e-02, 4.01858874e-02,
          -4.75869775e-02, -1.49671724e-02, -2.90472824e-02,
          -8.43575411e-03, 1.45919640e-02, -9.21364262e-05,
          8.85057449e-03, 1.46135902e-02, 2.46016644e-02,
          -5.28827384e-02, -2.26670634e-02, -5.74387275e-02,
          -2.63063833e-02, -9.63421259e-03, -2.41152924e-02,
          4.69836919e-03, 2.57477760e-02, 2.65942160e-02,
          -5.31976260e-02, 2.89833024e-02, 5.27346879e-02,
          7.84174446e-03, -4.46244068e-02, 7.84166902e-02,
          3.44257392e-02, -1.92401148e-02, 1.26281427e-02,
          -7.51977935e-02, 1.58404540e-02, 5.55485487e-02,
          1.09991990e-02, 2.18176711e-02, 3.09728757e-02, 9.32105351e-03,
          5.93428500e-02, -1.10162999e-02, -5.52157015e-02,
          2.52579134e-02, 1.96254104e-02, 2.82649342e-02,
          -4.39792052e-02, 3.08868904e-02, -5.57153895e-02,
          -1.58844274e-02, -4.13174853e-02, -1.06810823e-01,
          -8.59218184e-03, 3.83168086e-02, 5.46882767e-03,
          -1.79341752e-02, 9.12498236e-02, 2.72447318e-02,
          -2.20040474e-02, -8.11610429e-04, -6.79382607e-02,
          -3.15646231e-02, -2.84807733e-03, -2.97736464e-04,
          1.59631092e-02, 2.33402196e-03, -2.27344427e-02,
          3.80429381e-04, 3.42963636e-02, -4.23081480e-02,
          -3.80396955e-02, -4.59083691e-02, 1.70270279e-02,
          -2.54702065e-02, -5.94468415e-03, -1.83757935e-02,
          -4.39957269e-02, -1.77151095e-02, -9.51996818e-02,
          -3.71262953e-02, 3.62973213e-02, 1.80427413e-02,
          -9.93362255e-03, 1.85646601e-02, -1.38145005e-02,
          -5.53405508e-02, -5.94927371e-02, -8.32226872e-02,
          -4.88240533e-02, 1.51312901e-02, 5.05410433e-02,
          -2.28624586e-02, -6.05657510e-03, 1.04435813e-02,
          -1.46317743e-02, -1.80429239e-02, -2.62592360e-02,
          -4.13898826e-02, -9.02787037e-03, 3.11522707e-02,
          -1.51446685e-02, 5.07875439e-03, -3.74757983e-02,
          -3.56677473e-02, 4.11845976e-03, 1.36834765e-02,
          2.65505221e-02, -1.23274457e-02, 3.33081335e-02,
          -4.71727923e-03, 1.04857199e-02, 1.40206823e-02,
          -1.66546311e-02, -7.37322122e-02, -9.10687521e-02,
          -5.67545593e-02, -3.07728746e-03, 2.37549935e-02,
          7.25764665e-04, 4.80595045e-03, -4.55600256e-03,
          -4.05644700e-02, -3.14391628e-02, -3.69094983e-02,
          -1.55802825e-02, -1.66308042e-02, -9.30136628e-03,
          3.57202962e-02, -5.49179576e-02, -4.65737917e-02,
          -4.95063514e-02, 1.52532570e-02, 2.29399335e-02,
          5.54155186e-02, -3.77112813e-02, 2.10096650e-02,
          -2.26371665e-03, -2.64120530e-02, -3.02164108e-02,
          -1.77595429e-02, 3.50070558e-02, 4.26445641e-02,
          7.91744962e-02, -1.26951793e-02, -2.54127551e-02,
          3.83986044e-03, -6.37596026e-02, -5.02718985e-02,
          -7.43622705e-02, -2.78776288e-02, -3.65558863e-02,
          2.38076597e-02, -3.29708084e-02, -1.31522408e-02,
          1.56365836e-03, -4.00292836e-02, -1.11285551e-02,
          4.59347805e-03, 2.43035164e-02, 3.32032773e-03, 2.66873240e-02,
          -1.67667884e-02, -3.44633218e-03, -2.84970105e-02,
          -1.11146877e-03, -3.78203988e-02, -4.04338129e-02,
          -1.12230359e-02, 4.95610572e-03, 5.35088852e-02,
          -1.10301366e-02, -1.62676647e-02, 1.63520742e-02,
          2.13997420e-02, -9.26352944e-03, -4.64863554e-02,
          -1.55027919e-02, 4.41366024e-02, 3.67628150e-02,
          -3.28191034e-02, -3.77403423e-02, 2.58305892e-02,
          -4.83064651e-02, 1.76262818e-02, -1.24934381e-02,
          -3.52891386e-02, 2.76089534e-02, 2.71670837e-02,
          -2.09395774e-02, -2.39467341e-02, -5.37034012e-02,
          -2.44725160e-02, 1.62607133e-02, -2.19303207e-03,
          -4.21393216e-02, 2.11430304e-02, 3.24774310e-02,
          -2.04089005e-03, -5.27499281e-02, -6.48096874e-02,
          2.31256988e-03, -3.33544891e-03, -2.13254690e-02,
          -2.43231598e-02, 3.73906679e-02, 2.04849467e-02,
          -7.63120651e-02, -2.67097796e-03, 4.80080508e-02,
          2.11370550e-02, 1.18011553e-02, -1.98748671e-02,
          -4.42616176e-03, 1.08712362e-02, -9.63730272e-03,
          -7.02929422e-02, 3.02958563e-02, 5.24406729e-04,
          -3.37567106e-02, -9.41626786e-04, -9.79162194e-03,
          2.21020705e-03, 6.06125146e-02, 3.54373939e-02, 2.42079031e-02,
          1.74422394e-02, -3.22743766e-02, -1.03166159e-02,
          8.99492577e-03, -1.39923263e-02, -2.13742089e-02,
          2.55594198e-02, 5.73115759e-02, 5.67976432e-03, 1.00520462e-01,
          1.68199372e-02, 1.04715675e-03, 3.00531238e-02,
          -2.53068451e-02, -2.58355197e-02, -2.19751131e-02,
          -7.10828416e-03, -7.89213479e-02, 2.48261690e-02,
          2.84266565e-02, 7.07566133e-03, 5.66573478e-02, 3.41725834e-02,
          1.93167431e-03, 2.65162177e-02, 3.45204435e-02,
          -2.43988447e-02, -2.29444006e-03, 9.70461499e-03,
          -6.43255487e-02, 4.84701283e-02, 1.90966856e-02,
          -9.55462307e-02, -2.93981488e-04, 3.88253178e-03,
          -1.48127059e-04, 7.28978449e-03, -5.57556786e-02,
          -4.84815575e-02, 2.90225223e-02, 1.41675528e-02,
          -5.35921678e-02, 4.08958383e-02, -1.35981413e-02,
          -2.55955998e-02, 3.43733467e-02, -3.41483168e-02,
          -8.68899468e-03, 6.35957792e-02, 4.80280370e-02,
          5.12409071e-03, 9.57552064e-03, 2.07947660e-02,
          -1.90458596e-02, 9.02919937e-03, 2.09667371e-03,
          -6.36819657e-03, 2.57132035e-02, 2.42397804e-02,
          -2.28389334e-02, -1.30364939e-03, -2.91296542e-02,
          -3.19200195e-02, -1.63832046e-02, -2.20740726e-03,
          -3.21902446e-02, 1.81064531e-02, 2.96171494e-02,
          -5.07112145e-02, -2.46872883e-02, 1.34481415e-02,
          4.74230312e-02, 5.93994819e-02, -6.76288754e-02,
          -6.43333122e-02, 1.28766336e-02, 1.80171505e-02,
          -4.58607748e-02, -3.72153241e-03, 8.79281666e-04,
          5.43334708e-02, 5.71930073e-02, -5.70959374e-02,
          -4.71843854e-02, 2.88316980e-03, 4.18100087e-03,
          -4.96247821e-02, -2.13525034e-02, -3.17158736e-02,
          -5.23359589e-02, -9.98280942e-03, -1.11013278e-03,
          -8.94366670e-03, 6.33104891e-02, 2.10735630e-02,
          -9.09418147e-03, 1.88936852e-02, 4.06587351e-04,
          -2.50332579e-02, 3.22284068e-05, 1.17514487e-02,
          -3.48422304e-02, -1.06383552e-04, -8.99881963e-03,
          -2.84158532e-02, 1.60990916e-02, 4.04117033e-02,
          4.17194627e-02, 4.27296795e-02, -6.72909766e-02,
          -1.06378808e-03, 2.53177658e-02, 1.47774294e-02,
          1.69615950e-02, 7.96257704e-02, 2.94569675e-02, 1.89607069e-02,
          1.95798595e-02, 3.17708217e-02, 3.91756780e-02, 3.90285887e-02,
          4.83856862e-03, -1.11938203e-02, 1.71587206e-02,
          5.16737951e-03, -2.67182160e-02, -8.23901966e-03,
          3.90432589e-02, 3.33212912e-02, 1.61259305e-02,
          -2.92938948e-02, -2.52493192e-02, 1.91830806e-02,
          1.09916730e-02, 2.50506997e-02, 4.29509729e-02, 1.09969135e-02,
          -1.35605428e-02, -2.29625031e-03, -8.73202458e-03,
          -5.22636548e-02, 1.90058928e-02, 5.40291891e-04,
          -3.03946100e-02, -7.41061009e-03, -1.20885121e-02,
          -2.75024436e-02, -1.32964849e-02, -3.86564876e-03,
          -8.55410285e-03, 3.22379023e-02, -5.18978909e-02,
          2.04671491e-02, 4.99865413e-02, -2.89859734e-02,
          -1.95899676e-03, 2.86205895e-02, -3.00817173e-02,
          -4.84066457e-02, -1.35996221e-02, -1.82137429e-03,
          1.94322281e-02, 5.18514365e-02, 6.78434819e-02, 9.30602476e-03,
          4.89973910e-02, 4.55412902e-02, 7.78585747e-02,
          -2.16948707e-02, -2.06197481e-04, 7.10005825e-03,
          1.85486488e-02, 3.21785882e-02, 4.21301322e-03, 3.64821963e-02,
          2.42626332e-02, 1.84641685e-02, -1.27961086e-02,
          -8.75131935e-02, 2.10494120e-02, 5.94826825e-02,
          5.99460490e-03, -1.53623391e-02, 4.98662218e-02,
          4.38646302e-02, 6.21331260e-02, -9.37363226e-03,
          6.04499422e-04, 1.29309809e-02, -8.54238123e-03,
          -1.48577178e-02, 6.71232771e-03, 7.14481203e-03,
          2.97816265e-02, 6.89704195e-02, 3.69060412e-02, 7.18819769e-03,
          -3.15477066e-02, 8.24862905e-03, 8.09695199e-03,
          -2.85775564e-03, -3.92771289e-02, -4.27979156e-02,
          -7.82155246e-03, 3.97335067e-02, 4.27048020e-02,
          -2.68231817e-02, -3.18330824e-02, -6.85446290e-03,
          1.24771725e-02, 2.43140142e-02, 7.77653512e-03, 1.15877343e-02,
          7.32296007e-03, 4.33454551e-02, -1.37222717e-02,
          -2.77400506e-03, -4.12164927e-02, -3.30001488e-02,
          -4.44935597e-02, -3.51548977e-02, -9.95357335e-03,
          -3.06956880e-02, 1.21035902e-02, -8.80819000e-03,
          1.50281750e-02, -4.91047353e-02, -9.87508148e-03,
          -2.02392898e-02, 4.74900976e-02, 4.47154790e-02,
          -6.67773262e-02, -5.92627749e-03, -3.18525061e-02,
          -1.19183399e-02, 1.49633894e-02, 1.27885193e-02,
          8.04940145e-03, 4.31062318e-02, 2.51622349e-02,
          -8.05661455e-03, -2.66690515e-02, -4.22150195e-02,
          -1.63542610e-02, -6.05462678e-03, -1.93364918e-02,
          9.79027129e-04, 2.19406746e-02, -5.41782333e-03,
          -8.77112299e-02, -6.57847850e-04, -8.86931457e-03,
          3.49014886e-02, -3.79429944e-02, 3.32828835e-02,
          5.13421334e-02, 4.82391380e-02, 5.27535193e-03, 9.35598277e-03,
          5.90714673e-03, -1.71317942e-02, -2.22304184e-02,
          -5.14629949e-03, 5.21564297e-02, 4.85930406e-02,
          4.49499190e-02, -3.30338888e-02, 1.46293668e-02,
          3.46617810e-02, -2.36686952e-02, -1.38890576e-02,
          1.77785996e-02, 2.12284271e-02, 4.76428121e-02, 8.04992467e-02,
          1.30560901e-02, -2.73671504e-02, 4.78196554e-02,
          2.07512658e-02, 2.08894480e-02, 9.93778463e-03, 8.22466332e-03,
          8.18996206e-02, 6.91909641e-02, -1.13591701e-02,
          1.56322047e-02, -8.91008414e-03, -5.18482961e-02,
          -4.03619707e-02, -2.11569034e-02, 3.96368988e-02,
          5.14087752e-02, 6.03620782e-02, -2.82770488e-02,
          -5.42533249e-02, -7.37054795e-02, -2.62259003e-02,
          1.90251432e-02, -1.94902532e-02, -8.70985538e-03,
          4.84317951e-02, 5.33085503e-02, 1.89089365e-02,
          -1.31749024e-03, 3.95093299e-02, -3.62852551e-02,
          3.38249793e-03, -9.80816782e-04, 1.40863974e-02,
          2.62818299e-02, 1.56670846e-02, -1.49511574e-02,
          -1.24805607e-02, -2.45359000e-02, -4.13774997e-02,
          1.29629765e-02, -2.31128186e-03, 3.48862223e-02,
          2.73927711e-02, 3.41989622e-02, -2.25849003e-02,
          -3.95982787e-02, -5.77688850e-02, -1.38971871e-02,
          1.03746783e-02, 3.42489295e-02, 1.19976292e-03,
          -5.18925535e-03, -2.45763902e-02, -5.48226126e-02,
          -3.65925580e-03, -2.97780931e-02, -5.05796969e-02,
          3.85472714e-03, -8.94548278e-03, -2.88254060e-02,
          1.22469952e-02, 3.03905942e-02, 5.85513609e-03,
          -1.34322857e-02, 4.55261618e-02, 6.83998987e-02,
          5.12609519e-02, -1.77632924e-02, -4.01319452e-02,
          -3.22121684e-03, -1.49403745e-03, -6.98814541e-03,
          -6.52504787e-02, -1.69311196e-03, 1.81049276e-02,
          1.24516636e-02, -5.87463304e-02, -5.69033735e-02,
          2.75752647e-03, -1.08248712e-02, -2.08170302e-02,
          5.11009386e-03, 5.95136266e-03, 3.84286121e-02, 4.37342934e-02,
          -3.53291482e-02, -3.11470851e-02, 1.82435773e-02,
          -8.38568527e-03, -2.77709030e-02, -4.88944538e-02,
          -1.42445741e-02, -1.14179133e-02, 1.06917918e-02,
          -9.40492973e-02, -3.79937999e-02, 5.89011097e-03,
          1.41251916e-02, 2.52752975e-02, -6.13451786e-02,
          -2.41748486e-02, 1.20780803e-02, -1.23935509e-02,
          -4.49032262e-02, 1.49355149e-02, -1.02114324e-02,
          -2.29651555e-02, -3.14587206e-02, -4.48516384e-02,
          -1.76593754e-02, 2.33628247e-02, 3.22764292e-02,
          -1.28163211e-02, 2.28422806e-02, -8.83590430e-03,
          -1.21352160e-02, -2.13284371e-03, -3.95794176e-02,
          -5.07190935e-02, -1.06169321e-02, 2.06962992e-02,
          -1.34340674e-02, 3.79222818e-02, -1.87091697e-02,
          -9.29334294e-03, -4.82309870e-02, -1.77159067e-02,
          -6.37206733e-02, -2.16919184e-02, 5.84457889e-02,
          3.30907106e-02, 2.85969069e-03, 2.56482847e-02, 8.64630472e-03,
          -3.66545953e-02, -5.80575801e-02, -4.83139679e-02,
          -2.82782018e-02, -1.52535574e-03, -3.82240454e-04,
          1.97322108e-02, 1.11314664e-02, -1.00813042e-02,
          -3.87729108e-02, -3.38187441e-02, -3.00566410e-03,
          -2.99035050e-02, 1.20827265e-03, 3.06305457e-02,
          1.06142294e-02, 3.01834028e-02, 1.15728965e-02, 5.09175588e-04,
          2.74729114e-02, -3.82727385e-02, -2.90664285e-03,
          4.82805669e-02, -1.08724805e-02, 9.92914895e-04,
          3.65887322e-02, 2.97084209e-02, -2.60948646e-03,
          3.26278806e-02, -2.05408894e-02, -6.51834309e-02,
          -2.00674627e-02, -1.74471084e-02, -9.62872757e-04,
          6.71390863e-03, -4.79252264e-02, -6.24387152e-02,
          -7.58476257e-02, -1.02145104e-02, -3.01842112e-02,
          8.67022760e-03, 3.18979695e-02, -5.45528857e-03,
          -7.06742425e-03, -5.04503623e-02, -9.54091176e-03,
          -3.61261554e-02, 9.93337575e-03, -9.24008898e-03,
          4.19706665e-02, 9.84185003e-03, 1.66086331e-02, 3.41873318e-02,
          -2.94703897e-03, -7.72398412e-02, -2.16220655e-02,
          -4.15945984e-02, -5.56072444e-02, -1.70057397e-02,
          1.80449709e-02, 2.57459912e-03, 3.35022956e-02,
          -6.13378966e-03, -7.60556757e-02, -1.89047009e-02,
          -2.39501186e-02, -5.23049086e-02, 1.83228161e-02,
          3.77913937e-02, -5.79790305e-03, 4.76123914e-02,
          9.58834123e-03, -4.35211435e-02, -3.24981920e-02,
          -3.95978661e-03, -4.26180214e-02, 8.73429887e-03,
          3.38963270e-02, 5.05261682e-02, 2.92781852e-02,
          -1.67285465e-02, -9.35946107e-02, -4.59616370e-02,
          -1.44119561e-02, -3.76629233e-02, -3.24640088e-02,
          2.03590840e-02, -2.30766404e-02, 5.07442057e-02,
          3.40339020e-02, -4.24209200e-02, -3.99159156e-02,
          -2.66974568e-02, -3.17392759e-02, 4.53405753e-02,
          1.86602131e-03, 4.22450192e-02, 7.23156258e-02,
          -3.46954330e-03, -7.22923204e-02, -4.92602997e-02,
          -2.85558924e-02, -2.62601934e-02, 5.63616380e-02,
          5.53298108e-02, 2.59607993e-02, 3.33325788e-02,
          -8.94428231e-03, -2.68697627e-02, -2.96205413e-02,
          4.84041125e-03, 3.90371680e-02, 3.73417996e-02, 3.55542265e-02,
          -6.77439710e-03, 6.53259307e-02, 5.29029872e-03,
          -5.36992885e-02, -5.18255122e-02, 2.99786665e-02,
          5.69720529e-02, 1.21664301e-01, 1.43280458e-02, 8.16709921e-02,
          5.37085682e-02, -1.42909819e-02, -3.68942060e-02,
          -3.71161513e-02, -1.22445459e-02, -3.14253420e-02,
          4.05232795e-02, 5.15407249e-02, 4.74255458e-02, 3.02900430e-02,
          1.63183622e-02, 1.82682683e-03, -3.03531755e-02,
          3.44024017e-03, -1.09874299e-02, 4.56004106e-02,
          -2.06484888e-02, -1.26943728e-02, 7.75798112e-02,
          2.25441735e-02, -5.14967181e-02, -5.12861162e-02,
          6.51856093e-03, 3.68468277e-02, 4.18101735e-02, 1.40369171e-02,
          2.55452394e-02, 7.40747675e-02, 6.03865087e-02,
          -3.84525210e-02, 4.35131192e-02, -4.48936857e-02,
          2.53920238e-02, 1.98447108e-02, 2.99371369e-02,
          -2.27004793e-02, -1.75680351e-02, -3.90703650e-03,
          -4.77643125e-02, -5.87301552e-02, 1.41940881e-02,
          3.96547578e-02, 1.28020914e-02, -7.33019710e-02,
          1.66291632e-02, 1.89919304e-02, 4.00928892e-02,
          -3.27488296e-02, 5.63612096e-02, -7.69114727e-03,
          5.72732463e-02, -2.60278955e-02, -4.40424047e-02,
          -1.85315609e-02, 2.59150248e-02, 2.98521984e-02,
          -4.89176288e-02, -3.34699191e-02, -4.01106328e-02,
          3.00941411e-02, 3.80365364e-02, -9.47109656e-04,
          -3.01018041e-02, 5.82537539e-02, 4.33397964e-02,
          -2.92318258e-02, -8.95754900e-03, -3.05262115e-02,
          4.03850153e-02, 3.68132629e-02, 1.47821940e-03,
          -1.19639728e-02, -1.58512220e-02, 2.50986945e-02,
          -3.59432884e-02, -3.15056108e-02, -4.51008640e-02,
          -9.43363924e-03, -1.57177020e-02, -5.52828982e-02,
          -3.09876855e-02, -8.16856604e-03, -4.60547060e-02,
          -5.36348149e-02, 8.30570888e-03, -5.85129224e-02,
          -8.80808849e-03, 3.59976031e-02, -8.16435902e-04,
          -7.60574713e-02, 7.19252508e-03, 1.04199853e-02,
          -4.42373343e-02, -4.82290573e-02, 1.18332626e-02,
          3.02723181e-02, 3.77723277e-02, -9.57381632e-03,
          -1.32131483e-02, 5.91292558e-03, 2.11013723e-02,
          -4.28354368e-03, 2.80117579e-02, 3.30280848e-02,
          -2.48803128e-03, 5.42822201e-03, -2.02285163e-02,
          -7.10033849e-02, 5.22691943e-03, -2.07768064e-02,
          -6.69471174e-02, -5.86381964e-02, -6.26754090e-02,
          3.36531624e-02, 2.93638427e-02, -3.49676199e-02,
          -8.04057419e-02, -2.25921012e-02, 1.76178160e-04,
          -2.90650707e-02, -2.23059151e-02, -7.97815563e-04,
          1.74913891e-02, -2.24313289e-02, -3.85503620e-02,
          -3.69059891e-02, 1.07562551e-02, 1.21001350e-02,
          -2.78335698e-02, 1.11413735e-03, -1.80997271e-02,
          -1.44306002e-02, -1.74681805e-02, -4.26492468e-02,
          -3.90525758e-02, 8.54089297e-03, 1.09814983e-02,
          -2.92429328e-03, 4.68712114e-02, -8.90834555e-02,
          -8.44186358e-03, 1.90249328e-02, -5.25515601e-02,
          -5.50493486e-02, 1.55379148e-02, 9.40110162e-03,
          -1.08663645e-02, -1.70431025e-02, -2.71659810e-02,
          -1.51141593e-02, -4.36985791e-02, -6.03539273e-02,
          -2.48840246e-02, 1.95523333e-02, 8.73201713e-03,
          -4.40615639e-02, 3.86036448e-02, -7.15473145e-02,
          -1.26264654e-02, -3.36728664e-03, 8.14802758e-03,
          -5.33642285e-02, 2.89690867e-02, 1.20331682e-02,
          5.68487728e-03, -9.66485776e-03, -5.82935214e-02,
          4.08447441e-03, 3.85973118e-02, -3.60006578e-02,
          -4.25212160e-02, 4.98629957e-02, 2.41657607e-02,
          2.74919923e-02, -4.48161885e-02, 1.75039656e-02,
          2.49609221e-02, 1.93966348e-02, -8.75496939e-02,
          -6.78351568e-03, 5.36808632e-02, 3.20508443e-02,
          -4.98476513e-02, 4.18895409e-02, 8.89512710e-03,
          2.37341337e-02, 2.09842119e-02, 1.01664579e-02,
          -3.44060846e-02, 3.40318270e-02, 3.60809900e-02,
          -9.96387471e-03, 5.22017572e-03, 3.02785523e-02,
          1.43386284e-02, 7.61212921e-03, -5.64154014e-02,
          -2.88102180e-02, 3.59708443e-02, 1.29581569e-02,
          -2.51563471e-02, -4.68124188e-02, 1.09872723e-03,
          -3.75244999e-03, 1.15502281e-02, -8.78631696e-02,
          -1.28072109e-02, 2.11775135e-02, -6.93135802e-03,
          -4.17124778e-02, -1.66854374e-02, -4.02243249e-02,
          -2.36747358e-02, 1.93965680e-03, -4.60061952e-02,
          -8.16986372e-04, 1.43799437e-02, 1.61661189e-02,
          2.17021387e-02, -2.98772883e-02, -3.57455350e-02,
          -1.06758438e-02, 3.50128487e-02, -5.27448878e-02,
          1.62971895e-02, 2.56335847e-02, -5.77699021e-03,
          -3.46518569e-02, -2.20970274e-03, -3.89466397e-02,
          -1.84387248e-02, -4.94792545e-03, -2.50217430e-02,
          -2.68546510e-02, 1.67079307e-02, 1.72151737e-02,
          -9.90598369e-03, -5.32616377e-02, -9.42920055e-03,
          3.14854458e-03, 1.05375731e-02, -3.32018584e-02,
          -1.14624826e-02, 5.75280786e-02, 2.20726170e-02,
          -2.62387097e-02, -1.91927291e-02, -1.70151293e-02,
          -4.39046137e-02, -6.22248091e-03, -8.24050512e-03,
          -6.85617924e-02, 4.24594572e-03, 2.87994444e-02,
          2.08007842e-02, -3.11513692e-02, -5.03011222e-04,
          1.32661164e-02, 4.57468117e-03, -1.77272558e-02,
          -7.25796744e-02, -3.48844472e-03, 7.97802489e-03,
          9.74016730e-03, -2.68001314e-02, -2.59624366e-02,
          2.32072044e-02, 2.45821010e-02, -4.93053645e-02,
          -3.82759795e-02, 7.13800043e-02, 3.43563147e-02,
          8.49652197e-03, -1.41943968e-03, -9.52188205e-03,
          -1.48175610e-02, -1.94127876e-02, -3.61820050e-02,
          -2.36987658e-02, 3.52966189e-02, 2.28163376e-02,
          -3.63276131e-03, -1.55515950e-02, -3.06452196e-02,
          -1.50040668e-02, -1.07238442e-03, -1.02414992e-02,
          -4.27596420e-02, 2.29961053e-02, 1.47240134e-02,
          -4.44042496e-03, -6.98651150e-02, 2.30229236e-02,
          7.22334906e-03, 2.93984413e-02, -6.50349557e-02,
          -5.16554639e-02, -1.26495678e-02, 5.28502930e-03,
          3.00126784e-02, -3.87370624e-02, 2.66349949e-02,
          1.18561005e-02, 1.28268835e-03, -4.57909442e-02,
          -5.08079166e-03, -1.15845595e-02, 3.84022966e-02,
          -2.38797329e-02, -7.32731372e-02, -3.85615751e-02,
          -8.20736494e-03, 1.36115048e-02, 1.64090656e-02,
          -5.76007180e-03, -3.48844798e-04, 1.63145345e-02,
          3.64215411e-02, -8.26261006e-03, -6.38145069e-03,
          -6.28268421e-02, -1.70491636e-02, -4.79144529e-02,
          -2.04400681e-02, -4.46144585e-03, 1.84683595e-03,
          8.03955179e-03, -4.95665558e-02, 4.06142659e-02,
          -1.13410484e-02, -4.30515502e-03, 1.29795698e-02,
          -2.79274024e-02, 1.96430143e-02, 6.63322909e-03,
          7.59521946e-02, -1.49340648e-02, 2.98759732e-02,
          -2.62556896e-02, 1.95008758e-02, -2.35855114e-02,
          -2.39923280e-02, 9.78730526e-03, 5.81173867e-04,
          3.39249000e-02, -3.87861952e-02, -2.89450847e-02,
          2.23168675e-02, 3.15328725e-02, -4.30573300e-02,
          -5.16173430e-02, -4.58382145e-02, -5.73670417e-02,
          -1.12630595e-02, -9.89071801e-02, -3.23099867e-02,
          -2.26778444e-02, -2.65313946e-02, -6.71059266e-02,
          -3.84562574e-02, -7.80151784e-03, 2.43272185e-02,
          5.15682064e-02, -2.91123930e-02, 4.98819025e-03,
          1.34184370e-02, -1.86155178e-02, -2.40333900e-02,
          2.50704996e-02, 3.21498215e-02, 4.31332849e-02, 6.93510473e-02,
          4.98860981e-03, -4.98850085e-03, -3.10236383e-02,
          -1.96844917e-02, -5.33668436e-02, -4.73322384e-02,
          -6.49511367e-02, -6.51377589e-02, 1.23772314e-02,
          -5.94363362e-02, -1.28883189e-02, -2.84377784e-02,
          1.18827512e-02, -1.32326037e-02, 2.47677676e-02,
          -2.90551614e-02, -2.23159827e-02, -7.40880370e-02,
          -5.01838326e-02, -8.32272545e-02, -6.09512441e-02,
          1.08516607e-02, 8.32796469e-03, 5.04005365e-02, 1.94980064e-03,
          3.12921926e-02, 7.22209290e-02, 6.45333678e-02,
          -1.46319224e-02, -7.46008083e-02, -4.80673611e-02,
          -6.39155880e-03, -9.18751769e-03, 2.47416040e-03,
          3.84025052e-02, -2.41357200e-02, 3.10740783e-03,
          -2.83298623e-02, -5.97959720e-02, -7.70771727e-02,
          1.62312035e-02, 2.63091736e-02, 2.53379792e-02, 1.27013791e-02,
          -5.22170886e-02, -2.75877006e-02, -6.15074672e-02,
          -4.00840715e-02, 6.56418875e-02, 6.71917479e-03,
          -6.32079644e-03, 2.77723279e-02, 1.17223458e-02,
          -3.93683724e-02, 1.83554646e-02, -2.67302021e-02,
          -2.65608542e-02, 6.15866389e-03, -3.52365151e-02,
          8.87861103e-03, 4.15455773e-02, 3.38539109e-02,
          -5.61900251e-02, -1.70429908e-02, -9.40981228e-03,
          -2.32296102e-02, -1.89478993e-02, -3.97804826e-02,
          -8.70805979e-03, 2.93218382e-02, -9.18514840e-03,
          -5.31119369e-02, 7.09996149e-02, -2.66807638e-02,
          -7.07594454e-02, -4.90241423e-02, -2.91425474e-02,
          5.19818114e-03, 1.97302587e-02, -7.23430049e-03,
          -7.29253888e-02, 2.27074022e-03, -5.07006049e-02,
          -1.08525760e-01, 1.35208759e-03, -4.54809144e-02,
          3.04041840e-02, 5.00745475e-02, 1.44627914e-02,
          -5.53397983e-02, 1.39215309e-02, 4.00404399e-03,
          -5.01685329e-02, 2.86835562e-02, 2.67527774e-02,
          2.97770952e-03, 1.99215463e-03, -7.73742935e-03,
          -6.00156896e-02, 2.11820435e-02, -4.10865285e-02,
          -7.39043206e-02, -3.90500091e-02, -2.87558623e-02,
          5.25374711e-02, 3.44670750e-02, 1.70078762e-02,
          -1.89477913e-02, 3.65654118e-02, 2.32035276e-02,
          -2.69928910e-02, 1.72083732e-02, 6.62900656e-02,
          -3.36549390e-04, 4.71146405e-02, -2.30343491e-02,
          -3.16241309e-02, 1.75427832e-03, -9.84611642e-03,
          -4.94193099e-02, 2.61359792e-02, -3.89763452e-02,
          3.17900479e-02, 2.41021719e-02, -3.56477387e-02,
          -3.28555815e-02, -5.06879240e-02, -2.43133064e-02,
          -2.94143111e-02, -1.43228041e-03, -1.95244644e-02,
          7.47737363e-02, 4.62921616e-03, -4.28483896e-02,
          -1.39058456e-02, 5.96547648e-02, 4.59435247e-02,
          -2.29774741e-03, 3.19229625e-02, 2.76081450e-02,
          3.40755694e-02, -2.84383595e-02, -1.14699369e-02,
          4.79691513e-02, 7.82435015e-02, 6.02426641e-02,
          -4.86210408e-03, -6.37966720e-03, -2.82498170e-02,
          9.45508629e-02, -6.39767153e-03, -2.53343210e-02,
          1.11557124e-03, -1.02695748e-02, 3.48709747e-02,
          -6.54218048e-02, -3.00089568e-02, 2.20188331e-02,
          4.79659475e-02, -9.90923494e-03, -3.44820693e-03,
          -2.94469707e-02, 2.01747706e-03, 5.74705377e-03,
          -3.10043190e-02, -1.84670128e-02, -6.80032419e-03,
          5.28498702e-02, -2.69069243e-02, -1.43230949e-02,
          2.13024262e-02, 2.68782806e-02, 1.01853505e-01, 1.17608979e-02,
          4.07004263e-03, -3.14527974e-02, 4.45898101e-02,
          6.35274425e-02, -1.11649549e-02, -1.28950607e-02,
          9.36691090e-02, 1.03652887e-01, 3.47963683e-02, 1.27309319e-02,
          -7.48037873e-03, -4.77250628e-02, -1.40687525e-02,
          -1.11053772e-02, -4.58681360e-02, 1.43224271e-02,
          1.86967794e-02, 7.80061679e-03, 1.62508003e-02,
          -2.52020452e-02, -1.30040515e-02, 2.34735310e-02,
          3.87448370e-02, -3.61775197e-02, 4.86354567e-02,
          -1.64143983e-02, 2.04425696e-02, -2.53173076e-02,
          -3.74743603e-02, -6.69070799e-03, 4.34339009e-02,
          3.37107060e-03, -2.11649667e-02, 9.33482125e-02,
          8.03649351e-02, 4.19602655e-02, 2.36010049e-02,
          -5.47771435e-03, -9.74459341e-04, 2.66223717e-02,
          -5.22148469e-03, 1.58266220e-02, 3.73903252e-02,
          4.40019369e-02, 5.90648912e-02, 2.35558376e-02,
          -1.98883507e-02, 8.76043737e-03, -1.09964004e-02,
          4.26180940e-03, -2.88456734e-02, 2.62896270e-02,
          -3.93650346e-02, 1.12031354e-03, 4.97339759e-03,
          -6.01670751e-03, -1.89279299e-02, -3.97656672e-02,
          -5.53873479e-02, -2.49015596e-02, -1.18372152e-02,
          -6.11436404e-02, -7.77923595e-03, -2.18112636e-02,
          -8.16240383e-04, 4.08020727e-02, -2.98239198e-02,
          -6.81977570e-02, -4.59516421e-02, -1.27044776e-02,
          -3.25147025e-02, 4.62474301e-02, 1.15969293e-02,
          -3.43906954e-02, 4.00338434e-02, -1.23180402e-02,
          -6.65768161e-02, -3.06826588e-02, 2.46243346e-02,
          -3.91529799e-02, -3.19942757e-02, -4.35165092e-02,
          -3.03254481e-02, -2.50027683e-02, 6.81465399e-03,
          -1.80577096e-02, -4.46688421e-02, -1.08499480e-02,
          -3.70378345e-02, 1.78884938e-02, -3.86200733e-02,
          -1.70695651e-02, -2.66048312e-02, -3.91987339e-02,
          -3.13783884e-02, -4.90366183e-02, -7.10764155e-02,
          -1.71003472e-02, 2.17531510e-02, -2.54548918e-02,
          -4.37317751e-02, 6.10612333e-03, 1.47117889e-02,
          -4.17483672e-02, -1.71574242e-02, 6.39373949e-03,
          2.08431631e-02, -1.22144781e-02, -6.41491264e-02,
          6.16641855e-03, 2.46617571e-02, 1.99679099e-02,
          -9.46423446e-04, -2.14781542e-03, -3.41619961e-02,
          -4.36502462e-03, 2.11401116e-02, -4.73021977e-02,
          -1.52007379e-02, -5.89122213e-02, -4.76161903e-03,
          -2.63745561e-02, -5.66340089e-02, -4.90348600e-02,
          -2.69866921e-02, 9.64972004e-03, -2.59784213e-03,
          -7.16119707e-02, -2.70476099e-02, 4.04304313e-03,
          3.16289999e-02, -6.31271899e-02, -1.61101967e-02,
          -1.88171435e-02, 3.69037911e-02, 1.95629131e-02,
          -2.07787436e-02, 3.28664035e-02, -3.05179767e-02,
          1.38404481e-02, -5.75867034e-02, -3.75807509e-02,
          -5.33425016e-03, 2.12175623e-02, -2.69260444e-03,
          -5.25065884e-03, -2.04622820e-02, -1.83024425e-02,
          2.59531885e-02, -3.99767719e-02, -1.09188259e-02,
          -2.03435794e-02, 5.17799035e-02, 1.88854467e-02,
          -1.19856596e-02, -1.86597537e-02, 4.91840299e-03,
          1.67235322e-02, -4.66157533e-02, -1.96786635e-02,
          4.46822196e-02, 6.33621216e-02, -2.08710562e-02,
          -1.92916933e-02, -2.07011309e-02, 9.32046119e-03,
          2.11684760e-02, 1.63322501e-02, 3.55337933e-02, 3.82428579e-02,
          1.92706157e-02, -4.55616415e-02, -4.20939289e-02,
          -4.74140085e-02, -5.74677810e-02, 5.18153608e-02,
          6.03223359e-03, -4.72810753e-02, -3.93795595e-03,
          4.72202674e-02, -2.21884698e-02, 3.13584832e-03,
          -3.66812684e-02, -5.31959645e-02, 1.51820888e-03,
          1.13718619e-03, -1.67223848e-02, -3.02692456e-03,
          1.53787620e-02, -1.50096379e-02, 1.24891875e-02,
          -1.50722666e-02, -2.30909735e-02, -6.68608304e-03,
          1.89517532e-02, 1.75981168e-02, -4.24853563e-02,
          -3.07221990e-02, -4.67410088e-02, -5.19514754e-02,
          -2.13250122e-03, 2.19728965e-02, 1.27999559e-02,
          -3.07263602e-02, -3.10754720e-02, -3.14278901e-02,
          -3.32441479e-02, -2.55088154e-02, -2.62383949e-02,
          -2.64087692e-02, -7.13484660e-02, -8.63035023e-03,
          -1.22941937e-02, -2.07472499e-02, 1.65035333e-02,
          2.46888702e-03, -4.42479737e-02, -5.50521584e-03,
          -4.21677418e-02, -1.27952565e-02, 1.29800029e-02,
          -3.49919721e-02, -9.66676995e-02, 1.92455091e-02,
          8.49778240e-04, -4.27484661e-02, -3.61946113e-02,
          -4.35965955e-02, -1.10722044e-02, 2.90992036e-02,
          1.77291613e-02, -1.80906262e-02, -8.27311259e-03,
          1.84176676e-02, -1.98014569e-03, -9.40306578e-03,
          -6.65260106e-02, -3.41184810e-02, -5.14954589e-02,
          1.44237978e-02, -4.53643240e-02, -8.89890045e-02,
          -9.93710291e-03, 1.62752103e-02, -6.60393713e-03,
          -7.56243244e-02, -1.13883259e-04, 3.33903804e-02,
          -6.16394868e-03, -5.51250502e-02, 2.45583709e-02,
          3.13058421e-02, 9.07086115e-03, -6.02413453e-02,
          -7.06070736e-02, -4.22618771e-03, -1.02808354e-02,
          -1.55917518e-02, -4.65855300e-02, -8.71348009e-02,
          -2.14549173e-02, -1.55848991e-02, -4.19174731e-02,
          -5.17744385e-02, 9.93285235e-03, -1.34043777e-02,
          1.58804096e-02, -2.05366686e-02, -2.80278046e-02,
          -1.16085764e-02, 1.77730452e-02, -1.58429444e-02,
          -1.57976747e-02, 2.78631970e-02, 3.26768570e-02,
          3.99305411e-02, 3.40610333e-02, -2.57620998e-02,
          2.75066644e-02, 9.09723993e-03, -1.55470669e-02,
          -6.87856507e-03, 3.61248441e-02, 1.94212683e-02,
          -1.57980900e-02, -6.27788454e-02, -1.09364077e-01,
          -2.22376529e-02, 7.72121688e-03, -3.81193236e-02,
          1.15782497e-02, -8.62411596e-03, -1.50541617e-02,
          -1.28063594e-03, -3.22201476e-03, -6.24440350e-02,
          -7.24063546e-04, -4.15630685e-03, -2.28103492e-02,
          4.41582389e-02, 3.25788669e-02, 2.07562726e-02, 4.53390293e-02,
          -4.35562916e-02, 4.18636836e-02, 1.96374138e-03,
          1.94030159e-04, 1.16480635e-02, 1.03177717e-02, 2.54640505e-02,
          9.62569471e-03, 4.33012284e-02, -2.10024100e-02,
          6.17750781e-03, 1.60259288e-02, 2.85207592e-02,
          -6.82782428e-03, 2.42692418e-02, 6.71745138e-03,
          1.58419665e-02, -8.47667630e-04, -9.27359462e-02,
          1.75440665e-02, -2.30072439e-02, -1.48664946e-02,
          -3.53940157e-03, -4.77502197e-02, -2.05718772e-03,
          4.14772891e-02, 2.71747038e-02, -4.93839085e-02,
          2.80349180e-02, -2.76332442e-03, -5.93387820e-02,
          -5.58637343e-02, -1.85866393e-02, -2.23448426e-02,
          -1.42081094e-03, -2.21968605e-03, -5.17838709e-02,
          9.95930377e-03, 9.66637209e-03, -1.08501595e-02,
          -3.45038506e-03, 9.39993560e-02, -1.79401767e-02,
          4.26467479e-04, 1.05270203e-02, 1.75326802e-02,
          -5.85295670e-02, -8.31074566e-02, -2.95761731e-02,
          -2.10608616e-02, 2.62659811e-03, -1.05404994e-02,
          4.29674005e-03, 3.65529992e-02, 2.93208490e-04, 1.31301926e-02,
          2.08683424e-02, -1.45814465e-02, -2.90691592e-02,
          -2.38921354e-03, -3.46628428e-02, -1.25409365e-02,
          -2.96923481e-02, 7.38910213e-03, -4.92818728e-02,
          -4.83733229e-02, -1.50157707e-02, -2.44738888e-02,
          7.16191307e-02, -3.18198614e-02, 3.52687687e-02,
          1.61553901e-02, 3.20501998e-02, 4.41383198e-03,
          -3.24176513e-02, -4.65499125e-02, -1.37637891e-02,
          7.20068626e-03, 1.10746277e-02, 5.26346266e-02,
          -3.46865840e-02, -5.12931906e-02, 1.07873175e-02,
          -6.58545569e-02, -9.28984657e-02, -3.98226641e-02,
          -4.08544503e-02, -5.07322438e-02, 1.47455912e-02,
          -6.52407333e-02, 8.48767930e-04, 8.28860886e-03,
          -8.55509751e-03, 9.74175893e-03, -1.10998433e-02,
          -7.63968304e-02, -7.39169046e-02, -4.21394967e-03,
          -1.04140535e-01, -1.08248089e-02, -2.41920054e-02,
          -3.29149403e-02, -3.81869972e-02, -5.69405816e-02,
          4.03255410e-03, 5.23771755e-02, 7.52781630e-02,
          -5.28256446e-02, -3.69835980e-02, 5.09447558e-03,
          -6.52198941e-02, -2.47007031e-02, -9.67706274e-03,
          -4.18951251e-02, -2.11633593e-02, 2.75216978e-02,
          -5.76978810e-02, 4.46272865e-02, -1.03254942e-02,
          -4.40523773e-02, -5.83765134e-02, -4.22038250e-02,
          -2.23271437e-02, 1.37004377e-02, 7.16176778e-02,
          -1.42574180e-02, 3.36468685e-03, -8.20642244e-03,
          -3.33101563e-02, -3.70503329e-02, -4.52776738e-02,
          -5.88679574e-02, -1.15340129e-02, 4.80661727e-02,
          -3.40143256e-02, 3.64645012e-02, 2.78346185e-02,
          -1.32588651e-02, -7.12170685e-03, -4.65766974e-02,
          -7.99056608e-04, -3.67750451e-02, -1.95637960e-02,
          -3.11340746e-02, -9.83509794e-03, -3.51664238e-02,
          -7.17435777e-02, 4.97262413e-03, -3.28409672e-02,
          4.58685681e-02, -3.08362432e-02, -4.36566956e-02,
          4.49420288e-02, 7.09755495e-02, 1.42156389e-02,
          -1.97423939e-02, 3.61045748e-02, 2.04234794e-02,
          -2.39507165e-02, -2.79272925e-02, 8.52281973e-03,
          -1.15715275e-02, -1.30006531e-02, -4.14252561e-03,
          -1.99805982e-02, 2.13215649e-02, -7.48289973e-02,
          1.42663931e-02, 7.00999098e-03, -2.13879738e-02,
          9.56856757e-02, 8.79484788e-02, 2.18788330e-02,
          -2.02967436e-03, 6.52674586e-02, -3.93363386e-02,
          5.64698428e-02, -3.99664454e-02, -5.72113506e-02,
          -5.80665702e-03, 6.84071034e-02, 4.70770374e-02,
          -3.71820070e-02, 3.23138833e-02, -1.40512511e-02,
          2.09830236e-02, -6.46464992e-04, -1.84727684e-02,
          3.89899462e-02, 9.15078819e-02, 4.77875024e-02, 1.61567517e-02,
          2.11861078e-02, -4.98655550e-02, -2.40706690e-02,
          -3.49431746e-02, -8.22420046e-02, 9.15700104e-03,
          6.49434477e-02, 2.27582213e-02, -1.80906989e-02,
          7.60895610e-02, -5.50179742e-02, 3.33088785e-02,
          7.16111660e-02, -1.79584064e-02, 2.62646358e-02,
          8.49341899e-02, 2.19249502e-02, -3.81194521e-04,
          3.34189944e-02, 2.12278403e-02, -8.22732132e-03,
          -3.92872319e-02, -4.69847992e-02, -1.04434965e-02,
          3.67572196e-02, 4.01570387e-02, 5.35950772e-02, 5.20690605e-02,
          -4.55685034e-02, -2.10928335e-03, 8.31691083e-03,
          -6.94829300e-02, -6.93213567e-02, 6.99912459e-02,
          4.16162051e-02, 1.98015850e-02, 4.36408706e-02, 9.56539065e-03,
          3.24632041e-02, 3.34196240e-02, -6.87890977e-04,
          -1.28391748e-02, 7.48513732e-03, -6.71400875e-03,
          1.13340579e-02, 5.44998981e-02, 2.26613116e-02, 2.42014769e-02,
          2.96577439e-02, -3.49089280e-02, -4.55224440e-02,
          -1.54688852e-02, -2.96003670e-02, -4.41532545e-02,
          3.13407220e-02, 4.76227477e-02, 3.24005075e-03, 3.16308551e-02,
          -5.20000830e-02, -1.15956105e-02, 8.88189375e-02,
          3.08057051e-02, -1.95266474e-02, -1.55018624e-02,
          3.58452350e-02, -4.63980772e-02, -2.19818074e-02,
          -1.14465684e-01, 3.89227942e-02, 4.60985899e-02,
          -2.08783727e-02, 2.21592351e-03, -3.05251908e-02,
          -1.68162417e-02, 9.64179914e-03, 2.48135459e-02,
          -6.71417937e-02, -3.01065091e-02, -1.98892672e-02,
          -3.90653498e-02, -7.53543153e-02, -2.26250626e-02,
          1.43325105e-02, -2.23089550e-02, -2.12266501e-02,
          -5.10756001e-02, 6.53443718e-03, 4.07428704e-02,
          -5.19063435e-02, -3.67917828e-02, -6.77023828e-02,
          -5.17078675e-02, 1.08645940e-02, -8.69835727e-03,
          -8.75547752e-02, -4.46846075e-02, -2.15529352e-02,
          -5.00698350e-02, 6.50563277e-03, -2.82809325e-02,
          -3.11199185e-02, 8.38802457e-02, -1.45722535e-02,
          -8.57793242e-02, -6.69731572e-02, -1.48705579e-02,
          8.39715637e-03, -3.42560903e-04, 3.41570303e-02,
          4.19850554e-03, 6.62157591e-03, -5.82320541e-02,
          -9.86180753e-02, -2.54796445e-03, -3.31702363e-03,
          -8.43853503e-02, -5.41072432e-03, -4.36018445e-02,
          8.58780090e-03, 4.14724685e-02, -3.16402726e-02,
          -4.29453626e-02, -3.34989559e-03, -1.62776355e-02,
          -3.31650674e-02, -1.55868959e-02, 2.65385807e-02,
          -5.05650241e-04, -5.36371348e-03, -2.43864451e-02,
          -3.51949856e-02, -5.21097891e-03, -4.26060474e-03,
          5.54543734e-02, 4.43095416e-02, 1.68204363e-02, 9.13475361e-03,
          3.21999192e-02, -3.03762611e-02, -2.16559786e-03,
          1.82209201e-02, -1.24102850e-02, -1.49292042e-02,
          1.83012784e-02, -9.43637919e-03, 2.27394123e-02,
          9.35796835e-03, -4.43150215e-02, -2.71430928e-02,
          1.54476454e-02, -3.32881580e-03, 3.30493487e-02,
          2.42188927e-02, 2.52142008e-02, 2.71536969e-02, 5.01822028e-03,
          -6.25571683e-02, -6.87510967e-02, 5.60198259e-03,
          -2.64960695e-02, -5.02956584e-02, -1.43244024e-02,
          1.12648709e-02, 3.16202715e-02, 1.47022186e-02,
          -4.69376929e-02, 6.98353909e-03, 6.49298262e-03,
          -1.02086468e-02, 1.20971045e-02, 2.49746423e-02,
          -6.02263026e-03, -1.00445347e-02, 5.14970720e-03,
          -4.37581688e-02, 7.87194073e-03, -1.54400775e-02,
          4.58719395e-03, 4.45712544e-02, 2.14661155e-02,
          -2.33708154e-02, -8.93264636e-03, -6.54754089e-03,
          -7.06651360e-02, -6.00409955e-02, -2.86552147e-03,
          -4.01044339e-02, -6.64226934e-02, -1.75613873e-02,
          2.61964612e-02, 4.12774226e-03, 2.49098502e-02,
          -7.44513571e-02, 5.14913443e-03, 8.25727265e-03,
          3.10193095e-02, 1.85401794e-02, -9.06434096e-03,
          -1.92644540e-02, 4.60049184e-03, 1.79027338e-02,
          -3.51078510e-02, 6.99421614e-02, 7.89393019e-03,
          -2.29246859e-02, 1.70320012e-02, 2.93715280e-02,
          8.62543751e-03, 1.92828383e-02, -2.09961813e-02,
          4.21501609e-04, 1.55421766e-02, -1.54422307e-02,
          -8.38511288e-02, 8.94368906e-03, 1.38189327e-02,
          1.99336167e-02, 3.53477858e-02, -3.29175452e-03,
          -9.94520113e-02, 6.54202104e-02, -1.89405493e-02,
          3.34096178e-02, 4.06481773e-02, 9.58822388e-03,
          -4.09868211e-02, -8.26566666e-03, -5.37528247e-02,
          -5.21284267e-02, 3.22065428e-02, -3.52643244e-02,
          -1.22043723e-03, 7.70122558e-02, 1.07729184e-02,
          -5.79699241e-02, -4.42680530e-02, -2.29189936e-02,
          -3.74688767e-02, 1.53264729e-02, 6.74777105e-03,
          -1.04895448e-02, 3.76503058e-02, 3.21784080e-03,
          -4.64850198e-03, 3.29516865e-02, 2.82578487e-02,
          -1.55988513e-02, 1.65038905e-03, -2.32976694e-02,
          -6.00905679e-02, 1.03669576e-02, 1.34253539e-02,
          6.34191372e-03, 4.54519764e-02, -6.35302290e-02,
          -4.36690375e-02, -5.32930018e-03, -1.24172019e-02,
          -1.79994106e-02, 7.06257224e-02, -2.91422661e-02,
          -5.78122586e-02, -3.87036614e-02, -1.37299988e-02,
          -4.10818420e-02, 7.87952973e-04, -4.54159640e-02,
          -3.59424576e-02, -2.33990718e-02, -3.71468738e-02,
          -1.10369297e-02, -1.68878436e-02, -2.38407888e-02,
          1.28615322e-03, 1.27415890e-02, -4.89684269e-02,
          -8.92986506e-02, -2.04623751e-02, -1.06014432e-02,
          2.95797072e-04, -2.52536833e-02, -5.54667227e-02,
          -2.94189695e-02, 9.69391409e-03, -2.00062916e-02,
          3.17208208e-02, -3.85328159e-02, -9.78613086e-03,
          2.36682221e-02, -1.46915969e-02, -2.07165908e-03,
          -7.63160586e-02, 2.84424219e-02, -1.74528882e-02,
          -8.80912021e-02, -3.28025478e-03, -2.60909870e-02,
          4.06345688e-02, 5.68491267e-03, -4.96604778e-02,
          -7.02489838e-02, 3.37296748e-04, 6.45120069e-03,
          5.37695885e-02, -4.80556861e-03, -1.02607450e-02,
          2.02395711e-02, 1.88931841e-02, -1.68189593e-02,
          -1.97812151e-02, 3.93900461e-03, -1.90520417e-02,
          -6.15538359e-02, -4.18665782e-02, -2.61827353e-02,
          2.97544654e-02, -2.56468542e-02, 6.28273329e-03,
          -3.62809747e-02, -2.86329947e-02, -1.48012564e-02,
          -5.30553609e-02, -6.21501245e-02, -2.74731405e-02,
          2.40279231e-02, -4.46116887e-02, 6.80635357e-03,
          -4.36344370e-02, 1.20961526e-02, 3.39661986e-02,
          -2.40736660e-02, 3.14973369e-02, 1.51996864e-02,
          4.08659317e-02, 2.08695456e-02, 2.52228417e-02,
          -3.83686870e-02, 6.13942789e-03, 2.37118062e-02,
          -1.52483908e-02, -1.92236897e-04, -3.89996879e-02,
          2.21721400e-02, -6.91469805e-03, 3.32370512e-02,
          1.05226971e-02, 8.20211694e-03, 6.99830381e-03,
          -9.06812027e-02, -9.12689697e-03, -7.20243389e-03,
          1.65822878e-02, 6.84691407e-03, -1.57021394e-03,
          2.17959303e-02, 1.98730491e-02, 1.88661925e-02,
          -5.33241816e-02, 1.28126144e-02, -2.05688272e-02,
          -1.61750782e-02, -3.11466847e-02, 6.19518291e-03,
          -6.99536758e-04, 8.25713912e-04, 4.72530164e-02,
          -2.72075217e-02, 1.44367749e-02, 1.94628304e-03,
          3.81564312e-02, 2.66799629e-02, -4.39737625e-02,
          1.88745931e-02, -1.75089352e-02, 3.40580530e-02,
          1.90035645e-02, 2.11672578e-02, 2.68502464e-03, 4.72180396e-02,
          -2.38413597e-03, -2.95976065e-02, -7.70120835e-03,
          -4.54802066e-02, 4.95053641e-02, 8.64853114e-02,
          -4.05834317e-02, -1.66983511e-02, -9.37592238e-03,
          -3.12140770e-02, -7.14164227e-02, 7.69568095e-03,
          -3.06208506e-02, 6.70669740e-03, -2.26017963e-02,
          -9.88373905e-02, 3.58293275e-03, -1.86969631e-03,
          -2.76209079e-02, -3.43612134e-02, 1.02649257e-02,
          6.95265690e-03, 2.86871176e-02, 7.14469850e-02, 4.26739687e-04,
          -1.87194701e-02, 2.69414056e-02, -1.24770999e-02,
          8.07656383e-04, 3.86497825e-02, -1.23968739e-02,
          5.67067415e-03, -3.69292907e-02, -7.24458694e-02,
          -3.72583270e-02, -8.69721174e-03, 4.42725904e-02,
          -4.80955876e-02, -2.67858095e-02, -2.28741430e-02,
          -2.62938393e-03, 1.41863953e-02, -3.84392738e-02,
          1.78844295e-02, 3.24559100e-02, 1.42030856e-02,
          -1.24400649e-02, -3.07120867e-02, -4.43829708e-02,
          -9.78755280e-02, 1.46335666e-03, -3.89619321e-02,
          -2.62405667e-02, -1.77467931e-02, -2.73412559e-02,
          -7.39941467e-03, -2.73475479e-02, -2.60060020e-02,
          7.51422718e-03, 1.83178447e-02, 8.95710010e-03, 9.40726250e-02,
          1.21953106e-03, 9.17400327e-03, -3.83888967e-02,
          -2.68654078e-02, 2.92337965e-02, -3.99249680e-02,
          5.22416122e-02, 5.75423688e-02, 3.07217296e-02,
          -8.41493756e-02, -7.01981783e-02, 1.31862750e-02,
          2.35265326e-02, 3.66235897e-02, -6.59903809e-02,
          -6.99301511e-02, -2.33527180e-02, -1.04902927e-02,
          -6.91552740e-03, -1.23018641e-02, 2.02611294e-02,
          4.61204015e-02, 3.94192412e-02, -4.12539132e-02,
          -1.07566742e-02, -1.96603984e-02, -3.66591476e-02,
          -2.02643666e-02, -1.13001186e-03, -4.84473594e-02,
          1.78375430e-02, 1.72245223e-02, -2.85569355e-02,
          -6.61468655e-02, 3.39929014e-02, -1.70408152e-02,
          -5.23982197e-02, -7.55674019e-02, -3.59085910e-02,
          6.39143353e-03, 2.46055629e-02, -2.28680931e-02,
          -7.07876356e-03, 2.12720390e-02, 2.80885515e-03,
          9.52474680e-03, -4.75482307e-02, 3.75483073e-02,
          2.97340695e-02, 2.04934683e-02, 1.22106168e-02, 9.76223091e-04,
          -1.60451159e-02, -2.74289660e-02, -4.14665006e-02,
          -4.33418378e-02, 3.45951654e-02, -1.02913817e-02,
          -2.28250213e-02, 3.00105289e-02, 1.45960748e-02,
          -5.81008457e-02, -5.69476560e-02, -1.89666599e-02,
          -2.05277726e-02, -1.60732248e-03, 3.28837484e-02,
          2.03041341e-02, -2.76827589e-02, 1.37962140e-02,
          -1.40116317e-02, 4.73927371e-02, 2.63315607e-02,
          -7.05650672e-02, 4.15183790e-02, 2.62916107e-02,
          5.06984117e-03, -2.61702929e-02, -1.39200352e-02,
          -5.22888750e-02, 1.67448390e-02, -3.17608081e-02,
          1.14136981e-03, -1.16137629e-02, -4.19492349e-02,
          -6.55924976e-02, -2.54340898e-02, 5.95440641e-02,
          -1.37913292e-02, -5.28329015e-02, 4.47923318e-02,
          -2.98708174e-02, 7.53305433e-03, 2.70180348e-02,
          -2.00622305e-02, 2.70327777e-02, 6.84795082e-02,
          -2.68204156e-02, -4.44745133e-03, 5.58043122e-02,
          2.28699520e-02, 5.58791719e-02, 2.16985065e-02, 1.40687451e-03,
          -5.55242784e-02, -1.31546957e-02, -8.43315269e-04,
          8.85672588e-03, -3.39274586e-04, 4.73461337e-02,
          3.77805121e-02, 1.94958095e-02, 1.71174202e-02, 2.24705040e-02,
          2.11950354e-02, 1.69547778e-02, 2.33345870e-02, 3.73222157e-02,
          6.88870251e-02, -2.74820141e-02, -1.51825848e-03,
          -8.27905722e-03, 1.33570889e-02, 7.74349726e-04,
          -5.12954965e-02, -1.81242749e-02, 6.04663678e-02,
          -3.61447856e-02, -2.43521594e-02, 7.62398448e-03,
          -3.42058577e-02, 9.73373093e-03, -3.21737938e-02,
          -6.35708198e-02, -3.35066468e-02, 2.12982520e-02,
          -1.36476550e-02, 8.36231466e-03, 4.64771962e-04,
          1.89164169e-02, 5.61391450e-02, 3.87287140e-02,
          -1.73828714e-02, -1.65936481e-02, 1.52526684e-02,
          -1.82062667e-02, 2.69791894e-02, 1.67259425e-02,
          2.18503941e-02, 7.00539351e-02, 1.50799733e-02,
          -1.01749822e-02, 3.75630264e-03, 2.90259942e-02,
          -2.40969341e-02, 8.23326781e-03, 5.39026633e-02,
          -3.85732017e-02, -2.90023815e-02, -5.21156490e-02,
          -5.18618301e-02, -5.20357937e-02, -4.45908420e-02,
          2.21505221e-02, -2.20262259e-02, -2.68247351e-02,
          -3.88075188e-02, -5.60555533e-02, 5.45096863e-03,
          -3.83752063e-02, -1.59826763e-02, -5.68068735e-02,
          2.15317719e-02, 2.62414850e-02, 4.56411578e-02, 1.54209482e-02,
          1.97928715e-02, -2.16599517e-02, -2.14127619e-02,
          1.09025231e-02, 4.87067155e-04, 2.49604811e-03, 5.42420894e-02,
          1.60972048e-02, 3.47342603e-02, -8.99308268e-03,
          -7.20147267e-02, -7.87223727e-02, -4.21942770e-02,
          7.32047204e-03, 3.13065238e-02, 5.87084470e-03,
          -7.15134069e-02, -7.53208771e-02, 1.06817135e-03,
          3.52491550e-02, -9.75251105e-03, 1.38607156e-02,
          -2.31925584e-02, 4.83181588e-02, 2.02712975e-02,
          -3.65140066e-02, 4.69974754e-03, 4.59550135e-02,
          2.24664398e-02, -3.44545096e-02, -3.15075219e-02,
          -3.13492455e-02, 3.66917886e-02, 4.75837141e-02,
          -3.47133093e-02, -3.16580161e-02, 1.78086385e-02,
          -3.71440239e-02, -9.22953114e-02, -1.91150941e-02,
          7.01409206e-02, 8.21433291e-02, -9.39874630e-03,
          -1.02836952e-01, -4.33745049e-02, 4.57796864e-02,
          6.47357013e-03, -1.97277088e-02, -3.42644900e-02,
          1.44333504e-02, 9.19019151e-03, 3.99995502e-03,
          -6.13358691e-02, -4.51372527e-02, 5.05493162e-03,
          6.50558099e-02, 4.04731221e-02, -7.20979739e-03,
          -5.26245544e-03, 3.27227339e-02, 2.92545464e-02,
          -2.19986420e-02, -7.96802267e-02, -3.37659493e-02,
          6.95234025e-03, 1.64937526e-02, 2.34237146e-02, 1.15768313e-02,
          2.83496995e-02, -2.08597519e-02, -6.20099157e-02,
          -1.80009045e-02, 4.24743369e-02, 1.49527201e-02,
          3.88653092e-02, 5.10677043e-03, -4.83273622e-03,
          4.74662799e-03, 2.98935454e-02, -7.92676862e-03,
          -6.54949546e-02, -1.35197584e-03, -4.10118476e-02,
          -1.26631148e-02, 2.94604059e-02, -4.31990018e-03,
          2.54895128e-02, 2.97931302e-03, -1.30584091e-02,
          -1.38752349e-02, -1.88990068e-02, -5.97352758e-02,
          -5.20773530e-02, -2.65320018e-02, 3.32051292e-02,
          5.14714699e-03, -1.77211203e-02, -3.16694118e-02,
          1.29894009e-02, -2.24488340e-02, 2.13779788e-03,
          -4.96534742e-02, -2.79721748e-02, 1.78229045e-02,
          -8.09132122e-03, -3.97184864e-03, -1.94420964e-02,
          -2.62592211e-02, -2.07323041e-02, -3.87760848e-02,
          -1.56064591e-04, 8.91836360e-03, 6.09828494e-02,
          9.38766636e-03, -1.26597676e-02, 1.73427239e-02,
          7.88349137e-02, -5.25006726e-02, -9.47111845e-03,
          -3.60644497e-02, 8.18610936e-03, 6.19309135e-02,
          2.98154186e-02, -2.87522562e-03, -4.12717499e-02,
          5.06699122e-02, 2.67339475e-03, 6.06243089e-02, 2.54561491e-02,
          2.96492465e-02, 2.34696292e-03, -1.26183368e-02,
          -3.00356541e-02, -4.88258079e-02, 6.47026952e-03,
          -2.12634485e-02, 6.46596774e-03, 8.63291770e-02,
          3.89606021e-02, -1.39661785e-02, -1.16909780e-02,
          1.23394327e-02, 3.54711674e-02, 5.20882681e-02,
          -4.49715368e-02, 1.37568992e-02, 2.81123910e-03,
          5.13280556e-03, 3.55905592e-02, 6.69317394e-02, 1.21610304e-02,
          4.05128906e-03, 5.29778749e-02, 2.69130543e-02,
          -1.07510379e-02, 8.97919238e-02, -1.98174641e-02,
          -3.07182688e-02, 4.95178774e-02, -7.12617673e-03,
          1.33173331e-03, -8.16841237e-03, 1.71834193e-02,
          -2.21556779e-02, 6.30611181e-02, -5.74931793e-04,
          -3.03396806e-02, 2.07972955e-02, 9.76056792e-03,
          -8.83714017e-03, -4.11007728e-04, -1.73210725e-02,
          -3.55365835e-02, 4.16861922e-02, -1.02003179e-02,
          -1.65049676e-02, 1.85111689e-03, 1.31690381e-02,
          -6.74137194e-03, 2.45961789e-02, 2.35197395e-02,
          -7.70080835e-02, 6.18861355e-02, 2.67392816e-03,
          -2.09321454e-02, 3.97333875e-02, 6.47106171e-02,
          1.35663161e-02, 3.70085575e-02, -3.07040643e-02,
          -7.72414058e-02, 2.21566148e-02, 1.26297120e-02,
          -6.42218161e-03, 1.10761980e-02, -2.59784684e-02,
          -6.23556972e-02, -1.54105006e-02, -8.57310742e-03,
          -6.92173094e-02, 2.47084200e-02, -5.55239199e-03,
          2.71279607e-02, -2.44226791e-02, -1.97778549e-02,
          -5.84206283e-02, 7.67669815e-04, -4.77744360e-03,
          3.07749938e-02, 3.52927111e-02, 2.53773704e-02, 2.76096407e-02,
          4.33400134e-03, 1.94849074e-02, 2.82570831e-02, 5.27726561e-02,
          -4.28335331e-02, -1.00970760e-01, -2.51605995e-02,
          -9.23741702e-03, -1.93934739e-02, -2.50879917e-02,
          1.86152905e-02, 3.50702368e-02, 6.13083169e-02, 2.30181310e-02,
          4.43394966e-02, 5.75352125e-02, 1.51851913e-02,
          -9.84181743e-03, 3.68954526e-04, 2.06139553e-02,
          -2.06086449e-02, 3.44141503e-03, -1.52229844e-03,
          -7.78840035e-02, 2.23343354e-02, 8.17928836e-03,
          2.54731253e-02, 4.05286439e-02, 1.61289871e-02,
          -3.35265361e-02, 1.99351460e-02, 2.60926951e-02,
          -7.18757585e-02, -3.67569029e-02, -4.41265926e-02,
          1.22770108e-02, 4.39614765e-02, 2.12392695e-02, 6.36238456e-02,
          5.38345836e-02, 3.99290475e-05, -5.27098216e-02,
          3.29632405e-03, -2.89357062e-02, -1.66427512e-02,
          3.30619290e-02, 4.82635526e-03, 5.24822623e-03, 3.25684994e-02,
          6.36213198e-02, -2.73516569e-02, -4.60966416e-02,
          -4.68418375e-02, 3.32851405e-03, 5.52247725e-02,
          -3.58526665e-03, -1.75033920e-02, 1.80545952e-02,
          2.22689342e-02, -5.18840626e-02, -1.63506083e-02,
          7.78226275e-03, 2.29418855e-02, 4.93020639e-02,
          -6.45067990e-02, 5.99984452e-03, 3.01499129e-03,
          -1.46149676e-02, -2.64045279e-02, 4.74168593e-03,
          1.99471582e-02, 9.17678140e-03, -1.96852162e-02,
          -2.45888997e-03, 1.45979859e-02, 7.23810568e-02,
          3.82657349e-02, -6.57770932e-02, 2.73432088e-04,
          -1.48407081e-02, -1.15013784e-02, 3.55999954e-02,
          -5.98635077e-02, 3.58815044e-02, 9.50279459e-02,
          3.57234292e-02, -1.87140405e-02, 5.84658422e-02,
          1.97243225e-02, 3.91056836e-02, -3.23683359e-02 ]
   decision_functions:
      -
         sv_count: 1
         rho: -3.1230589895134395e+00
         alpha: [ 1. ]
         index: [ 0 ]
