%YAML:1.0
my_svm: !!opencv-ml-svm
   svm_type: C_SVC
   kernel: { type:LINEAR }
   C: 1.
   term_criteria: { epsilon:2.2204460492503131e-16, iterations:100 }
   var_all: 3780
   var_count: 3780
   class_count: 2
   class_labels: !!opencv-matrix
      rows: 1
      cols: 2
      dt: i
      data: [ -1, 1 ]
   sv_total: 1
   support_vectors:
      - [ -1.87271442e-02, 3.50705571e-02, 1.66389663e-02,
          -4.47062450e-03, -5.39570116e-02, 6.97052048e-04,
          1.94905363e-02, -6.96372241e-02, -1.96475442e-02,
          2.95929629e-02, 9.46872402e-03, -6.06288947e-02,
          -2.14980226e-02, -4.03036550e-02, 3.79537530e-02,
          2.74710469e-02, -9.82389972e-03, 1.77931469e-02,
          -5.35102300e-02, 2.29781233e-02, -2.06528511e-02,
          2.75653955e-02, 3.86516042e-02, -5.58992848e-02,
          -1.48057612e-02, -5.41128740e-02, -3.55248973e-02,
          4.56129834e-02, -9.46104750e-02, -1.24003038e-01,
          -1.56070348e-02, 3.09710503e-02, -1.20535446e-03,
          -3.20166210e-03, -9.79060773e-03, 7.59005025e-02,
          -1.51684843e-02, -4.80704159e-02, -9.01456624e-02,
          2.02582702e-02, 1.23787979e-02, 9.73516051e-03,
          -2.05337245e-04, -1.28325233e-02, -4.58244905e-02,
          -1.22415945e-02, 1.79045722e-02, -5.24340905e-02,
          7.05238897e-03, -5.60763758e-03, -2.74644680e-02,
          7.01415678e-03, -1.20850289e-02, -9.12629217e-02,
          1.96583662e-03, -1.01614393e-01, -1.12294503e-01,
          1.74043942e-02, 5.29442839e-02, 3.99897397e-02, 1.59185324e-02,
          7.58831948e-03, -3.50092985e-02, -1.50600467e-02,
          -8.61748587e-03, -5.60682341e-02, 2.45556813e-02,
          6.29460886e-02, -1.50411511e-02, 1.02771521e-02,
          -7.82873947e-03, -8.39164779e-02, 9.80858225e-03,
          5.24138175e-02, 2.75907619e-03, 1.56063465e-02,
          -1.73962340e-02, -1.70394015e-02, 5.91649208e-03,
          2.54574381e-02, -1.81740765e-02, 1.91908795e-02,
          3.54936831e-02, -3.16256024e-02, 1.02046458e-02,
          -3.55562083e-02, 2.10226793e-02, 3.90947238e-02,
          -6.81850919e-03, 1.12747708e-02, -3.58809046e-02,
          4.19497564e-02, -2.83861924e-02, 2.04531290e-02,
          3.94160561e-02, -2.01442372e-02, -2.57626316e-03,
          -2.84910761e-02, -8.76530558e-02, 1.28928516e-02,
          2.28138827e-02, -7.04831779e-02, 2.64937822e-02,
          3.17473803e-03, 5.53432554e-02, 1.64893623e-02,
          -1.21217798e-02, 2.16532256e-02, -1.47606432e-02,
          9.08951927e-03, -5.16077802e-02, 4.59124371e-02,
          -1.51387453e-02, 3.50917839e-02, 1.54477526e-02,
          -1.08155506e-02, -2.94969566e-02, -5.70078306e-02,
          2.84111965e-02, -5.90347731e-03, 5.31583950e-02,
          1.42334006e-03, 2.53210478e-02, 1.47897629e-02, 4.61196154e-03,
          -6.12898692e-02, -1.46619948e-02, -2.57593691e-02,
          -8.45991522e-02, 6.03567027e-02, 2.00377237e-02,
          3.64627503e-02, 1.29230786e-03, 2.80133784e-02, 2.61843596e-02,
          -4.10103798e-02, -3.09047736e-02, -4.96557653e-02,
          4.83211279e-02, 5.32788187e-02, 3.95238921e-02,
          -2.74511687e-02, 1.15553401e-02, -3.56811704e-03,
          -4.39298935e-02, 6.36016279e-02, 2.25418266e-02,
          7.55889267e-02, 2.04919595e-02, 5.49407490e-03,
          -3.74189913e-02, 4.63494472e-03, -3.73567231e-02,
          3.40283774e-02, 3.62423733e-02, -1.94420163e-02,
          4.50636186e-02, 1.81805957e-02, -2.14303304e-02,
          -6.14271276e-02, 2.26044133e-02, -8.19010194e-03,
          -4.08957712e-03, 1.31767448e-02, -1.32584656e-02,
          6.99830577e-02, 5.90481162e-02, 3.19292732e-02,
          -2.75653824e-02, 1.90339214e-03, -3.64603065e-02,
          5.54367267e-02, 2.73501873e-02, -3.27938460e-02,
          5.21407947e-02, 2.64022257e-02, -9.64644924e-03,
          -5.13782315e-02, 7.34812692e-02, 5.86871840e-02,
          3.91148366e-02, 3.60829607e-02, -2.65905783e-02,
          4.67473082e-03, -3.78689617e-02, -5.47205433e-02,
          -3.18797752e-02, 2.10453700e-02, -3.68964626e-04,
          1.06022879e-02, 3.87658440e-02, -1.98586173e-02,
          -1.40723959e-02, 1.03307189e-02, 3.00333891e-02,
          7.77482637e-04, 1.78566091e-02, 1.48197012e-02, 5.66365682e-02,
          3.82385738e-02, -3.35540660e-02, -1.00479284e-02,
          -2.70959772e-02, -4.91270199e-02, -5.20841815e-02,
          3.11084166e-02, 5.43876365e-02, -4.42346558e-03,
          4.07793112e-02, -1.00164991e-02, -3.56722577e-03,
          -1.27698630e-02, -2.39455234e-02, -5.91029190e-02,
          -1.26480525e-02, -3.36074876e-03, -2.92059425e-02,
          6.35637389e-03, -3.27877626e-02, -2.19995826e-02,
          1.00246742e-02, 7.55930096e-02, 5.50425462e-02, 2.36331709e-02,
          -2.75560115e-02, -6.68154359e-02, 2.27173399e-02,
          -2.96478788e-03, 3.08442283e-02, -4.82567726e-03,
          5.81480488e-02, 1.83105133e-02, 3.14023867e-02,
          -7.41935521e-02, -4.67981249e-02, 3.51003632e-02,
          -1.34935824e-03, -2.24095117e-02, -2.13582646e-02,
          -2.11662259e-02, -3.02410927e-02, -1.32005233e-02,
          -2.41426192e-02, -1.91462636e-02, 2.88372207e-02,
          2.79341172e-03, 1.73028782e-02, 1.21002253e-02,
          -2.46302485e-02, -4.67823483e-02, -2.58469339e-02,
          -1.08055118e-02, -5.94698228e-02, 1.34973126e-02,
          1.67963188e-02, 6.63530529e-02, 3.11548114e-02, 4.00045402e-02,
          1.98515467e-02, 3.81782576e-02, -2.49582697e-02,
          -2.82481802e-03, -6.31073676e-03, 1.22352142e-03,
          2.56641489e-02, -2.92102955e-02, 2.52783708e-02,
          6.89445483e-03, 6.04325645e-02, 6.37390316e-02,
          -1.20047154e-02, 2.11519878e-02, 6.74444577e-03,
          4.00113501e-02, 3.45485248e-02, 1.07619036e-02,
          -3.69729586e-02, -1.92639548e-02, -4.31601191e-03,
          -1.90330409e-02, -1.72698647e-02, -2.82832012e-02,
          1.68642402e-02, -1.29958140e-02, 2.86306497e-02,
          -1.29665183e-02, 1.10026468e-02, 1.54647883e-02,
          1.39222434e-02, 2.97649633e-02, 2.93032676e-02, 3.32171544e-02,
          -3.25539820e-02, -3.04825534e-03, -6.13640470e-04,
          1.79868825e-02, 7.97302127e-02, 2.26505119e-02, 4.80843522e-02,
          4.45192643e-02, 4.50938847e-03, -2.95838173e-02,
          -2.79885437e-02, -4.48659062e-02, 1.04329707e-02,
          4.65832986e-02, -1.27423778e-02, 6.07417244e-03,
          -4.51473370e-02, 1.60052106e-02, 4.64942381e-02,
          4.44470271e-02, -2.63587125e-02, 1.01626469e-02,
          1.74868889e-02, -4.93850075e-02, -1.74415465e-02,
          -2.38572359e-02, -2.21459493e-02, 4.06416506e-02,
          5.67648150e-02, 1.43638737e-02, -9.40260757e-03,
          -2.94532366e-02, 1.65579207e-02, 8.14352259e-02,
          8.56446698e-02, 2.46781390e-02, 1.59194395e-02,
          -2.76562106e-02, -5.49470969e-02, -1.21989381e-02,
          1.71567928e-02, 1.10939126e-02, 5.37126139e-02, 7.27860481e-02,
          3.25068533e-02, 4.40820940e-02, 1.06862374e-02,
          -2.22286656e-02, -1.46807367e-02, -4.20319987e-03,
          -3.59103307e-02, 2.10180935e-02, 4.38716561e-02,
          9.22199618e-03, 1.56654213e-02, 6.74666953e-04,
          -3.82421613e-02, -3.13603282e-02, -2.76820380e-02,
          -3.40237841e-02, 1.27841244e-02, 2.33215583e-03,
          1.59945432e-02, 9.72363055e-02, 1.59573078e-03,
          -6.37825653e-02, -5.48650920e-02, -4.76552062e-02,
          -4.99054731e-04, 1.50051825e-02, 5.15691228e-02,
          -1.65946539e-02, 3.97408865e-02, 3.18936743e-02,
          3.07343784e-03, -4.11927141e-03, 1.10149449e-02,
          2.04740074e-02, 1.31624304e-02, 5.90215214e-02, 4.01489660e-02,
          2.29918268e-02, 7.61793479e-02, 6.29006103e-02,
          -1.12579484e-02, 2.88494602e-02, -1.78120770e-02,
          -4.50556017e-02, 1.98553558e-02, -3.19836959e-02,
          6.13074042e-02, -8.63114092e-03, -1.35341771e-02,
          -1.43840574e-02, 2.78173443e-02, 3.53073888e-02,
          -3.85719873e-02, 2.28295643e-02, -6.96905702e-03,
          1.75408565e-03, 7.06735924e-02, -1.29030319e-02,
          3.23546603e-02, 1.03167944e-01, -1.39442766e-02,
          2.56787315e-02, 5.14868051e-02, 5.57657443e-02,
          -1.54076824e-02, 6.14797771e-02, 6.83135614e-02,
          1.13671599e-03, 3.31627466e-02, -2.35093571e-02,
          1.44971069e-02, 2.53474843e-02, 1.13804713e-02,
          -1.44274381e-03, 6.41948357e-03, 2.97398685e-04,
          -4.11329679e-02, 3.78589379e-04, 3.43841016e-02,
          -4.14549839e-03, 2.09074039e-02, -1.60580706e-02,
          -4.83699180e-02, 5.29197976e-02, -3.63030285e-02,
          1.27920033e-02, 9.24892128e-02, 9.02584405e-04,
          -9.60350875e-03, 3.80073069e-03, -9.40267555e-03,
          -4.02535237e-02, 2.02532206e-02, -5.05803153e-02,
          -3.26085165e-02, 2.97614783e-02, -1.18721870e-03,
          -6.12704176e-03, 9.41828173e-03, -2.51543876e-02,
          -1.78286750e-02, 8.06451514e-02, 5.14597632e-02,
          -5.21874279e-02, -1.37389638e-02, 8.97997245e-03,
          -1.91415381e-03, -5.59759932e-03, -4.81763594e-02,
          -3.72085697e-03, 1.16547197e-01, 4.91229892e-02,
          -4.73074950e-02, 1.33847287e-02, 6.51124539e-03,
          -3.02060265e-02, 7.13313464e-03, -3.56927412e-05,
          -2.76376717e-02, 1.20160431e-02, 1.46811027e-02,
          -3.75013947e-02, 1.56271495e-02, 4.04062197e-02,
          -9.41414572e-03, -7.95422867e-03, -6.03441149e-02,
          2.97094677e-02, 8.57406948e-03, -1.47221107e-02,
          -8.58028084e-02, -1.33529045e-02, 5.63092828e-02,
          2.67466009e-02, 2.76252292e-02, -5.68669736e-02,
          -1.02731496e-01, 8.38400424e-02, 1.56563465e-02,
          4.42165136e-03, 5.55457585e-02, 4.46971394e-02,
          -6.13435078e-03, -2.90691666e-03, 1.97615921e-02,
          -7.84472600e-02, 7.52851516e-02, -6.68454962e-03,
          -8.51824880e-03, 5.08725308e-02, 5.27641959e-02,
          2.21336205e-02, -1.56070897e-02, -8.38452950e-02,
          -4.21526209e-02, 2.50667520e-02, 1.50856180e-02,
          3.85755533e-03, 4.19967845e-02, 3.66472639e-02,
          -2.46664658e-02, -3.05861570e-02, -1.23480288e-02,
          -6.15523830e-02, 3.42512056e-02, 3.04565718e-03,
          1.32640311e-02, 4.70057949e-02, 2.82359701e-02,
          -8.34423990e-04, 4.17198092e-02, 3.65307368e-02,
          -6.93482310e-02, 3.34238932e-02, 2.48158406e-02,
          2.50996072e-02, 4.82686199e-02, -1.49673661e-02,
          8.22213292e-03, 8.63891393e-02, 5.18080294e-02,
          -7.58530721e-02, -3.63798179e-02, 1.84559710e-02,
          2.16248129e-02, 4.40005958e-03, 1.86906252e-02,
          -6.06028661e-02, -1.18061341e-02, -1.39586553e-02,
          -8.09130967e-02, -9.09896474e-03, 2.97496449e-02,
          3.09368260e-02, 6.79139495e-02, 3.00769648e-03, 9.15551372e-03,
          2.47488525e-02, -8.43925029e-03, -9.24265683e-02,
          -2.25923322e-02, 5.91922663e-02, 4.44773175e-02,
          3.50916535e-02, -7.68073201e-02, 6.15274068e-03,
          5.78178316e-02, 9.34225917e-02, 5.56459501e-02,
          -1.91255193e-02, -6.87558204e-02, -6.23521693e-02,
          -7.33076632e-02, -1.44509645e-02, -7.32921511e-02,
          -5.89072593e-02, 1.36006577e-02, 1.60585344e-02,
          -4.28533442e-02, -2.93385163e-02, 3.12305465e-02,
          5.67810945e-02, -4.75094579e-02, -4.60363589e-02,
          5.45223653e-02, 6.34715483e-02, 4.37989347e-02, 2.98194215e-02,
          -1.86999347e-02, 4.99245711e-03, -4.99763750e-02,
          1.42890792e-02, -6.07144348e-02, -9.78242531e-02,
          -9.50458576e-04, 1.75256096e-02, -3.69542837e-02,
          1.12787746e-02, 6.36972412e-02, 3.22532691e-02,
          -3.90739106e-02, -5.18092550e-02, -3.70748192e-02,
          6.05559945e-02, 4.06414047e-02, 2.70902235e-02, 1.27191860e-02,
          6.03249855e-02, -6.03766181e-03, -5.72059080e-02,
          -2.51769088e-02, -6.61392510e-02, 8.34245533e-02,
          2.36288067e-02, -1.55152637e-04, 1.82183366e-02,
          4.67252173e-02, -6.86999038e-02, 1.61895230e-02,
          -4.07996261e-03, -5.17228507e-02, 4.41095717e-02,
          5.31567230e-06, -3.67525704e-02, -5.14188595e-02,
          1.64339039e-02, 1.81081169e-03, -1.90660991e-02,
          -1.95713267e-02, -3.69722433e-02, 7.93962553e-02,
          4.01289687e-02, -3.44543196e-02, -1.00168258e-01,
          -1.36199156e-02, -7.08488673e-02, -8.62681586e-03,
          1.18063837e-02, -3.47519964e-02, 4.07815240e-02,
          4.53898730e-03, -1.01175029e-02, 2.32580714e-02,
          3.13615017e-02, -7.59802982e-02, 4.01465446e-02,
          -1.94242178e-03, -4.81365919e-02, 2.96793375e-02,
          1.43675227e-02, 4.66108043e-03, 3.49380076e-02, 4.11570929e-02,
          7.10728578e-04, -7.21446238e-03, -2.10374482e-02,
          -8.98520574e-02, 3.63700651e-02, -2.72711907e-02,
          4.49194387e-03, -1.28267808e-02, 3.06730848e-02,
          -6.10913523e-02, -9.81261209e-03, 5.00961347e-03,
          -6.26311973e-02, 3.30070108e-02, 1.75353959e-02,
          4.89817187e-03, 1.87843014e-02, 3.92965190e-02,
          -3.42532620e-02, 2.83573400e-02, -2.47809738e-02,
          -6.62553981e-02, 1.13409460e-02, -3.58956903e-02,
          -1.33174155e-02, -5.94330858e-03, 3.90227996e-02,
          4.07374762e-02, 2.97878161e-02, -4.14640084e-03,
          -7.21249059e-02, 3.37995999e-02, 1.31319342e-02,
          9.44582373e-03, 2.50616539e-02, 1.63069088e-02, 8.00736435e-03,
          -4.68070097e-02, 1.71261299e-02, -4.19716761e-02,
          4.72118668e-02, 7.73674529e-03, 2.85698310e-03,
          -2.07384285e-02, 3.65950055e-02, 4.24545445e-02,
          -2.45002452e-02, -5.10920063e-02, -6.04865588e-02,
          8.31773598e-03, 2.61502471e-02, 2.80820560e-02, 7.27607869e-04,
          -1.23899244e-02, 2.24855561e-02, 1.38382670e-02,
          -1.24303959e-02, -5.06432317e-02, 5.61974570e-02,
          2.67817862e-02, 3.15187499e-02, -4.08811010e-02,
          1.18064759e-02, 2.50326400e-03, 2.18448285e-02,
          -3.24083716e-02, -4.39047217e-02, 3.72678861e-02,
          4.31764312e-02, -1.23873558e-02, -3.69255356e-02,
          2.08425242e-02, 5.85833518e-03, 4.03150842e-02,
          -5.91822863e-02, -4.85499538e-02, 5.70371076e-02,
          4.80065718e-02, 3.35606262e-02, 6.52279845e-03, 1.67505927e-02,
          5.27027948e-03, 8.59464891e-03, -1.98158622e-02,
          -7.33305290e-02, 1.54026633e-03, 1.74524523e-02,
          -2.03752071e-02, -7.50121549e-02, 5.56424446e-03,
          2.35305298e-02, 2.69410405e-02, 3.14868353e-02, 6.85980450e-03,
          2.33394131e-02, 1.64116211e-02, -3.91508527e-02,
          -1.03207491e-01, 9.11470409e-03, 2.80247293e-02,
          1.62520856e-02, 2.21289303e-02, 2.24595182e-02, 2.72466317e-02,
          6.16322830e-03, 2.73604840e-02, -7.28507116e-02,
          -2.84701819e-03, 4.85418327e-02, -7.85215816e-04,
          7.32887024e-03, -4.82876115e-02, -1.19821308e-02,
          8.78643990e-03, -2.24887095e-02, -6.09582290e-02,
          -2.86825448e-02, 4.83320765e-02, 3.26251215e-03,
          3.64637710e-02, 1.01735943e-03, 4.96316217e-02, 1.45696849e-02,
          3.66013125e-03, -1.04074694e-01, -1.07584745e-02,
          3.57833877e-02, -1.26770157e-02, -8.18605814e-03,
          3.71287242e-02, 4.30301502e-02, 6.85530482e-03,
          -1.06196050e-02, -9.16484445e-02, -2.67734230e-02,
          -1.91100929e-02, 4.47281543e-03, -4.06327993e-02,
          1.75706670e-02, 3.13843228e-02, 5.00371382e-02, 1.16395401e-02,
          -9.41129327e-02, -2.05875356e-02, 5.69783300e-02,
          1.71371282e-03, 1.02391327e-02, 6.77917153e-03, 1.94146577e-02,
          -2.88515128e-02, 7.15231104e-03, -9.92540568e-02,
          -6.26863316e-02, -3.20024369e-03, -3.89094763e-02,
          -6.06139936e-02, -5.40016266e-03, 3.29717696e-02,
          9.32456776e-02, 5.06886169e-02, 4.34032961e-04,
          -7.05301762e-02, -1.17555037e-02, 2.00219806e-02,
          1.50981229e-02, 1.53704397e-02, 3.87630872e-02, 2.57535242e-02,
          3.48574854e-02, -5.76482229e-02, -4.74362820e-03,
          6.07159697e-02, 9.02586896e-03, 3.53675485e-02,
          -2.95507032e-02, 2.18143873e-03, 1.26988031e-02,
          2.91152149e-02, 2.33588950e-03, 3.61166522e-02, 4.33572046e-02,
          -4.63459268e-02, -1.48703428e-02, 1.46681350e-02,
          2.85622124e-02, 6.41820356e-02, 4.62869406e-02,
          -1.38893882e-02, -1.18678873e-02, 3.35288346e-02,
          -3.11518572e-02, -3.45180854e-02, -3.89983952e-02,
          2.36921199e-02, 7.38837644e-02, -2.57007815e-02,
          -4.80170846e-02, -1.56595092e-02, 4.97705229e-02,
          -2.38728691e-02, 3.60794179e-02, -1.09424144e-02,
          -2.26042010e-02, 5.79508655e-02, 4.06052582e-02,
          -9.29831062e-03, 3.16739753e-02, 2.56391689e-02,
          -2.63468567e-02, 4.47234791e-03, -1.92138590e-02,
          -3.28032598e-02, 4.75421324e-02, 5.09031862e-02,
          -2.20910311e-02, 1.88137144e-02, -1.74224470e-02,
          -2.17107572e-02, 9.66200791e-03, 2.48095691e-02,
          3.79178487e-02, 4.82101813e-02, 3.14661255e-03,
          -5.00565581e-02, 3.39138731e-02, 1.98615552e-03,
          -4.51601744e-02, -5.14101412e-04, 4.65419665e-02,
          -1.20235141e-02, 2.84240637e-02, 1.86185371e-02,
          -3.86232063e-02, 6.18257895e-02, -8.66908766e-03,
          -4.95518278e-03, 1.06401565e-02, 3.33304629e-02,
          2.11857278e-02, 2.70978045e-02, 3.16360407e-03,
          -5.94860576e-02, 8.83134548e-03, 2.87502189e-03,
          -3.94886509e-02, -7.24439416e-03, 1.74761210e-02,
          4.47626226e-02, 9.09169689e-02, -9.90732014e-03,
          -6.87230378e-02, -1.96077432e-02, -2.14660708e-02,
          4.75638983e-04, 2.77122110e-02, 2.61169411e-02, 1.17765982e-02,
          2.91554965e-02, 2.54166611e-02, -1.53813837e-02,
          2.89487746e-02, 3.41256671e-02, 3.35016176e-02, 6.97332947e-03,
          7.24077225e-03, 9.04460624e-03, 7.38828704e-02,
          -1.10688293e-02, -4.67462242e-02, 4.19960842e-02,
          -3.81587893e-02, -2.46841442e-02, -1.59231778e-02,
          7.48666422e-03, -6.64910395e-03, 3.34490053e-02,
          6.48014341e-03, -3.38633172e-02, 9.22636129e-03,
          3.25092897e-02, 4.60360385e-03, -9.72223375e-03,
          4.68108654e-02, 3.15646566e-02, -1.33131295e-02,
          3.96274850e-02, -3.08360346e-02, 6.09401874e-02,
          6.98838383e-02, 2.42683720e-02, 2.26212908e-02, 9.93440859e-03,
          -1.97120160e-02, 3.53998505e-02, -1.15858307e-02,
          -2.55118888e-02, 5.88799678e-02, 1.23518668e-02,
          2.35698428e-02, 4.62729484e-02, 8.39671120e-02, 9.23129544e-02,
          6.25505149e-02, -9.04719066e-03, -2.96335993e-03,
          6.28538057e-02, 6.69943914e-02, 1.45379817e-02, 8.34476389e-03,
          5.23283742e-02, -3.46436203e-02, -3.10654230e-02,
          3.21513414e-02, -5.64895198e-02, 4.29714993e-02,
          8.39307979e-02, -1.24376416e-02, 4.10109665e-03,
          3.54327746e-02, -3.77461873e-02, -2.50746123e-02,
          3.17346528e-02, -1.68079194e-02, 5.09790443e-02,
          7.42679462e-02, -2.41531245e-02, 8.54438171e-03,
          6.18366934e-02, 1.82929318e-02, 4.44277376e-02,
          -1.43853659e-02, -7.10004419e-02, 1.09977871e-02,
          3.81736532e-02, -1.51236760e-04, -2.67319586e-02,
          -1.35949254e-02, -3.75167020e-02, 2.58031171e-02,
          1.71899926e-02, -7.32601285e-02, -3.48014198e-02,
          -5.02430694e-03, -3.26740518e-02, -2.87210825e-03,
          4.13747653e-02, -2.10403129e-02, 2.41389556e-04,
          9.80273448e-03, 1.83967482e-02, 2.03274451e-02, 1.68765169e-02,
          -2.42876299e-02, -3.49389063e-03, 1.68868490e-02,
          -6.07857108e-03, 9.79189295e-04, -2.25990508e-02,
          1.23974197e-02, -2.84261946e-02, -2.46199872e-02,
          -1.84803922e-02, 1.65175200e-02, 3.96664441e-02,
          1.36757167e-02, -2.58021848e-03, -1.76739395e-02,
          -4.43201885e-02, -2.80977022e-02, -2.54313275e-02,
          -1.86423417e-02, -7.67447613e-03, 3.50761525e-02,
          8.84405710e-03, 6.21203482e-02, -4.82823439e-02,
          -2.21680030e-02, 1.89414446e-03, -3.66736203e-02,
          8.33795127e-03, -1.91202369e-02, -9.79939289e-03,
          -9.55967046e-03, -1.82037503e-02, 7.94233382e-03,
          2.27396749e-02, 1.70854628e-02, 1.50524394e-03, 2.44869455e-03,
          -2.28993706e-02, 6.82347966e-03, 4.09714580e-02,
          -1.94217656e-02, 2.05789395e-02, 5.91327855e-03,
          5.58483973e-03, -4.12511826e-03, 9.46856104e-03,
          -4.20190096e-02, -1.59127750e-02, -8.44889879e-02,
          5.95882125e-02, 2.04045624e-02, -2.42084614e-03,
          3.61065753e-02, -6.04991009e-03, -2.16055335e-03,
          -8.73061642e-03, 2.86739711e-02, 2.26136185e-02,
          3.27370241e-02, 2.96527818e-02, 1.24481961e-03,
          -2.09900998e-02, -4.97186184e-02, -2.80510131e-02,
          -6.78762570e-02, 6.54554833e-03, 5.08485846e-02,
          -3.25620882e-02, -2.08175052e-02, -7.83439376e-04,
          -1.31391669e-02, 3.32185552e-02, -5.09208702e-02,
          -2.66256947e-02, 1.41473545e-03, 3.63802612e-02,
          -4.61612046e-02, -3.18746343e-02, -1.31036788e-02,
          -1.83536131e-02, 1.73061788e-02, 3.56139778e-03,
          -2.54000723e-02, 2.18808576e-02, 5.54149561e-02,
          -8.85937829e-03, -3.59233320e-02, -3.15968581e-02,
          -2.62931492e-02, 1.97850019e-02, -1.02802506e-02,
          -1.33742280e-02, -1.15690008e-02, 5.25378995e-02,
          -4.03186195e-02, -4.80040200e-02, -3.96640301e-02,
          -1.60611589e-02, 2.53668912e-02, -2.25873068e-02,
          -2.28987131e-02, 1.64778735e-02, 2.71215122e-02,
          -6.80852756e-02, 3.97959277e-02, 4.55937982e-02,
          9.45375208e-03, -1.83182471e-02, 7.73589909e-02,
          3.03664021e-02, -4.46016155e-02, -8.96028141e-05,
          -8.90907273e-02, -4.82919347e-03, 3.57302614e-02,
          7.11030373e-03, 2.31407341e-02, 2.36572679e-02,
          -4.04261518e-03, 2.56497134e-02, -2.61919089e-02,
          -8.76276568e-02, 1.21835095e-03, -4.71029244e-03,
          1.82310715e-02, -3.91847491e-02, 3.13286223e-02,
          -3.79549153e-02, -3.14898863e-02, -2.62552742e-02,
          -1.12887539e-01, -1.67126320e-02, -2.48114415e-03,
          -2.08480172e-02, -5.63998614e-03, 8.93385857e-02,
          5.39116152e-02, -2.87857521e-02, 1.47788543e-02,
          -8.42508897e-02, -3.89102586e-02, -1.17209237e-02,
          -2.12257225e-02, -4.16514184e-03, -1.76069140e-02,
          -1.49015477e-02, -3.52759869e-03, 5.49098924e-02,
          -5.08662164e-02, -4.00955901e-02, -8.82431492e-02,
          -6.13145204e-03, -5.94685972e-02, 1.42415240e-02,
          -2.20635580e-03, -2.65839472e-02, 4.63292189e-03,
          -7.46494159e-02, -2.24638768e-02, 1.51735907e-02,
          -1.64843816e-02, -1.15720136e-02, 1.08431578e-02,
          -6.22391701e-04, -4.44095470e-02, -4.36411835e-02,
          -1.11363731e-01, -1.96545832e-02, 5.27847931e-03,
          2.53200512e-02, -3.07615865e-02, 2.21646838e-02,
          3.40129877e-03, -1.88941117e-02, -1.07593564e-02,
          -2.23171655e-02, -3.12783420e-02, -1.81344040e-02,
          2.66356710e-02, -3.41971740e-02, 1.31078828e-02,
          -2.69913086e-04, -4.04899335e-03, 1.50252297e-03,
          -8.18170793e-03, -7.01437518e-03, -5.17818902e-04,
          2.32691616e-02, -2.46208515e-02, 2.58884225e-02,
          1.37065258e-02, -2.35406496e-02, -6.76415041e-02,
          -9.59100351e-02, -5.28045632e-02, -1.16125243e-02,
          2.31736246e-02, 9.18154046e-03, -4.51530982e-03,
          4.29308554e-03, -3.14910151e-02, -3.99649106e-02,
          -2.75615007e-02, -5.08635491e-02, -2.50796285e-02,
          3.37601337e-03, 1.61939319e-02, -3.24361846e-02,
          -4.21141498e-02, -1.71766113e-02, 2.47325804e-02,
          4.89224531e-02, -4.56314161e-03, -1.09529812e-02,
          2.00939998e-02, -2.81066331e-03, 1.42793572e-02,
          -3.37932892e-02, -4.33741091e-03, 2.29989029e-02,
          3.05833463e-02, 2.44991779e-02, 1.10526085e-02,
          -3.46606821e-02, 9.86467698e-04, -5.60090169e-02,
          -4.38403375e-02, -4.49854396e-02, -3.65800932e-02,
          -2.82824375e-02, -1.82073880e-02, -1.96631942e-02,
          -1.09533416e-02, -6.74435776e-03, -2.31979862e-02,
          -2.51716003e-02, -6.99541252e-03, -3.28794494e-03,
          -5.34833111e-02, -9.56980512e-03, 2.24694367e-02,
          -9.25785303e-03, -3.96551713e-02, 2.25110184e-02,
          1.22654266e-04, -2.23409720e-02, -5.87630551e-03,
          -2.34065996e-03, 4.36436795e-02, 8.98755901e-03,
          -1.09026935e-02, -2.33738106e-02, 1.25435274e-02,
          1.30944550e-02, -7.94769675e-02, -3.83255370e-02,
          5.83918160e-03, 3.65343550e-03, -6.31429628e-02,
          -9.19335242e-03, 2.25352719e-02, -3.84300537e-02,
          1.41074834e-02, 2.36541592e-03, -3.97016555e-02,
          -1.87790170e-02, -2.16885787e-02, 5.85183548e-03,
          5.40505571e-04, -6.64975718e-02, 1.98209472e-03,
          -1.03815086e-02, -4.46031205e-02, -3.71788852e-02,
          1.83326204e-03, -7.10177887e-03, -1.36288377e-02,
          -3.06530297e-02, -4.41517681e-02, 5.51364850e-03,
          -2.10430543e-03, -6.18353374e-02, -1.76812857e-02,
          1.89555995e-02, -6.11845544e-03, -6.56021386e-02,
          -1.58875308e-03, 7.15903342e-02, 6.16260618e-03,
          1.45285176e-02, -3.15489955e-02, 1.87959038e-02,
          -9.34538431e-03, -2.82413568e-02, -5.56442700e-02,
          -1.73545047e-03, 7.20917666e-03, -4.15747199e-04,
          -1.65454205e-02, -2.18465533e-02, 3.29717137e-02,
          5.08586131e-02, -1.42842857e-03, -2.22554933e-02,
          -4.53276969e-02, 1.57093466e-03, 1.11896284e-02,
          -1.80582795e-02, -2.80239359e-02, -2.23964918e-03,
          -1.02949212e-03, 1.15675926e-02, -5.98498248e-03,
          4.69218157e-02, 2.46049147e-02, -1.39084959e-03,
          2.65034549e-02, -1.44724250e-02, -1.73667874e-02,
          -3.27283405e-02, -2.72676423e-02, -1.02648251e-01,
          -2.33871061e-02, 1.10963751e-02, -2.54288927e-04,
          2.79054586e-02, 1.25910100e-02, 2.33226921e-03, 4.16910276e-02,
          4.01016772e-02, -4.48844172e-02, -4.47066426e-02,
          -3.13179195e-02, -3.94579880e-02, 2.03926992e-02,
          1.60834920e-02, -9.80073735e-02, 1.24386419e-03,
          -1.63340122e-02, -2.85858065e-02, 3.29975598e-02,
          -5.00047430e-02, -2.52918713e-02, 3.85143720e-02,
          3.84814516e-02, -4.94920984e-02, 5.03404923e-02,
          2.06954069e-02, -4.07236964e-02, 9.65906493e-03,
          -5.08981384e-02, -1.88661013e-02, 1.84947196e-02,
          3.40278223e-02, 1.81796774e-02, 3.23639438e-02, 4.37556691e-02,
          -2.68233176e-02, 1.23365372e-02, -4.22350923e-03,
          -2.61025988e-02, -5.57663804e-03, 3.14331241e-02,
          -7.13392673e-03, -8.11522594e-04, -1.71381105e-02,
          -5.16277254e-02, -1.76753066e-02, 2.81920377e-03,
          -2.09384616e-02, 2.52235611e-03, 6.50217161e-02,
          -3.50771919e-02, 1.50672868e-02, 2.08159909e-02,
          3.70524824e-02, 5.01385517e-02, -6.20720647e-02,
          -7.98755437e-02, -1.95848309e-02, 4.68199141e-02,
          -3.43863368e-02, -5.78595186e-03, 5.22140926e-03,
          1.92462187e-02, 4.21420187e-02, -5.07394522e-02,
          -6.79081902e-02, 3.17628868e-03, 1.87172499e-02,
          -3.63753438e-02, -1.83059927e-02, 1.04438448e-02,
          -4.12237383e-02, -1.53167883e-03, -7.32091628e-03,
          -2.70696916e-02, 3.04746442e-02, 3.93535476e-03,
          -2.54855049e-03, 4.78926674e-03, 2.48665549e-02,
          -1.48450797e-02, 4.09227796e-02, 2.34896727e-02,
          -4.55951765e-02, 1.78572945e-02, 1.90935761e-03,
          -2.65289899e-02, 1.77436005e-02, 3.70674096e-02,
          7.93941040e-03, 3.74662504e-02, -4.48363498e-02,
          4.29538265e-03, 8.25210512e-02, 1.27599193e-02,
          -8.86434410e-03, 3.92181873e-02, 2.02126335e-02,
          2.53247153e-02, 3.21589410e-02, 2.10112501e-02,
          -6.24045543e-03, 3.04379128e-02, -3.13454159e-02,
          -2.39560660e-02, -5.79929585e-03, 2.33395770e-02,
          -1.69182774e-02, 1.73238628e-02, 3.00098155e-02,
          -6.78837858e-03, 2.28875969e-03, -2.35483721e-02,
          -1.56434420e-02, 5.24196066e-02, 4.94567771e-03,
          2.84505822e-02, 4.53969911e-02, -2.67341025e-02,
          -2.31428742e-02, 6.33515120e-02, 1.43685192e-03,
          -6.16302080e-02, -2.68403590e-02, 3.38491006e-03,
          -2.09541488e-02, 1.35153178e-02, -1.68973934e-02,
          -5.03725670e-02, 3.36593278e-02, 2.52000280e-02,
          -2.75595393e-03, 4.47825007e-02, -3.18848342e-02,
          2.50850599e-02, 4.91485484e-02, -4.80429009e-02,
          -2.98869722e-02, 9.51682311e-03, -5.62526193e-03,
          -8.35346654e-02, 3.71747394e-03, -9.29799583e-03,
          -5.13057923e-03, 7.26122856e-02, 4.57053110e-02,
          1.00594796e-02, 2.65790801e-02, 4.13991623e-02, 2.32848432e-02,
          -1.37955844e-02, -3.03618181e-02, 1.21335993e-02,
          8.00324380e-02, 9.67473388e-02, -3.77992503e-02,
          1.78980324e-02, 1.92237813e-02, -1.30659034e-02,
          -2.83847167e-03, -5.19562364e-02, 2.47369371e-02,
          8.33337009e-02, -1.40961409e-02, -4.34937403e-02,
          2.00056545e-02, 2.49725897e-02, -8.28426145e-03,
          -2.29204334e-02, 1.05453664e-02, 3.22455652e-02,
          6.15178980e-02, 1.33439209e-02, 1.99335758e-04,
          -1.85994562e-02, 5.20346395e-04, 8.15504231e-03,
          2.15157624e-02, -4.60215705e-03, -2.72523295e-02,
          2.10985001e-02, 5.97863831e-02, 4.51243781e-02,
          -9.15125664e-03, -4.48004864e-02, -3.23968679e-02,
          2.58294400e-02, 4.61567715e-02, -3.02133486e-02,
          -2.10452937e-02, 6.82193190e-02, 9.72516369e-03,
          -1.83039904e-02, -1.58758610e-02, -4.03434373e-02,
          -2.70357076e-02, 3.67540494e-02, 3.18507128e-03,
          3.62391993e-02, -9.71802045e-03, 3.77957709e-03,
          -3.68116461e-02, -4.28381190e-02, -2.55397204e-02,
          -8.03563893e-02, 3.82666104e-02, -7.95161352e-03,
          4.69214581e-02, -8.53077974e-03, 1.97816901e-02,
          9.62195918e-03, 1.64652541e-02, 5.09797083e-03,
          -3.76587808e-02, -7.40823336e-03, -3.22579108e-02,
          3.00723524e-03, 6.98399171e-02, -2.30611209e-03,
          1.43351760e-02, 3.56404409e-02, 2.78349710e-03, 1.18810805e-02,
          -6.67650402e-02, -4.27471250e-02, 4.90585435e-03,
          1.44447358e-02, -2.08471771e-02, -1.60959009e-02,
          -4.37697768e-03, -3.24213505e-02, -7.25722462e-02,
          1.14643741e-02, -2.78977733e-02, 5.58973067e-02,
          -1.94518603e-02, 2.66061239e-02, 1.59465168e-02,
          2.13670973e-02, -2.28910856e-02, -1.48779098e-02,
          -2.23810840e-02, -4.73142192e-02, -1.04072047e-02,
          2.08471101e-02, -8.14412534e-03, 1.79125052e-02,
          4.37541492e-02, -3.39028910e-02, 1.10627580e-02,
          3.05137727e-02, -7.67390197e-03, 1.79208477e-03,
          1.55048585e-02, -4.69163293e-03, 4.39409502e-02,
          7.22145885e-02, -3.81256407e-03, -1.50539633e-03,
          3.71943414e-02, 3.47795263e-02, 2.18055695e-02, 5.50711481e-03,
          1.50980167e-02, 5.44554070e-02, 6.79335445e-02, 2.78511224e-03,
          -4.30025160e-03, 1.68038812e-02, -4.89985608e-02,
          -3.41058336e-02, 1.03319203e-02, 4.07178700e-02,
          5.22439033e-02, 6.63768426e-02, -5.89765143e-03,
          -4.37611714e-02, -5.17601445e-02, -2.45800149e-02,
          1.45532447e-03, 7.51087908e-03, -2.66574956e-02,
          3.02243680e-02, 2.93116234e-02, 2.07695439e-02, 3.87863889e-02,
          1.84198171e-02, -3.52035388e-02, 1.34848757e-02,
          -8.39655986e-04, 3.47872195e-03, 1.08519383e-02,
          -8.44806433e-03, 1.36718443e-02, -3.45297605e-02,
          -4.24740016e-02, -2.52243970e-02, 4.02702801e-02,
          2.98645459e-02, 6.93004159e-03, 2.44947005e-04, 1.23915914e-02,
          -1.37471054e-02, -1.96742676e-02, -2.77245045e-02,
          -1.46816336e-02, 2.91198064e-02, 3.13977972e-02,
          -2.23314017e-02, -2.73083914e-02, -3.28854173e-02,
          -6.60768598e-02, -1.76678747e-02, -1.40961083e-02,
          -3.02937534e-02, 6.02318309e-02, 7.83938682e-04,
          -8.93354474e-04, 6.01447478e-04, 1.32325105e-02,
          -9.02724080e-03, -5.20624369e-02, 1.21512171e-02,
          3.82054411e-02, 4.62106131e-02, -1.85723025e-02,
          -6.55720755e-03, -6.03674632e-03, -1.57085359e-02,
          -2.37537343e-02, -5.66853397e-02, 1.04321111e-02,
          1.33522237e-02, 9.17092897e-03, -4.29123007e-02,
          -2.92825457e-02, 3.77398506e-02, -5.93387801e-03,
          -2.80579086e-02, -2.64442451e-02, -3.82848363e-03,
          4.86826859e-02, 6.56237230e-02, -1.33906035e-02,
          -3.66774462e-02, 2.03660075e-02, 1.11909620e-02,
          -2.79490314e-02, -7.76911452e-02, 1.87613405e-02,
          2.25645583e-02, 3.82138044e-03, -5.35609946e-02,
          8.92366469e-03, 1.11531354e-02, 2.41527637e-03, 7.47169694e-03,
          -5.33329137e-02, -2.16069277e-02, 2.25088485e-02,
          -2.27579270e-02, -4.71733697e-02, 2.74622981e-02,
          -1.60471145e-02, 8.31222441e-03, -3.37265395e-02,
          -7.20042139e-02, -9.21792258e-03, 1.96914207e-02,
          6.80199591e-03, -3.31368507e-03, 2.30400171e-02,
          -9.01255943e-03, 2.33802944e-02, -1.73421670e-02,
          -4.70693111e-02, -3.84873636e-02, -1.15382699e-02,
          -3.28685716e-03, -8.07644799e-03, 2.16647685e-02,
          -2.42498796e-02, 3.04764155e-02, -2.66360976e-02,
          -5.26234806e-02, -4.59352918e-02, -1.90000776e-02,
          2.74779871e-02, 4.72354330e-02, 4.18848731e-02, 1.78315360e-02,
          3.70964780e-02, -4.75067534e-02, -7.76845440e-02,
          -5.48282564e-02, -4.07122709e-02, -2.14296393e-02,
          2.45956108e-02, 1.59423947e-02, -1.94227174e-02,
          -1.05794137e-02, -2.62914486e-02, -1.14734946e-02,
          -4.26424742e-02, -7.42287710e-02, -9.84741468e-03,
          2.16490980e-02, 3.42333466e-02, 1.85908433e-02, 3.49049605e-02,
          1.16161442e-04, -6.13711029e-03, -6.25793040e-02,
          -2.91372798e-02, 2.11610515e-02, 2.26276442e-02,
          1.50897345e-02, 4.24858145e-02, 2.66810097e-02, 1.62823256e-02,
          1.92714960e-03, -5.78276515e-02, -1.00937597e-01,
          -4.71246839e-02, 4.00777627e-03, -6.46628020e-03,
          -1.61626432e-02, -3.76827046e-02, -8.38800967e-02,
          -5.96725270e-02, -2.26568412e-02, -1.59864649e-02,
          7.70329358e-03, 7.23821949e-03, -5.68963867e-03,
          -3.74910119e-03, -4.34214883e-02, -3.96346338e-02,
          -1.05084985e-01, -7.78257847e-03, 4.08565998e-02,
          2.33727396e-02, -3.06884013e-02, 2.64125988e-02,
          2.96056271e-02, 1.51952999e-02, -7.88220614e-02,
          -1.44612798e-02, -6.03588037e-02, -2.59333123e-02,
          -3.16384472e-02, 2.45099124e-02, 1.55566968e-02,
          5.34035042e-02, 2.73334831e-02, -5.63198850e-02,
          -7.59760141e-02, -2.52410099e-02, -5.50656253e-03,
          1.00730602e-02, 3.31023112e-02, -6.90638693e-03,
          4.97299396e-02, 3.17362919e-02, -3.48091833e-02,
          -7.24771395e-02, -3.20983008e-02, -1.26713989e-02,
          3.18408981e-02, 1.37758041e-02, 6.21159859e-02, 8.11254885e-03,
          -1.43592432e-02, -7.36968443e-02, -5.33977598e-02,
          -3.40887941e-02, 2.26644473e-03, 2.10932782e-03,
          1.45145766e-02, -1.63759815e-03, 4.11979854e-02,
          4.82526347e-02, -3.34164910e-02, -9.52017158e-02,
          -2.59590577e-02, -3.80128343e-03, 4.48988117e-02,
          2.04137154e-02, 3.20774503e-02, 3.96007374e-02,
          -1.77906919e-02, -9.80677530e-02, -7.87846074e-02,
          -8.66550207e-02, -6.58939183e-02, 3.10764145e-02,
          3.49211693e-02, 2.72884909e-02, 1.52648073e-02, 2.20494322e-03,
          8.48527532e-03, -6.55373512e-03, -1.07878353e-02,
          3.49744186e-02, -6.12390041e-03, 3.28421630e-02,
          2.63344869e-02, 3.34027149e-02, -2.26358743e-03,
          -4.61091399e-02, -1.50903007e-02, 2.52781752e-02,
          9.43702385e-02, 8.36904347e-02, 3.21544930e-02, 4.11845185e-02,
          4.29749079e-02, 1.37610920e-03, -3.21481712e-02,
          -3.04956045e-02, -5.46015501e-02, -5.07761911e-02,
          -6.89501548e-03, 2.70995721e-02, 2.00188961e-02,
          -5.41290781e-03, -2.35107567e-04, -3.07843275e-02,
          -1.84385739e-02, -1.17370691e-02, -1.46696921e-02,
          1.45710614e-02, -1.45615265e-02, -1.14652626e-02,
          3.49389724e-02, 1.59566868e-02, -5.48193343e-02,
          -2.44387705e-02, -3.86763737e-03, 4.28327918e-02,
          2.29915120e-02, 2.20830515e-02, 2.33600587e-02, 4.42143530e-02,
          7.38564581e-02, -6.72739139e-03, 6.89814314e-02,
          9.14746430e-03, 3.09083965e-02, -1.02361469e-02,
          -3.40134813e-03, -1.38435634e-02, -4.99105491e-02,
          -6.42979564e-03, -5.46597354e-02, -4.55560945e-02,
          -9.37424786e-03, 3.50785106e-02, -4.32918454e-03,
          -3.13657932e-02, -2.04661805e-02, 9.61416028e-03,
          2.25695055e-02, -1.35522159e-02, 5.16337790e-02,
          2.64999326e-02, 4.75471392e-02, -1.57711878e-02,
          -4.12001312e-02, -1.40024861e-02, 1.27302585e-02,
          3.90452631e-02, -4.51430352e-03, -1.35621717e-02,
          -7.06599152e-04, 2.13047396e-02, 4.31538224e-02,
          -1.30925654e-02, -3.10625285e-02, 3.06796413e-02,
          4.85236086e-02, -6.50926167e-03, -6.50094543e-03,
          -2.23678686e-02, 1.48628596e-02, 2.60764156e-02,
          3.80023522e-03, -1.54535351e-02, 3.48579092e-03,
          -2.38892366e-03, -2.33625397e-02, -2.35460121e-02,
          -1.01912776e-02, 3.33414646e-03, 2.38398202e-02,
          -4.65536788e-02, -6.63864892e-03, 9.13255848e-03,
          -3.32200751e-02, -4.37906422e-02, -1.96532123e-02,
          -5.83934039e-02, -8.33001267e-03, 3.84475552e-02,
          3.80721316e-02, -8.36630240e-02, 6.58953376e-03,
          1.28123760e-02, -1.87159218e-02, -3.17172939e-03,
          -2.37891247e-04, -5.87268313e-03, 8.35162029e-03,
          -2.41471957e-02, -2.83967368e-02, 2.76873801e-02,
          2.16112491e-02, 2.78091151e-02, 2.96679530e-02, 1.68596525e-02,
          -1.14340689e-02, 5.95823070e-03, -3.42555307e-02,
          -6.27347827e-02, 3.99297755e-03, 6.98963134e-03,
          -4.45859656e-02, -2.91219223e-02, -5.27350046e-02,
          1.56565122e-02, -7.54941814e-03, -6.32003089e-03,
          -7.92982578e-02, -2.37773964e-03, 4.25300747e-02,
          3.27538103e-02, 1.86760090e-02, 3.64063419e-02, 3.86794135e-02,
          -3.07168327e-02, -4.57230248e-02, -3.74759957e-02,
          2.92302817e-02, 2.53394060e-03, -2.91083772e-02,
          -2.50724182e-02, 1.05658295e-02, -1.50220953e-02,
          -9.36707575e-03, -1.55720506e-02, -6.73018768e-02,
          1.30410790e-02, 1.57401934e-02, 6.13107951e-03, 3.99553701e-02,
          -4.28451374e-02, 3.88023467e-03, 1.51395043e-02,
          -4.58388776e-02, -6.81928918e-02, 4.05621603e-02,
          -7.50149647e-03, 1.18161039e-02, -1.66693497e-02,
          1.42711466e-02, -3.54759814e-03, -5.35226054e-02,
          -7.01932311e-02, -6.71443120e-02, 3.66159156e-02,
          2.37202598e-03, -2.38061603e-02, 3.97178717e-02,
          -3.68807837e-02, 6.70654094e-03, 1.65435560e-02,
          -3.82358804e-02, -7.53612593e-02, 1.47204446e-02,
          1.75054297e-02, 2.01633554e-02, 8.73650890e-03,
          -1.97773315e-02, 2.25287043e-02, 5.69559112e-02,
          -6.75208494e-03, -4.79224101e-02, 3.33712101e-02,
          1.47116194e-02, -7.88692012e-03, -6.88242540e-02,
          2.63265036e-02, 4.19737995e-02, 5.15964665e-02,
          -4.75144237e-02, -6.69902116e-02, 3.49632241e-02,
          2.97030415e-02, -1.53973838e-02, 5.48298880e-02,
          2.38271803e-02, 2.81118285e-02, 4.49268445e-02,
          -1.57715939e-02, -5.96211366e-02, 1.86820384e-02,
          1.40490606e-02, -4.28963592e-03, -1.01992246e-02,
          3.48837674e-02, 1.94554925e-02, 8.47548619e-03,
          -3.83960083e-02, -1.22616747e-02, 1.70823708e-02,
          1.07663535e-02, -3.66733745e-02, -6.43909797e-02,
          -6.41468354e-03, 3.27202491e-02, 1.13204187e-02,
          -4.61205654e-02, -3.33241094e-03, -4.81969584e-03,
          -9.65735409e-03, -4.00800779e-02, -4.94045578e-02,
          -1.24020614e-02, -8.21842230e-04, -7.34268781e-03,
          -1.36408098e-02, 8.94190278e-03, 1.80622041e-02,
          3.12484335e-02, 2.39891335e-02, -4.56417128e-02,
          -4.26693931e-02, 9.22884140e-03, 1.05728479e-02,
          -1.30045572e-02, 3.92266363e-02, 1.15668436e-03,
          -4.02240129e-03, -3.49560864e-02, -3.85887288e-02,
          3.69119248e-03, 1.45471608e-02, -2.99735982e-02,
          1.45985335e-02, -2.09567212e-02, -6.44857530e-03,
          1.48011884e-02, -2.01184545e-02, -2.41992343e-02,
          3.99502851e-02, -6.13578502e-03, -2.13957727e-02,
          -4.06677350e-02, -1.79017633e-02, 2.61254306e-03,
          3.91876809e-02, 7.64211547e-03, 3.30338441e-02,
          -1.04898093e-02, -4.57012951e-02, -5.34039140e-02,
          -3.54600400e-02, -5.41629270e-02, -1.75724141e-02,
          1.87620334e-02, -6.67982595e-03, -4.90667205e-03,
          3.53999026e-02, 4.38286224e-03, -4.24557142e-02,
          -1.45956138e-02, -6.06499501e-02, -4.64672968e-02,
          4.41352613e-02, 3.08180023e-02, 4.04495597e-02,
          -3.28477472e-03, -1.30439774e-04, -4.16335650e-02,
          -6.60607368e-02, -5.16550951e-02, 3.25458422e-02,
          5.52082360e-02, 4.32838611e-02, 2.92825438e-02, 1.04245283e-02,
          -8.67488328e-03, -2.48942375e-02, -4.54229265e-02,
          -3.14089768e-02, 1.23355696e-02, 1.67217571e-02,
          -1.32743856e-02, 2.26696804e-02, -1.41481375e-02,
          -4.92334075e-05, -9.64642409e-03, -7.67051801e-03,
          -5.30334264e-02, 2.10921024e-03, 4.53089885e-02,
          2.70266309e-02, 1.18033646e-03, 5.01302406e-02, 6.55938312e-03,
          -2.16745827e-02, -8.85888860e-02, -4.52220254e-02,
          5.58482390e-03, 1.32199656e-02, 1.00318203e-03, 3.37880291e-02,
          2.75919214e-02, 6.88208919e-03, -3.39205787e-02,
          -7.14669600e-02, 6.65177219e-03, -2.33970694e-02,
          1.11155957e-02, -2.53219362e-02, -4.73165773e-02,
          -3.80605012e-02, -6.61540253e-04, 2.95985807e-02,
          3.30057964e-02, 1.14276018e-02, -1.00525492e-03,
          7.49242492e-03, 1.25645809e-02, -2.95843612e-02,
          -1.81406143e-03, -3.73666137e-02, 3.99969518e-02,
          -1.53141394e-02, -1.17922341e-02, 1.81611516e-02,
          -3.33394739e-03, -3.28855822e-03, -3.53941806e-02,
          3.44277662e-03, 2.73994566e-03, -1.32897412e-02,
          2.53636576e-02, -1.10508194e-02, 5.06943166e-02,
          6.44283369e-03, 4.42467928e-02, -3.53478678e-02,
          1.94593966e-02, -2.73668673e-02, 1.95010658e-02,
          6.34149462e-03, 1.09566180e-02, 5.79299182e-02, 1.43944547e-02,
          7.44787697e-03, -2.60589458e-02, -1.73083823e-02,
          3.31649221e-02, 7.21831024e-02, 3.32675176e-03,
          -3.25390659e-02, -1.71198267e-02, 1.03687812e-02,
          3.77945253e-03, -9.00110751e-02, -3.05992644e-03,
          9.29979794e-03, -2.58836988e-02, -4.41009849e-02,
          4.82776528e-03, 3.73355113e-02, 3.52066867e-02, 3.62780392e-02,
          -2.03693509e-02, -2.30505858e-02, -3.52338701e-02,
          -4.28883731e-02, 1.37457615e-02, 3.36901173e-02,
          3.32092941e-02, 6.99326843e-02, 2.54972856e-02, 1.18165305e-02,
          -3.11221834e-02, -3.30034047e-02, -7.20112920e-02,
          -4.82358932e-02, -2.92460583e-02, -8.38811137e-03,
          1.39396926e-02, 2.13450287e-02, -3.77513766e-02,
          -1.92472190e-02, 2.91325268e-03, -1.74940415e-02,
          -3.41194309e-02, 3.67008485e-02, 4.46236320e-03,
          1.64209604e-02, -2.27562282e-02, -2.77998447e-02,
          -7.50249997e-02, -5.60948327e-02, -2.60013137e-02,
          -3.15725766e-02, 6.24405369e-02, 3.40788960e-02,
          7.93131366e-02, 2.61848960e-02, 4.56298962e-02,
          -3.16580422e-02, -4.48646508e-02, -3.96369733e-02,
          -5.62423933e-03, 1.31118316e-02, 4.39346582e-02,
          3.90787572e-02, 7.13632116e-03, 2.53587924e-02,
          -3.24829556e-02, -6.44758269e-02, -7.36169741e-02,
          2.62452569e-02, 3.56413051e-02, 2.09662765e-02, 1.08390618e-02,
          -4.24102210e-02, -3.28812711e-02, -7.13280514e-02,
          -3.38110104e-02, 3.93145345e-02, 2.29409407e-03,
          9.05487407e-03, 1.43492129e-02, 2.62953900e-03,
          -3.86448316e-02, -2.68060099e-02, -2.50327792e-02,
          -9.51241609e-03, 1.20210303e-02, -5.14680427e-03,
          3.80487368e-02, 4.09414284e-02, 1.10315271e-02,
          -2.14980934e-02, -1.20422570e-02, -3.62142511e-02,
          -2.02955753e-02, -1.44089730e-02, 3.71823367e-03,
          -1.01482747e-02, 2.61126589e-02, -6.83849258e-03,
          -4.26073968e-02, 3.23007926e-02, -2.62704026e-02,
          1.23956741e-03, 2.58401930e-02, -1.90733117e-03,
          8.40654038e-03, -2.51555871e-02, 1.24340393e-02,
          -7.01880455e-02, -9.68030468e-03, -5.10095246e-02,
          -8.84227008e-02, -1.37399388e-02, -3.43629979e-02,
          2.66333986e-02, 3.63123901e-02, 3.51380892e-02,
          -2.03404222e-02, -1.19743291e-02, 2.59247562e-03,
          -5.07509299e-02, 1.98443490e-03, 1.97281083e-03,
          5.59434807e-03, -2.12646704e-02, 1.55633148e-02,
          -3.81749235e-02, -9.07704060e-04, -4.09743674e-02,
          -3.86134088e-02, 1.00982515e-02, -3.46982628e-02,
          6.70383126e-02, 5.51217943e-02, 1.81931257e-02,
          -1.86717976e-02, 3.39762308e-02, 4.09828946e-02,
          -3.61282267e-02, 1.59520265e-02, 3.88617776e-02,
          -6.49284525e-03, 5.68398722e-02, 1.47846770e-02,
          -1.96070895e-02, -2.06852015e-02, 2.64716311e-03,
          -5.73658720e-02, -1.93296850e-03, -1.47857871e-02,
          4.52746591e-03, 1.00622699e-02, -2.36925557e-02,
          -5.46678975e-02, -8.17422718e-02, -7.98104182e-02,
          -6.52864650e-02, -3.81079689e-02, -1.00457035e-02,
          8.60088542e-02, 6.68036118e-02, -3.17848213e-02,
          -1.35515463e-02, 5.02771586e-02, 5.09080552e-02,
          -2.22889357e-03, 2.94566788e-02, 4.80965264e-02,
          1.73397805e-03, -1.84453577e-02, -3.33401747e-02,
          -1.25158709e-04, 4.91428152e-02, 7.81366602e-03,
          -9.49279126e-03, 2.65540518e-02, -1.80764701e-02,
          4.40182127e-02, -2.61699664e-03, -3.54972552e-03,
          -4.27672756e-04, -1.93279628e-02, -1.73746776e-02,
          -1.07250817e-01, -5.61395362e-02, 8.05117749e-03,
          2.17063110e-02, -9.01563372e-03, 3.42989503e-03,
          -4.86257672e-02, 1.06008705e-02, -2.50110053e-03,
          -3.25427353e-02, -2.57462822e-02, 1.68341566e-02,
          1.95159912e-02, -2.04162244e-02, 2.45615054e-04,
          9.43166390e-03, 3.38303968e-02, 4.40668128e-02, 9.60986037e-03,
          2.20059492e-02, -4.57094423e-02, 6.95766741e-03,
          4.27234992e-02, 2.06566099e-02, -2.02608854e-02,
          5.88080101e-02, 3.74877118e-02, 2.61456463e-02, 1.07196271e-02,
          -3.19659971e-02, -5.31837717e-02, -3.35620642e-02,
          4.22545010e-03, -3.88633646e-02, 2.33965758e-02,
          2.45377216e-02, 1.51410606e-02, 1.30593684e-02,
          -1.49333244e-02, -3.69858555e-02, -2.58963238e-02,
          4.03282940e-02, -6.87953969e-03, 5.94370477e-02,
          2.18386184e-02, 5.08332327e-02, 3.86122474e-03,
          -5.34239858e-02, -4.31456193e-02, 1.62969176e-02,
          2.13758294e-02, -1.21669928e-02, 8.02389011e-02,
          5.12700416e-02, 3.91598009e-02, 4.05731648e-02,
          -9.28717107e-03, -7.12636262e-02, -3.13585848e-02,
          1.38201155e-02, 1.32810837e-02, 4.60886508e-02, 4.61587831e-02,
          7.34271929e-02, 7.81126469e-02, -3.90905812e-02,
          -7.34407222e-04, -1.94750819e-02, -1.86296776e-02,
          -4.63552289e-02, 2.79048253e-02, -1.94387455e-02,
          2.11607218e-02, 2.87909377e-02, -3.57692270e-03,
          5.52295614e-03, -1.67191438e-02, -3.53461988e-02,
          -6.54094713e-03, -1.55396350e-02, -4.09763940e-02,
          2.08420418e-02, 2.31160577e-02, 4.22760509e-02,
          -6.04507187e-03, -3.75741236e-02, -4.38018776e-02,
          -3.17824148e-02, 1.15291532e-02, -3.45887803e-02,
          5.38293831e-02, 5.48566096e-02, -5.06958775e-02,
          6.34972658e-03, -5.50385006e-02, -6.09476194e-02,
          8.05321056e-03, 4.47604805e-02, -2.45368965e-02,
          -6.52296888e-03, 1.90844771e-03, -4.85274270e-02,
          -2.73028649e-02, -7.13548018e-03, -1.63391158e-02,
          -1.46046188e-02, -2.27293628e-03, -2.79183965e-02,
          3.56349610e-02, -1.66785512e-02, 2.50807777e-02,
          -1.97268594e-02, -8.26126430e-03, -1.01491213e-02,
          -3.14213708e-02, -5.65378480e-02, 2.33035926e-02,
          4.91919070e-02, -6.13926398e-03, -2.67699864e-02,
          -1.16391350e-02, -3.49343196e-02, -3.66281569e-02,
          4.80771763e-03, 1.05463909e-02, 1.88024726e-03, 4.61093150e-03,
          -1.47075141e-02, 2.14065053e-02, 5.38032688e-03,
          1.54999690e-02, -1.40203731e-02, -4.00896743e-02,
          -7.65450746e-02, -1.45223318e-03, 3.12534831e-02,
          -3.09219980e-03, -1.27491681e-02, -2.14125011e-02,
          2.56643705e-02, -4.06601094e-02, -3.87503281e-02,
          -6.10741340e-02, -6.92486065e-03, 2.96107344e-02,
          2.72658337e-02, -4.26043943e-02, 4.91684070e-04,
          3.30740251e-02, -1.61612476e-03, -4.23732884e-02,
          -8.75672884e-03, -1.88200399e-02, 3.92724536e-02,
          4.55838703e-02, -2.75242352e-03, 1.39451232e-02,
          1.87128447e-02, -7.60667259e-03, -9.40095931e-02,
          -6.45572320e-02, -3.20696388e-03, 3.52220424e-02,
          1.61385920e-04, -4.17315625e-02, -2.10708100e-02,
          1.13342013e-02, 7.00332876e-03, -4.66100499e-02,
          -8.24784953e-03, -3.43837813e-02, 3.29772197e-02,
          -7.88332056e-03, -6.44898713e-02, -2.01889370e-02,
          1.54977115e-02, -1.30491552e-03, -9.29570175e-04,
          3.31453457e-02, 6.07834496e-02, 4.38883938e-02, 8.64467490e-03,
          -1.76496822e-02, -2.74399035e-02, -8.24452436e-04,
          -1.78231467e-02, 3.62641625e-02, 5.29026724e-02,
          4.11050394e-02, -3.62680265e-04, -2.68622302e-02,
          -4.17580269e-02, -5.02690822e-02, -2.85207406e-02,
          3.38011831e-02, 5.21362992e-03, -1.75180938e-02,
          2.97173001e-02, 2.10472550e-02, -3.41645181e-02,
          -6.36800230e-02, -6.71397545e-04, -4.05493826e-02,
          1.29457545e-02, -9.19041876e-03, 3.65489093e-03,
          2.87166648e-02, -3.49558331e-03, -1.28048388e-02,
          -1.36224227e-02, -2.12472538e-03, -1.31681710e-02,
          -1.56501755e-02, 2.20073629e-02, 3.78025416e-03,
          -2.82035246e-02, -2.72079967e-02, -5.61418459e-02,
          -4.69395034e-02, 2.03269087e-02, 2.81002857e-02,
          1.98959894e-02, -1.19366869e-02, -2.15863846e-02,
          1.01175206e-02, -8.39922018e-03, -9.12784785e-03,
          -1.97080057e-02, -2.47860979e-03, -4.66919281e-02,
          -2.23091394e-02, -3.50819230e-02, -1.68982893e-02,
          2.62472779e-02, 1.06726727e-03, -4.31972593e-02,
          -4.48440434e-03, -2.62223072e-02, -2.98321061e-03,
          -3.67621519e-03, -1.15247974e-02, -1.00690000e-01,
          4.19145189e-02, 3.25037204e-02, -1.64980572e-02,
          -2.97642797e-02, -3.31193246e-02, -2.72909626e-02,
          1.84724238e-02, -3.30014969e-03, -1.34030562e-02,
          -1.27337677e-02, 1.64245460e-02, -4.93883016e-03,
          -5.29969577e-03, -6.15895018e-02, -5.56493215e-02,
          -5.46670333e-02, 1.77388750e-02, -8.28862283e-03,
          -5.73256426e-02, -3.75531265e-03, 5.76918246e-03,
          2.59696450e-02, -5.79068512e-02, -7.25468993e-03,
          2.27686297e-02, 4.76778997e-03, -5.21143489e-02,
          1.90095790e-02, 3.48789245e-02, 2.94271950e-02,
          -4.26824689e-02, -4.51883599e-02, -1.77865457e-02,
          -3.79039198e-02, 3.96439526e-03, -5.64508587e-02,
          -7.37545863e-02, -2.77539007e-02, -1.18904142e-02,
          -2.64384970e-02, -4.77716997e-02, -1.14372941e-02,
          -2.82096229e-02, 3.96542922e-02, -1.46845710e-02,
          9.47053451e-03, -3.64777958e-03, -2.77472287e-03,
          -3.81964408e-02, -4.38546948e-02, 1.05245169e-02,
          4.83274600e-03, 2.79552881e-02, 4.22484763e-02,
          -1.10302195e-02, 1.73205528e-02, -2.42734049e-02,
          -6.77612573e-02, 4.79631964e-03, 1.57299992e-02,
          -2.70418562e-02, 1.55770192e-02, -6.02862537e-02,
          -4.48951498e-02, -2.15119962e-02, 1.50708677e-02,
          -5.24139591e-02, -6.02827407e-03, -2.83323564e-02,
          -5.87062091e-02, 2.03797538e-02, 3.08990758e-02,
          -7.75972335e-03, 1.92171745e-02, 2.72158850e-02,
          -4.65733595e-02, 3.11436933e-02, 3.86542268e-02,
          -4.65730857e-03, 1.86013076e-02, -1.85529795e-02,
          4.21609506e-02, 7.18611432e-03, 1.36500446e-03, 9.04437061e-03,
          7.37154996e-03, 5.55821583e-02, 1.32537335e-02, 1.81966033e-02,
          -2.83941142e-02, 2.82168314e-02, 2.39672232e-02,
          2.62559932e-02, 1.02749364e-02, 3.19686136e-03, 9.63155087e-03,
          3.42335296e-03, 4.79160435e-03, -4.15072851e-02,
          5.19703813e-02, 2.31675035e-03, 2.12950967e-02,
          -1.50973452e-02, -7.11779818e-02, 1.33986743e-02,
          3.94797027e-02, 2.32278388e-02, -4.27101925e-02,
          5.38283437e-02, 5.86890709e-03, -7.40995333e-02,
          -9.02667493e-02, 4.27186601e-02, 5.19519206e-03,
          -2.31058057e-02, -1.16684055e-02, -2.33300179e-02,
          9.57182085e-04, -1.45952636e-02, 1.15277094e-03,
          3.12339067e-02, 8.26350898e-02, -4.09682356e-02,
          -6.88350014e-03, -1.65570807e-02, 1.98854636e-02,
          -7.18435347e-02, -7.46157989e-02, -4.23553251e-02,
          -6.56533474e-03, -2.30482174e-03, -2.58097686e-02,
          -1.97719634e-02, 2.07079276e-02, 2.28949934e-02,
          1.88397262e-02, 4.18682210e-03, -1.15708178e-02,
          -3.88721637e-02, 1.51022160e-02, -5.75174170e-04,
          1.24455511e-03, -1.21308574e-02, 3.97471227e-02,
          -7.56730046e-03, -1.86832119e-02, 3.58250039e-03,
          -2.80477684e-02, 7.41025582e-02, -2.66137291e-02,
          1.97876636e-02, -1.00992396e-02, 2.01321729e-02,
          -1.94109660e-02, -3.97679918e-02, -3.09982579e-02,
          2.47568805e-02, 2.70247553e-02, 2.86954697e-02, 3.24654626e-03,
          -5.35331704e-02, -5.71107045e-02, -1.39020057e-02,
          -9.65270847e-02, -8.32545459e-02, -2.74868254e-02,
          -2.12565176e-02, -2.07475925e-04, 2.32154001e-02,
          -2.20439564e-02, 5.16432673e-02, 6.46604085e-03,
          1.06433239e-02, 3.24321911e-02, -1.82624273e-02,
          -5.67929819e-02, -1.46907736e-02, -2.95833368e-02,
          -1.06253192e-01, -9.82841011e-03, -1.04216402e-02,
          -2.00140756e-02, -1.11092031e-02, -6.82673305e-02,
          7.25288922e-03, 4.18765768e-02, 4.10715304e-02,
          -5.21592461e-02, -1.26818297e-02, -2.50567682e-02,
          -4.57716100e-02, 1.09292483e-02, -2.49943207e-03,
          -4.88895364e-02, -7.89116661e-04, 3.59254032e-02,
          -4.23995331e-02, 2.31117178e-02, -4.31904085e-02,
          -8.07942648e-04, -4.91807330e-03, -4.00595851e-02,
          -2.14302745e-02, 3.88294598e-03, 5.82696386e-02,
          -2.53537856e-02, 2.57424321e-02, 1.15392944e-02,
          4.53233253e-03, 6.62326301e-03, -6.32129312e-02,
          -5.39799780e-02, -7.21017038e-03, 2.90768258e-02,
          -5.80728659e-03, 4.29141335e-02, 1.58785805e-02,
          1.22213487e-05, 3.22104022e-02, -5.90359494e-02,
          1.87292695e-02, -1.50643280e-02, 4.98017529e-03,
          -9.83757619e-03, -1.11988457e-02, -3.99472564e-02,
          -4.26730141e-02, 4.16607335e-02, -3.61215286e-02,
          3.00997477e-02, -2.41876729e-02, -4.53220829e-02,
          2.11727545e-02, 4.21911106e-02, 2.69494094e-02,
          -1.49783995e-02, 3.50070186e-02, 1.26790004e-02,
          -1.11854095e-02, -2.42419802e-02, 6.27422659e-03,
          -2.74765276e-04, 9.91709437e-03, -3.84644754e-02,
          -9.40418802e-03, 6.33078441e-02, -5.95868714e-02,
          -8.28392338e-03, 3.09913438e-02, 9.71361995e-03,
          6.51665851e-02, 7.77136311e-02, 2.14165058e-02, 1.06879417e-02,
          5.11086136e-02, -3.27735879e-02, 4.19227220e-02,
          -4.29075351e-03, -5.31146564e-02, 3.99577804e-03,
          6.47865757e-02, 3.23430076e-02, -2.65798643e-02,
          3.75275947e-02, -3.39374819e-04, -2.66939364e-02,
          1.41804572e-02, -1.56036057e-02, 4.71450202e-03,
          5.84765002e-02, 3.02057844e-02, 1.87322423e-02, 6.58992380e-02,
          -3.48772928e-02, -4.81821373e-02, 2.07525231e-02,
          -6.25945106e-02, 3.38704884e-02, 5.07391915e-02,
          2.50843912e-02, -2.24363990e-02, 6.83622211e-02,
          -9.75892395e-02, -4.60565696e-03, 6.83878735e-02,
          2.11125296e-02, 4.28297818e-02, 7.62523785e-02, 5.08841639e-03,
          -3.90695892e-02, 3.18764970e-02, -1.66620407e-02,
          1.43810855e-02, -1.73898134e-02, -1.59611907e-02,
          -1.58465616e-02, 3.27830836e-02, 8.37597589e-04,
          2.40351893e-02, 8.61130729e-02, -2.15768181e-02,
          -4.34461236e-03, 5.64832706e-03, -3.73599976e-02,
          -7.24163502e-02, 3.56522389e-02, -3.90602909e-02,
          -1.67798270e-02, 4.58849147e-02, -8.87162518e-03,
          2.69009992e-02, 1.16064902e-02, 6.18736539e-03,
          -1.37101132e-02, 9.16953292e-03, -8.43450706e-03,
          2.14769728e-02, 6.70056939e-02, -3.13615683e-03,
          -6.99781056e-04, 1.24492692e-02, -2.73691360e-02,
          -5.36452197e-02, -1.40341381e-02, -4.26377729e-02,
          -5.72519451e-02, 5.06884344e-02, 3.39459553e-02,
          -2.18469333e-02, -3.18998331e-03, -5.21126017e-02,
          -2.61827838e-02, 7.19023198e-02, -2.61557964e-03,
          -2.93646660e-02, 2.40500458e-02, 2.43196636e-02,
          -2.87418943e-02, 8.80170614e-03, -7.76797682e-02,
          1.71383489e-02, -5.19971596e-04, -4.74006794e-02,
          -2.12892285e-03, 6.24847319e-03, -4.98992275e-04,
          -1.57548264e-02, 1.38204042e-02, -2.75144614e-02,
          -4.65305299e-02, -1.29914638e-02, -2.94204894e-02,
          -7.76299983e-02, 1.20533220e-02, 2.72497423e-02,
          -3.86177637e-02, 4.25488362e-03, -3.29675972e-02,
          -3.23710367e-02, -1.08412011e-02, -5.51799759e-02,
          -1.95824802e-02, -4.42327000e-02, -2.58858111e-02,
          1.21641103e-02, 5.27741350e-02, 1.01154409e-02,
          -1.64635405e-02, -7.80909369e-03, -7.26050660e-02,
          7.28499517e-03, -8.29752162e-03, -5.26785031e-02,
          6.74843863e-02, -2.36372706e-02, -4.20446135e-02,
          -3.47590223e-02, 1.00970557e-02, -1.02384537e-02,
          1.79113224e-02, 4.35031839e-02, -4.00135964e-02,
          5.05621172e-03, -3.03281471e-02, -4.69095521e-02,
          -4.33629565e-02, -2.29216740e-02, -9.93929505e-02,
          1.87444333e-02, -4.42314334e-02, 1.68702323e-02,
          4.38527055e-02, -2.07992475e-02, -3.64885069e-02,
          -2.10168455e-02, 1.96400601e-02, -4.87396643e-02,
          2.33513359e-02, 3.14368308e-02, -2.05623731e-02,
          -6.25655148e-03, -5.93313836e-02, -7.89598469e-03,
          1.14077535e-02, 5.59805706e-03, 5.05146347e-02, 4.50802892e-02,
          2.68803257e-02, 6.09876728e-03, 4.67216894e-02, 1.63672287e-02,
          3.61115709e-02, -6.81869313e-03, -2.02770419e-02,
          -6.74103666e-03, -2.36411393e-03, -1.07410252e-02,
          1.26331057e-02, -2.33186781e-03, -5.23153096e-02,
          -4.07868177e-02, 1.41794933e-02, 7.37961335e-03,
          4.45203390e-03, 2.16276124e-02, 3.91980037e-02,
          -1.05748428e-02, -5.28871641e-03, -5.21908589e-02,
          -5.57703674e-02, 1.28947180e-02, -8.71357229e-03,
          -4.03274670e-02, -5.85392118e-02, -2.67399680e-02,
          -1.10569298e-02, 3.10053229e-02, 1.53441085e-02,
          1.43144913e-02, -2.22569145e-02, -4.86988910e-02,
          6.13100454e-03, 3.55482846e-02, -1.12021314e-02,
          -2.07218248e-02, 1.96588486e-02, -6.02745963e-03,
          -1.68738589e-02, -4.28341962e-02, -2.18027644e-02,
          1.05391769e-02, 4.01048595e-03, -2.96698064e-02,
          -1.75368935e-02, 3.35782841e-02, -4.41677012e-02,
          -8.02638009e-02, -1.19232135e-02, -2.42518261e-02,
          -5.22803776e-02, -1.06068691e-02, 3.62209715e-02,
          1.72983482e-02, 6.79723769e-02, -2.54965629e-02,
          2.41065887e-03, 2.08564568e-02, 1.60028376e-02,
          -3.74943241e-02, -5.03651835e-02, 4.06153034e-03,
          3.11367344e-02, 2.00946424e-02, -1.03845792e-02,
          4.56715040e-02, -1.22692920e-02, -3.29703018e-02,
          4.45598252e-02, -1.33811394e-02, -1.75668895e-02,
          -2.12135091e-02, 5.94352558e-03, 1.57283209e-02,
          1.53575838e-02, -4.09101509e-02, -7.10498914e-02,
          4.33071107e-02, -2.32482166e-03, 7.52575789e-03,
          2.29113512e-02, -2.08204263e-03, -7.55357817e-02,
          1.37716103e-02, -1.25294561e-02, 2.01556366e-03,
          4.25359607e-02, -3.48839350e-02, -2.87927780e-02,
          1.19537842e-02, -4.76198830e-02, -3.02608423e-02,
          1.97682413e-03, -3.40283439e-02, -2.36877874e-02,
          1.05016582e-01, 1.97791420e-02, -3.29011492e-02,
          -3.58117395e-03, 2.58542574e-03, -8.47261027e-03,
          6.13684242e-04, -5.91341080e-03, -1.86052956e-02,
          6.25618771e-02, 2.44634673e-02, -1.38436886e-03,
          3.96895036e-02, 1.17400046e-02, 6.71065040e-03,
          -6.24851556e-03, 3.04211378e-02, -5.41449897e-02,
          5.51503152e-02, 3.84343415e-02, 1.55232903e-02, 3.73644158e-02,
          -4.74932119e-02, -2.51399912e-02, -1.69872046e-02,
          -1.73640382e-02, -4.41868044e-02, 6.07547089e-02,
          1.41181052e-03, -3.49666849e-02, 7.13000540e-04,
          -4.93494645e-02, -4.23466302e-02, -9.90318414e-03,
          -2.48489715e-02, -4.99745309e-02, -7.42564071e-03,
          -3.96039151e-02, -9.77216661e-03, -3.98784503e-02,
          -2.23761331e-02, 1.17285447e-02, 6.82096649e-03,
          2.37215450e-03, -7.61204213e-02, 1.34578506e-02,
          4.06340556e-03, 8.67954735e-03, -2.28375364e-02,
          -1.40765514e-02, 7.99571397e-04, -1.28877340e-02,
          1.33380564e-02, 1.36624388e-02, -3.95843945e-03,
          -2.40428820e-02, 1.70266069e-02, -2.59119589e-02,
          -2.15746723e-02, -8.21606815e-02, 3.98468692e-03,
          -3.68728489e-02, -1.04311273e-01, -1.21648342e-03,
          -5.45979217e-02, 2.83413157e-02, -1.94909163e-02,
          -4.38636541e-02, -5.32970913e-02, -2.39119716e-02,
          -1.12042679e-02, 1.08760428e-02, 1.17091499e-02,
          -1.37845073e-02, 2.60211173e-02, -1.26895243e-02,
          8.32664501e-03, 1.04921777e-03, -2.26553138e-02,
          1.53307207e-02, -5.30444980e-02, -7.29384925e-03,
          -4.60397266e-02, 1.57363620e-02, -3.62757258e-02,
          2.64286675e-04, -3.07143703e-02, -4.12748605e-02,
          3.23188528e-02, -1.82634797e-02, -3.26662734e-02,
          -2.54607424e-02, 2.00234167e-02, -4.40258831e-02,
          -1.05384002e-02, -3.48217785e-02, -1.81960482e-02,
          5.40894568e-02, -5.01813181e-02, 2.27101203e-02,
          -3.87818390e-03, 1.55421970e-02, -3.35390419e-02,
          7.30823819e-03, -3.85444164e-02, -1.26209138e-02,
          5.64931333e-02, -6.24147477e-03, 1.46271009e-02,
          -1.19637130e-02, 6.24030177e-03, -3.11068911e-02,
          1.45467604e-02, 1.03681264e-02, 6.01079781e-03, 2.96838488e-02,
          -5.44119440e-02, -4.22487129e-03, -6.55332534e-03,
          1.78933665e-02, -5.01416204e-03, -1.79235470e-02,
          1.83948278e-02, 1.44223645e-02, 1.70687903e-02,
          -3.84776816e-02, 3.45055573e-02, -2.97455117e-02,
          -7.43783861e-02, -6.82132170e-02, 1.58122722e-02,
          -7.50595063e-04, 3.66521487e-03, 6.89450279e-02,
          -1.14237210e-02, -2.29692878e-03, 2.47440133e-02,
          3.55251282e-02, 1.52969332e-02, -6.57472014e-02,
          -1.25626083e-02, -2.27427445e-02, 3.13778110e-02,
          4.60136719e-02, 3.66307162e-02, 1.03128199e-02, 6.11117808e-03,
          -5.06213121e-02, -6.68772757e-02, -2.91383285e-02,
          -5.27396910e-02, 1.41756386e-02, 6.54016063e-02,
          -4.15341603e-03, -4.07007933e-02, -2.45946366e-02,
          -7.65877217e-02, -8.59743804e-02, -1.80951192e-03,
          -8.15788377e-03, 2.79556327e-02, -4.78190603e-03,
          -2.41206475e-02, 6.06128052e-02, 2.94290558e-02,
          -6.54258355e-02, -6.10322058e-02, -9.62079130e-03,
          -9.69594438e-03, 1.30739501e-02, 4.19578366e-02,
          2.93567311e-02, 5.40475070e-04, 5.84009402e-02,
          -3.68111767e-02, -7.46321073e-03, 1.90721620e-02,
          2.07004184e-03, 2.97319256e-02, 8.60413630e-03,
          -1.79357640e-02, -4.47367691e-03, 1.06506320e-02,
          1.78842584e-03, -7.40146339e-02, 7.81061780e-03,
          -1.61521556e-03, 1.26808314e-02, 2.07923502e-02,
          -4.14616950e-02, 4.06903885e-02, 3.21168453e-02,
          -3.44087780e-02, -3.96442972e-02, -1.78389531e-02,
          -6.49544299e-02, -9.38960165e-02, 5.18269138e-03,
          -4.57859635e-02, 6.54047763e-04, 6.44238852e-03,
          -7.04793632e-02, -4.64627473e-03, -2.25554556e-02,
          -1.76449735e-02, 2.36436520e-02, 1.37788784e-02,
          4.68663545e-03, 1.08772382e-01, 1.05370106e-02,
          -1.74114816e-02, -5.55997491e-02, -1.82142332e-02,
          -2.81439535e-03, -1.30720073e-02, 5.67237148e-03,
          2.12887507e-02, 5.65883107e-02, -5.58530204e-02,
          -7.26020485e-02, -6.72737043e-03, 7.88168143e-03,
          3.41333682e-03, -5.30639142e-02, -1.42167453e-02,
          -8.56901985e-03, 2.29274500e-02, 1.22119226e-02,
          -4.39335704e-02, -1.39646442e-03, 2.14370508e-02,
          2.08723266e-02, -3.92094739e-02, -1.83232557e-02,
          -3.06164101e-02, -3.73488106e-02, -1.24839582e-02,
          -2.23116879e-03, -3.50238755e-02, 3.17335874e-02,
          1.34649137e-02, 1.68580574e-03, -5.14538027e-02,
          8.49797670e-03, 4.00630049e-02, -2.73134075e-02,
          -8.38493556e-02, -1.87473074e-02, -2.90050916e-02,
          3.59454453e-02, -2.70573366e-02, -7.60790855e-02,
          -2.26618331e-02, 1.33433321e-03, -1.38532054e-02,
          -2.52774954e-02, 9.06542782e-03, 3.38613172e-03,
          1.78623050e-02, 1.74257141e-02, -2.50852723e-02,
          -4.26005051e-02, -2.58204294e-03, 1.66759659e-02,
          -2.44585443e-02, 8.50302447e-03, -1.14332987e-02,
          -1.51275117e-02, 1.84310377e-02, 5.90278720e-03,
          -5.99925704e-02, -1.72475632e-02, -4.97763883e-03,
          -2.12166943e-02, -2.39437493e-03, 1.17255934e-02,
          2.58592814e-02, -3.63002717e-03, -3.91115099e-02,
          -6.09395094e-02, 2.64873020e-02, 2.34982651e-02,
          -3.05562597e-02, 7.88976997e-03, 4.08443287e-02,
          6.93385443e-03, -1.90815851e-02, -5.61143421e-02,
          -8.24126229e-02, 5.69593273e-02, -9.85668320e-03,
          -1.78384711e-03, -1.74878035e-02, 1.58654451e-02,
          -4.97158132e-02, -1.21419206e-02, 4.73088548e-02,
          -8.11116118e-03, -2.46066935e-02, 5.82847260e-02,
          -6.33079633e-02, 7.58443680e-03, 3.27602141e-02,
          5.68910921e-03, 1.85697116e-02, 1.59944203e-02,
          -4.35314141e-02, -2.77507920e-02, 5.86183518e-02,
          -2.47619320e-02, 2.50451025e-02, 1.15282563e-02,
          1.42812636e-02, -3.71713229e-02, -2.29427945e-02,
          -7.72010675e-03, 7.92808980e-02, 3.57798375e-02,
          3.83350179e-02, 2.91451849e-02, 2.11117137e-02, 1.81948710e-02,
          7.46393763e-03, -2.18414776e-02, 2.59604841e-03,
          6.07532486e-02, 5.34665212e-02, 6.68849722e-02,
          -2.15606038e-02, -2.13062614e-02, -9.60848667e-03,
          -4.89358278e-03, -2.65676547e-02, -4.76127341e-02,
          -2.16249917e-02, 3.49026620e-02, -4.25078161e-02,
          -2.71164291e-02, 2.23209383e-03, 1.53366802e-03,
          -1.16877565e-02, -2.86609046e-02, -4.55243848e-02,
          -3.19065005e-02, -1.04062230e-04, -3.33613195e-02,
          1.25442259e-02, 5.00237942e-02, 3.22111845e-02, 4.70681600e-02,
          -1.19311363e-02, -4.92967740e-02, -2.58093346e-02,
          9.70447343e-03, -1.09210582e-02, 2.10336801e-02,
          6.85340315e-02, 4.87686954e-02, 6.71134219e-02,
          -7.83348642e-03, -3.53690647e-02, 7.62636308e-03,
          4.71044295e-02, -3.57672535e-02, -2.78377044e-03,
          3.04910578e-02, -4.58886065e-02, -3.47938202e-02,
          -2.68098768e-02, -1.87633522e-02, -6.26021773e-02,
          -4.55000959e-02, 9.34203714e-03, -1.86759625e-02,
          -3.40857655e-02, -7.64636546e-02, -8.15905705e-02,
          -2.69331932e-02, -3.94039750e-02, -1.37983840e-02,
          -2.08700746e-02, 1.22698443e-02, 1.54455462e-02,
          7.24404156e-02, -3.14885867e-03, 3.39183472e-02,
          -7.75360130e-03, -3.20777646e-03, -3.60265095e-03,
          -1.46339936e-02, -3.61927487e-02, 5.64697310e-02,
          4.00442593e-02, -6.10027323e-03, 8.77744425e-03,
          -8.49907398e-02, -5.73064759e-02, -6.74672872e-02,
          -1.57225300e-02, 1.93270445e-02, 5.81754232e-03,
          -5.99927679e-02, -7.41033033e-02, -6.00995449e-03,
          3.92819289e-03, -2.54066065e-02, 2.00240919e-03,
          -1.03020901e-02, 4.09717411e-02, -8.15108046e-03,
          -1.63365845e-02, -1.66034792e-02, 1.04406355e-02,
          2.50334796e-02, -3.89421806e-02, -4.19875160e-02,
          -3.35963666e-02, 1.03260158e-02, 7.77203292e-02,
          -1.88409130e-03, -1.96882524e-02, 3.69860195e-02,
          -6.01587817e-02, -1.04837596e-01, -6.00458048e-02,
          6.84150010e-02, 5.46596833e-02, -1.32973175e-02,
          -1.05139337e-01, -5.81394956e-02, 3.66836265e-02,
          1.54356798e-02, -4.76656929e-02, -2.12128088e-02,
          5.27140871e-02, 1.00467196e-02, 5.45853749e-04,
          -2.84672324e-02, -2.95364093e-02, 3.57858688e-02,
          8.04766417e-02, 1.38879456e-02, -3.81694268e-03,
          1.70397665e-02, 3.65092270e-02, 1.06448084e-02,
          -2.94034313e-02, -7.51710087e-02, -3.64284567e-03,
          3.94630022e-02, 1.31513402e-02, 2.45077703e-02, 2.34717466e-02,
          4.13374417e-02, -2.69941837e-02, -5.88133708e-02,
          -2.12552771e-02, 4.48410325e-02, 4.93061244e-02,
          1.19138286e-02, 2.05333792e-02, 1.44157130e-02,
          -3.33058322e-03, 5.00556231e-02, -2.37563178e-02,
          -5.19288182e-02, 1.43451672e-02, -1.44949229e-02,
          -9.35424585e-03, 3.00572366e-02, -2.30580457e-02,
          2.11364049e-02, -1.48872221e-02, -4.04057503e-02,
          -4.72378209e-02, -3.57355326e-02, -4.96771513e-03,
          -3.13458107e-02, -1.20391957e-02, 4.30561863e-02,
          1.33156460e-02, -4.39211577e-02, -4.52123731e-02,
          -4.53330949e-03, -3.29867415e-02, 3.23084295e-02,
          -6.03143275e-02, -3.43658738e-02, 4.25610617e-02,
          7.48037687e-03, 2.17396300e-02, -4.69962656e-02,
          -3.27816792e-02, -2.38450225e-02, -4.70914296e-04,
          -3.92451556e-03, 9.66027286e-03, 5.85470982e-02,
          3.94062847e-02, -1.13797300e-02, 3.86424065e-02,
          7.66481534e-02, -5.82807623e-02, 3.99814639e-03,
          -3.10043078e-02, -2.14641746e-02, 7.39464834e-02,
          5.15588485e-02, -4.62616049e-02, -4.25257236e-02,
          2.15389691e-02, 4.47653867e-02, 7.26304650e-02, 1.65179390e-02,
          1.24984058e-02, 9.03205294e-03, -1.91495754e-02,
          -8.66959915e-02, -4.48768474e-02, -5.91661828e-03,
          1.18829943e-02, 5.94469206e-03, 9.10981894e-02, 3.62478346e-02,
          -1.88329257e-02, -4.50586416e-02, -1.32597862e-02,
          3.47640105e-02, 3.56710963e-02, 4.06576507e-03, 2.36921366e-02,
          1.25007899e-02, -1.31851519e-02, 2.31076535e-02,
          6.13317750e-02, -4.55220342e-02, 5.57362940e-03,
          5.12166880e-02, 6.24962188e-02, -7.94296060e-03,
          6.43826127e-02, -2.10483558e-02, -1.79030020e-02,
          7.26461643e-03, -2.23745015e-02, 6.31582038e-03,
          -1.31391091e-02, 3.81127857e-02, -2.23900266e-02,
          5.91125600e-02, 2.39689257e-02, 1.21400657e-03, 2.22070459e-02,
          -4.34228772e-04, -3.01413867e-03, -1.40038710e-02,
          -5.29563578e-04, -5.36632016e-02, 6.20953292e-02,
          -1.12023270e-02, -1.64358143e-03, 7.72850704e-04,
          -1.78800300e-02, -4.03799303e-03, 8.39599315e-03,
          2.76570898e-02, -6.78037032e-02, 3.66811529e-02,
          -4.54902556e-03, 3.58949229e-02, 4.07521352e-02,
          5.73357977e-02, 2.85791103e-02, 8.06319434e-03,
          -2.55671423e-02, -1.09630913e-01, 4.12991457e-02,
          -6.18033810e-03, 3.75919007e-02, 1.73757710e-02,
          -3.89033258e-02, -6.96990415e-02, -3.20901833e-02,
          -4.48741950e-02, -4.48788591e-02, 1.13625908e-02,
          -4.94378433e-02, 2.24811770e-02, -8.41569901e-03,
          -2.19421815e-02, -3.94164436e-02, -8.37493502e-03,
          -3.56400274e-02, 2.97814719e-02, 2.81152390e-02,
          -9.68704815e-04, 1.56971794e-02, 5.31799486e-03,
          5.84217662e-04, -2.22543050e-02, -2.62086419e-03,
          -5.97600378e-02, -5.78831919e-02, -7.37038627e-03,
          -3.16781253e-02, -3.76642868e-02, -2.73966491e-02,
          1.83443143e-03, -5.94416773e-03, 3.00621092e-02,
          3.50286700e-02, 6.26921430e-02, 4.96566780e-02, 1.76785942e-02,
          -2.57255435e-02, -1.29966941e-02, -7.24703679e-03,
          -2.39247140e-02, -1.10735679e-02, 7.33833387e-03,
          -6.32632375e-02, 4.47357297e-02, 1.81882307e-02,
          1.54737867e-02, 1.30532738e-02, -2.90821632e-03,
          -4.24596556e-02, 1.35932872e-02, 3.77508551e-02,
          -5.28883263e-02, 3.54301929e-03, 4.43995837e-03,
          2.93393880e-02, 3.71545106e-02, -5.13252430e-03,
          6.38517458e-03, 3.06812227e-02, 2.48991605e-02,
          -5.63836992e-02, 2.56964210e-02, -7.95058999e-03,
          -2.54918914e-02, 2.59163557e-03, 3.38865560e-03,
          -2.89292671e-02, 2.54670228e-03, 6.66970387e-02,
          -2.19725147e-02, -3.41747492e-03, 9.78312921e-03,
          3.53169776e-02, 5.17988168e-02, 1.76377334e-02,
          -1.78649444e-02, 1.73017394e-03, 2.71236282e-02,
          -3.32502760e-02, -1.79364681e-02, 3.48142982e-02,
          2.67192908e-02, 4.20560502e-02, -5.06916866e-02,
          -9.27902851e-03, -1.87792294e-02, 3.97781935e-03,
          3.06498297e-02, 3.27704474e-02, 4.03924920e-02,
          -5.80182299e-03, -2.35654619e-02, 2.95057464e-02,
          -4.05053422e-03, 2.69546844e-02, 8.65175016e-03,
          -7.10907727e-02, -1.55409807e-02, 4.92236484e-03,
          -5.60616551e-04, 2.88874507e-02, -3.73971276e-02,
          1.74124911e-02, 4.39919159e-02, 1.42344218e-02, 1.37143454e-03,
          7.01666921e-02, 5.48250079e-02, 2.35379655e-02,
          -4.90066968e-02 ]
   decision_functions:
      -
         sv_count: 1
         rho: -2.5890562946565501e+00
         alpha: [ 1. ]
         index: [ 0 ]
