%YAML:1.0
my_svm: !!opencv-ml-svm
   svm_type: C_SVC
   kernel: { type:LINEAR }
   C: 200.
   term_criteria: { epsilon:2.2204460492503131e-16, iterations:250 }
   var_all: 3780
   var_count: 3780
   class_count: 2
   class_labels: !!opencv-matrix
      rows: 1
      cols: 2
      dt: i
      data: [ -1, 1 ]
   sv_total: 1
   support_vectors:
      - [ -3.62678543e-02, 1.11007895e-02, 1.81258339e-02,
          -6.26610266e-03, -4.26214039e-02, -1.59397293e-02,
          3.64928879e-03, -2.77160620e-03, -3.12514491e-02,
          -4.13756398e-03, 3.70712243e-02, -2.85319495e-03,
          -1.53428623e-02, -5.49937189e-02, -1.39925918e-02,
          8.15202296e-03, -1.18974317e-02, -1.27853490e-02,
          -6.43309504e-02, -8.68752878e-03, 2.98498496e-02,
          6.86887801e-02, 2.03458313e-02, -1.59307141e-02,
          -1.39876157e-02, -5.57975424e-03, -2.89559681e-02,
          3.16269211e-02, 1.44989160e-03, 1.18704522e-02,
          -2.58849058e-02, 1.08192507e-02, 1.32701322e-02,
          5.91648044e-03, -2.39471551e-02, -2.11913902e-02,
          -1.17115220e-02, 1.94711108e-02, 1.50590474e-02,
          -9.55520011e-03, -2.00020317e-02, 3.59362294e-03,
          -4.00038715e-03, -4.17158343e-02, -1.38468649e-02,
          -1.29343790e-03, -2.00394783e-02, -4.25835000e-03,
          -1.90172233e-02, -8.30002408e-03, -1.67624920e-03,
          -1.36518842e-02, -2.56324802e-02, -1.85689460e-02,
          -2.41326056e-02, 1.44783063e-02, 2.03936584e-02,
          -1.36287790e-02, 5.79083618e-03, 2.24654824e-02,
          1.23990129e-03, -3.13352756e-02, -3.20166573e-02,
          -1.13262441e-02, -2.07337644e-03, 4.35844576e-03,
          3.62511165e-02, 1.32114151e-02, -1.31127667e-02,
          -1.78844407e-02, -2.87065394e-02, -3.19667086e-02,
          7.97296315e-03, -1.57616530e-02, -2.88070794e-02,
          1.49663724e-02, -1.14629641e-02, -2.40269024e-02,
          -2.28766929e-02, -5.40758111e-03, -3.16626113e-03,
          -6.65372572e-05, -8.23588949e-03, 9.54203308e-03,
          -1.83307398e-02, -1.39755001e-02, 3.60978069e-03,
          -4.05581342e-03, -4.18777838e-02, -1.87741872e-02,
          -4.33705095e-03, -2.31767613e-02, -2.05103662e-02,
          6.20434433e-02, 5.19850627e-02, -1.87306497e-02,
          -2.95557566e-02, -2.11140793e-02, -1.43555896e-02,
          -1.04717780e-02, 1.53336236e-02, 3.54266614e-02,
          -5.10681840e-03, 2.01663896e-02, -4.52131331e-02,
          -2.47843396e-02, -2.95893997e-02, -3.40361968e-02,
          -4.81246561e-02, -5.57199540e-03, -3.83155234e-02,
          -3.31266895e-02, -6.03574589e-02, -1.11006829e-03,
          -1.58156063e-02, -2.46992074e-02, -2.39935014e-02,
          -3.12094949e-02, 1.16064341e-03, 9.00239870e-02,
          -9.72147193e-03, -7.25033805e-02, 1.36138657e-02,
          2.29811091e-02, 9.70628671e-03, -1.79078691e-02,
          -3.74404490e-02, -2.17606071e-02, 2.40510497e-02,
          3.22730169e-02, -5.36626242e-02, -5.57067879e-02,
          -2.23485008e-02, -1.00715654e-02, -5.44927232e-02,
          -4.82757464e-02, -3.27922180e-02, -3.92840728e-02,
          -9.74467676e-03, -4.03277837e-02, 5.03621437e-03,
          -3.17326630e-03, -2.64860131e-03, -2.50907168e-02,
          -2.43986305e-02, 6.95957094e-02, 1.29570961e-02,
          2.97089592e-02, -1.50585221e-02, 9.52046271e-03,
          3.12041603e-02, -4.74306149e-03, -2.85176747e-02,
          -2.07770430e-02, -3.65413167e-02, -1.80118275e-03,
          -7.26947503e-04, -2.47867107e-02, 1.65670570e-02,
          2.00051628e-02, 7.15317961e-04, -2.73632146e-02,
          -1.51243210e-02, 4.99833422e-03, -1.44226151e-02,
          -1.82542279e-02, 7.24447565e-03, 2.04821080e-02,
          2.51651406e-02, 4.32644226e-03, -1.58374216e-02,
          8.23492371e-03, -1.12009421e-01, 7.71317538e-03,
          -6.76550716e-02, -8.33912473e-03, 1.54037755e-02,
          3.52632217e-02, 2.46418156e-02, 3.39364284e-03, 1.92611217e-02,
          -1.99047159e-02, -4.62680543e-03, 4.03664634e-02,
          -8.87855142e-03, 2.04811781e-03, 2.07099635e-02,
          1.52567951e-02, -1.41526926e-02, -4.56118956e-02,
          -1.95646957e-02, -1.29774688e-02, 3.43550742e-02,
          -1.94947217e-02, 1.23834284e-03, 2.12406591e-02,
          2.68692542e-02, -1.26170134e-02, 4.17551771e-02,
          -5.39904200e-02, -9.97638851e-02, 2.24178731e-02,
          1.44846141e-02, 6.62955875e-03, 1.49744749e-02, 2.26386767e-02,
          9.30553488e-03, 4.89868671e-02, 1.11084096e-01, 9.89779234e-02,
          4.49987985e-02, 1.59074143e-02, 7.31375115e-03, 3.49411764e-03,
          2.34722719e-02, 1.81737132e-02, -1.16665848e-01,
          -4.01437879e-02, 2.83323675e-02, 2.49059405e-02,
          -4.32437249e-02, 1.73752122e-02, 1.86479483e-02,
          3.67303900e-02, -5.95982112e-02, -5.08073680e-02,
          -4.84987386e-02, -3.32991704e-02, 1.56258680e-02,
          -5.56262918e-02, 5.86743094e-03, -1.11259753e-02,
          3.13305855e-02, -6.57388382e-03, 6.04463331e-02,
          5.07191196e-02, 1.43552143e-02, 5.58770262e-03, 2.49999966e-02,
          2.56346203e-02, 1.13609163e-02, 4.48656082e-02, 4.53063324e-02,
          9.39629599e-02, 2.32028011e-02, 2.72581913e-03, 1.00699095e-02,
          2.73353979e-02, 1.98293980e-02, 1.36011867e-02, 1.17047196e-02,
          2.29761358e-02, -4.80601415e-02, 3.51272337e-03,
          -8.52113403e-03, 3.16628404e-02, -2.56710756e-03,
          3.05984095e-02, 3.91016677e-02, 1.95841174e-04,
          -2.71727592e-02, -6.10541254e-02, -7.26189837e-02,
          -3.85504519e-03, 2.43524089e-02, -2.31320169e-02,
          2.26855129e-02, 2.06881668e-02, 8.93886853e-03,
          -2.08973363e-02, 2.21375711e-02, 1.18274689e-02,
          -1.56419538e-02, 1.78219434e-02, 2.67266259e-02,
          1.81177054e-02, 4.68341596e-02, 1.43273771e-02,
          -1.12285288e-02, -1.58800930e-02, -3.74013148e-02,
          1.53648220e-02, 1.49214901e-02, 2.61036493e-02, 2.46639661e-02,
          2.45583896e-03, 7.35247042e-03, 8.21552612e-03,
          -1.27979349e-02, -3.13440822e-02, 1.14571908e-02,
          2.14098897e-02, 9.57425311e-03, 3.23054045e-02, 7.73853622e-03,
          -3.30278687e-02, -6.46604672e-02, 2.39851531e-02,
          3.97568718e-02, 3.16637978e-02, 3.19656618e-02, 1.28724314e-02,
          1.01864316e-01, -3.10544819e-02, -3.58045809e-02,
          -1.46389365e-01, 1.70903597e-02, 2.65508395e-04,
          1.85324252e-02, 1.85355376e-02, 3.28569598e-02, 5.46517111e-02,
          2.38081831e-02, -2.02832054e-02, -8.35183018e-04,
          3.59217562e-02, 3.34057882e-02, 1.72017235e-02, 2.65516564e-02,
          3.97046059e-02, 1.13490988e-02, -1.23530962e-02,
          -9.77505594e-02, -3.35420892e-02, 3.23469415e-02,
          2.77693998e-02, 2.98322737e-02, 1.95740126e-02, 1.16769299e-02,
          3.46286297e-02, -4.52179834e-02, -4.36489172e-02,
          -2.65247673e-02, 1.21872602e-02, 1.44205485e-02,
          2.61411052e-02, 1.72040388e-02, 2.47243773e-02, 9.00622159e-02,
          -2.03814823e-02, -1.32368235e-02, -2.82084495e-02,
          3.93760428e-02, 2.26299129e-02, 1.68449394e-02, 2.74937339e-02,
          3.63719314e-02, -7.15244561e-03, -5.59138991e-02,
          -3.84593122e-02, 3.26612704e-02, 1.47323553e-02,
          5.24868118e-03, 1.38441734e-02, 3.69860344e-02, 4.96974625e-02,
          1.98679846e-02, -3.81947234e-02, -9.56100151e-02,
          1.69910025e-02, -7.75127858e-03, 5.81734767e-03,
          3.03362450e-03, 2.35231570e-03, 2.39355303e-03, 8.37761164e-02,
          -7.26055121e-03, -5.82125969e-03, -4.72285487e-02,
          -1.62441473e-04, 3.12293209e-02, 1.83437187e-02,
          -5.68117760e-03, 1.03729125e-02, 6.38815984e-02,
          2.04715263e-02, 1.77447572e-02, 6.71196030e-04,
          -1.94093287e-02, -2.05296576e-02, -1.80654898e-02,
          -3.91539186e-04, 5.50385145e-03, 3.19423191e-02,
          -1.86392553e-02, -1.10078335e-01, -2.23385841e-02,
          -1.52902398e-02, 1.33479554e-02, -1.01410868e-02,
          -3.46935466e-02, 3.74585926e-03, 3.13604660e-02,
          6.89777872e-03, -4.52619679e-02, -1.09256133e-02,
          7.41528161e-03, 3.36097814e-02, 2.21088491e-02,
          -9.80221294e-03, -6.81924692e-04, 1.45839667e-02,
          -3.78200486e-02, 9.11738724e-03, 1.49106830e-02,
          1.82717144e-02, -4.43165336e-04, -1.94727606e-03,
          2.12081522e-03, 1.36202956e-02, 4.43863124e-02, 4.93784174e-02,
          5.63386315e-03, 5.17978147e-03, -8.85785557e-03,
          2.32651345e-02, 1.45457108e-02, -2.99647450e-02,
          -4.81491759e-02, -2.82624438e-02, -1.21711725e-02,
          -3.68577391e-02, -2.73799896e-02, 2.98649934e-03,
          1.44101623e-02, 4.48129475e-02, 1.11137759e-02, 8.07981379e-03,
          -1.34962797e-03, -1.99142992e-02, 2.90381163e-02,
          -1.17476415e-02, -1.20668784e-02, -2.65080314e-02,
          -2.12587155e-02, -1.87749835e-03, -3.52864154e-02,
          -1.75999701e-02, 4.62341908e-04, -1.61570532e-03,
          -1.52682280e-02, -1.87146454e-03, -1.02080440e-03,
          3.12381666e-02, 4.97299023e-02, -5.11867292e-02,
          6.67996705e-03, -3.91800813e-02, 1.09050591e-02,
          -4.92857955e-03, -5.71631175e-03, -3.71370791e-03,
          2.74925958e-02, -1.65083539e-02, -3.12251858e-02,
          1.15934340e-02, -6.85429154e-03, 3.04771513e-02,
          -1.18837589e-02, 2.43861917e-02, -2.51679756e-02,
          -2.04381570e-02, -1.36564607e-02, -4.38966155e-02,
          5.91778988e-03, -1.46613242e-02, 3.21661541e-03,
          -1.18089956e-03, 7.76621222e-04, 6.26807893e-03,
          1.38427829e-02, 4.04934362e-02, -1.22641511e-02,
          1.75617151e-02, -2.98440340e-03, 1.82290543e-02,
          -1.89289078e-02, -6.14611432e-03, 2.16814317e-03,
          -2.65150946e-02, -2.10048873e-02, -2.63171848e-02,
          1.53587833e-02, -3.53525281e-02, -4.23921011e-02,
          -6.35819659e-02, 9.09012929e-03, -1.67142879e-02,
          -5.06898537e-02, -4.95638372e-03, 9.68727693e-02,
          3.23321968e-02, -1.82272345e-02, 1.72539633e-02,
          1.58993434e-03, -3.85791101e-02, -6.79488406e-02,
          -6.61925301e-02, -1.40717756e-02, -8.62391107e-03,
          2.60204244e-02, -1.10494671e-02, -7.50751793e-03,
          -4.54559401e-02, 7.58587569e-03, 2.00694595e-02,
          4.56328876e-03, -3.24589349e-02, -1.10764271e-02,
          5.12312651e-02, 3.68833356e-02, -2.66849063e-02,
          -5.01187854e-02, -4.51510167e-03, 2.53985059e-02,
          3.51633765e-02, -4.63835075e-02, -3.07499208e-02,
          1.53945368e-02, 1.11074802e-02, 2.30936427e-02,
          -1.86321605e-02, -2.89138202e-02, -2.30429750e-02,
          -2.20788596e-03, -2.65449705e-03, -1.62573846e-03,
          3.10420487e-02, 3.77788185e-03, -1.33059621e-02,
          -4.62522544e-02, -1.95840001e-02, 1.18132718e-02,
          3.69300097e-02, 9.89473704e-03, 1.54343274e-04,
          -2.47067511e-02, -6.10264353e-02, -1.98334595e-03,
          -3.36111225e-02, -1.70320868e-02, 2.93274457e-03,
          6.29610661e-03, 3.14553976e-02, 2.10923469e-03,
          -1.16707692e-02, -2.11313702e-02, -6.10519107e-03,
          -6.74673263e-03, 4.29620817e-02, 3.72828655e-02,
          3.36581133e-02, -1.14194760e-02, -2.72365520e-03,
          1.66559834e-02, 9.72060394e-03, 5.15390793e-03,
          -4.79446072e-03, 6.98041578e-04, 6.76475316e-02,
          4.54628542e-02, 1.47351911e-02, -4.82812561e-02,
          -5.85298911e-02, -3.16782333e-02, -1.21533787e-02,
          -3.56671885e-02, 3.54307033e-02, -3.68259905e-04,
          4.51544896e-02, -3.05974167e-02, -4.38724495e-02,
          -3.76160108e-02, -1.27523802e-02, 5.33944985e-04,
          -8.85339454e-03, -2.76877196e-03, 2.96661556e-02,
          3.19136195e-02, -1.56033626e-02, 2.52206232e-02,
          4.90154997e-02, 1.62276998e-02, -6.54398184e-03,
          5.67777595e-03, -3.96620994e-03, -1.36612961e-03,
          -2.22700625e-03, 3.26675139e-02, 2.22081318e-03,
          1.13718146e-02, -3.72942314e-02, -3.44446376e-02,
          2.41886452e-03, -4.90191113e-03, -1.41153410e-02,
          -7.63707561e-03, -3.48339081e-02, 3.63666448e-03,
          2.39172690e-02, -4.42796433e-03, -2.09646355e-02,
          4.33630717e-04, 4.38842084e-03, -2.55808942e-02,
          -5.47403060e-02, 1.92708783e-02, 9.30521172e-03,
          -1.09941131e-02, -4.03744765e-02, -2.29191370e-02,
          -4.97076241e-03, -2.46414859e-02, -1.84787400e-02,
          -5.68260613e-04, 2.49841041e-03, -6.97922474e-03,
          -3.02387401e-02, -6.24454878e-02, -2.82324515e-02,
          -1.59171373e-02, -1.40749142e-02, 8.23202357e-03,
          8.11905190e-02, -4.34229709e-02, -4.79631424e-02,
          -2.78027318e-02, -1.27892382e-02, -3.86805972e-03,
          -2.91890223e-02, -2.68355161e-02, -1.25888353e-02,
          2.07473040e-02, 2.04789303e-02, -6.58357935e-03,
          -4.20744792e-02, -5.26236929e-02, -9.19419434e-03,
          -2.81657651e-02, -3.51799130e-02, 3.58794001e-03,
          8.13015178e-02, 8.43706802e-02, -3.24897729e-02,
          7.52973137e-03, -1.97234526e-02, -1.84305850e-02,
          -4.38490734e-02, -7.32135447e-03, -9.41284839e-03,
          1.05368219e-01, 7.35125989e-02, -3.33109312e-02,
          -1.28840189e-02, 1.44235985e-02, -1.16936779e-02,
          -2.49718968e-02, -8.18644185e-03, -6.97961822e-03,
          -3.11681926e-02, -2.07532067e-02, 5.49922418e-03,
          1.78390127e-02, 1.19180018e-02, -1.08165946e-02,
          -1.75858231e-03, -2.38580965e-02, -4.78884913e-02,
          5.26550673e-02, -2.16962919e-02, -5.72181726e-03,
          -1.77908335e-02, -2.99327122e-03, -9.16675106e-03,
          -1.66287925e-02, -7.13403476e-03, -1.61724947e-02,
          -1.35737956e-02, -1.38291800e-02, -1.69177968e-02,
          -1.89657733e-02, 3.92156933e-03, -1.29135260e-02,
          1.91056496e-03, -1.19044948e-02, -1.81650417e-03,
          -7.77330324e-02, -3.24426591e-02, 1.81130003e-02,
          2.80496031e-02, 1.52178714e-02, 3.24457302e-04,
          -5.68505144e-03, 1.79127380e-02, 3.83370556e-02,
          -1.04347549e-01, -7.39757866e-02, 8.06181971e-03,
          2.06952933e-02, 1.77662522e-02, 1.98162422e-02, 1.49974471e-03,
          2.22314578e-02, 4.77425531e-02, -1.47074144e-02,
          -1.12684108e-02, -1.90352164e-02, 4.60058264e-03,
          2.52000578e-02, 1.09833409e-03, 9.34769399e-03, 2.75187078e-03,
          6.50250614e-02, 6.86811432e-02, 9.47191268e-02, 1.42465555e-03,
          7.64874509e-03, 2.62102317e-02, -1.90230308e-03,
          -1.49558838e-02, 4.42316681e-02, 5.88930994e-02,
          5.59897050e-02, -1.57391434e-04, 3.58041301e-02,
          7.64812203e-03, 1.09352767e-02, 2.79003195e-02,
          -6.25758315e-04, 4.99528274e-02, 5.24324663e-02,
          1.38493422e-02, 2.38254629e-02, 2.91311387e-02, 8.96872859e-03,
          6.98444201e-03, 1.75057482e-02, 3.00907046e-02,
          -2.09753327e-02, -5.78710623e-02, 3.12393345e-02,
          2.55410075e-02, 4.21238020e-02, 5.18658757e-03, 1.26192290e-02,
          -7.76814902e-03, -2.78801117e-02, -3.94057967e-02,
          -1.02937922e-01, -1.06982842e-01, -6.61241785e-02,
          -7.27096200e-03, -1.74044725e-02, 2.04063561e-02,
          -2.23484039e-02, -3.74184921e-02, 7.67498687e-02,
          -2.04257462e-02, -9.09582060e-03, 3.61510254e-02,
          3.81022207e-02, 1.60340779e-02, 1.67350415e-02, 3.28139551e-02,
          4.72483411e-02, 6.79113641e-02, 1.16167795e-02, 1.04581574e-02,
          2.03588046e-02, 2.98912860e-02, 1.51674990e-02, 4.26458791e-02,
          -1.17077576e-02, 1.18443640e-02, -6.68186620e-02,
          -6.82913363e-02, -8.59035701e-02, -4.07199860e-02,
          -2.15263665e-03, 1.59158967e-02, 4.08759378e-02,
          -2.04557367e-03, -4.57422584e-02, -4.86170240e-02,
          8.63116980e-03, 3.32469726e-03, 1.39523381e-02, 1.67635530e-02,
          2.62938254e-03, 1.65209770e-02, -1.57821383e-02,
          -6.19521514e-02, 2.66143475e-02, 9.06357169e-03,
          -9.44490824e-03, 9.91459191e-03, 3.91557142e-02,
          2.84365825e-02, 2.55677048e-02, 8.88853054e-03, 2.51095686e-02,
          4.71239816e-03, -3.60421948e-02, 8.33079405e-03,
          1.96564402e-02, 1.40888644e-02, 4.44523133e-02,
          -7.10718110e-02, -4.57783267e-02, -1.21687190e-03,
          -4.11388315e-02, -5.61872013e-02, -3.45904566e-02,
          2.30547991e-02, 6.03120141e-02, 4.65446599e-02, 7.24794017e-03,
          -8.54458194e-03, -2.63262056e-02, -1.55266691e-02,
          -3.79007235e-02, -1.51679209e-02, 3.16709913e-02,
          3.10237221e-02, -1.61214843e-02, -3.61098498e-02,
          -6.65369108e-02, 2.63253096e-02, 2.72327419e-02,
          -2.21810816e-03, 1.29889594e-02, 1.59392711e-02,
          2.26995926e-02, 3.56172249e-02, -2.57911645e-02,
          -5.79528473e-02, 3.68317706e-04, 4.92301472e-02,
          1.90447886e-02, 1.22426506e-02, 2.23994553e-02, 3.64595689e-02,
          -3.16073187e-02, 1.77509943e-03, -2.23152433e-02,
          -2.13954807e-03, 2.64056474e-02, 1.27330665e-02,
          1.85795370e-02, 1.32389702e-02, 8.32578354e-03,
          -1.25308959e-02, -4.46352698e-02, -4.37851250e-03,
          1.19186426e-02, 2.55896780e-03, 4.94168932e-03, 6.46565063e-03,
          -3.68328094e-02, 1.29179852e-02, -3.39575820e-02,
          -1.19051361e-03, 7.55244726e-03, -2.33043637e-02,
          3.41890752e-02, 9.18468460e-03, 4.37957514e-03, 1.12419175e-02,
          1.42012816e-02, -2.73579806e-02, -5.94687164e-02,
          3.94469798e-02, 3.68567482e-02, 2.77593713e-02, 3.64162191e-03,
          3.82154924e-03, 2.23904029e-02, 4.04448919e-02,
          -2.12477371e-02, -8.74109790e-02, -2.76268274e-02,
          2.38806102e-02, 1.01936078e-02, 5.85234864e-03, 2.05876236e-03,
          -3.59555110e-02, 1.92772802e-02, -1.61117874e-02,
          7.41164992e-03, 3.72284316e-02, 1.37158791e-02, 8.73867888e-03,
          3.07861646e-03, 4.53610905e-03, -1.55222844e-02,
          8.75580031e-03, -1.73846800e-02, -2.29081176e-02,
          4.16074917e-02, 1.86836161e-03, -3.94177344e-03,
          -2.42661266e-03, -5.27658360e-03, 6.92930119e-03,
          4.21193847e-03, -4.67506684e-02, -4.50685546e-02,
          -1.81003113e-03, -8.72106012e-03, -1.74915623e-02,
          1.09498599e-03, -4.91577713e-03, 5.89268701e-03,
          4.43294458e-02, -7.60463823e-04, -1.58049888e-03,
          -1.17282877e-02, -5.29894792e-03, 2.43332027e-03,
          6.38754386e-03, 2.11380385e-02, 1.45076504e-02,
          -3.34818140e-02, -3.67645063e-02, -4.97510321e-02,
          3.84900756e-02, -1.02214059e-02, -5.35478769e-03,
          -6.58623176e-03, 2.43529454e-02, -3.26368702e-03,
          5.56903072e-02, -1.16853816e-02, -1.64964013e-02,
          1.07371546e-02, -5.25123859e-03, 3.53435427e-03,
          6.01973012e-03, 1.08443331e-02, 4.76898218e-04, 1.25680054e-02,
          -8.39235261e-03, -1.21854814e-02, -1.21945655e-02,
          1.00544943e-02, 1.41225876e-02, 1.72522739e-02, 2.46596746e-02,
          2.28288341e-02, 4.76405136e-02, -7.61720876e-04,
          -3.21460329e-02, 1.04307067e-02, 1.79195069e-02,
          -1.81845273e-03, 6.90392498e-03, 1.42191704e-02,
          -8.07662122e-03, 1.15543492e-02, -9.57184378e-03,
          -4.04880345e-02, -5.93868364e-03, -1.53926341e-03,
          8.38707760e-03, 5.45499194e-03, -1.19001023e-03,
          1.93749424e-02, -1.29091451e-02, -1.09981243e-02,
          -7.51194432e-02, -2.69090699e-04, 1.48449950e-02,
          5.59144001e-03, -7.85835274e-03, -2.74760998e-03,
          1.51104794e-03, 2.53791977e-02, 2.74306093e-03, 1.08413706e-02,
          9.67335235e-03, 1.15074432e-02, 2.63992380e-02,
          -2.90122279e-03, -3.86544503e-02, -8.65692459e-03,
          1.62894744e-02, 2.63652019e-02, 1.50888448e-03,
          -2.37824693e-02, 3.40321771e-04, 6.25573006e-03,
          5.72487619e-03, -3.20503935e-02, -2.69252085e-03,
          -1.60498284e-02, -2.53865272e-02, -2.63673328e-02,
          -4.93794605e-02, -3.63047654e-03, -9.36644897e-03,
          5.48618985e-03, -2.35960521e-02, -3.64328735e-03,
          -7.51274591e-03, 6.52007014e-02, -6.56715711e-04,
          -3.87382209e-02, -3.50593962e-02, 1.58311054e-02,
          -3.17908870e-03, -7.71241495e-03, 2.87482534e-02,
          8.27825218e-02, 2.72411611e-02, -1.73552986e-02,
          1.66659076e-02, 1.25179868e-02, -1.99654195e-02,
          -1.91201549e-02, 2.92986576e-02, -5.75092330e-04,
          -3.23840156e-02, 8.34240206e-03, -8.06776527e-03,
          4.23130803e-02, 8.45844019e-03, -1.41303064e-02,
          -1.20009137e-02, -8.94798804e-03, 1.60800125e-02,
          -8.03865865e-03, -4.04909486e-03, -2.94540823e-03,
          2.97565223e-03, -1.14808790e-02, 6.17708825e-03,
          3.20074484e-02, -2.86800088e-03, -4.50847633e-02,
          -4.03226353e-02, -2.34103017e-02, -5.43622999e-04,
          7.01483386e-03, 3.14228516e-03, -1.91185921e-02,
          1.03328200e-02, 3.94323021e-02, -5.60774729e-02,
          -3.35139595e-02, 4.20250697e-03, 3.47421393e-02,
          4.57429513e-02, 1.17938193e-02, -2.12140400e-02,
          5.19608660e-03, 1.03558600e-02, -7.49930926e-03,
          5.68947569e-03, -2.38457508e-02, -4.98953275e-03,
          1.51310060e-02, -7.05270097e-03, 1.68989431e-02,
          7.40113482e-02, -5.25102252e-03, -4.89303023e-02,
          -4.40578870e-02, 4.29621385e-03, 2.31263470e-02,
          3.73926610e-02, 1.67550314e-02, -3.82671356e-02,
          -8.60267971e-03, -8.64938274e-03, -5.43366792e-03,
          5.18802218e-02, 5.27877267e-03, -3.06955278e-02,
          -1.94423422e-02, -1.53449234e-02, 7.01127481e-03,
          5.73294163e-02, 3.43923792e-02, 9.77959111e-03,
          -2.02788506e-02, -3.71780880e-02, 9.11589060e-03,
          2.36432962e-02, -7.09414482e-03, 1.17115723e-02,
          9.40590817e-03, -3.98659194e-03, 1.68602969e-02,
          -2.75277179e-02, -7.40725407e-03, 7.83622637e-03,
          2.74894070e-02, 2.28019990e-02, -1.49907488e-02,
          1.80002414e-02, 1.09827695e-02, 5.07272594e-03,
          -1.35605447e-02, -3.95477153e-02, 2.22627372e-02,
          2.14946531e-02, -4.29079169e-03, 1.94699056e-02,
          3.89581989e-03, -5.77692408e-03, 3.94378752e-02,
          -9.80866048e-03, -2.63105053e-02, -1.30273579e-02,
          -7.57930893e-03, 1.08681452e-02, -2.10185408e-06,
          -7.13274777e-02, -6.06572442e-02, 4.55561699e-03,
          -1.48819527e-02, 1.95252616e-02, -7.23655382e-03,
          1.92164254e-04, 1.92604344e-02, 9.14566964e-03, 1.26144988e-02,
          1.03786879e-03, 6.99156597e-02, -1.62823778e-02,
          -9.30705632e-04, -1.75550412e-02, -5.98697225e-03,
          1.63932354e-03, -1.94763858e-02, -1.63716991e-02,
          -2.00090860e-03, 1.21729150e-02, -8.33143760e-03,
          3.55048068e-02, 6.59010326e-03, -8.02339893e-03,
          3.13311047e-03, 4.93687252e-03, -1.04945693e-02,
          1.97252538e-02, 1.11538330e-02, 1.83687489e-02, 2.83990614e-02,
          2.32618582e-02, -7.11440982e-04, 1.93339773e-02,
          -1.70585159e-02, -3.77443829e-03, 5.60144754e-03,
          -1.68265193e-03, -4.34347205e-02, -1.58184096e-02,
          -1.71049032e-02, -2.93382332e-02, -2.12135110e-02,
          -2.50532720e-02, -6.10489026e-02, 2.00744476e-02,
          1.88262522e-01, 2.89599914e-02, 4.26651957e-03,
          -2.14944407e-02, -1.69642866e-02, -1.31612290e-02,
          2.96498882e-04, -3.23883556e-02, -5.28771952e-02,
          -9.12274346e-02, -4.78886105e-02, -4.12864937e-03,
          -4.02677152e-03, -1.36655830e-02, -2.59337500e-02,
          -9.46341269e-03, -3.78252752e-02, -3.26294191e-02,
          6.56328537e-03, 4.05407138e-03, 9.33135301e-03,
          -1.67454779e-02, -1.95726845e-02, -2.70773079e-02,
          -8.36094003e-03, -4.55462039e-02, 2.73827724e-02,
          7.11069815e-03, 6.27329946e-02, -2.01495457e-02,
          -1.97740714e-03, -2.81058892e-04, -6.73212158e-03,
          -8.83303024e-03, -4.69091767e-03, -7.12238112e-03,
          7.58177415e-03, -3.12066637e-02, -2.64694653e-02,
          1.76657978e-02, -8.71999247e-04, -3.47759342e-03,
          -1.26816169e-03, 5.27844590e-04, 1.97575577e-02,
          -7.76382536e-03, -1.10535156e-02, 1.28065888e-02,
          -1.38640944e-02, -1.22327516e-02, -5.55316452e-03,
          -1.23598771e-02, -4.00381116e-03, 1.65036935e-02,
          1.09853232e-02, -7.27224688e-05, -1.72298495e-02,
          -4.77260770e-03, -2.25879550e-02, -1.38231562e-02,
          1.36611378e-02, 5.41087724e-02, 3.22620245e-03,
          -6.01279829e-03, -7.43923113e-02, -2.21482161e-02,
          2.80317627e-02, 8.44325218e-03, 1.84209994e-03,
          -1.18481340e-02, 9.07828286e-03, 7.88749233e-02,
          6.47187838e-03, 8.89948104e-03, 1.53485099e-02, 3.54885571e-02,
          5.95502788e-04, -1.89299397e-02, -7.45029328e-03,
          -5.85069554e-03, 2.98140291e-02, -3.69162485e-02,
          -6.03512228e-02, 1.62116420e-02, 1.75106898e-02,
          4.77557024e-03, -2.08853511e-03, -3.75485681e-02,
          -5.35140485e-02, -1.80067942e-02, -1.90805476e-02,
          2.22502649e-02, 4.31429073e-02, 2.10793540e-02,
          -6.72690803e-03, -2.60649920e-02, -5.59534458e-03,
          -4.28567603e-02, 4.05267328e-02, 2.08618939e-02,
          9.41201746e-02, 5.05764335e-02, 5.01062796e-02, 5.77568356e-03,
          -7.86591694e-03, 1.78652182e-02, -1.05587263e-02,
          -1.23144805e-01, -8.24446604e-02, 2.62953416e-02,
          1.60305779e-02, 4.13946658e-02, -3.75727279e-04,
          2.75594695e-03, -2.04104260e-02, -1.49048250e-02,
          -6.22340627e-02, -1.43505633e-01, 7.51598971e-03,
          2.95523778e-02, 6.65045157e-02, 1.24590266e-02,
          -1.08308913e-02, 2.11390853e-02, -1.38897803e-02,
          -1.12628624e-01, -7.84597918e-02, 5.10855764e-03,
          2.84263529e-02, -1.07547140e-03, 1.41117284e-02,
          2.22231913e-02, -1.57540385e-02, -5.44316741e-03,
          -5.49568906e-02, -3.35015431e-02, 3.43055092e-02,
          3.76405977e-02, 6.33659400e-03, -1.76966060e-02,
          -2.32628100e-02, -3.89542058e-02, -1.23971077e-02,
          -1.89944785e-02, -2.09915675e-02, 4.52688057e-03,
          -1.86077300e-02, -4.20409815e-05, -2.00274996e-02,
          -1.90714970e-02, -2.29619863e-03, -2.84562428e-02,
          -8.77785459e-02, -6.03745282e-02, 3.51170786e-02,
          7.13631138e-02, -1.60527567e-03, 2.97149690e-03,
          4.89115389e-03, 1.28549179e-02, -6.68486161e-03,
          -1.88988019e-02, -9.96075869e-02, -1.79745480e-02,
          -1.68257859e-02, 1.70688741e-02, 7.23303575e-03,
          1.78419724e-02, -3.87206003e-02, -6.09909780e-02,
          -4.04693894e-02, 1.03673646e-02, -4.11693603e-02,
          -1.09212250e-02, -1.00350231e-02, -1.90564636e-02,
          -1.59627735e-03, -1.21884700e-02, -3.18606123e-02,
          1.43855996e-02, 4.06884439e-02, 2.20765844e-02,
          -6.48336634e-02, -6.38946965e-02, -8.60815868e-04,
          2.27218997e-02, 1.60440151e-03, -3.28356884e-02,
          -2.15600822e-02, -5.52886873e-02, -1.93880741e-02,
          3.16500873e-03, 1.93881877e-02, 1.39537547e-02, 1.00064082e-02,
          1.16153935e-03, -2.64975000e-02, -7.95077160e-03,
          1.97229683e-02, -2.43750997e-02, 5.60321063e-02,
          -6.64700707e-03, -1.25560537e-02, -1.33541075e-03,
          7.57070398e-03, 9.18903574e-03, 1.28392698e-02, 1.84715856e-02,
          1.90891065e-02, -1.26296130e-03, -2.18147021e-02,
          1.49945160e-02, 1.58805344e-02, -7.18214456e-03,
          7.76295038e-03, -7.32802600e-03, -3.16831060e-02,
          5.10769757e-03, -4.12434824e-02, -5.90651184e-02,
          6.37054490e-03, -1.72642581e-02, 1.92346666e-02,
          2.65860301e-03, -1.48038780e-02, 7.17039860e-04,
          -4.39199470e-02, -1.84876379e-02, -5.00612371e-02,
          -6.31780969e-03, 3.25410999e-02, 2.82172281e-02,
          3.37594375e-02, -4.71704919e-03, 1.91029832e-02,
          2.86523672e-03, 2.85364334e-02, 1.50488544e-04, 3.50847133e-02,
          2.54531000e-02, 4.35353228e-04, 2.67397403e-03,
          -4.54567926e-04, -4.73047458e-02, 2.59897392e-02,
          2.13849563e-02, -4.08770982e-03, 7.48349633e-03,
          8.37829337e-03, 4.21327353e-03, 4.24379436e-03, 1.18622510e-02,
          -2.41399929e-02, -4.86525521e-02, -3.64707597e-02,
          7.62829790e-03, 2.30646394e-02, 1.02382647e-02, 5.51064592e-03,
          7.57212518e-03, -7.03357207e-03, -1.00998692e-02,
          4.58478667e-02, 1.30535122e-02, 2.56237891e-02, 1.52903162e-02,
          1.02270497e-02, 4.10545431e-03, 8.65969283e-04, 1.67434011e-02,
          3.39076184e-02, -2.02661101e-02, -4.01614467e-03,
          9.85813700e-03, 2.00280976e-02, 1.81389973e-02, 1.30398991e-02,
          1.08101424e-02, 2.22111903e-02, -1.44464721e-03,
          -5.73429279e-02, -5.61947152e-02, 1.05274571e-02,
          3.43655869e-02, 1.19321486e-02, 1.36355190e-02, 8.45977478e-03,
          3.26178260e-02, -1.08912615e-02, 1.70741528e-02,
          -2.28173658e-02, 3.18180881e-02, 3.16341519e-02,
          1.64903626e-02, 1.64864063e-02, 1.08753396e-02, 1.26469322e-02,
          -8.44360515e-03, -4.36953343e-02, -2.45222487e-02,
          2.83690263e-02, 9.77844093e-03, 1.19840438e-02, 1.39891421e-02,
          9.91323590e-03, 1.34140775e-02, 8.40141322e-04,
          -2.41093710e-02, 4.18667449e-03, 6.70979777e-03,
          1.17776997e-03, 1.15739694e-02, 3.77291022e-03, 4.99376608e-03,
          6.54823612e-03, -1.15258759e-02, -2.02945787e-02,
          -1.24205630e-02, -4.92554009e-02, 2.53702980e-03,
          1.66424420e-02, -5.12519944e-03, -2.67863995e-03,
          7.27009727e-03, 2.53219567e-02, -7.99225643e-03,
          -2.27350369e-02, -4.99328971e-02, -9.21076350e-03,
          2.01761089e-02, -7.97838962e-04, -1.16641065e-02,
          -1.42939249e-02, 2.92004850e-02, -2.14580726e-02,
          8.53286590e-03, -2.60347072e-02, -1.73783712e-02,
          2.75555328e-02, -6.53869100e-03, -6.22908352e-03,
          1.73951685e-02, 2.45073717e-02, -6.91166800e-03,
          -6.37327433e-02, -7.96752051e-03, 1.03787351e-02,
          2.52824016e-02, 4.48375894e-03, 9.45825130e-03, 2.93843839e-02,
          2.23725326e-02, -2.98486464e-02, -2.58079618e-02,
          -1.69332623e-02, -2.95242630e-02, -1.65953916e-02,
          -3.32272388e-02, 1.46451155e-02, 2.33582337e-03,
          2.06727777e-02, 4.07459810e-02, 5.95532581e-02, 2.14122348e-02,
          -7.73365889e-03, -3.04790754e-02, -2.78332476e-02,
          4.82466118e-03, 2.02597603e-02, -1.66491233e-03,
          -2.31915489e-02, -3.80426832e-02, -2.58068135e-03,
          -1.29312824e-03, -2.23586224e-02, -5.24034351e-02,
          -4.25464027e-02, -3.34373452e-02, -4.76515070e-02,
          7.92666711e-03, 6.80767670e-02, 1.34460209e-02,
          -6.05994230e-03, -3.89664508e-02, -2.69165337e-02,
          -2.40906831e-02, -3.50750275e-02, -5.03061479e-03,
          2.07680371e-02, 4.60829437e-02, 2.72955783e-02,
          -3.12710032e-02, -4.33235541e-02, 6.36392331e-04,
          2.98388433e-02, -4.15769927e-02, -3.91674899e-02,
          -2.25970522e-03, 8.27090698e-04, -3.87519249e-03,
          -5.81638440e-02, -2.63833944e-02, 3.76199372e-04,
          -5.29657081e-02, -4.10631038e-02, -2.37665139e-02,
          2.75699180e-02, 7.27598444e-02, 2.43124720e-02, 5.48550999e-03,
          -1.14900451e-02, 2.09722370e-02, 1.81621891e-02,
          3.04913893e-02, -2.20381990e-02, -6.41217921e-03,
          -1.74721866e-03, -9.42550041e-03, 4.10025148e-03,
          8.03346187e-03, -6.81890640e-04, 2.64001694e-02,
          -4.43823747e-02, -1.52660003e-02, 3.26401703e-02,
          3.31366099e-02, -1.73763223e-02, -2.66841557e-02,
          -6.76537398e-03, -2.71331985e-02, -6.03129715e-02,
          -2.30249614e-02, -5.96151222e-03, -9.20497719e-03,
          1.00932606e-02, -2.82709883e-03, -3.21949385e-02,
          -1.39135439e-02, -3.81375477e-03, -7.49737117e-03,
          1.83717124e-02, -1.70350727e-02, 5.11763385e-03,
          1.51573643e-02, 9.68305394e-03, -2.61578802e-02,
          -4.83921263e-03, -2.09537372e-02, -3.32342535e-02,
          3.45446281e-02, 3.76322627e-04, 7.96922133e-04, 2.74247993e-02,
          6.22342825e-02, -9.75998491e-03, -1.33197121e-02,
          -9.42882895e-03, 7.48057675e-04, 3.00587217e-05,
          4.82840389e-02, -2.17666849e-02, -7.67948292e-03,
          -8.73598550e-03, 3.56232049e-04, -1.09956665e-02,
          -1.83620192e-02, -1.76171884e-02, -1.44106466e-02,
          -1.35176512e-03, 2.19529867e-02, 2.41350532e-02,
          -1.97110474e-02, -1.71464514e-02, 8.40254407e-03,
          -1.84588116e-02, -6.01037927e-02, -4.77103777e-02,
          -2.07664841e-03, 1.51362699e-02, 5.39174527e-02,
          2.23837588e-02, 9.02043842e-03, -1.27831521e-02,
          -4.20060158e-02, -6.16564527e-02, -4.93867993e-02,
          -5.84366247e-02, 2.95293182e-02, 7.40882605e-02,
          4.17383388e-02, 3.65638025e-02, 2.97120456e-02,
          -5.20512797e-02, -3.08216661e-02, -4.27209819e-03,
          -2.01155692e-02, 4.67039319e-03, 3.49620953e-02,
          1.53718377e-02, 2.72723846e-03, -1.85942762e-02,
          -1.92713588e-02, -5.51647600e-03, 7.01046130e-03,
          -1.70007162e-02, -8.13441910e-03, -2.44712811e-02,
          -1.20119518e-02, -1.35486759e-02, -2.05404423e-02,
          -1.73400119e-02, 2.34570308e-03, 6.38462277e-03,
          2.18359139e-02, -2.02663299e-02, 3.00598051e-02,
          2.52337614e-03, 8.84576421e-03, -2.67549567e-02,
          2.34827381e-02, 5.58219738e-02, 7.17253610e-02, 1.34835532e-02,
          1.18947309e-02, -2.53895149e-02, -2.48135626e-02,
          -4.06253152e-02, 2.29022047e-03, -3.29484435e-04,
          -2.39099730e-02, -1.10812169e-02, -3.79443467e-02,
          -2.18666717e-02, -3.81912030e-02, 8.75978824e-03,
          -1.72571396e-03, -2.40412336e-02, -5.91945741e-03,
          -3.16255330e-03, -1.96671672e-02, -6.84380904e-02,
          1.69219263e-02, -6.41213916e-03, -3.94210313e-03,
          2.15005060e-03, -2.01575179e-02, -1.98794026e-02,
          -3.17600593e-02, -2.46219039e-02, -1.14389053e-02,
          1.01315985e-02, -1.29404049e-02, 1.87337063e-02,
          -3.74363363e-03, -2.17884313e-02, -3.99444327e-02,
          -1.15327928e-02, -1.12810340e-02, -7.68331671e-03,
          3.85125577e-02, 4.00100052e-02, 1.79803523e-03,
          -2.52511036e-02, -2.69934181e-02, 5.27691282e-03,
          2.32045315e-02, 1.73715949e-02, -5.16299158e-02,
          -5.58948144e-02, 8.86095315e-03, -1.33885816e-02,
          1.28026167e-03, 1.23134954e-02, -1.35693292e-03,
          5.72745397e-04, 2.23928038e-02, -7.38512129e-02,
          1.81879103e-03, -1.31815197e-02, -1.41120534e-02,
          -1.09015964e-03, 2.06859480e-03, 1.44337360e-02,
          2.24006101e-02, 2.94362176e-02, 2.42692586e-02,
          -5.03066741e-02, 4.86499257e-02, -5.83505118e-03,
          2.87731132e-03, 1.00820074e-02, 1.12979421e-02, 5.99987572e-03,
          1.59813538e-02, 1.12132938e-03, 1.67912599e-02, 3.67325102e-03,
          5.57809416e-03, 1.17538292e-02, 2.74961698e-03,
          -1.88866351e-03, -5.17330552e-03, 1.19170547e-02,
          -6.24395609e-02, -1.32251894e-02, 2.06167456e-02,
          2.62309555e-02, 4.35712375e-03, 1.78378614e-04,
          -1.93236303e-02, -6.16718875e-03, 1.02724433e-02,
          -6.88381344e-02, -4.78832126e-02, 1.50788045e-02,
          7.35263200e-03, -1.41644981e-02, -1.80493612e-02,
          2.23171222e-03, 7.80955981e-03, 2.40267627e-03, 6.54989574e-03,
          9.83052742e-05, -1.64975002e-02, 1.92888435e-02,
          -4.51719761e-03, 8.35766550e-03, -5.92318131e-03,
          5.85392118e-03, 7.08013326e-02, 2.90793125e-02,
          -2.84890030e-02, -1.62950829e-02, -3.84880835e-03,
          -1.50339687e-02, -6.45960495e-03, -7.14620296e-03,
          2.47029494e-02, 2.29616594e-02, -7.75950253e-02,
          -5.76789230e-02, -4.05994505e-02, 2.34274399e-02,
          4.63617174e-03, -8.88052024e-03, 2.09659357e-02,
          9.26036388e-03, -1.89804621e-02, -5.58131784e-02,
          2.77742557e-02, -3.35212029e-03, -4.14220691e-02,
          -6.54408708e-03, 8.46692640e-03, 1.14286514e-02,
          4.95816991e-02, 7.12063164e-02, 1.92210581e-02,
          -4.40637022e-02, -6.68258891e-02, 2.26065554e-02,
          1.02469549e-02, 1.48370843e-02, 5.32798283e-02, 7.02539235e-02,
          4.23784330e-02, -5.09737013e-03, -3.10095586e-02,
          -6.13512807e-02, -3.28488611e-02, 1.90439913e-02,
          2.64671445e-02, 6.73249830e-04, -2.50021219e-02,
          -3.02466527e-02, -1.53248981e-02, 7.65839173e-03,
          1.08978804e-02, -4.08051535e-02, -1.53750051e-02,
          -1.25119614e-03, -3.01970285e-03, -5.65088820e-04,
          6.70304056e-03, -5.05381357e-03, -2.04341654e-02,
          -8.56814608e-02, -1.14645893e-02, 1.01269148e-02,
          7.03436416e-03, 2.47719921e-02, 6.81455527e-03,
          -4.30050259e-03, -1.51916789e-02, -5.99612109e-02,
          -4.98391911e-02, -4.33575362e-02, 2.76451092e-02,
          2.61343569e-02, 1.68833267e-02, 2.48589292e-02,
          -3.57878469e-02, -6.30713860e-03, -5.79856634e-02,
          -1.02491513e-01, -2.67991833e-02, 3.26338559e-02,
          2.34648362e-02, 2.45654327e-03, -1.10614402e-02,
          -4.49449942e-02, -2.37669162e-02, 5.77791641e-03,
          -4.68425304e-02, 1.12653954e-03, -4.82262485e-03,
          -5.89960022e-03, -7.67692132e-03, -3.80366780e-02,
          -5.67140132e-02, 2.21953224e-02, -7.79578602e-03,
          5.19044437e-02, -8.14573083e-04, -3.15829478e-02,
          -7.74376094e-03, 1.08404374e-02, -6.77638082e-03,
          -3.51938307e-02, 1.17533049e-02, -6.89862594e-02,
          -6.36007041e-02, 1.68594699e-02, 2.56238244e-02,
          1.67679843e-02, -1.31383138e-02, -3.41623798e-02,
          5.71401455e-02, 1.08810663e-01, -4.95381579e-02,
          -2.15454511e-02, -1.23986527e-02, -3.41667351e-03,
          5.06662391e-03, 1.29229771e-02, 4.36367979e-03, 1.48883117e-02,
          4.29631434e-02, -3.77580486e-02, -2.50858180e-02,
          -1.35460384e-02, -4.73637972e-03, 1.18337236e-02,
          1.60357505e-02, 2.87323631e-02, -2.00985316e-02,
          -1.73809212e-02, 6.05306297e-04, 1.89155270e-03,
          4.44959328e-02, 1.71459820e-02, -1.10510166e-03,
          4.35804669e-03, 3.40472697e-03, 7.11504966e-02, 1.12920618e-02,
          -1.41493045e-02, -8.21897388e-02, -2.55541727e-02,
          8.89170682e-04, 1.30504370e-02, 2.17477195e-02, 2.56381780e-02,
          -3.19065005e-02, -2.99767703e-02, 2.63590496e-02,
          1.91346519e-02, 2.56958362e-02, 2.15946902e-02, 2.53145117e-02,
          4.25051367e-05, -5.36775740e-04, -2.56781988e-02,
          -1.64528228e-02, 3.70553583e-02, 1.72172580e-02,
          3.37850675e-02, 1.44351115e-02, 6.47027558e-03,
          -7.16094440e-03, -1.80604402e-02, -2.44045015e-02,
          9.23285261e-02, 1.52864819e-02, -9.79872420e-02,
          1.94418225e-02, 4.20223409e-03, 7.53774308e-03,
          -5.71298925e-03, -2.63806731e-02, -4.18171845e-02,
          2.92278025e-02, 5.13729639e-02, 5.19039780e-02, 3.19135562e-02,
          1.18257198e-02, 1.67887360e-02, -1.74220093e-02,
          -4.85973321e-02, -6.70407619e-03, -1.90771613e-02,
          4.16537896e-02, -7.80964568e-02, 1.16442414e-02,
          5.28568262e-03, 2.29072031e-02, 9.90708452e-03, 8.07946920e-03,
          -5.16744854e-04, 1.75537299e-02, -2.88411956e-02,
          -6.60196096e-02, 1.32500138e-02, -1.00907695e-03,
          5.47003141e-03, 9.55539476e-03, 1.12158963e-02, 1.31106190e-02,
          6.01071231e-02, 4.19334089e-03, -6.17882004e-03,
          -7.39671383e-03, -1.16378777e-02, -6.26508752e-03,
          8.73869006e-03, 1.21951755e-02, -3.92875541e-03,
          -2.07303278e-02, -1.73885524e-02, -2.84048673e-02,
          -4.74964269e-03, 3.25583876e-03, 1.20843425e-02,
          1.82927065e-02, 4.38717678e-02, 3.20832692e-02,
          -1.28748007e-02, -1.11895343e-02, 2.48203129e-02,
          2.31205765e-02, 9.42633394e-03, -8.59234016e-03,
          -5.81344706e-04, -5.61454147e-03, -1.72716342e-02,
          7.39766210e-02, -9.34507418e-03, -2.93904562e-02,
          -8.82215519e-03, -7.29193771e-03, 4.66837315e-03,
          4.81683901e-03, 1.00978613e-02, -1.29462965e-03,
          -8.05299915e-03, -1.17379669e-02, -4.29530442e-02,
          1.55432951e-02, 2.32827868e-02, 1.95486192e-02,
          -7.80517654e-03, 4.44760453e-03, -1.48911066e-02,
          -2.15424169e-02, 5.34441439e-04, 1.94065418e-04,
          1.28642898e-02, 2.77152937e-03, -1.28388293e-02,
          1.99456685e-04, 8.26008990e-03, -2.05635782e-02,
          -2.04301029e-02, -6.67227153e-03, -1.83969792e-02,
          2.93937493e-02, 2.08614357e-02, -6.61505060e-03,
          -1.59207527e-02, 2.13753711e-02, 9.43346415e-03,
          -5.10112271e-02, -4.59084362e-02, -4.01776517e-03,
          1.52694155e-02, 1.46458019e-02, -7.25890184e-03,
          -1.62448045e-02, -1.97948366e-02, -1.29504669e-02,
          7.74277095e-03, 3.35544497e-02, 7.03352690e-02, 2.40367968e-02,
          9.34056472e-03, 7.92513951e-04, 5.28838718e-03, 2.14033600e-04,
          -2.28741486e-02, -4.78374846e-02, -4.78103645e-02,
          -4.37698364e-02, 3.73094566e-02, 6.72403956e-03,
          2.57363683e-03, 1.25512145e-02, -1.39452582e-02,
          8.51509720e-03, 6.78235106e-03, 6.49978966e-02, 1.59963630e-02,
          2.54800376e-02, -2.74960343e-02, -1.35889286e-02,
          7.32721761e-03, -9.29271281e-02, -2.19451748e-02,
          1.32374438e-02, 5.62671386e-03, 4.03022319e-02, 3.72524885e-03,
          1.17501533e-02, 1.45230414e-02, -3.19283158e-02,
          -3.93638536e-02, 8.18676427e-02, -2.33451296e-02,
          -3.18565220e-02, -7.72931520e-03, 2.69230660e-02,
          2.28858422e-02, -2.64432970e-02, -1.05578173e-02,
          -5.31526953e-02, -1.27048232e-02, -4.06302139e-03,
          6.37160242e-02, 2.11081449e-02, 1.21980682e-02,
          -5.59338834e-04, -2.74026338e-02, -9.07842219e-02,
          -5.40553816e-02, -1.90130193e-02, -1.33354235e-02,
          5.68478834e-03, 3.47312838e-02, -2.03687437e-02,
          2.79989187e-03, -6.16707727e-02, -2.45328825e-02,
          5.49818343e-03, 5.24397343e-02, -4.97343531e-03,
          -1.97156463e-02, 7.37933256e-03, -6.16168417e-03,
          3.59783298e-03, -1.52072478e-02, -4.32111509e-03,
          1.66905839e-02, 7.21027032e-02, 3.70970704e-02,
          -6.53130352e-04, -1.88174262e-03, 1.09459981e-02,
          8.23207945e-03, -1.11137759e-02, -3.54279093e-02,
          7.17211468e-03, 2.30092313e-02, 3.59604470e-02,
          -1.69164352e-02, 1.41492551e-02, -3.04499604e-02,
          -7.83183612e-04, -2.24789865e-02, -8.97389092e-03,
          -1.65403504e-02, -1.01288892e-02, 3.06743030e-02,
          6.40148064e-03, -1.72164906e-02, -2.54487079e-02,
          -3.96628603e-02, 6.69687474e-03, -5.49492948e-02,
          -5.43423146e-02, -6.29366515e-03, -6.93729660e-03,
          -5.66445617e-03, 3.75403985e-02, 2.97845937e-02,
          5.51093323e-03, -2.65073627e-02, -1.48272645e-02,
          -3.92435417e-02, -6.16978221e-02, -4.86472845e-02,
          2.00995263e-02, 5.78461885e-02, 5.19862212e-02, 4.19104993e-02,
          -9.73386876e-03, -3.61405201e-02, -1.85826048e-02,
          1.47770182e-03, -9.69538745e-03, -1.20065715e-02,
          -5.92550403e-03, 3.90054323e-02, 1.23860631e-02,
          -3.13294455e-02, 2.95296833e-02, -4.11248673e-03,
          -3.79728563e-02, -3.02602146e-02, 5.42270653e-02,
          -6.91985013e-04, -8.40069260e-03, 1.46718062e-02,
          1.32633951e-02, 1.03449011e-02, 4.54458781e-03,
          -8.85712821e-03, 1.97300548e-03, -1.23078516e-02,
          3.45714130e-02, 2.07855143e-02, 6.87585119e-03,
          -9.01404489e-03, 1.74891390e-02, 9.29563306e-03,
          2.33956929e-02, -3.63176651e-02, -5.35762461e-04,
          3.11728958e-02, 2.84607746e-02, 1.02706710e-02, 1.09180054e-02,
          2.71887928e-02, -1.72364316e-03, 3.03021818e-03,
          -7.07758497e-03, 1.45889772e-02, -1.02147460e-02,
          -3.16360667e-02, 9.44464561e-03, 2.48250999e-02,
          3.34469154e-02, 1.34139080e-02, 3.39919738e-02, 6.33595884e-03,
          -3.11772265e-02, -9.03433561e-03, -3.55616063e-02,
          -2.10339166e-02, 1.57455318e-02, -2.72999667e-02,
          -3.80062796e-02, -3.75962220e-02, -3.78959402e-02,
          -1.01142349e-02, 9.70719755e-03, 1.93402022e-02,
          1.21377427e-02, -1.46414777e-02, -3.58281434e-02,
          -3.57012488e-02, -2.22651623e-02, 3.14851403e-02,
          -4.31511551e-03, 6.74463362e-02, -3.11704050e-03,
          -1.75131261e-02, -1.04612252e-02, -2.56541464e-02,
          -1.16085727e-02, -5.70522388e-03, -3.97311477e-03,
          -1.12792915e-02, -2.76727900e-02, -2.15959307e-02,
          -3.86074036e-02, -3.66996564e-02, -4.10925262e-02,
          -6.71147555e-02, -5.37393503e-02, -3.20614539e-02,
          2.33512814e-03, 1.39772192e-01, 4.80647013e-03, 1.69035397e-04,
          -1.61329582e-02, 1.49928941e-03, 1.65571664e-02,
          1.95944607e-02, 1.41921490e-02, -2.36491133e-02,
          3.51963975e-02, 1.14539731e-03, -1.49111478e-02,
          -6.07004529e-03, 4.86513972e-03, 2.03749537e-02,
          2.31129359e-02, -2.78663472e-03, 5.33016492e-03,
          -3.01680770e-02, 2.68505607e-02, -5.24189370e-03,
          -1.21595645e-02, 2.93233898e-03, 1.58817023e-02,
          1.06105916e-02, -1.50668835e-02, -3.79409008e-02,
          -3.73432301e-02, 1.48103852e-02, -3.96861229e-03,
          -1.22776406e-03, 3.01725734e-02, 3.45910862e-02,
          2.20134240e-02, -1.73180848e-02, -7.40380660e-02,
          -1.99409313e-02, 2.21375078e-02, -8.86451337e-04,
          4.88524267e-04, 1.01639144e-02, 1.13688875e-02, 1.96758769e-02,
          2.27570236e-02, -5.21738566e-02, -5.10218181e-02,
          5.45779243e-02, 1.23008098e-02, 1.45744476e-02,
          -6.17385283e-03, -4.49880399e-03, 3.62463146e-02,
          4.31989618e-02, -1.56489275e-02, -2.79143848e-03,
          3.05529069e-02, 5.78845711e-03, -8.72588251e-03,
          2.37649456e-02, 9.94474534e-03, 2.08104867e-02, 1.15245720e-02,
          -1.00734197e-01, -8.87012854e-03, -2.76087597e-03,
          4.59713601e-02, 2.22850218e-02, 6.95977313e-03, 2.10365858e-02,
          2.88350321e-02, 3.81121896e-02, 1.90131497e-02,
          -6.14250824e-02, -1.74656156e-02, 7.03943372e-02,
          1.58808455e-02, 1.24547509e-02, 3.06909531e-02, 2.95254514e-02,
          2.12665983e-02, -5.92347607e-02, -4.93291356e-02,
          1.01439133e-02, 3.68472263e-02, 9.27173160e-03, 3.93915996e-02,
          2.08272170e-02, 7.24544283e-03, -1.80933364e-02,
          -8.98254439e-02, -4.82724160e-02, -5.33819906e-02,
          1.80141442e-02, 2.58163381e-02, 3.42051387e-02, 2.62927674e-02,
          3.11051235e-02, 2.89641023e-02, 4.16860916e-02,
          -2.12542657e-02, -1.90572888e-02, 6.24353476e-02,
          4.34036367e-02, 2.93275658e-02, -2.28638723e-02,
          -2.00665779e-02, -1.91495381e-02, -5.31607717e-02,
          -5.24293222e-02, -2.68283021e-03, 2.85135657e-02,
          4.97821160e-02, 1.56757776e-02, -2.86421832e-02,
          -4.32588644e-02, -2.77230516e-02, -4.48362008e-02,
          -2.80803088e-02, -1.01368055e-02, 3.76176834e-02,
          2.88984571e-02, -1.22851338e-02, -3.12481802e-02,
          -7.03087375e-02, -2.27852035e-02, 4.74061351e-03,
          -1.18839638e-02, -2.55676243e-03, 3.71509045e-02,
          2.55971011e-02, 9.02620051e-03, -4.35772464e-02,
          -6.23441413e-02, -7.75567219e-02, -4.89165001e-02,
          -4.55276594e-02, -7.88340811e-03, 8.88057984e-03,
          2.98289303e-02, 4.97624837e-02, 3.76919694e-02, 4.88608237e-03,
          -5.38567528e-02, 4.26462153e-03, 4.53383941e-03,
          -7.56929279e-04, 1.90132484e-02, 9.17150546e-03,
          -8.97383038e-03, 2.02353187e-02, 1.41492160e-03,
          -6.61536772e-03, -2.69029774e-02, -1.94482207e-02,
          1.66414808e-02, 1.64221134e-02, 3.99316428e-03, 3.08601968e-02,
          2.61212774e-02, 3.04518957e-02, -6.82169106e-03,
          -6.29926026e-02, -1.63492020e-02, 2.88339402e-03,
          -2.17141211e-03, 2.31472515e-02, -8.04741215e-03,
          2.37643868e-02, 7.50603015e-03, 2.18962524e-02,
          -1.80304199e-02, -1.54950581e-02, -1.00124534e-02,
          6.52348017e-03, -3.37778479e-02, 2.96232756e-02,
          -6.65262192e-02, -6.36851788e-02, -1.17288902e-02,
          2.43188441e-03, -2.96947057e-03, 1.00628368e-03,
          -9.50333476e-03, 1.31752128e-02, 3.04424353e-02,
          1.78025495e-02, -1.41199387e-04, -6.04056939e-03,
          -5.35077266e-02, -7.76277576e-03, -3.55390995e-03,
          3.66119039e-03, 2.50381976e-02, 1.29342228e-02, 1.35640791e-02,
          -5.32485954e-02, -2.14989204e-02, -2.51527764e-02,
          1.35708395e-02, -9.06442013e-03, 9.66255832e-03,
          1.91368852e-02, 2.91484967e-02, -6.12722114e-02,
          -2.69061569e-02, 3.02193407e-03, 5.20895347e-02,
          2.04174127e-02, 1.06318938e-02, 1.63691752e-02, 3.39854471e-02,
          1.28284814e-02, -3.53828003e-03, -6.65225694e-03,
          -2.55840290e-02, 6.12280741e-02, 1.05939368e-02,
          4.62649483e-03, 2.32074540e-02, 3.10696103e-02, 7.14991987e-03,
          -6.38026930e-03, -6.64611580e-03, 7.82847777e-02,
          7.71976681e-03, 3.41931731e-02, 1.34378411e-02, 7.17031630e-03,
          1.97364092e-02, 6.96595293e-03, -2.34216657e-02,
          2.34139469e-02, -6.86688125e-02, -1.14044379e-02,
          2.55395123e-03, 8.81609507e-03, 6.74062129e-03, 2.28916351e-02,
          1.19030988e-02, -4.87288227e-03, 5.24361618e-02,
          -3.18517275e-02, 1.19809462e-02, 2.56359391e-02,
          1.72636006e-02, 1.40149491e-02, 2.25695856e-02, 2.61910185e-02,
          2.50133071e-02, -1.08284308e-02, -5.26242964e-02,
          -9.90173146e-02, 1.17530776e-02, 2.15828996e-02,
          1.49268527e-02, 3.20795588e-02, 1.85750127e-02, 4.97496454e-03,
          5.82267717e-03, -5.43108732e-02, -6.81258962e-02,
          -3.68911843e-03, 4.00525983e-03, 6.06436050e-03,
          2.03110892e-02, 2.36696862e-02, 3.27486992e-02, 3.40388231e-02,
          -2.14997344e-02, -1.39652649e-02, -1.23863555e-02,
          1.11852251e-02, -9.60684905e-04, 4.04779986e-03,
          2.73649432e-02, 3.37470621e-02, -3.27654034e-02,
          -4.01706956e-02, -7.10169896e-02, 7.16244290e-03,
          1.03735058e-02, 1.02189397e-02, 2.15451121e-02, 7.86059164e-03,
          9.74372495e-03, 3.01015414e-02, 2.08307207e-02,
          -1.39105245e-02, -1.24603231e-02, -2.08238661e-02,
          -1.90303531e-02, 5.53307030e-03, -2.84413341e-03,
          -1.60523970e-02, 9.40215867e-03, -5.98599575e-03,
          6.72051276e-04, -1.15856761e-02, -7.45792408e-03,
          -9.47639905e-03, -6.57116994e-03, -1.50349336e-02,
          -2.89918594e-02, -1.87601764e-02, -5.81517059e-04,
          1.48551326e-05, 1.89265460e-02, 1.01758745e-02, 5.66609064e-03,
          -2.03768499e-02, -9.63744428e-03, -1.22042438e-02,
          5.60579672e-02, 2.05770861e-02, -2.17411797e-02,
          8.10122117e-04, -2.81957332e-02, -2.97385640e-02,
          4.45872685e-03, -2.14148453e-03, -9.86591447e-03,
          3.98068503e-02, -2.28124429e-02, -6.30531386e-02,
          3.30771729e-02, -8.60711001e-03, -1.27480170e-02,
          -5.84826432e-03, -1.13069126e-02, -7.97478389e-03,
          -1.43172126e-02, -6.84918016e-02, -2.23511597e-03,
          -3.12299710e-02, -2.25624288e-04, -2.81568593e-03,
          -1.29911173e-02, 2.75009312e-03, 1.18869664e-02,
          1.04006305e-02, 2.43546884e-03, 5.39009757e-02,
          -2.78625879e-02, -2.59234989e-03, -1.65526643e-02,
          -2.14985553e-02, -9.07022506e-03, -4.69465321e-03,
          6.15999475e-02, 2.59292591e-02, 2.23542247e-02,
          -2.79252846e-02, -2.30695046e-02, -2.22810339e-02,
          -2.48875879e-02, -9.89312865e-03, 3.15198489e-02,
          5.40162176e-02, 6.57850578e-02, 3.69414017e-02,
          -4.95130904e-02, -4.55699973e-02, -2.50004120e-02,
          -2.51590163e-02, -1.24087511e-02, -6.02406077e-03,
          -2.16557011e-02, -1.29771950e-02, 4.14989814e-02,
          -2.56676436e-03, 7.36609241e-03, 7.15401536e-03,
          -6.71646616e-04, -6.35189861e-02, -2.84273047e-02,
          -3.99094038e-02, 1.97771396e-02, 2.32233852e-02,
          2.18096692e-02, -2.52479129e-02, -1.48024894e-02,
          -1.47292316e-02, -1.25137502e-02, 1.70945637e-02,
          -2.26608925e-02, 1.40064443e-02, 3.73485452e-03,
          -5.86764626e-02, -3.08689438e-02, -2.51814071e-02,
          -6.62375940e-03, 5.68111427e-03, 5.80456574e-03,
          -2.34934110e-02, 2.69294530e-02, 3.77755947e-02,
          6.73723966e-03, -3.33212502e-02, -7.71466503e-03,
          -2.01533325e-02, -2.70194430e-02, -4.27638972e-03,
          8.66396353e-03, 3.64728309e-02, 1.26106208e-02, 4.43889610e-02,
          -2.16659550e-02, -4.89125699e-02, -3.68138775e-02,
          -3.80517580e-02, -2.99591888e-02, -6.20596372e-02,
          -1.49665577e-02, 1.86684094e-02, -2.98185798e-04,
          -2.00724062e-02, -2.75477935e-02, -1.30746244e-02,
          1.29471244e-02, 1.77074634e-02, 1.09702093e-03, 3.26234587e-02,
          2.75891237e-02, 1.53409345e-02, -5.53377019e-03,
          -5.49726794e-03, -4.16329913e-02, -3.32641341e-02,
          2.33742818e-02, 1.01095717e-02, 2.22879983e-02, 8.12619925e-03,
          -1.64916217e-02, 4.66931351e-02, -1.32204639e-02,
          -9.26387310e-03, -3.24890167e-02, -8.47333018e-03,
          -3.47869718e-05, 1.54499395e-03, 2.18624040e-03,
          5.06178755e-03, 1.47910351e-02, 7.10607332e-04,
          -4.89239581e-02, 1.08396914e-02, -2.71635538e-04,
          5.05149888e-04, 2.26142798e-02, 5.47500439e-02, 5.29657817e-03,
          -6.14978746e-02, 1.84264546e-03, 2.63870956e-04,
          -1.46385953e-02, -1.95694566e-02, -1.55856013e-02,
          2.76448503e-02, -2.83321515e-02, -2.74221762e-03,
          -3.27488445e-02, -3.38181183e-02, -2.69036256e-02,
          3.12392078e-02, 2.84814388e-02, 5.84226064e-02, 3.50516140e-02,
          1.07009360e-03, -1.19853066e-02, -4.54426259e-02,
          -5.80018684e-02, 7.83115812e-03, 2.48535555e-02,
          -4.26888606e-03, 2.01698579e-02, 3.62606905e-02,
          2.12143809e-02, -2.61441693e-02, -4.93836775e-02,
          7.82198180e-03, 3.81784351e-03, 4.45891172e-03, 2.64338721e-02,
          5.07990196e-02, 5.75864650e-02, -3.52268554e-02,
          -3.17133926e-02, -3.09765022e-02, -3.79529297e-02,
          -1.03603629e-02, 1.02613885e-02, 1.94992851e-02,
          4.75072376e-02, 1.52743189e-02, -3.66755351e-02,
          -1.57022066e-02, -3.37928790e-03, -1.19389789e-02,
          4.58252197e-03, -2.91891955e-02, -5.93826082e-03,
          -3.00583318e-02, -2.34336033e-02, -3.82168852e-02,
          -2.15460677e-02, 1.98131260e-02, 2.90733995e-03,
          -2.65991334e-02, -1.88573394e-02, 5.67395706e-03,
          4.12383564e-02, 5.70351258e-02, 3.83623429e-02,
          -4.64776997e-03, 1.19600387e-03, -3.74546573e-02,
          -2.09776014e-02, -2.63530612e-02, -3.71006094e-02,
          -9.10255034e-03, 2.35067792e-02, 8.90500005e-03,
          1.15606375e-01, 3.88157517e-02, 1.05207292e-02, 5.63678797e-03,
          -6.34509698e-03, -3.58427428e-02, -4.53414582e-02,
          1.10625103e-02, 1.45901861e-02, -1.60273891e-02,
          1.75176263e-02, 8.06343649e-03, -1.33147486e-03,
          -9.90733271e-04, -4.17860746e-02, -7.90520310e-02,
          -4.68882248e-02, -4.54640836e-02, 2.74791028e-02,
          3.20980363e-02, 5.21525182e-03, 1.06117148e-02,
          -1.26530817e-02, 6.85671857e-03, 4.34320560e-03,
          -2.52277148e-03, 9.80054028e-03, -5.23615489e-03,
          3.02761141e-02, -2.16031820e-02, -1.22722667e-02,
          1.55522581e-02, 2.30288412e-02, 9.89925582e-03, 1.08575076e-03,
          -2.56214812e-02, -3.81331220e-02, -1.87461264e-02,
          -6.68780459e-03, -9.06102767e-04, -4.65396373e-03,
          9.25974362e-03, -2.20154859e-02, -2.65902244e-02,
          -3.48941162e-02, 3.60518396e-02, 5.06384857e-02,
          -2.44002957e-02, -1.20489551e-02, -1.64119843e-02,
          1.18484106e-02, 2.74241194e-02, -1.34754907e-02,
          -5.39211631e-02, -3.62324007e-02, -2.86179315e-02,
          -2.00599022e-02, -3.14641669e-02, 1.43999308e-02,
          1.09922057e-02, 1.13862883e-02, 2.44427342e-02,
          -3.71311009e-02, -2.35204641e-02, 1.42891696e-02,
          2.44864579e-02, 1.06003694e-02, 1.91266555e-03, 1.90777816e-02,
          2.99547780e-02, 4.36244719e-02, 3.62721924e-03,
          -5.13731278e-02, 7.97413196e-03, 1.51233161e-02,
          1.18344638e-03, 4.79675643e-03, -3.13588581e-03,
          1.15775093e-02, 2.01979335e-02, -1.18690822e-02,
          1.79382495e-03, -4.08847257e-02, -1.53345997e-02,
          -2.32078042e-02, 2.16434915e-02, 1.26978252e-02,
          2.22210139e-02, 2.96098888e-02, -2.79475178e-04,
          -4.56759036e-02, -1.05130794e-02, 3.84195745e-02,
          2.24781334e-02, 4.72272448e-02, 2.78671775e-02, 3.55748534e-02,
          2.81788521e-02, -5.12010418e-04, -6.61072657e-02,
          1.35497743e-04, 1.65316053e-02, 5.58231175e-02, 2.15223841e-02,
          1.06875775e-02, -1.44630531e-03, -3.54453288e-02,
          -5.67715354e-02, -8.95299390e-02, 9.16806702e-03,
          -2.27632709e-02, 4.50213067e-02, 1.79929361e-02,
          1.59514714e-02, 3.52997892e-02, 2.78407019e-02,
          -1.22881923e-02, -6.95370212e-02, -3.15365680e-02,
          2.66749375e-02, 4.17355523e-02, 3.26032005e-03, 4.53526862e-02,
          3.97312343e-02, 2.13438068e-02, 2.28327699e-02,
          -1.43591380e-02, 5.37738297e-03, -4.95099910e-02,
          -2.34808177e-02, 1.38804251e-02, 7.23792613e-03,
          1.43341382e-03, -3.30312960e-02, -3.33054326e-02,
          -5.11889830e-02, -1.96607579e-02, -7.70817474e-02,
          -1.77447665e-02, 9.04064532e-03, 1.71464533e-02,
          5.31856529e-03, 1.09258038e-03, 3.24083929e-04, 1.18131256e-02,
          -1.84905087e-03, -1.28039317e-02, -4.56067994e-02,
          -2.91217351e-03, 5.01826331e-02, 3.48788947e-02,
          3.04515399e-02, 4.40993011e-02, 6.89368546e-02, 5.39088771e-02,
          -2.04692837e-02, -6.52721003e-02, -4.99717630e-02,
          -5.50101399e-02, 6.90320507e-03, 2.06839461e-02,
          3.50592732e-02, 2.00273991e-02, -3.59001872e-03,
          1.86615009e-02, -7.93355033e-02, -2.23658532e-02,
          -2.92545483e-02, -4.98010078e-03, 6.67098016e-02,
          -1.74179859e-02, 7.46505940e-03, -6.93209050e-03,
          1.19291591e-02, -3.70839313e-02, 2.99477414e-03,
          -7.35010058e-02, -3.91471349e-02, 2.56692264e-02,
          4.60455343e-02, 1.62746720e-02, 2.11608484e-02, 1.30268782e-02,
          1.98665634e-02, -3.95494327e-02, -8.07424933e-02,
          -3.16231102e-02, 5.99206053e-02, 3.46815288e-02,
          3.37552428e-02, 3.12006865e-02, 4.81221750e-02, 1.16999494e-03,
          -1.30836377e-02, 4.23376337e-02, -2.95757707e-02,
          1.30492449e-02, 1.34582240e-02, 4.50437590e-02, 5.49704023e-02,
          3.85010019e-02, 1.91626381e-02, -1.16623743e-02,
          -1.13710739e-01, -1.69273093e-01, -1.04226753e-01,
          1.87563915e-02, -8.39769258e-04, 6.04071608e-03,
          1.86232589e-02, 1.28947077e-02, 8.15768447e-03,
          -3.31289992e-02, 9.44591463e-02, 2.58160233e-02,
          -2.46506296e-02, -6.07555499e-03, 6.35803444e-03,
          2.21734811e-02, 2.36770287e-02, 3.81482355e-02, 5.74613921e-02,
          9.87527370e-02, -9.33525413e-02, -1.25106564e-02,
          5.06088510e-03, 1.51435016e-02, 1.59595367e-02, 1.13090612e-02,
          5.88588491e-02, -3.18476371e-03, -5.10497298e-03,
          -5.16627133e-02, -4.96507157e-03, 3.90789546e-02,
          1.17635205e-02, 2.44691223e-02, 4.14809659e-02, 1.31035773e-02,
          -3.38342623e-03, 4.07740846e-02, -1.09264231e-03,
          5.37888780e-02, 2.09647790e-02, 1.47743691e-02, 1.64147504e-02,
          2.24920511e-02, 2.27764100e-02, 3.95575389e-02,
          -8.69329497e-02, -5.10629825e-02, 1.84236020e-02,
          3.60544547e-02, 3.33550610e-02, 2.38094386e-02, 2.47284770e-02,
          3.00728455e-02, 4.84551601e-02, -4.13519181e-02,
          -5.79631664e-02, 4.02573980e-02, 2.94603314e-02,
          2.37484276e-02, 2.08982434e-02, 2.51088273e-02, 1.85872465e-02,
          1.26357660e-01, -5.95030412e-02, -6.12279437e-02,
          -3.42494179e-03, 4.27481942e-02, 2.82460079e-02,
          2.96903588e-02, 3.59014198e-02, 1.24383317e-02, 2.54621375e-02,
          -2.37580296e-02, -4.86114733e-02, -9.45257023e-03,
          7.90196098e-03, -8.28916032e-04, 4.65108315e-03,
          1.22768488e-02, 1.33360527e-03, 4.26362129e-03,
          -1.31107513e-02, 1.86399743e-02, 3.94340865e-02,
          -1.16745457e-02, -3.68780717e-02, -3.53989042e-02,
          -1.39776599e-02, -5.83324814e-03, 5.70113026e-02,
          -4.88137044e-02, -6.16601408e-02, -1.04690250e-02,
          -5.70025644e-04, -1.41653856e-02, -5.28397830e-03,
          5.48646925e-03, -1.46952234e-02, 1.41735701e-02,
          1.26714688e-02, 3.81330363e-02, 2.97011826e-02, 5.26673766e-03,
          -1.47350449e-02, -3.31433490e-02, -2.67091282e-02,
          -1.17203323e-02, 1.46884648e-02, -1.03489254e-02,
          1.09992940e-02, 8.95463489e-03, -1.21914444e-03,
          -2.25578137e-02, -4.61820364e-02, -1.85909905e-02,
          -4.92523937e-03, 2.86430418e-02, 3.91372479e-02,
          -1.51852546e-02, -6.38582483e-02, 1.52899725e-02,
          4.00345121e-03, -2.00519059e-02, -1.20925978e-02,
          -1.23904422e-02, 2.39798101e-03, 1.06000705e-02,
          2.65112370e-02, -2.33334955e-03, -1.02521917e-02,
          -5.48879476e-03, -2.87816003e-02, -1.35652544e-02,
          1.04148937e-02, 1.35149844e-02, 8.75048712e-03, 1.53418379e-02,
          9.95866209e-03, 4.24836809e-03, -6.40120779e-05,
          -4.68599610e-03, 1.39591773e-03, -2.04286706e-02,
          1.41064432e-02, 4.93606217e-02, 2.87293531e-02,
          -3.04192863e-02, -1.60714835e-02, -2.74112485e-02,
          -3.74690630e-02, -4.83720675e-02, -3.60779129e-02,
          3.94678824e-02, 4.29807268e-02, 4.79348823e-02, 5.85153140e-03,
          -5.82681336e-02, -5.84754795e-02, -4.05094065e-02,
          -4.65933569e-02, -1.94519386e-02, -9.56632942e-03,
          3.65714170e-02, 3.71806026e-02, 1.92554295e-02,
          -1.07057728e-02, -2.82840338e-02, -2.70796064e-02,
          -3.08788717e-02, -5.36227133e-03, 9.27895494e-03,
          4.85376455e-02, 9.53218155e-03, 2.86832452e-02,
          -3.18666436e-02, -3.39979343e-02, -2.91992836e-02,
          -2.57419515e-02, -1.74389090e-02, 4.43191919e-03,
          -5.69479680e-03, -1.54402584e-03, -1.72570944e-02,
          -5.48805669e-02, -5.46054952e-02, -9.72549897e-03,
          -1.75559688e-02, 8.24351155e-04, 7.78725371e-03,
          -2.69542895e-02, 4.46619205e-02, 5.32325581e-02,
          1.45072015e-02, -3.15925926e-02, -2.35439464e-03,
          -4.55717966e-02, -2.00009644e-02, -2.84170248e-02,
          -2.53079701e-02, 2.72863526e-02, -7.03104772e-03,
          -3.98806967e-02, -3.68836299e-02, -8.95357691e-03,
          3.51228891e-03, -2.34747641e-02, -3.67359892e-02,
          -2.63301935e-03, 3.03581748e-02, 3.06155793e-02,
          2.07243320e-02, -2.84965765e-02, 1.42451208e-02,
          -2.33436329e-03, -1.31387319e-02, -5.59729757e-04,
          -1.97435413e-02, 1.76310912e-02, 4.38739406e-03,
          1.98281799e-02, 1.53291719e-02, -8.42211652e-04,
          -3.04277185e-02, -5.04788384e-02, -2.35514902e-03,
          -4.38771434e-02, -3.21066156e-02, -1.25219068e-02,
          2.75594387e-02, 4.03688028e-02, -2.96562519e-02,
          -1.64808985e-02, -3.67880203e-02, -5.18886335e-02,
          -1.12293065e-02, 7.55120581e-03, 7.58116413e-03,
          3.13403793e-02, 1.24561926e-02, 1.97394174e-02,
          -3.22736613e-03, -6.30090907e-02, -1.91868730e-02,
          -2.32159831e-02, -2.57626306e-02, 7.90062267e-03,
          4.01891097e-02, 6.28056796e-03, -3.86782573e-03,
          -2.22771373e-02, 9.72559117e-03, -2.85750311e-02,
          -3.09061143e-03, 4.72735651e-02, -7.51164556e-03,
          -1.27184913e-02, -1.18908491e-02, -2.92206579e-03,
          5.68072544e-03, -2.17209719e-02, -8.83869082e-03,
          2.17668191e-02, 2.74000224e-02, 5.91587787e-03, 3.32650379e-03,
          2.70196726e-03, -1.75143909e-02, 1.17680654e-02,
          6.75946288e-03, 5.25027514e-02, 3.47023532e-02,
          -1.91988237e-02, -8.34311694e-02, 3.61793116e-02,
          2.85796989e-02, 4.36378177e-03, -7.95719214e-03,
          8.15916061e-03, 2.47192159e-02, 4.45266142e-02,
          -1.16988858e-02, -5.03665395e-02, 2.79569812e-02,
          2.15679631e-02, -1.72701722e-03, -1.50544578e-02,
          -3.04210968e-02, -7.49381352e-03, -6.87179912e-04,
          -2.60842312e-02, 1.74370874e-02, 2.39877310e-02,
          2.10197214e-02, 3.53132933e-03, -1.41684460e-02,
          -2.07385831e-02, -3.14305872e-02, -6.89632669e-02,
          -3.49125788e-02, 3.36116664e-02, 1.52949244e-02,
          1.79111809e-02, 1.78374592e-02, -9.10043437e-03,
          5.19809499e-02, -2.54240492e-03, -1.69356465e-02,
          -4.64794226e-03, 4.81199706e-03, 4.54580002e-02,
          3.73432040e-02, 1.75106116e-02, -2.42797919e-02,
          4.28195484e-02, 1.55164523e-03, -1.82204600e-02,
          4.80877748e-03, -2.91306321e-02, -1.56960655e-02,
          2.53996737e-02, 4.11639437e-02, 2.85628289e-02, 8.54596216e-03,
          -2.41130125e-02, -5.48842140e-02, 5.95088443e-03,
          -7.60892581e-04, 2.52948757e-02, 1.93581078e-02,
          4.09551384e-03, 1.32984500e-02, -6.38881640e-04,
          -4.12687026e-02, -3.98792475e-02, -3.86977307e-02,
          -8.22686590e-03, 5.84357493e-02, 4.88087013e-02,
          2.16599312e-02, 1.65071487e-02, 4.00208235e-02,
          -1.59283204e-03, 1.54438252e-02, -5.31438133e-03,
          -8.56160223e-02, -2.67743506e-02, 1.87143497e-02,
          1.74395535e-02, 4.99684997e-02, 1.34471562e-02, 2.22182047e-04,
          -1.76346805e-02, -2.84377560e-02, -5.68436123e-02,
          5.56801781e-02, 3.85166369e-02, 5.37425466e-02, 3.43503803e-02,
          -2.23493408e-02, 1.10503321e-03, -9.89756361e-03,
          -2.89760660e-02, -3.76144201e-02, 4.11360078e-02,
          4.92923670e-02, -7.36572035e-03, -1.81210898e-02,
          -1.93219092e-02, 1.13409236e-02, 3.55776250e-02,
          1.33808688e-04, -4.33058999e-02, -4.57222247e-03,
          -3.29445265e-02, 1.57530513e-02, -4.11113948e-02,
          -1.60307866e-02, -1.37350033e-03, -1.26031153e-02,
          -1.81727428e-02, -4.52072769e-02, 2.34991014e-02,
          1.83852930e-02, -9.62655898e-03, -2.63168681e-02,
          -2.20196601e-02, -6.60978584e-03, 1.56364159e-03,
          6.18799543e-03, -4.95284088e-02, -5.59841236e-03,
          1.83855314e-02, -7.26038357e-03, 3.55997123e-03,
          9.03392734e-04, -1.19512156e-02, 9.61154059e-04,
          -7.01073045e-03, 3.22781503e-02, -7.47654587e-02,
          -4.90730032e-02, 1.85309034e-02, 1.11589488e-03,
          4.35527973e-03, -1.21957259e-02, -2.79711513e-03,
          -6.23937231e-03, -2.71611527e-04, -5.19241318e-02,
          -4.23542522e-02, 7.83327147e-02, 3.29987668e-02,
          -1.70523562e-02, -1.38466042e-02, -1.07422778e-02,
          -1.55490520e-03, 1.24783125e-02, 3.60461287e-02,
          1.44972105e-03, 4.40644138e-02, 9.81480908e-03,
          -2.89462041e-02, -3.01871519e-03, 2.45167874e-04,
          1.68712772e-02, -1.62119810e-02, -6.82372740e-03,
          -5.61581962e-02, 5.01745520e-03, 6.27908084e-05,
          9.77526885e-03, 6.66251685e-03, 1.75235476e-02, 1.43184913e-02,
          2.42367294e-03, -5.76106049e-02, -5.38483672e-02,
          2.15171836e-02, 3.44822258e-02, 3.14629301e-02, 3.16818804e-02,
          2.65499502e-02, 2.19331048e-02, 4.09730449e-02, 2.86221672e-02,
          1.00469040e-02, 3.06938426e-03, 1.37643227e-02,
          -1.22976778e-02, 1.02119548e-02, 1.69642754e-02,
          3.01317368e-02, -2.83318348e-02, -4.88810949e-02,
          -5.45649864e-02, -4.39576134e-02, 5.56054451e-02,
          4.84619997e-02, 1.67956855e-02, 2.59176120e-02, 3.88868563e-02,
          -3.31980847e-02, 2.59982515e-03, -7.28251040e-02,
          -3.00353449e-02, -4.52597588e-02, 9.85984225e-03,
          2.11176481e-02, 1.55512430e-02, 1.73860546e-02, 3.18743177e-02,
          4.07108851e-02, -1.33096538e-02, -3.80424112e-02,
          -5.85010685e-02, -5.90036064e-02, -7.98121914e-02,
          -4.25443612e-02, 1.56484023e-02, 1.07907336e-02,
          -7.50643667e-03, -3.69407274e-02, 8.16137809e-03,
          -3.63746658e-02, 5.12426049e-02, -1.15988101e-03,
          5.33700921e-04, 2.64337007e-02, -9.04454440e-02,
          -4.41689137e-03, -4.05090302e-02, -8.54367614e-02,
          -4.00206372e-02, 8.49143118e-02, 1.34098036e-02,
          -2.82000937e-03, 2.53078006e-02, -1.02333099e-01,
          -2.67910697e-02, -5.55436173e-03, -3.05206925e-02,
          9.50971469e-02, -4.41650227e-02, -5.45110703e-02,
          -3.90004069e-02, 8.93105939e-03, 1.57455150e-02,
          7.72295613e-03, 2.30207434e-03, 2.16387492e-02,
          -6.23302301e-03, -1.98380314e-02, 7.43050054e-02,
          7.20373690e-02, -4.18041982e-02, -4.06097760e-03,
          -7.66276568e-03, 3.17505794e-03, -1.07490961e-02,
          -3.37236226e-02, 6.68806359e-02, -6.60658628e-03,
          5.45139750e-03, 5.57763968e-03, -5.60273118e-02,
          -7.69891019e-04, -4.62171435e-03, -3.96947935e-02,
          8.76753032e-02, -7.78403953e-02, -7.12308586e-02,
          -6.20256439e-02, -1.02508487e-02, -4.78283316e-02,
          2.28585955e-02, 3.29598896e-02, -3.25751267e-02,
          5.03312312e-02, 3.17790210e-02, 9.14456174e-02, 1.41624631e-02,
          1.54478587e-02, 7.48535106e-03, 4.33557760e-03, 4.50240122e-03,
          1.42039382e-03, -1.59002212e-03, 4.60911021e-02,
          -3.75836752e-02, -5.22820540e-02, -4.44833636e-02,
          2.22471636e-02, 2.70889346e-02, 8.87595955e-03, 2.05740947e-02,
          2.92131845e-02, 7.38991871e-02, -6.02327101e-02,
          -8.86431932e-02, 3.64799425e-02, 6.46276260e-03,
          2.57049128e-02, 2.60999165e-02, 2.55998503e-02, 4.06760611e-02,
          1.02020644e-01, -8.26998502e-02, -6.73169643e-02,
          -4.06624004e-02, -2.28573140e-02, 1.79868676e-02,
          1.96450204e-02, 2.77112331e-02, 4.26016860e-02, 2.08572801e-02,
          2.06148718e-02, -2.85399295e-02, -5.22795208e-02,
          2.49719638e-02, 1.73101369e-02, 1.07800318e-02, 8.29338655e-03,
          4.06830804e-03, 7.14464870e-04, -4.52092104e-02,
          -4.37497012e-02, -1.24319214e-02, 5.78980660e-03,
          1.40692964e-02, 8.24524555e-04, 2.00623414e-03, 4.46414622e-03,
          7.80887157e-02, -6.47794083e-02, -3.94081995e-02,
          -1.38904322e-02, -1.59295052e-02, -8.96605838e-04,
          1.49358017e-02, -2.88551673e-03, -1.01426791e-03,
          -2.42155213e-02, -3.06263305e-02, -5.07523818e-03,
          5.02720624e-02, 1.19848538e-03, 2.12352760e-02, 9.60576627e-03,
          -9.51426046e-04, -3.70215601e-03, -1.97350606e-02,
          -5.14459722e-02, -3.63820046e-02, -2.99115255e-02,
          8.05434654e-04, 8.14190786e-03, 7.26318825e-03,
          -3.98656091e-04, -1.12198829e-03, -2.67042127e-02,
          -2.48631183e-02, 4.55909036e-03, 3.52386795e-02,
          1.12508396e-02, 5.77287748e-03, 4.60603926e-03,
          -9.28816572e-03, -1.07112052e-02, -3.46246585e-02,
          -3.38948481e-02, -1.60581097e-02, 2.55422294e-02,
          -1.12125825e-03, 1.39381681e-02, 2.05881484e-02,
          9.14932601e-03, 2.14529550e-03, 7.46508501e-03,
          -3.10319159e-02, -1.28601678e-02, -1.29463209e-03,
          -1.23750037e-02, -5.34994341e-03, -2.11293697e-02,
          -7.40057742e-03, 2.89385463e-03, -1.53828189e-02,
          -5.92434444e-02, 3.17754410e-03, -5.56853740e-03,
          -1.85202900e-02, 8.67065915e-04, -2.27721361e-03,
          -2.72378838e-03, 1.77568719e-02, 2.89357286e-02,
          -4.17983159e-03, -1.41643710e-03, -2.77762394e-02,
          1.92606822e-02, 2.17955327e-03, -7.50030595e-05,
          -7.15030357e-03, 2.77131926e-02, 4.09853831e-02,
          1.66504178e-02, 1.30317323e-02, -3.75519209e-02,
          -1.16523420e-02, 1.59269350e-03, -2.86289342e-02,
          -7.12945173e-03, 3.38085033e-02, 8.88188276e-03,
          4.76827957e-02, 5.54885603e-02, 3.26388255e-02, 2.59734355e-02,
          2.07769293e-02, -1.57458894e-02, -1.18783452e-02,
          1.15659554e-02, 3.51139568e-02, 1.44145759e-02, 3.05928495e-02,
          -2.04667207e-02, 8.47443193e-03, -2.00529359e-02,
          -1.80045534e-02, -2.47456748e-02, -1.52466903e-02,
          -9.41797800e-04, -5.60781220e-03, -1.56582501e-02,
          1.03064589e-02, -5.21380920e-03, -4.93721571e-03,
          -1.91384070e-02, -2.43608356e-02, -1.08998632e-02,
          -9.07156803e-03, 1.60816777e-02, -1.16351163e-02,
          4.82843705e-02, -1.37387337e-02, 1.20594993e-03,
          -8.57468601e-03, -1.27180386e-02, -1.98258776e-02,
          -4.37943749e-02, -2.26839278e-02, 5.18053770e-04,
          -3.83139658e-03, -3.50811295e-02, -1.41856279e-02,
          -3.63682909e-03, -1.90058574e-02, -1.02482978e-02,
          -4.16251943e-02, -3.53450216e-02, -3.20850126e-02,
          -5.24985325e-03, -8.71057529e-03, -1.92641597e-02,
          -1.19292568e-02, -2.00627204e-02, -6.42915489e-03,
          -1.62113737e-02, -3.47986408e-02, -3.36773461e-03,
          2.52960604e-02, 2.04489846e-02, -1.76279508e-02,
          -3.17577347e-02, 1.35533017e-04, -8.10949970e-03,
          -4.79359739e-02, -2.23490410e-02, 5.48949465e-02,
          -3.10951495e-03, -6.12998789e-04, -2.37923767e-02,
          -3.28375096e-03, -3.66453491e-02, -1.10429432e-02,
          -6.07899763e-03, -1.58033762e-02, -4.43537196e-04,
          8.59666243e-02, -1.44209620e-02, 5.24049625e-02,
          -1.78042874e-02, -4.74212617e-02, -1.97226331e-02,
          -4.50375862e-03, 1.69613212e-02, -1.81796141e-02,
          3.98182310e-02, 1.13692728e-03, -3.61375231e-03,
          2.02619564e-03, -7.48035358e-03, -8.83400254e-03,
          -7.10944831e-03, 2.45676152e-02, 1.81624969e-03,
          2.36051716e-02, -3.93085442e-02, 7.56024104e-03,
          2.88936570e-02, 2.94053182e-02, 1.91291086e-02, 3.69112007e-02,
          3.54967117e-02, -1.17541701e-02, 4.90791537e-02,
          -4.58606780e-02, 1.76618285e-02, -1.22557180e-02,
          -5.03353626e-02, -1.04872999e-03, -2.03002673e-02,
          -3.44423726e-02, -3.99359800e-02, 6.44168863e-03,
          -3.25075090e-02, 1.70130916e-02, 1.77933052e-02,
          2.99850572e-02, -3.23626101e-02 ]
   decision_functions:
      -
         sv_count: 1
         rho: -2.7825933845647719e+00
         alpha: [ 1. ]
         index: [ 0 ]
