%YAML:1.0
my_svm: !!opencv-ml-svm
   svm_type: C_SVC
   kernel: { type:LINEAR }
   C: 200.
   term_criteria: { epsilon:2.2204460492503131e-16, iterations:250 }
   var_all: 3780
   var_count: 3780
   class_count: 2
   class_labels: !!opencv-matrix
      rows: 1
      cols: 2
      dt: i
      data: [ -1, 1 ]
   sv_total: 1
   support_vectors:
      - [ -2.15805117e-02, 7.73196816e-02, 1.29722683e-02,
          -5.79767451e-02, -1.10558189e-01, -1.73368491e-02,
          -3.18362266e-02, -1.64480418e-01, -5.71780801e-02,
          2.49816589e-02, 3.42356078e-02, -6.66178763e-02,
          -1.97041482e-02, -1.31759178e-02, 1.09765418e-01,
          2.91406526e-03, -3.58286835e-02, 2.88695171e-02,
          -3.14241983e-02, 8.53851214e-02, -1.39941433e-02,
          3.87868546e-02, 7.48051405e-02, -3.79527882e-02,
          -5.22448048e-02, -3.32607776e-02, -4.51084077e-02,
          3.41584906e-02, -8.79875496e-02, -1.30232126e-01,
          1.50017468e-02, 6.99486956e-02, 5.66956066e-02, 1.48450257e-03,
          3.88678871e-02, 8.11330006e-02, -4.51582372e-02,
          -4.50750552e-02, -7.74531513e-02, 5.51525094e-02,
          4.11553495e-02, 7.83426538e-02, -1.68988798e-02,
          -4.15387899e-02, -4.61598299e-02, 1.34054832e-02,
          1.24009419e-02, -5.05446317e-03, 5.81256449e-02,
          -1.42752295e-02, 7.14050932e-03, 5.36374189e-02,
          -2.16168575e-02, -6.23711757e-02, -8.87397155e-02,
          -1.02013215e-01, -8.50682259e-02, 4.43375148e-02,
          4.80356701e-02, 1.12194471e-01, -2.20913272e-02,
          -1.62244011e-02, -8.39841738e-02, -3.57817821e-02,
          -1.89745352e-02, -1.26249455e-02, 2.80802511e-02,
          2.77696755e-02, -2.74604689e-02, -9.82796960e-03,
          -7.05261007e-02, -1.24885678e-01, 3.03276628e-02,
          2.54754033e-02, 1.43730910e-02, 5.85970283e-02,
          -8.12793300e-02, -4.79467884e-02, 4.97869700e-02,
          3.65718305e-02, 4.43737134e-02, 4.81619462e-02, 2.95314193e-02,
          -2.35618539e-02, 6.90421388e-02, -3.95731218e-02,
          5.21520525e-02, 1.02817528e-01, 4.07243660e-03, 4.91810404e-02,
          -3.77818979e-02, 2.67563993e-03, -5.32495491e-02,
          2.21716855e-02, -1.33671667e-02, -3.85210700e-02,
          -4.12860699e-03, -3.67005803e-02, -1.01391256e-01,
          -2.08845139e-02, -1.93363242e-02, -1.18588939e-01,
          7.20361695e-02, 4.43024235e-03, 4.38391827e-02, 2.17703134e-02,
          -1.19460737e-02, 1.82069037e-02, 2.75217053e-02,
          4.87936735e-02, -1.67604964e-02, 1.34808913e-01,
          -2.87542026e-02, 3.74283679e-02, 6.54982775e-03,
          -5.13295159e-02, -4.67551984e-02, -6.97308481e-02,
          5.02129942e-02, 1.16534512e-02, 1.43498778e-01, 3.12742591e-02,
          6.02462068e-02, -4.54070717e-02, -4.98950370e-02,
          -6.06551059e-02, -4.71182466e-02, 2.14626584e-02,
          -1.00945190e-01, 9.39348340e-02, -4.86949869e-02,
          5.72392642e-02, -1.17334574e-02, 1.15395943e-02,
          1.05030565e-02, -1.10501975e-01, -3.02492324e-02,
          -7.13222623e-02, 9.70250517e-02, 7.08056614e-02,
          8.47760960e-02, -7.08435401e-02, -3.24830748e-02,
          -4.81038727e-02, -3.77174988e-02, 5.28994799e-02,
          2.63814852e-02, 1.10526018e-01, 3.53944153e-02, 2.60496736e-02,
          -7.14670941e-02, 3.49580892e-03, -8.05210229e-03,
          8.06567222e-02, 7.06936270e-02, 1.64088551e-02, 9.18272734e-02,
          -2.56183241e-02, -5.32596093e-03, -7.44717643e-02,
          4.87772301e-02, 1.09143239e-02, -9.78148077e-04,
          -2.03374475e-02, -7.42839128e-02, 7.74031729e-02,
          1.00360826e-01, -5.91880758e-04, -1.16072506e-01,
          -1.83004867e-02, -5.34629561e-02, 1.15908764e-01,
          2.96891220e-02, -6.27897233e-02, 3.09395194e-02,
          -1.87702850e-02, 2.64581740e-02, -5.51157184e-02,
          1.10228039e-01, 9.89501327e-02, 5.83683513e-02, 8.70198905e-02,
          2.28174943e-02, 5.75840287e-02, -5.37835285e-02,
          -4.06136438e-02, -6.65955245e-02, -2.48696413e-02,
          -2.15246510e-02, 9.30892595e-04, 7.52931386e-02,
          -1.55416280e-02, -1.73811615e-02, -3.90200550e-03,
          3.06740683e-02, 1.12853618e-03, -6.73558414e-02,
          -2.84479372e-02, 4.03225236e-02, 5.84725663e-02,
          4.82498761e-03, -5.58423297e-03, -2.86779981e-02,
          3.01741436e-02, -5.16016036e-02, 3.78768519e-02,
          4.45381403e-02, -2.68326253e-02, 7.26982728e-02,
          4.59377915e-02, 1.05762547e-02, 8.48967023e-03, 2.54387148e-02,
          -6.67205527e-02, -4.93563227e-02, -2.67068334e-02,
          -2.25424059e-02, 4.06533815e-02, -1.72487106e-02,
          -3.15752588e-02, -1.34461783e-02, 1.04046278e-01,
          9.02932733e-02, 1.76882464e-02, -3.45474258e-02,
          -8.33577588e-02, 4.13856916e-02, 2.23611351e-02,
          4.41033170e-02, -3.40432450e-02, 1.08047731e-01,
          2.37877313e-02, 3.46126966e-02, -1.26344502e-01,
          -2.81090289e-02, 7.00786784e-02, 3.22656110e-02,
          -2.13302579e-02, -1.45277278e-02, 1.92436725e-02,
          -5.57418615e-02, -3.77164856e-02, -7.59002287e-03,
          -4.14155908e-02, 2.40972475e-03, -2.17384733e-02,
          2.82531083e-02, 3.37558538e-02, 2.80399956e-02,
          -5.78271262e-02, -3.68941352e-02, -6.45500198e-02,
          -1.06355414e-01, 4.42325510e-02, 8.12368393e-02,
          7.82105625e-02, -9.39188246e-03, 4.42974567e-02,
          5.56747196e-03, 1.13320630e-02, -5.58053367e-02,
          -8.26790836e-03, -3.22901979e-02, 1.97588429e-02,
          -2.46155299e-02, -4.63482738e-02, 4.32232544e-02,
          -6.05299883e-03, 1.15290560e-01, 1.01293661e-01,
          -2.89906505e-02, 2.28667390e-02, 1.79961640e-02,
          5.02953492e-02, 4.50078361e-02, 7.29645565e-02,
          -2.33803280e-02, -5.23446836e-02, -5.60862347e-02,
          -2.39915922e-02, -5.92844468e-03, -2.05082893e-02,
          2.88375840e-02, 3.40942517e-02, 1.06245421e-01,
          -2.22110003e-02, -5.21161593e-03, 2.02848464e-02,
          8.04745778e-03, -1.92612428e-02, 1.47633115e-02,
          4.32880186e-02, -2.30926797e-02, 6.41260622e-03,
          1.46063641e-02, 6.49008825e-02, 1.09716102e-01,
          -2.75393259e-02, 1.27094379e-02, 3.63728963e-02,
          3.20810303e-02, -3.37960497e-02, -6.61473162e-03,
          6.11641724e-03, -8.48063268e-03, 5.97768761e-02,
          -4.08306979e-02, 1.53215025e-02, -5.42077310e-02,
          3.09967995e-02, 8.34463015e-02, 5.94663098e-02,
          -3.04805897e-02, 3.11016524e-03, -2.38925051e-02,
          -9.37306285e-02, -4.18678746e-02, -1.30888997e-02,
          -1.49725862e-02, 1.71011742e-02, 7.97946751e-02,
          9.52002332e-02, 6.31420268e-03, -4.77752090e-02,
          4.54483600e-03, 3.73668484e-02, 8.08784738e-02, 2.60524843e-02,
          5.36937220e-03, -3.69630456e-02, -3.73134241e-02,
          -5.27411476e-02, 6.03386573e-02, 1.61919519e-02,
          1.99052468e-02, 1.07211567e-01, 6.10098019e-02, 6.19202815e-02,
          -9.03865881e-03, -3.39112058e-02, -3.43888067e-02,
          1.22295739e-02, -6.68457150e-02, 1.79207381e-02,
          9.89169702e-02, -7.09300581e-03, -2.45232079e-02,
          1.82405002e-02, 2.34184600e-02, -2.21123453e-02,
          -4.82905284e-02, -2.63327789e-02, 2.85710543e-02,
          5.25974482e-02, 1.58778504e-02, 1.39053702e-01, 4.15735953e-02,
          -5.70239760e-02, -5.40277660e-02, -7.14943334e-02,
          -1.63793992e-02, -9.30678751e-03, 7.95825496e-02,
          -1.79807073e-03, 6.91261664e-02, 4.33652103e-03,
          3.20239626e-02, 7.60821998e-03, 4.23229905e-03,
          -2.42370889e-02, -2.95972340e-02, 7.81392585e-03,
          4.29711565e-02, 6.78778812e-02, 1.09561868e-01, 1.22473516e-01,
          -2.04948764e-02, 5.98736852e-03, -4.54871617e-02,
          -6.22451790e-02, 2.97711585e-02, -5.30378036e-02,
          6.31956533e-02, -1.13446480e-02, -1.98057201e-02,
          2.10168748e-03, -2.54036039e-02, 2.30663177e-02,
          -5.70624284e-02, 1.86087750e-02, -5.11427447e-02,
          -3.24908681e-02, 6.39652982e-02, -1.19852778e-02,
          3.63481119e-02, 7.71335959e-02, -5.52331023e-02,
          -6.18469343e-03, 1.89053975e-02, 5.38359135e-02,
          2.18846779e-02, 8.29785913e-02, 1.12692088e-01, 1.44966356e-02,
          2.11947635e-02, -5.51702231e-02, -2.20477600e-02,
          2.25287210e-02, -6.45239875e-02, -3.32874954e-02,
          2.21652035e-02, 5.13915755e-02, -4.42542098e-02,
          -1.76800806e-02, 4.49326187e-02, 3.82355601e-02,
          4.88729402e-02, -2.70208772e-02, -5.56418411e-02,
          3.85494232e-02, 2.12555099e-03, 2.64850296e-02, 8.86060819e-02,
          3.91323492e-02, 1.56168710e-03, 1.11780502e-02,
          -7.95628279e-02, -9.77274030e-02, 1.74846910e-02,
          -2.01938488e-02, -5.87473474e-02, 5.13797533e-03,
          -2.82621440e-02, -5.67623042e-03, 5.75223602e-02,
          -9.05206129e-02, -5.78940439e-04, 7.55481198e-02,
          9.42804515e-02, -6.48749620e-02, -4.14995737e-02,
          -3.51383314e-02, 4.45604383e-04, 4.82622534e-02,
          -9.89608914e-02, -1.70426443e-02, 9.81149152e-02,
          6.22257963e-02, -9.11792442e-02, -3.51108164e-02,
          -2.37175357e-02, -3.95789519e-02, 5.47594018e-02,
          -1.70929246e-02, -3.05904131e-02, -1.94540936e-02,
          5.34691066e-02, -6.24596290e-02, -1.64296404e-02,
          1.92361809e-02, -2.34244280e-02, 1.12026278e-02,
          -9.91655737e-02, -1.41756479e-02, -1.04937274e-02,
          2.05319114e-02, -6.94319978e-02, -2.31492610e-04,
          3.53056192e-02, 4.39330563e-02, 3.74120437e-02,
          -1.24674194e-01, -1.32270336e-01, 1.11697286e-01,
          3.38874385e-02, -1.77295022e-02, 4.84514758e-02,
          6.04475886e-02, -5.59811899e-03, 1.53713692e-02,
          1.68176573e-02, -1.15627512e-01, 7.51217976e-02,
          2.96061905e-03, -2.59377565e-02, 1.06259592e-01,
          6.90146163e-02, 9.64020099e-03, -5.32285646e-02,
          -1.39172435e-01, -9.73261520e-02, 1.53006632e-02,
          4.85370569e-02, 3.62672321e-02, 9.99725014e-02, 5.93975261e-02,
          -5.29741272e-02, -7.26387873e-02, -4.14529331e-02,
          -1.03103720e-01, -4.81569674e-03, -1.97612830e-02,
          2.92595308e-02, 8.06561708e-02, 4.22171652e-02, 2.12893169e-02,
          9.41130072e-02, 6.36925027e-02, -8.84072334e-02,
          4.58729118e-02, 2.87593212e-02, 1.73935499e-02, 8.40007588e-02,
          -3.36662456e-02, 3.58293764e-02, 1.46837860e-01,
          1.05095796e-01, -1.54870152e-01, -1.90026611e-02,
          4.02219556e-02, 5.50942197e-02, 1.65202059e-02, 2.92731896e-02,
          -8.05581734e-02, 1.96066592e-02, -5.21531515e-02,
          -1.05212942e-01, -6.30698055e-02, -1.28388114e-03,
          3.97530906e-02, 8.66048485e-02, -1.30531276e-02,
          -2.17729248e-02, 3.75496112e-02, -8.54318067e-02,
          -1.94769561e-01, -5.16127981e-02, 6.95274100e-02,
          7.15102851e-02, 7.82842487e-02, -4.78364490e-02,
          7.18159080e-02, 9.36566442e-02, 8.64930302e-02, 3.64165977e-02,
          -1.52987689e-02, -7.21167102e-02, -1.69813670e-02,
          -6.92939460e-02, 5.13201300e-03, -6.93207085e-02,
          -7.95044601e-02, -3.92937846e-02, 1.16547877e-02,
          -6.22842759e-02, -3.91000360e-02, 8.90391320e-02,
          7.83876479e-02, -4.82366644e-02, -1.86393298e-02,
          5.14457896e-02, 5.95252030e-02, 8.56354684e-02, 5.37697300e-02,
          8.18132889e-03, 1.99449621e-03, -4.50112559e-02,
          -1.07163014e-02, -1.25578448e-01, -1.28923714e-01,
          -3.15538198e-02, 2.81814728e-02, -3.66501287e-02,
          4.12590168e-02, 8.85591134e-02, 7.48893544e-02,
          -4.87691127e-02, -3.96825187e-02, 3.01863509e-03,
          3.80958468e-02, 3.97009999e-02, 6.25808612e-02,
          -2.66354848e-02, 5.71923368e-02, -1.47044910e-02,
          -3.72275934e-02, -5.12445308e-02, -3.55878733e-02,
          8.71884823e-02, -7.87136331e-03, -3.85970734e-02,
          -9.02773999e-03, 3.68396752e-02, -7.29926378e-02,
          6.96366653e-03, -2.48533711e-02, -5.75999394e-02,
          3.78007703e-02, -1.66282784e-02, -9.88833047e-03,
          -8.93827304e-02, 4.80398117e-03, 1.06804213e-02,
          3.63473594e-03, -4.91925934e-03, -4.26713899e-02,
          1.34873331e-01, 3.61307599e-02, -3.21846940e-02,
          -7.86300525e-02, -2.27086563e-02, -3.21626440e-02,
          -2.84235235e-02, -5.40205576e-02, -8.60523209e-02,
          7.92525932e-02, -2.17901375e-02, -3.43822539e-02,
          3.04320902e-02, 4.69846204e-02, -6.19026683e-02,
          3.20016444e-02, -2.67177746e-02, -8.47947448e-02,
          7.79009983e-02, 4.20887657e-02, -1.09712398e-02,
          4.20921110e-02, 4.10011113e-02, -1.25678359e-02,
          -2.96527427e-02, -5.49216978e-02, -9.34882239e-02,
          8.02575126e-02, -1.98776857e-03, 2.03284938e-02,
          1.90835968e-02, 3.66664790e-02, -1.79756097e-02,
          -7.45779788e-03, -7.27197453e-02, -1.61274463e-01,
          6.05889522e-02, 4.43713777e-02, 3.62511277e-02, 4.05153399e-03,
          2.89156102e-02, -4.21804078e-02, 6.82241395e-02,
          1.56981777e-02, -5.78462221e-02, 4.39785048e-02,
          -3.01242676e-02, -1.68516056e-03, -2.77674627e-02,
          3.64449322e-02, 2.67146211e-02, 2.87652109e-02,
          -1.28412163e-02, -9.93821248e-02, 6.15674369e-02,
          5.89696467e-02, 5.47758006e-02, 3.05454191e-02, 5.24234772e-02,
          1.45719079e-02, -4.64553051e-02, 1.99903231e-02,
          -7.86805749e-02, 9.17795077e-02, 1.07012992e-03,
          -8.41905270e-03, -8.31357688e-02, -1.01073729e-02,
          -6.88815210e-03, -2.75088176e-02, -1.24101423e-01,
          -1.08148701e-01, 5.10916710e-02, 8.12176466e-02,
          6.38523474e-02, -8.26146547e-03, -3.12714875e-02,
          -4.48005050e-02, 3.69837545e-02, -4.64031175e-02,
          -1.17106050e-01, 6.62003458e-02, 3.45929079e-02,
          1.69945098e-02, -1.22761838e-01, 1.37472646e-02,
          4.11561169e-02, 1.01656288e-01, -3.03011648e-02,
          -8.12692940e-02, 7.73101754e-04, 3.72657031e-02,
          -1.27386833e-02, -5.92547357e-02, 7.93839768e-02,
          7.43226409e-02, 4.01024334e-02, -1.51873648e-01,
          -1.03453994e-01, 8.22271183e-02, 6.28474206e-02,
          4.18449193e-02, -4.88806590e-02, -3.79578359e-02,
          1.57128349e-02, 5.49123138e-02, -7.26437792e-02,
          -1.25574335e-01, 7.84564484e-03, 1.60998050e-02,
          2.31997054e-02, -1.31645799e-01, -3.45300250e-02,
          5.58403730e-02, 3.26618552e-02, 1.96259543e-02,
          -3.10557969e-02, -4.10904288e-02, -1.29302088e-02,
          -3.45776323e-03, -1.04556590e-01, 4.79002818e-02,
          5.85616902e-02, 3.18761803e-02, 1.95072312e-02, 1.93453282e-02,
          1.65442447e-03, 3.41791995e-02, 5.02772443e-02,
          -9.30363908e-02, -1.20808445e-02, 8.09080079e-02,
          2.08724737e-02, -4.39512618e-02, -1.08834498e-01,
          -6.73285201e-02, -2.38486193e-02, -6.05699606e-03,
          -1.42584175e-01, -7.65583217e-02, 6.97314665e-02,
          -8.60466901e-03, 6.98449602e-03, -2.17229184e-02,
          3.51627939e-04, 4.89321426e-02, -1.57012679e-02,
          -1.83107898e-01, -6.85428753e-02, 3.18653099e-02,
          -1.57805660e-03, 1.85055844e-02, 4.41547818e-02,
          5.02499230e-02, 7.88214337e-03, -4.25068568e-03,
          -1.53960064e-01, -2.48417053e-02, 3.13350819e-02,
          -2.11016312e-02, -4.36302722e-02, 3.82821895e-02,
          4.61181551e-02, 6.84680417e-02, 2.02988088e-02,
          -1.48998007e-01, -2.02631429e-02, 5.85346296e-02,
          -4.28096764e-03, -9.17037949e-03, -1.56337693e-02,
          -9.16690100e-03, 4.13080817e-03, 4.01597507e-02,
          -1.23103708e-01, -7.71235302e-02, 2.20099632e-02,
          -1.01014689e-01, -7.25030527e-02, 1.03818746e-02,
          8.10341537e-02, 1.57368705e-01, 5.59808612e-02,
          -6.77374229e-02, -8.58740509e-02, -8.25602747e-03,
          3.83394286e-02, 1.75213721e-02, -5.31389751e-03,
          5.07768877e-02, 5.86108267e-02, 6.60178810e-02,
          -6.93167597e-02, -3.08983549e-02, 7.60481730e-02,
          3.39019224e-02, 7.34164417e-02, -3.55461091e-02,
          -1.82194058e-02, 4.24613878e-02, 4.18073386e-02,
          -5.78455627e-02, 3.19228470e-02, 5.63083068e-02,
          -9.81687307e-02, 1.38368737e-02, 7.64952449e-04,
          7.06467330e-02, 1.19215667e-01, 4.96723317e-02,
          -5.62633388e-02, -1.74206514e-02, 6.00044802e-03,
          -1.31706232e-02, -7.27161840e-02, -8.73414800e-02,
          2.41969395e-02, 1.04085229e-01, -2.11708155e-02,
          -6.65279254e-02, -2.28619687e-02, 3.72836813e-02,
          -2.67512593e-02, 8.53135511e-02, -3.59594967e-04,
          -4.75165173e-02, 6.35355115e-02, 3.54275219e-02,
          -4.56600562e-02, 4.15416136e-02, 4.19033580e-02,
          -1.72653869e-02, 3.59493010e-02, 2.82308813e-02,
          -2.15340909e-02, 5.00995927e-02, 2.51205992e-02,
          -8.57233070e-03, 4.50120866e-02, -1.27820298e-02,
          -1.88609120e-02, -7.78110977e-03, 1.37560731e-02,
          -1.62427370e-02, 1.25574768e-02, -1.69538260e-02,
          -8.73697996e-02, 3.17863896e-02, 2.07484495e-02,
          -1.68941021e-02, 8.62467661e-03, 9.50585827e-02,
          -1.76935177e-02, 5.73688075e-02, -1.57980118e-02,
          -3.05313226e-02, 6.01262376e-02, 3.09799053e-02,
          -1.05758617e-02, 6.82466757e-03, 6.69982880e-02,
          2.18820740e-02, -2.42737327e-02, -3.06894779e-02,
          -9.01255384e-02, 1.13862343e-02, -3.08500323e-02,
          -6.97131008e-02, -3.30619770e-03, 2.86950171e-02,
          5.67533299e-02, 1.03982277e-01, 1.01262722e-02,
          -7.66556263e-02, 9.77923861e-04, -4.06657010e-02,
          3.26577090e-02, 4.59777601e-02, 6.85820580e-02, 5.86303435e-02,
          8.65958557e-02, 1.56105785e-02, -8.96841511e-02,
          -3.68651524e-02, 2.83443946e-02, 8.05738121e-02,
          1.80802979e-02, -3.74812782e-02, 1.89040303e-02,
          8.37801546e-02, -3.36930752e-02, -7.47082457e-02,
          3.85768339e-02, 2.05946708e-04, -1.45288818e-02,
          2.66777631e-02, 1.16639240e-02, -2.00698618e-02,
          1.83069650e-02, -1.11581767e-02, -2.19034646e-02,
          4.87700440e-02, 1.24470657e-02, 1.59651935e-02, 1.69947241e-02,
          5.53212762e-02, 1.79821160e-02, -6.01946488e-02,
          3.27748433e-02, -3.81302126e-02, 6.79867268e-02,
          3.88610885e-02, 4.63406146e-02, 4.86436523e-02,
          -1.87417101e-02, -3.25491764e-02, 7.89310597e-03,
          -6.74375147e-02, 1.19428439e-02, 1.20501734e-01,
          6.88486770e-02, 1.72987450e-02, 5.95141463e-02, 7.39018843e-02,
          1.04292631e-01, 4.64412831e-02, -2.61633936e-02,
          1.74163785e-02, 4.73002680e-02, 6.19877912e-02, 1.73560716e-02,
          4.37510461e-02, 6.15019202e-02, -2.77193473e-03,
          -3.97530049e-02, 1.27257211e-02, -9.74938273e-02,
          3.81629057e-02, 6.37922063e-02, -4.85930070e-02,
          -9.78998840e-03, 3.42823230e-02, -2.67745387e-02,
          -4.34368290e-02, 6.94087818e-02, -1.14350067e-02,
          1.80894807e-02, -4.19424614e-03, -2.45241541e-02,
          1.99602470e-02, 5.31681478e-02, 8.25303793e-02, 6.97886795e-02,
          -4.51331176e-02, -1.26809537e-01, -2.84132250e-02,
          4.39418480e-02, -4.03920673e-02, -9.12737846e-02,
          -1.76699720e-02, -1.23914359e-02, 1.37313427e-02,
          6.91926107e-02, -6.32877722e-02, -4.86357361e-02,
          -4.50590327e-02, -9.27565992e-02, -4.86418232e-03,
          9.91412848e-02, 4.38947007e-02, 4.13753744e-03,
          -1.94781786e-03, 4.56049778e-02, 1.01828631e-02,
          -6.81818202e-02, -4.95106466e-02, 8.31300451e-04,
          7.94081986e-02, 5.94792590e-02, -1.30715836e-02,
          -4.14125323e-02, 1.19014960e-02, -6.63439790e-03,
          -4.12974134e-02, -7.02517107e-02, -6.69491068e-02,
          8.19133669e-02, 6.56279698e-02, -3.70755903e-02,
          -5.52286245e-02, -2.41057342e-03, 4.69543086e-03,
          -7.42638856e-02, -2.04937886e-02, -4.30409536e-02,
          7.18734413e-02, 2.76661012e-02, 5.51294833e-02,
          -8.41694996e-02, -2.77897380e-02, 3.23051959e-02,
          -4.09769416e-02, 2.12878752e-02, -6.20401604e-03,
          -1.15528256e-02, 1.79702211e-02, -4.63212989e-02,
          -2.80076135e-02, 2.39955336e-02, 2.07867455e-02,
          3.43936309e-02, 1.44977747e-02, -2.98391189e-02,
          -3.19758318e-02, 3.69502455e-02, -3.44742537e-02,
          1.38547271e-02, 8.14832281e-03, 6.56053750e-03,
          -9.38605424e-03, 3.20747308e-02, -6.17793947e-02,
          -6.77171489e-03, -7.34349638e-02, 4.50528935e-02,
          2.22393349e-02, -3.35995890e-02, 4.94942293e-02,
          1.13595081e-02, -4.95416718e-03, -2.57431865e-02,
          4.90204385e-03, -2.01542918e-02, 3.42809856e-02,
          8.92594829e-02, -4.59231576e-03, -1.51470369e-02,
          -7.29288310e-02, -4.54374291e-02, -9.45782959e-02,
          2.91046966e-02, 5.39590605e-02, -4.54260781e-02,
          -4.28347848e-02, 2.47969795e-02, 1.15236631e-02,
          3.16319466e-02, -9.14363638e-02, -5.68385758e-02,
          3.65918204e-02, 1.40434632e-03, -8.90450850e-02,
          -3.78033668e-02, 2.13441607e-02, -9.53372661e-03,
          3.02696377e-02, -3.12509872e-02, -1.85534172e-02,
          3.91495079e-02, 4.98550236e-02, -1.43573061e-02,
          4.99051325e-02, -1.16627691e-02, -1.29366368e-02,
          -4.06362955e-03, -4.63308692e-02, 1.33292435e-03,
          -7.23718526e-03, 6.73446432e-02, -6.05595484e-02,
          -7.72551261e-03, -3.52303647e-02, -4.70812470e-02,
          -4.68838364e-02, -5.36422059e-02, 1.94989145e-02,
          1.78637449e-03, -1.60285970e-03, -3.00267898e-02,
          6.56847656e-02, 6.45112172e-02, -9.02318954e-03,
          -3.50322165e-02, 1.05645441e-01, 3.09118647e-02,
          -5.37791513e-02, -1.36080673e-02, -5.80474064e-02,
          1.83162484e-02, 3.46844085e-02, 2.06697099e-02, 5.88235334e-02,
          2.59858184e-02, 1.79639757e-02, 7.88351968e-02,
          -3.35617363e-02, -1.11681066e-01, 1.52329756e-02,
          1.39748668e-02, 1.45866917e-02, -8.22328031e-02,
          2.84655578e-02, -3.65538858e-02, -1.06988423e-01,
          -4.49022017e-02, -8.27669650e-02, -3.28106270e-03,
          2.87893619e-02, -3.95398512e-02, -4.63426225e-02,
          1.11138359e-01, 3.31774317e-02, -6.25738800e-02,
          -8.27726163e-03, -1.25316799e-01, -2.92103868e-02,
          -4.25794460e-02, -9.82099492e-03, -3.39259207e-03,
          -1.09079080e-02, 1.97907612e-02, -2.00997032e-02,
          4.89843599e-02, -3.23024429e-02, 6.23989152e-04,
          -6.03998676e-02, 3.99039239e-02, -3.93277295e-02,
          -3.25329714e-02, -4.84851515e-03, -4.41034064e-02,
          -1.93125345e-02, -1.03568062e-01, -4.52435762e-02,
          3.09829693e-02, -3.39787751e-02, -8.63393918e-02,
          3.87202166e-02, 3.70062292e-02, -2.68510468e-02,
          -7.86669180e-02, -8.34824890e-02, -5.52049465e-02,
          4.23568524e-02, 5.98104373e-02, -1.13816224e-02,
          -6.53721299e-03, 9.50396806e-03, -1.80392005e-02,
          -3.14280321e-03, -6.20811135e-02, -3.74091528e-02,
          5.01502026e-03, 4.20279577e-02, -6.91769877e-03,
          1.09300753e-02, -5.62650636e-02, -7.16591179e-02,
          7.56026013e-03, 2.00579800e-02, 2.60278210e-03,
          -1.27358246e-04, 5.38569093e-02, -2.65688729e-02,
          3.54519561e-02, 1.03770129e-01, 2.61519272e-02,
          -7.94306770e-02, -1.03003398e-01, -6.08870685e-02,
          5.97574748e-04, 1.71581581e-02, 2.84273811e-02,
          -2.19498225e-03, 3.78601290e-02, -5.23147285e-02,
          -6.04116451e-03, -4.53928905e-03, -5.28302565e-02,
          -3.16258073e-02, -1.50781041e-02, 1.61838830e-02,
          -5.38248345e-02, -5.86775132e-02, -8.95475000e-02,
          3.58344950e-02, 4.07633930e-02, 2.35630665e-02,
          -4.57217507e-02, 3.49348821e-02, -1.24616958e-02,
          -6.21861359e-03, -4.90162335e-02, -2.76441276e-02,
          3.62941325e-02, 7.21514896e-02, 7.06234947e-02,
          -2.52599325e-02, -2.22813766e-02, 2.25629453e-02,
          -6.73779324e-02, -2.33385619e-03, -4.82975990e-02,
          -2.83548944e-02, -1.83033682e-02, 3.65596712e-02,
          2.12033352e-04, -9.58597567e-03, -2.68302672e-03,
          1.14376214e-03, 3.51780951e-02, 3.17397676e-02, 4.67239507e-02,
          2.00783983e-02, 2.26072650e-02, -8.85201711e-03,
          8.39876663e-03, -5.65392412e-02, 9.40827932e-03,
          -5.38138784e-02, -6.97161779e-02, -7.08539933e-02,
          -7.87689816e-03, 7.01178536e-02, -2.91712210e-02,
          -3.63573320e-02, 4.13445523e-03, 4.90972996e-02,
          1.11564598e-03, -7.99965411e-02, -5.49192540e-02,
          4.39761691e-02, 4.51608747e-02, -1.04041174e-01,
          -3.46589014e-02, 5.38947955e-02, -1.67624820e-02,
          4.76247296e-02, 1.73487253e-02, -6.42126352e-02,
          6.86876150e-03, -8.49241111e-03, -2.44766613e-03,
          -2.46898662e-02, -8.26247633e-02, -6.86042104e-03,
          3.02697793e-02, 1.54920314e-02, -4.94428612e-02,
          4.22383994e-02, 6.16558827e-02, 1.56778470e-02,
          -2.43832897e-02, -5.01384400e-02, 3.35469507e-02,
          1.08331498e-02, -4.13152277e-02, -3.97506990e-02,
          2.87977532e-02, 1.38822664e-02, -1.47395551e-01,
          -9.98494122e-03, 9.48847979e-02, 1.43180676e-02,
          1.18939457e-02, -1.72705092e-02, 1.67543460e-02,
          1.76857244e-02, 3.19364318e-03, -5.76219521e-02,
          3.09613422e-02, 7.17164250e-04, -6.78610951e-02,
          2.32850276e-02, -1.78402138e-03, 3.19754966e-02,
          1.08553939e-01, 4.11444865e-02, -1.72501262e-02,
          1.24714356e-02, -5.61699569e-02, -3.78093123e-02,
          -2.63288408e-03, -3.20646865e-03, -2.45695692e-02,
          3.10051609e-02, 7.69356713e-02, 2.35459562e-02, 1.09894536e-01,
          1.30705805e-02, -6.86179707e-03, 1.56656802e-02,
          -5.95908752e-03, -4.71557416e-02, -3.59052680e-02,
          -1.34857502e-02, -1.02228910e-01, 1.87618472e-02,
          2.70520486e-02, 1.72747746e-02, 6.95142671e-02, 2.77281981e-02,
          -3.47107723e-02, 3.27922329e-02, 1.67880431e-02,
          -6.01488277e-02, -2.72016637e-02, -9.31222644e-03,
          -6.88923597e-02, 2.67099980e-02, 4.00661901e-02,
          -1.10485800e-01, 9.28984396e-03, 3.15233879e-02,
          7.23735802e-03, 3.01757990e-03, -4.52598110e-02,
          -6.26543686e-02, 7.57611394e-02, 8.19812566e-02,
          -4.36810628e-02, 2.28994675e-02, -5.00127615e-04,
          -5.19204661e-02, 8.72568972e-03, -6.48548231e-02,
          -5.38728237e-02, 7.35391155e-02, 2.38937680e-02,
          -2.44835913e-02, 2.67077796e-02, 1.25981532e-02,
          -6.47283942e-02, 4.59761964e-03, -1.24613522e-02,
          -1.13993445e-02, -1.78910159e-02, -2.26098560e-02,
          -3.43896039e-02, 1.91702545e-02, -2.82934811e-02,
          -8.10773969e-02, -2.15605274e-02, -1.90728288e-02,
          -3.90276760e-02, 2.55700760e-02, 9.64249298e-02,
          -4.01989296e-02, -1.93713922e-02, 1.26910284e-02,
          5.58927990e-02, 4.11613658e-02, -9.74833593e-02,
          -6.16803318e-02, -3.46021634e-03, 4.28044014e-02,
          -2.38288976e-02, -5.44964103e-03, -1.79019626e-02,
          3.03268582e-02, 4.63666990e-02, -3.14403921e-02,
          -7.06852153e-02, -1.88229065e-02, -1.96947400e-02,
          -1.05008312e-01, -4.73649502e-02, -8.86633294e-04,
          -4.42855917e-02, 9.85416211e-03, -1.01228543e-02,
          7.47804763e-03, 6.66226596e-02, 2.07703356e-02,
          -5.49334660e-02, 1.56183280e-02, 3.03326081e-02,
          1.54047599e-03, 3.87503654e-02, 2.68112682e-02,
          -4.42813076e-02, 2.87462603e-02, 1.04397330e-02,
          -4.69946340e-02, 1.04774218e-02, 3.40779945e-02,
          1.90259553e-02, 6.59080595e-02, -4.16481718e-02,
          -6.18777878e-04, 1.06176235e-01, 6.71566576e-02,
          -3.24820308e-03, 1.01454191e-01, 6.02107421e-02,
          6.21360764e-02, 5.02212122e-02, 3.03377956e-02, 1.32513512e-02,
          3.71277183e-02, -3.43107656e-02, -3.55681702e-02,
          4.55629416e-02, 3.83407399e-02, -5.04043363e-02,
          -2.43900847e-02, 2.28671264e-02, 3.01347282e-02,
          1.07887452e-02, -3.96772586e-02, -5.19494936e-02,
          5.75008653e-02, -1.74084976e-02, 2.50843987e-02,
          8.00509080e-02, 1.14837335e-02, -5.08368202e-02,
          2.86650527e-02, 1.71913709e-02, -4.84195463e-02,
          1.70241091e-02, 5.75226173e-02, -7.15104630e-03,
          2.75790282e-02, -1.98885184e-02, -7.41308033e-02,
          9.76326782e-03, -8.84071644e-03, -3.98516580e-02,
          1.28906104e-03, -6.98689222e-02, 4.19551767e-02,
          1.15577869e-01, -6.77938294e-03, -1.14423735e-02,
          1.58494767e-02, -1.23235928e-02, -1.15266293e-01,
          3.11235478e-03, -5.69351912e-02, 3.05878874e-02,
          1.30997896e-01, 1.00692756e-01, 1.66364934e-03, 1.16156852e-02,
          4.52297144e-02, 3.81531417e-02, -1.50058037e-02,
          -1.84523910e-02, 3.57340649e-02, 6.47611916e-02,
          8.22177753e-02, -2.64447760e-02, 3.18111070e-02,
          9.62812454e-03, -1.59213748e-02, -4.48288745e-04,
          -1.38199702e-01, 4.62644286e-02, 1.27686083e-01,
          3.32728922e-02, -2.62706839e-02, 3.15905251e-02,
          -2.00465955e-02, 4.40180814e-03, 1.95271503e-02,
          6.37724847e-02, 7.01344460e-02, 6.43619671e-02, 6.67691790e-03,
          1.57520156e-02, 2.86686770e-03, 1.50446314e-02, 4.43383567e-02,
          4.39455025e-02, 1.92375556e-02, -5.29775470e-02,
          6.92638394e-04, 4.94777597e-02, 3.57510671e-02,
          -4.18288596e-02, -3.01503949e-02, -3.97529900e-02,
          3.90973128e-02, 1.02382198e-01, -2.66226996e-02,
          -4.16964293e-02, 4.19084765e-02, 4.77177538e-02,
          3.67801152e-02, -8.12348053e-02, -7.22736493e-02,
          -2.71717757e-02, 1.23725340e-01, 4.81077284e-03,
          3.10349986e-02, -1.91860814e-02, 1.79637037e-02,
          -1.47472667e-02, -1.84291881e-02, -3.21361944e-02,
          -4.80691977e-02, 6.00039735e-02, 2.00255550e-02,
          4.26307954e-02, -1.89050790e-02, 1.94920115e-02,
          -3.64649631e-02, 7.04052821e-02, 5.59311695e-02,
          -9.53399390e-02, -1.47100864e-02, 2.62206085e-02,
          3.02893743e-02, 7.53432587e-02, 2.15800479e-02, 1.79663263e-02,
          6.83694854e-02, 6.08219761e-06, 1.32602770e-02,
          -1.19716831e-01, -1.87786352e-02, 5.48446961e-02,
          1.64713040e-02, 1.80755742e-02, 1.40393684e-02, 2.69790981e-02,
          1.93238948e-02, -1.07488617e-01, -5.51987541e-05,
          7.15501700e-03, 7.37112835e-02, 1.86585709e-02, 2.82136519e-02,
          8.04612860e-02, 5.67290820e-02, 1.18500507e-02, 2.25995164e-02,
          -5.54863438e-02, -3.85660231e-02, -6.11258904e-03,
          3.11867911e-02, 6.29132465e-02, 6.38536140e-02, 7.40707517e-02,
          -4.48272489e-02, 2.19352692e-02, 2.01054681e-02,
          -2.24910881e-02, 3.69499624e-02, 6.91052228e-02,
          4.16001938e-02, 7.37334862e-02, 8.90032798e-02, 2.06605269e-04,
          -1.27929077e-02, 6.58778176e-02, 3.15720178e-02,
          4.06319611e-02, 4.83762212e-02, 2.54222881e-02, 1.07470118e-01,
          8.48866701e-02, -8.02334491e-03, 5.06041683e-02,
          -2.44924426e-02, -1.01738200e-01, -4.40819860e-02,
          1.09426887e-03, 3.61678526e-02, 8.25907513e-02, 6.58791140e-02,
          -1.50802955e-02, -5.22059426e-02, -8.90508816e-02,
          -3.39603312e-02, 2.28276532e-02, -2.88108960e-02,
          -1.84324943e-02, 5.21705821e-02, 3.73386554e-02,
          1.68833435e-02, 4.02550846e-02, 5.69986142e-02,
          -4.46054786e-02, 2.27906499e-02, 1.83150861e-02,
          2.59491690e-02, 4.48588990e-02, -7.36637181e-03,
          7.59905111e-03, -2.65341811e-03, -3.35873142e-02,
          -6.09411299e-02, 2.93998308e-02, 2.71305889e-02,
          1.96470190e-02, 2.16846690e-02, 1.65760927e-02,
          -5.86219272e-03, -3.40744406e-02, -8.02346542e-02,
          -1.68419611e-02, 3.55842561e-02, 2.71814279e-02,
          2.36263648e-02, 1.29355432e-03, -2.03400292e-02,
          -5.73018938e-02, -1.81818437e-02, -4.40223701e-02,
          -3.69966328e-02, 5.77015430e-02, -3.69302928e-02,
          -3.33419032e-02, -5.65732736e-03, -4.00188826e-02,
          -6.16139136e-02, -5.70821017e-02, 4.38590832e-02,
          7.10761324e-02, 4.92599867e-02, -4.15161625e-02,
          -2.37282999e-02, 1.99280698e-02, -6.55422434e-02,
          -5.29091693e-02, -6.54365718e-02, 2.47730296e-02,
          4.97147441e-02, -7.47837650e-04, -7.92549029e-02,
          -6.56753108e-02, 7.12038502e-02, -2.65975296e-02,
          -4.32667397e-02, -1.05560606e-03, 3.19266617e-02,
          6.36832416e-02, 4.35750633e-02, -5.25182188e-02,
          -6.49091974e-02, 6.60655573e-02, -2.84741237e-03,
          -4.99328077e-02, -4.11722437e-02, 3.83171886e-02,
          5.44228181e-02, 3.38006429e-02, -1.00691058e-01,
          -3.24494392e-02, 1.35154156e-02, 2.49171164e-02,
          -1.21239070e-02, -6.85881153e-02, -3.09436824e-02,
          4.18738276e-02, -2.34295391e-02, -8.09606314e-02,
          4.09763120e-02, 8.35202169e-03, 4.80670743e-02,
          -2.42803711e-02, -6.84593320e-02, 6.67618169e-03,
          5.85910901e-02, 5.05925752e-02, -2.88883402e-05,
          3.50749679e-02, 3.14812060e-03, 2.90317205e-03,
          -2.79480256e-02, -7.67038539e-02, -7.59918690e-02,
          -1.87587291e-02, 3.75593528e-02, -1.92042962e-02,
          2.96478719e-02, -3.51314731e-02, -8.73267185e-03,
          -3.89941521e-02, -5.69619313e-02, -3.08533013e-02,
          -1.02481470e-02, 9.95686799e-02, 3.79901528e-02,
          2.81152036e-02, 6.52102232e-02, 2.79508010e-02,
          -3.11092027e-02, -1.05842799e-01, -5.15970364e-02,
          -4.99676242e-02, -3.03743649e-02, 1.36343325e-02,
          3.73155400e-02, 2.53272168e-02, -1.12795085e-02,
          -6.76617492e-03, -4.31176685e-02, -1.80757921e-02,
          -8.91963691e-02, -5.39298430e-02, 5.47824427e-03,
          -3.91720235e-03, 5.46813272e-02, 1.53341377e-02,
          -1.03129614e-02, -1.69224795e-02, -2.55444851e-02,
          -7.81368930e-03, 7.10714832e-02, -2.31361296e-02,
          4.46227230e-02, 1.02321573e-01, 4.90685403e-02, 2.08756304e-03,
          1.04635733e-03, 2.80393679e-02, -7.06776306e-02,
          -4.33334336e-02, -3.82580943e-02, -1.08745657e-02,
          1.63397193e-02, -6.33643493e-02, -6.73410520e-02,
          -1.01999447e-01, -1.75460391e-02, -2.72651855e-02,
          -3.54059190e-02, -1.97368693e-02, -7.11805420e-03,
          -2.18432061e-02, -9.92360115e-02, -7.72275031e-04,
          -7.25200996e-02, 1.05662048e-02, 4.66569234e-03,
          1.64822992e-02, -6.12984858e-02, 4.53738049e-02,
          8.60151947e-02, 2.37188488e-02, -6.79496005e-02,
          -2.86560375e-02, -4.52821888e-02, -6.19226582e-02,
          -4.89308685e-02, -4.52883483e-04, 1.15699077e-03,
          3.64818983e-02, -1.59376357e-02, -5.24372719e-02,
          -3.11860554e-02, -6.88540749e-03, -5.91230020e-02,
          9.27123893e-03, 4.38642167e-02, -1.09032786e-03,
          7.19103441e-02, 2.37416960e-02, -4.59259860e-02,
          -7.56264403e-02, -1.08802402e-02, -1.82522051e-02,
          1.58507079e-02, 5.76267776e-04, 6.64534047e-02, 2.11816058e-02,
          2.48035113e-03, -1.00242548e-01, -8.62857103e-02,
          1.22287199e-02, 1.24403080e-02, 1.15404008e-02, 1.93475690e-02,
          -1.26316911e-02, 3.94060351e-02, 1.54872425e-02,
          -5.15614152e-02, -8.85556936e-02, -4.57976572e-03,
          3.25105060e-03, 7.79223442e-02, -3.79858975e-04,
          1.03392392e-01, 7.28878081e-02, -2.57596071e-03,
          -1.54044554e-01, -1.39213890e-01, -5.42253256e-02,
          -4.65050638e-02, 7.69078806e-02, 6.63679168e-02,
          3.34200775e-03, 5.44368215e-02, 4.18988839e-02, 3.53978351e-02,
          -4.18580696e-02, 1.01088118e-02, 7.77363703e-02,
          2.68523935e-02, 6.00778451e-03, -1.01571158e-02,
          8.10923055e-02, 3.65511961e-02, -3.87608260e-02,
          -6.97852746e-02, 3.15189771e-02, 7.84269646e-02,
          1.24318324e-01, 5.75015554e-03, 1.48174703e-01, 8.76466110e-02,
          7.73361651e-04, -3.75397280e-02, -9.54308435e-02,
          -4.37781028e-02, -7.69376010e-02, 3.21140662e-02,
          7.03713298e-02, 8.17277804e-02, 4.70699631e-02, 9.14970413e-03,
          1.22727398e-02, -6.47979230e-02, -7.85088446e-03,
          -2.12551709e-02, 2.70498116e-02, 9.91093460e-03,
          -8.62006377e-03, 8.88182446e-02, 4.36202697e-02,
          -4.66854796e-02, -8.98138732e-02, 1.41258845e-02,
          4.75226417e-02, 5.50156757e-02, 3.37069645e-03, 4.46640439e-02,
          1.30289674e-01, 1.39191359e-01, -2.29086988e-02,
          5.55614121e-02, -1.20419646e-02, 4.55292091e-02,
          4.52045240e-02, 3.76471947e-03, 1.78193320e-02, 1.04137314e-02,
          9.74718109e-03, -7.09552243e-02, -1.50344849e-01,
          -3.96215841e-02, 3.64425331e-02, 7.45071936e-03,
          -3.66017334e-02, 2.40988191e-02, 5.12884147e-02,
          8.56676847e-02, -5.42262346e-02, 7.24432543e-02,
          1.10565182e-02, 8.51053596e-02, -2.95225438e-02,
          -5.42973913e-02, -5.48460148e-02, 4.13646027e-02,
          8.54381025e-02, -9.30981990e-03, -4.79434058e-02,
          -5.16297519e-02, 4.45505790e-02, 5.71301803e-02,
          -1.02949608e-02, -2.57025138e-02, 4.80576903e-02,
          1.19922489e-01, 8.03309493e-03, -3.43962722e-02,
          -9.55312252e-02, 3.89231816e-02, 5.92935309e-02,
          2.50194166e-02, -5.19899316e-02, 8.74504354e-03,
          2.48574186e-02, -6.48713633e-02, 1.57459785e-04,
          -4.70073856e-02, 9.55307484e-03, 3.14348494e-03,
          -6.25620484e-02, -3.28787863e-02, 2.47204602e-02,
          -2.85533629e-02, -7.58251697e-02, -1.66874491e-02,
          -1.08553119e-01, 2.69176830e-02, 5.25549464e-02,
          1.54265026e-02, -8.18085447e-02, 5.59391007e-02,
          9.70323160e-02, -3.33674252e-02, -7.58807808e-02,
          -2.95228679e-02, 1.42139848e-02, 2.80283373e-02,
          -5.16045168e-02, -4.13553305e-02, 6.35206699e-02,
          1.17263928e-01, 3.26106837e-03, 3.05802915e-02, 3.13165635e-02,
          -1.78576875e-02, -2.14285422e-02, -8.00677389e-02,
          -8.91208574e-02, 7.18829110e-02, 7.02434480e-02,
          -1.51836509e-02, -5.47838882e-02, -7.33807534e-02,
          8.05363879e-02, 1.74022261e-02, -6.74490035e-02,
          -1.17703162e-01, 1.54799661e-02, 8.66129473e-02,
          2.22469121e-02, 2.74866894e-02, 6.73440546e-02, 7.85692930e-02,
          -2.85683107e-02, -8.09552446e-02, -3.27528454e-02,
          6.90911487e-02, 6.24135956e-02, -2.34525725e-02,
          -2.89908946e-02, 2.86940821e-02, -9.05631389e-03,
          -2.52771545e-02, -5.79851195e-02, -3.80264483e-02,
          6.95929825e-02, 1.01395231e-02, 7.89626781e-03, 3.00823767e-02,
          -9.76795480e-02, -1.03008058e-02, -2.87416531e-03,
          -5.75396791e-02, -7.59636015e-02, 5.67681938e-02,
          3.75681594e-02, 2.69992799e-02, -5.79151697e-03,
          4.89035808e-02, 1.46409031e-02, -7.66092613e-02,
          -1.27663225e-01, -3.92619409e-02, 9.38451290e-02,
          2.79401820e-02, -1.26315868e-02, 5.36179319e-02,
          -4.83796857e-02, 2.09864862e-02, -1.26526458e-02,
          -6.21617027e-02, -9.62686613e-02, 6.13340847e-02,
          3.13013382e-02, 2.02883016e-02, -3.57444608e-03,
          -5.23323603e-02, 6.07196465e-02, 6.06493503e-02,
          -3.51136364e-02, -5.73367663e-02, 5.26846871e-02,
          2.85754483e-02, -5.22597134e-03, -2.65521295e-02,
          8.91311765e-02, 7.17494488e-02, 7.20149502e-02,
          -8.92900378e-02, -6.31407574e-02, 9.22684148e-02,
          4.79750521e-02, -4.99507599e-02, 2.99429316e-02,
          5.26036927e-03, 9.74917263e-02, 5.33812270e-02,
          -5.44304736e-02, -6.29011989e-02, 4.82660048e-02,
          7.15664923e-02, 1.23611083e-02, 2.93494985e-02, 5.82807697e-02,
          5.80952391e-02, 4.53515202e-02, -7.86270350e-02,
          -1.16522843e-02, 5.23144044e-02, -1.32150273e-03,
          -7.77774826e-02, -9.17648226e-02, 1.92227177e-02,
          1.70657765e-02, 4.37393561e-02, -4.97625209e-02,
          2.05752738e-02, 3.83567847e-02, 1.60185061e-02,
          -4.03869785e-02, -5.07281860e-03, -3.85053605e-02,
          8.22325610e-03, 1.13014281e-02, 7.42674246e-03, 2.63364911e-02,
          7.02263787e-02, 6.71400428e-02, 1.12647088e-02,
          -4.45122831e-02, -5.12632616e-02, 2.15093382e-02,
          5.64064868e-02, -2.67317165e-02, 2.80110780e-02,
          3.88038829e-02, -1.66152546e-03, -6.49083629e-02,
          2.80569885e-02, 1.41031705e-02, 1.99623033e-03,
          -1.98683906e-02, -2.83897426e-02, -3.37716416e-02,
          1.16928909e-02, 9.91021655e-03, -1.19485119e-02,
          -9.49094910e-03, 4.49984968e-02, 6.27668155e-03,
          -7.13221123e-03, -3.10485959e-02, -8.63800198e-03,
          5.35584465e-02, 3.00620534e-02, -3.20013911e-02,
          4.88425530e-02, -2.21636575e-02, -7.56627396e-02,
          -5.19335978e-02, -1.34477969e-02, -9.95395035e-02,
          -1.42626734e-02, 3.08541600e-02, 1.26559089e-03,
          5.72275482e-02, 1.00721203e-01, 1.29314829e-02,
          -2.63321437e-02, -6.82701916e-02, -1.02593638e-01,
          -5.95584549e-02, 4.02096249e-02, 4.21904307e-03,
          5.89249618e-02, 1.15625374e-02, 3.71531993e-02, 1.20175146e-02,
          -1.05565809e-01, -3.68547142e-02, 8.17615762e-02,
          7.15138912e-02, 3.38313878e-02, 5.58351651e-02, 2.62434315e-02,
          -3.95008735e-02, -3.50357071e-02, -4.76017743e-02,
          -3.72217260e-02, 4.97815423e-02, 1.89989302e-02,
          -4.25190404e-02, 5.39782736e-03, -4.12167944e-02,
          -3.47752832e-02, -2.39920206e-02, -1.49163250e-02,
          -4.37378809e-02, 7.30942003e-03, 6.21254928e-02,
          -1.40521228e-02, -4.84012775e-02, 9.63544324e-02,
          3.29367146e-02, -3.81941162e-03, -7.03639314e-02,
          -6.23551793e-02, -1.22277755e-02, -2.54861452e-02,
          -6.85957819e-02, -6.66299164e-02, 3.68257090e-02,
          3.75864170e-02, -5.31179495e-02, -7.29848072e-02,
          4.94379643e-03, -2.54055560e-02, 2.92228777e-02,
          -1.57821700e-02, -4.99559082e-02, -7.26433322e-02,
          8.55220947e-03, 1.41818514e-02, 2.75727976e-02, 1.88819822e-02,
          -1.50482822e-02, 7.73254968e-03, 1.04432046e-01,
          4.83735884e-03, 6.22303365e-03, -1.98482331e-02,
          9.94166080e-03, -8.63456056e-02, -4.38930430e-02,
          -2.79404074e-02, -3.27556990e-02, 1.67811438e-02,
          -5.57765551e-02, 1.69104952e-02, 2.14063916e-02,
          -4.03920561e-02, -1.66361276e-02, -2.79432051e-02,
          -6.25909120e-03, 3.46252061e-02, 1.20558411e-01,
          -2.00608429e-02, 1.66994017e-02, 7.75587920e-04,
          5.33708371e-03, -6.22334369e-02, -1.76849850e-02,
          6.47435710e-02, 3.00548449e-02, 4.89675179e-02,
          -5.05442955e-02, -1.98922995e-02, 2.60308534e-02,
          6.67963028e-02, -3.70954014e-02, -9.87209007e-02,
          -2.33770367e-02, -3.06695718e-02, 3.63030173e-02,
          -9.99722779e-02, -3.78069095e-02, 2.52029952e-03,
          1.05077783e-02, -8.01625699e-02, -2.94305775e-02,
          5.76715432e-02, 6.59605190e-02, 8.51453245e-02,
          -6.02294877e-02, -4.40543406e-02, -3.31097543e-02,
          -2.21769232e-02, -1.78640708e-02, -1.34188924e-02,
          8.09290856e-02, 1.06290810e-01, 1.05851807e-01, 3.62668559e-02,
          -7.82389417e-02, -3.60285267e-02, -2.90490296e-02,
          -7.25134090e-02, -4.76021171e-02, -1.30116558e-02,
          -2.66666152e-03, 4.81868982e-02, -9.04008299e-02,
          -5.01908064e-02, -2.03129631e-02, 4.13749926e-02,
          -3.35969701e-02, 2.17329934e-02, 1.92305874e-02,
          1.06339082e-02, -5.63922562e-02, -3.74900922e-02,
          -9.22499225e-02, -5.75595833e-02, 3.18339244e-02,
          -3.65902856e-02, 7.54408911e-02, 3.19424085e-02,
          7.30844662e-02, 4.28098813e-02, 4.76495549e-02,
          -4.30866703e-02, -6.53434768e-02, -3.94318961e-02,
          -2.38919258e-03, 4.06950451e-02, 2.95094084e-02,
          2.68449374e-02, -2.32450701e-02, -3.55840661e-03,
          -5.33836186e-02, -8.29782635e-02, -1.25093013e-01,
          1.06616849e-02, 2.39982307e-02, 3.80531214e-02, 4.32586223e-02,
          -5.65191694e-02, -2.22381596e-02, -4.98793423e-02,
          -4.49591801e-02, 9.33787078e-02, -1.13327531e-02,
          1.88472904e-02, 5.75566478e-02, 1.98036432e-02,
          -3.75322849e-02, 1.69747937e-02, 2.26730220e-02,
          -1.54912677e-02, 3.01302858e-02, -1.83794051e-02,
          4.57295738e-02, 3.00588049e-02, -7.96911679e-03,
          -6.25089034e-02, -3.94429974e-02, -3.67111489e-02,
          -9.87723283e-03, 1.35256571e-03, -7.16949850e-02,
          -1.87479798e-02, -2.66369036e-03, -3.68512496e-02,
          -3.44874822e-02, 4.69264127e-02, -2.81974692e-02,
          -4.48152646e-02, 3.48372501e-04, -6.04713010e-03,
          -1.37070483e-02, 1.92165021e-02, 1.43668596e-02,
          -7.45875016e-02, -2.29136040e-03, -2.92100236e-02,
          -1.32919267e-01, -8.56237113e-03, -1.07551888e-01,
          2.88290996e-02, 4.97878492e-02, 6.20497093e-02, 1.64360448e-03,
          2.41570435e-02, 1.00138336e-02, -1.36725694e-01,
          2.90493690e-03, 1.03037013e-02, -2.46481299e-02,
          -3.53787765e-02, -6.88787503e-03, -3.62304449e-02,
          2.24632025e-02, -4.53184396e-02, -1.15973592e-01,
          -2.47563347e-02, -6.15686812e-02, 1.14360407e-01,
          7.46629983e-02, 6.29178016e-03, -1.40392920e-02,
          5.85444495e-02, 3.82516198e-02, -1.01891436e-01,
          -3.05353850e-02, 5.53966165e-02, 2.00766958e-02,
          5.32173254e-02, -8.91177449e-03, -3.88235506e-03,
          2.46421788e-02, 2.14244071e-02, -9.94375572e-02,
          1.63998511e-02, -3.29225101e-02, 5.80673255e-02,
          2.01540217e-02, -4.17750329e-02, -7.24499151e-02,
          -9.66334790e-02, -6.87214807e-02, -1.08739927e-01,
          -2.37712599e-02, -4.33904342e-02, 1.55236617e-01,
          3.88976000e-02, -8.35094899e-02, 6.12483174e-03,
          8.47192928e-02, 5.45473620e-02, -3.90275791e-02,
          3.65989357e-02, 7.20923394e-02, 5.72476350e-02,
          -8.14988017e-02, -2.52805054e-02, 8.38352144e-02,
          6.69329315e-02, 1.57551002e-02, -7.86777288e-02,
          -1.16869789e-02, 8.27193726e-03, 1.17797144e-01,
          4.20760438e-02, -3.09715085e-02, -3.70219313e-02,
          -5.71433641e-02, 1.24277323e-02, -1.45812735e-01,
          -4.01195362e-02, -2.05372218e-02, 5.00423573e-02,
          2.15627393e-03, -4.17383648e-02, -4.43185493e-02,
          9.47436842e-04, 2.31128410e-02, -2.82044057e-02,
          -1.68458149e-02, -1.22286258e-02, 5.11684790e-02,
          -6.25395402e-02, -5.92051866e-03, 4.64640707e-02,
          6.60589412e-02, 1.06514513e-01, -6.69493806e-04,
          3.70337851e-02, -4.60469201e-02, 2.92934738e-02,
          6.36641756e-02, 8.38890113e-03, 2.90464424e-02, 1.49355799e-01,
          1.19100943e-01, 3.10276113e-02, 5.59280738e-02,
          -6.36303797e-02, -5.56169748e-02, -1.43099325e-02,
          1.88987274e-02, -4.78979871e-02, -4.36937287e-02,
          -2.20813062e-02, 8.07606895e-03, 2.92112194e-02,
          -5.86879514e-02, -3.87352966e-02, 2.40818155e-03,
          4.43721600e-02, -6.02616370e-02, 9.70495269e-02,
          2.29002838e-03, 3.51125300e-02, 1.11483294e-03,
          -3.42700928e-02, -3.17229554e-02, 5.07192425e-02,
          3.94031927e-02, -8.99166800e-03, 1.16791137e-01,
          7.09867924e-02, 5.28986380e-02, 8.09729323e-02,
          -3.80005799e-02, -7.10052624e-02, 3.08014937e-02,
          3.55748236e-02, 3.00810989e-02, 7.58590475e-02, 7.48173594e-02,
          4.81861345e-02, 6.75708950e-02, -6.94254264e-02,
          -3.05344965e-02, -3.87458615e-02, -3.97869647e-02,
          -1.04144596e-01, 1.25092134e-01, -9.37070325e-03,
          5.43607725e-03, 1.41121419e-02, 4.08821320e-03, 1.50841568e-03,
          -4.29813415e-02, -5.94911575e-02, -3.44707700e-03,
          5.99825494e-02, -3.87362428e-02, 2.92431246e-02,
          3.22235152e-02, 4.57296222e-02, -1.98744256e-02,
          -4.35050167e-02, -6.02795035e-02, -9.99857858e-02,
          2.40876023e-02, -2.36041751e-02, 4.48547117e-02,
          1.30777080e-02, -9.65427309e-02, 2.15914510e-02,
          -5.78283630e-02, -8.38317424e-02, -4.09212708e-02,
          1.05847038e-01, -3.23980711e-02, -2.51785200e-02,
          -4.86155674e-02, -7.94961080e-02, -2.53010038e-02,
          4.41350676e-02, 1.24312527e-02, -4.23138402e-03,
          3.93589865e-03, -6.28810376e-02, 4.36507650e-02,
          -1.60162766e-02, 3.03613604e-03, -4.73912545e-02,
          -1.37889981e-02, -1.52767114e-02, -4.94272783e-02,
          -7.29275793e-02, -3.29727819e-03, 6.81101158e-02,
          -2.55747363e-02, -6.02839328e-02, -1.96884610e-02,
          -3.38977799e-02, -4.53005619e-02, -1.28008761e-02,
          5.62737025e-02, 3.44096450e-03, -5.24971075e-03,
          -7.62132630e-02, 1.66767240e-02, 1.08172456e-02,
          3.07346936e-02, -1.08939558e-02, -2.64595989e-02,
          -7.80560747e-02, -4.62360829e-02, 4.39062119e-02,
          -7.12815449e-02, -3.71431448e-02, -4.97223735e-02,
          -1.39970947e-02, -3.10942642e-02, -5.40431365e-02,
          -5.62768243e-02, -1.87939387e-02, 3.33665498e-02,
          -4.44529485e-03, -9.32292193e-02, 1.42192440e-02,
          6.32393267e-03, 1.95838809e-02, -4.93117869e-02,
          -1.41033493e-02, -1.96382273e-02, 4.58922982e-02,
          3.22489999e-02, 4.11559977e-02, 4.36854847e-02,
          -3.98164578e-02, -9.08675045e-03, -9.09684524e-02,
          -4.37879264e-02, -1.37403021e-02, 4.29142714e-02,
          1.62146112e-03, -1.19714541e-02, -2.93594468e-02,
          -4.22357582e-02, -5.49046206e-04, -4.64159288e-02,
          7.97865074e-03, -3.47482711e-02, 6.61709979e-02,
          4.92266864e-02, 1.62294284e-02, -3.40343043e-02,
          2.14457307e-02, 2.41905777e-03, -1.66515838e-02,
          -2.04065535e-02, 8.52808505e-02, 1.18451178e-01,
          9.95683018e-03, 4.04600007e-03, -3.91689353e-02,
          1.66541263e-02, 3.17515060e-02, 7.66021982e-02, 1.01108558e-01,
          8.13720226e-02, 1.77528951e-02, -1.98043101e-02,
          -2.79140640e-02, -5.74009754e-02, -4.81991358e-02,
          3.27648707e-02, 1.69101041e-02, -4.73034717e-02,
          2.79353950e-02, 9.69012603e-02, -1.65372305e-02,
          1.28775742e-02, -1.49574326e-02, -4.89021502e-02,
          4.73029017e-02, 4.34890650e-02, 3.40196602e-02, 5.48463464e-02,
          -8.97224247e-03, 2.08320171e-02, 6.86882716e-03,
          -1.98629368e-02, -8.34834296e-03, 3.15472968e-02,
          1.87550988e-02, 5.01192734e-02, -4.97647375e-02,
          -3.81515026e-02, -3.74927409e-02, -2.57816799e-02,
          -1.26988376e-02, 3.22419666e-02, 4.62366007e-02,
          -6.01069368e-02, -3.37505229e-02, 2.12432072e-02,
          -2.12957114e-02, -3.22941244e-02, -1.13495532e-03,
          -3.26432213e-02, -7.24107996e-02, 5.34250699e-02,
          -1.35845738e-02, 7.18529522e-03, 3.12837847e-02,
          2.75424551e-02, 6.98114163e-04, 3.74984965e-02,
          -6.21148199e-02, -3.74196246e-02, 4.08198610e-02,
          -6.99979365e-02, -1.46028891e-01, 4.97863069e-02,
          3.12519595e-02, -1.96485817e-02, -3.31713408e-02,
          -6.15644641e-02, -1.07097318e-02, 6.54188246e-02,
          3.65411006e-02, 2.32660528e-02, 3.55997793e-02,
          -7.30638253e-03, 3.02629336e-03, -4.70545469e-03,
          -1.13974378e-01, -4.92421016e-02, -5.38718142e-02,
          2.94898488e-02, 8.24795384e-03, -1.00812763e-01,
          -2.47623976e-02, 4.55169268e-02, 8.09043366e-03,
          -9.48719382e-02, -1.15645202e-02, 7.26392046e-02,
          1.12206666e-02, -4.05743942e-02, 4.91206460e-02,
          5.75952679e-02, 4.47902903e-02, -5.77479452e-02,
          -8.34798962e-02, -7.92706385e-03, -2.47616656e-02,
          -1.08626736e-02, -2.80047711e-02, -1.08820766e-01,
          -6.50018826e-02, -6.02037236e-02, -7.42014199e-02,
          -4.07807603e-02, 5.09489677e-04, -2.15725563e-02,
          1.54232997e-02, -3.35384421e-02, 3.11539527e-02,
          2.23001931e-03, 3.14834826e-02, 1.98877156e-02,
          -1.80431139e-02, 2.48456169e-02, -6.28491165e-03,
          -2.83495989e-03, 3.36060598e-02, 1.77085176e-02,
          4.39934880e-02, -3.55118141e-03, -3.09206545e-02,
          4.17533480e-02, 2.91594397e-02, -8.74521094e-04,
          5.77875134e-03, -4.37362455e-02, -9.17537808e-02,
          -2.94901393e-02, 3.18426313e-03, -3.35965343e-02,
          6.78897724e-02, -4.57182191e-02, -7.30855986e-02,
          2.58541736e-03, 1.96365006e-02, -3.54774930e-02,
          2.46397220e-02, 2.04555113e-02, -2.18668245e-02,
          3.80080566e-03, -5.86314406e-03, -4.41801697e-02,
          4.63554189e-02, -1.20435897e-02, 8.07506442e-02,
          3.18371840e-02, 4.80010966e-03, -1.33728664e-02,
          -5.29415123e-02, -2.37111598e-02, 1.10796019e-02,
          6.88164085e-02, -1.54002132e-02, 3.96139659e-02,
          6.59896731e-02, 6.80600926e-02, -5.28175421e-02,
          2.68847235e-02, -2.88934186e-02, -2.62802839e-02,
          9.00804717e-03, -1.00462630e-01, 4.36244309e-02,
          2.95272260e-03, 1.28797526e-02, -1.30069619e-02,
          -8.89127180e-02, -1.87438298e-02, 5.14767170e-02,
          7.16484487e-02, -2.59717349e-02, 4.99244854e-02,
          6.26259521e-02, -1.70427375e-02, -1.22142941e-01,
          -2.81223804e-02, 5.55487676e-03, 5.77033125e-03,
          2.03543939e-02, -1.08447418e-01, -2.40892116e-02,
          -2.63137044e-03, -3.44025297e-03, -4.90138941e-02,
          -1.23142442e-02, -3.35142538e-02, 2.75182314e-02,
          4.45008613e-02, 4.62828204e-02, -9.45870876e-02,
          -9.38352793e-02, -5.82208931e-02, -1.12591200e-01,
          2.20281500e-02, 2.45292597e-02, 2.98312097e-03, 7.24047944e-02,
          -3.72878909e-02, 1.75468680e-02, 5.70311770e-03,
          -1.20156137e-02, -6.26177266e-02, -9.94031504e-03,
          -8.37555621e-03, -2.80659110e-03, 2.88758557e-02,
          5.65045252e-02, -3.73483310e-03, -2.30838507e-02,
          2.26945877e-02, -5.99263459e-02, 3.91610228e-02,
          -4.85927574e-02, 2.19797175e-02, -3.51722166e-02,
          -1.42831430e-02, -2.31598131e-02, -6.18583784e-02,
          -9.36467871e-02, -3.70995328e-02, 1.10846683e-02,
          5.95881836e-03, 7.76385702e-03, -5.73044308e-02,
          -7.49313682e-02, -2.70770323e-02, -1.21457890e-01,
          -1.47286698e-01, -8.06168541e-02, -3.35453898e-02,
          -2.06323750e-02, 2.09588017e-02, -1.47734368e-02,
          6.77391440e-02, 3.72522101e-02, 1.72092263e-02, 9.34094656e-03,
          3.87811405e-03, -8.08019713e-02, -2.28102580e-02,
          2.18397425e-03, -6.48817196e-02, 3.11103761e-02,
          2.10789554e-02, 1.99713502e-02, -3.31302024e-02,
          -7.01935664e-02, 1.60075929e-02, 5.20764180e-02,
          3.96060348e-02, -6.41711131e-02, -4.41595763e-02,
          -3.76822650e-02, -5.82476854e-02, -3.62582970e-03,
          -4.04388234e-02, -7.45160505e-02, -2.71907225e-02,
          3.36745866e-02, -4.40066382e-02, 5.51527217e-02,
          -2.93326639e-02, -2.08509583e-02, -4.13934030e-02,
          -6.88080937e-02, -5.48389219e-02, 2.88347397e-02,
          9.28420573e-02, 2.31574271e-02, 4.29499075e-02, 2.97028981e-02,
          -7.73742609e-03, -2.40059067e-02, -8.69215280e-02,
          -8.74094218e-02, -1.03135323e-02, 2.39111912e-02,
          4.60231770e-03, 8.28934386e-02, 4.97543514e-02, 9.97161027e-03,
          1.04352618e-02, -7.56023601e-02, 2.40582749e-02,
          -4.87815998e-02, -2.31095846e-03, 2.21654363e-02,
          2.58275233e-02, -3.14405970e-02, -1.09211050e-01,
          3.05947941e-03, -7.21791387e-02, 1.45774752e-01,
          -5.04288673e-02, -8.97045210e-02, 3.75539996e-02,
          8.08724910e-02, 2.42720731e-02, -3.95886078e-02,
          2.09606416e-03, 3.81694287e-02, -1.08433180e-02,
          -3.90773937e-02, -1.57472433e-03, 1.57383438e-02,
          7.26585183e-03, -8.72378051e-03, -1.46214208e-02,
          3.75800952e-02, -1.06362537e-01, 3.89464572e-02,
          -2.40147337e-02, -3.61519866e-02, 9.27633345e-02,
          1.06004059e-01, 1.28515959e-02, 2.38227677e-02, 2.61930414e-02,
          -6.36452809e-02, 1.11717038e-01, -5.59471473e-02,
          -8.99727196e-02, -2.78031230e-02, 1.03191279e-01,
          7.20512867e-02, -5.35133816e-02, 6.23789951e-02,
          1.51675548e-02, -8.31415597e-03, -2.94984970e-02,
          -2.04984117e-02, 2.92568896e-02, 1.00061089e-01,
          5.67469709e-02, -1.82105843e-02, 5.05680367e-02,
          -2.60649417e-02, -4.92266715e-02, -5.68451956e-02,
          -1.24213457e-01, 2.89600138e-02, 9.65509117e-02,
          7.10322112e-02, -7.99736939e-03, 8.13045800e-02,
          -8.17366391e-02, -2.58905515e-02, 5.97074404e-02,
          3.44037102e-03, 3.99515405e-02, 1.14377052e-01, 3.74323651e-02,
          -2.48489045e-02, 5.53430133e-02, 4.94229905e-02,
          1.54402645e-04, -6.67460337e-02, -7.75660202e-02,
          -1.18544195e-02, 5.69324158e-02, 4.25414294e-02,
          2.78259274e-02, 9.71913338e-02, -5.95601760e-02,
          -4.00488004e-02, 2.03127917e-02, -6.71676248e-02,
          -6.75876290e-02, 1.32054761e-01, 2.59485561e-02,
          3.28911911e-03, 1.00824215e-01, -4.18216810e-02,
          1.38313100e-02, 2.71846950e-02, -5.04533900e-03,
          -1.57327112e-02, 1.26610026e-02, -1.25780692e-02,
          3.20054665e-02, 9.90645066e-02, 1.67938191e-02,
          -2.77968366e-02, 3.74112912e-02, -7.30246529e-02,
          -4.61397395e-02, 4.70409505e-02, -3.76043320e-02,
          -7.31079727e-02, 7.89590552e-02, 8.08267146e-02,
          -3.38487402e-02, 2.09708419e-02, -6.37229979e-02,
          -5.72710931e-02, 1.02735005e-01, -4.48454963e-03,
          -4.89861295e-02, 5.99860102e-02, 3.86145748e-02,
          -4.63297851e-02, 4.06757854e-02, -9.29116160e-02,
          4.18562293e-02, 3.28784324e-02, -4.72488999e-02,
          -8.17820709e-03, -2.04870151e-03, -2.65353313e-03,
          -5.00120111e-02, 3.07122450e-02, -1.17095433e-01,
          -9.83136222e-02, -3.51089351e-02, -6.77183345e-02,
          -1.15205601e-01, 3.08615640e-02, 6.45058900e-02,
          -4.43095118e-02, -1.01306625e-02, -1.05762906e-01,
          -6.14362247e-02, 2.40837988e-02, -7.24629387e-02,
          -2.50661355e-02, -3.16447690e-02, -1.94270872e-02,
          4.91728373e-02, 8.47676992e-02, -6.45820610e-03,
          -5.20867892e-02, -3.99308912e-02, -7.50831887e-02,
          2.74143391e-03, -1.39306963e-03, -5.17184623e-02,
          1.02800854e-01, -2.02236325e-02, -9.92322117e-02,
          -7.38033950e-02, 2.53950413e-02, 2.19195727e-02,
          1.41916070e-02, 5.08253425e-02, -4.17999960e-02,
          4.06564884e-02, -5.37683368e-02, -8.43076780e-02,
          -5.47963046e-02, -5.10724820e-02, -1.16236307e-01,
          -7.28039024e-03, -2.77161170e-02, 3.40079144e-02,
          8.85524079e-02, -2.90369540e-02, -3.36464085e-02,
          -2.90712547e-02, -1.45090371e-02, -3.46423462e-02,
          7.65038421e-03, 3.72189730e-02, -5.65520627e-03,
          5.75305335e-03, -7.00219646e-02, -5.40383533e-02,
          4.30931896e-03, 5.89587837e-02, 9.23421681e-02, 7.47595578e-02,
          2.40084883e-02, 4.72612737e-05, 9.08370316e-02, 2.09331717e-02,
          3.31956930e-02, 1.01305721e-02, -2.33854782e-02,
          -5.26605232e-04, 4.08201553e-02, 3.40239238e-03,
          -2.60882452e-02, -1.25852344e-03, -1.20477051e-01,
          -6.19593225e-02, -7.91257620e-03, -1.25746606e-02,
          4.71699499e-02, 7.31269419e-02, 6.05989099e-02, 1.21206492e-02,
          2.07001660e-02, -8.88085067e-02, -1.00228235e-01,
          7.40110350e-04, -2.39246730e-02, -3.42511050e-02,
          -1.60073563e-02, -3.63530032e-02, -2.39960924e-02,
          4.72859889e-02, -2.20951792e-02, -1.17911492e-02,
          -4.86826804e-03, -1.56560931e-02, 2.70760190e-02,
          5.77762239e-02, 1.65799782e-02, -2.29356792e-02,
          1.73112769e-02, -3.29426564e-02, -2.51631383e-02,
          -3.02573387e-02, 8.00867192e-03, 4.56164852e-02,
          1.43493004e-02, -1.49497027e-02, 1.35960644e-02,
          3.75360250e-03, -8.63686055e-02, -8.20896551e-02,
          1.12055801e-03, 1.93176663e-03, -9.14971903e-02,
          -4.48634215e-02, 2.20682360e-02, -2.79727671e-02,
          6.53009769e-03, -8.92944857e-02, -1.03576835e-02,
          8.94817431e-03, 2.51006559e-02, -3.50707918e-02,
          -5.32966629e-02, -2.13403981e-02, -1.23530673e-02,
          1.64768398e-02, -2.70530730e-02, 4.47536409e-02,
          -3.47439664e-06, -3.15197594e-02, 4.35724109e-02,
          3.89803238e-02, 2.03558151e-03, 2.32785828e-02,
          -1.33917090e-02, 9.90856253e-03, 4.67256419e-02,
          6.30590832e-04, -6.16257600e-02, 6.70046657e-02,
          1.23397065e-02, 4.84741293e-02, 5.38257211e-02,
          -3.89530808e-02, -1.10721961e-01, 2.93984115e-02,
          -5.29181994e-02, 8.69487296e-04, 3.34944576e-02,
          6.86361687e-03, -3.27110961e-02, -1.19118569e-02,
          -4.98557277e-02, -2.88185012e-02, 4.16888222e-02,
          -5.14848158e-02, 1.72570944e-02, 1.54987082e-01,
          3.21018249e-02, -5.62180653e-02, -3.42773087e-02,
          -3.49089131e-02, -4.99407724e-02, 6.08927943e-02,
          2.71716639e-02, -3.17000076e-02, 6.93692416e-02,
          5.06075099e-03, 1.52742909e-02, 6.97703287e-02, 3.13349161e-03,
          -3.43823023e-02, 3.18840146e-02, 5.09853847e-03,
          -7.43846074e-02, 2.93331854e-02, -3.18427198e-02,
          6.13164110e-03, 4.65462580e-02, -4.70242053e-02,
          -4.94776070e-02, 3.14704422e-03, -3.04259285e-02,
          -3.53773236e-02, 9.65749398e-02, -2.77758855e-02,
          -6.75756633e-02, -2.79707648e-02, -5.74604608e-02,
          -6.10864870e-02, 2.32649432e-03, -2.96205562e-02,
          -6.98464066e-02, -5.91696426e-02, -1.29306331e-01,
          -3.93051654e-02, -7.31979534e-02, -3.72646824e-02,
          -2.54022293e-02, 3.57119478e-02, -1.44146907e-03,
          -1.04228705e-01, 5.37863299e-02, -1.23035973e-02,
          2.26981211e-02, -2.77713928e-02, -5.15380837e-02,
          -4.20531817e-02, -1.04274061e-02, -3.47366696e-03,
          2.35794354e-02, 5.71522955e-03, -3.04711331e-02,
          -7.51822535e-03, -5.97481467e-02, -2.24758219e-02,
          -1.09928794e-01, 5.39219081e-02, 3.54991890e-02,
          -1.06958270e-01, 8.16740654e-03, -1.04570806e-01,
          3.78767611e-03, -5.13992049e-02, -7.08122104e-02,
          -1.09510198e-01, -2.79274620e-02, 2.64053605e-02,
          3.62501368e-02, 3.21737453e-02, -2.45911768e-03,
          5.07127773e-03, -2.32033199e-03, 1.93062630e-02,
          -2.29247827e-02, -1.24851884e-02, 2.25314908e-02,
          -8.32680985e-02, -3.65374796e-02, -6.01491667e-02,
          -1.07902964e-03, -4.78130113e-03, 5.98191060e-02,
          -4.20751944e-02, -5.80815002e-02, 4.81226342e-03,
          -4.87360321e-02, -6.14639372e-02, -5.26952334e-02,
          -8.41501448e-03, -3.56213972e-02, -1.53622907e-02,
          -6.66591525e-02, -5.86797064e-03, 8.25591534e-02,
          -2.17368323e-02, 4.99452129e-02, 2.60766968e-02,
          6.17047474e-02, 3.53040844e-02, 5.17942011e-02,
          -4.31032814e-02, 1.72776878e-02, 2.82322410e-02,
          1.24317659e-02, 2.57486757e-02, -3.18239108e-02,
          5.51728532e-03, 3.47375590e-03, 5.52095883e-02, 4.79798298e-03,
          1.78829767e-02, 1.56480800e-02, -9.01586488e-02,
          -1.83228161e-02, -6.63804775e-03, 2.49118134e-02,
          1.66933320e-03, -1.90063007e-02, 1.52412858e-02,
          4.30349372e-02, 4.07100841e-02, -3.51113677e-02,
          3.09154894e-02, -3.38902213e-02, -2.61589121e-02,
          -7.84598067e-02, 4.17286754e-02, 1.90373138e-02,
          4.49080542e-02, 7.53411725e-02, 9.95456334e-03, 1.21910404e-02,
          4.25476320e-02, 3.97477299e-02, 4.60357890e-02,
          -6.55258745e-02, -1.67026855e-02, -7.37155741e-03,
          8.23333338e-02, 5.40773161e-02, 3.56223471e-02,
          -4.01414149e-02, -3.73827410e-03, -6.33720607e-02,
          -5.45976944e-02, -2.48945355e-02, -1.11332715e-01,
          6.31212071e-02, 6.58260286e-02, -6.70470372e-02,
          -6.77676871e-02, -1.64287370e-02, -7.24536628e-02,
          -8.06917027e-02, -4.99547608e-02, -8.28553364e-02,
          4.60971668e-02, -2.87747625e-02, -9.31871161e-02,
          5.95005080e-02, 6.86642975e-02, -5.39253093e-02,
          -9.57354158e-02, -1.96089242e-02, -5.50228395e-02,
          7.61248767e-02, 1.04983665e-01, 2.27710903e-02, 8.42483994e-03,
          8.15049112e-02, -3.53943557e-02, -5.16096875e-03,
          1.10803889e-02, -2.23355014e-02, 5.70802428e-02,
          -1.46086339e-03, -7.34602734e-02, -2.20676381e-02,
          3.54180187e-02, 2.38905326e-02, -6.05769679e-02,
          -6.08410463e-02, -6.86455742e-02, 2.20177826e-02,
          -2.38196366e-02, -6.03941008e-02, 1.47158559e-02,
          4.16652262e-02, 2.35023052e-02, -8.11842084e-03,
          -3.73127833e-02, -7.47045726e-02, -8.10234323e-02,
          1.30496174e-02, -5.31976223e-02, -2.92181335e-02,
          1.08515313e-02, -1.72106810e-02, -2.85964850e-02,
          -7.42386654e-02, -6.44117892e-02, 2.04222091e-02,
          -2.04571579e-02, -2.92840786e-03, 1.25429660e-01,
          1.01396097e-02, -1.28776999e-02, -8.59815776e-02,
          -3.75300646e-02, -4.96810302e-03, -2.63311770e-02,
          -4.73764446e-03, 5.69460914e-02, 2.87981834e-02,
          -9.81558338e-02, -6.97316527e-02, -3.08196456e-03,
          1.28594730e-02, 3.23263519e-02, -4.62397225e-02,
          -7.33271912e-02, -3.01709380e-02, -3.22590619e-02,
          -9.88841895e-03, -3.76981236e-02, -1.15426499e-02,
          3.71185914e-02, 5.46411723e-02, -4.28558588e-02,
          -6.22365773e-02, -3.22902575e-02, -6.07882217e-02,
          -4.50671054e-02, -6.68193400e-03, -4.73720245e-02,
          4.17511947e-02, -3.87107208e-03, -1.42545151e-02,
          -9.98826250e-02, 4.93569151e-02, 2.39420775e-02,
          -5.39352074e-02, -6.96791783e-02, -1.69004835e-02,
          3.39570120e-02, 7.14902282e-02, -1.36116566e-02,
          -1.13899454e-01, -1.47618810e-02, 2.48306878e-02,
          1.10990275e-02, 5.53235551e-03, 6.81857988e-02, 2.18415465e-02,
          2.46739630e-02, 1.92582961e-02, -5.70708215e-02,
          -1.73391625e-02, -1.86703764e-02, 1.25190606e-02,
          -2.13091075e-02, 7.98746869e-02, 1.46038895e-02,
          -4.06999923e-02, 2.31676605e-02, -4.27427925e-02,
          -8.30269158e-02, -4.18808945e-02, -9.06594563e-03,
          1.77559548e-03, -1.64836049e-02, 8.00148025e-02,
          6.45520911e-02, 3.66764292e-02, -4.42524254e-02,
          -3.51741239e-02, 6.42464235e-02, 6.96760714e-02,
          -5.87829091e-02, 1.81612782e-02, 6.35078624e-02,
          3.97187620e-02, 2.24779025e-02, -6.79863915e-02,
          -7.14151785e-02, 6.39242157e-02, -8.21004249e-03,
          4.40942822e-03, 1.60882436e-02, -1.05326269e-02,
          -4.87425663e-02, 3.86194699e-03, 4.87827249e-02,
          1.36896744e-02, -6.51626140e-02, 5.52161075e-02,
          -4.12598401e-02, 6.56911507e-02, 5.89147955e-02,
          7.22514046e-03, 3.35464701e-02, 3.11791673e-02,
          -1.67956334e-02, -3.13584842e-02, 7.29188919e-02,
          2.79325228e-02, 4.98720296e-02, 2.25756634e-02, 7.70805925e-02,
          -1.71275977e-02, -2.39719246e-02, 4.70442958e-02,
          8.42119977e-02, 2.39550173e-02, 6.47262484e-02, 5.44270501e-02,
          1.69232711e-02, 8.08690041e-02, 7.03157857e-02,
          -3.70589159e-02, 2.74018981e-02, 2.79141665e-02,
          4.64164428e-02, 9.16640610e-02, -1.81965251e-03,
          -1.34846047e-02, -2.43433733e-02, -1.96863376e-02,
          -3.18493880e-02, -3.28411050e-02, -2.40578987e-02,
          6.42580390e-02, -3.91036570e-02, -3.62782963e-02,
          7.41543947e-04, -5.53543866e-02, -4.34963405e-03,
          -3.04959603e-02, -5.37047721e-02, -4.48095463e-02,
          6.92173988e-02, 1.60795543e-02, 2.96626128e-02, 4.10079770e-02,
          4.13930044e-02, 8.66260678e-02, -1.65607035e-02,
          2.70009250e-03, -5.86138144e-02, 7.86218978e-03,
          -4.44847718e-02, 4.88422774e-02, 7.05313161e-02,
          4.30958532e-02, 1.00650243e-01, 7.00306566e-03, 1.76813025e-02,
          1.13190021e-02, 2.97294185e-02, -1.66215617e-02,
          1.26793105e-02, 6.83412924e-02, -7.46632293e-02,
          -6.00408837e-02, -4.52640615e-02, -4.59007472e-02,
          -8.55100974e-02, -2.00245157e-02, 6.31232038e-02,
          -3.10113989e-02, -7.63314962e-02, -7.57077560e-02,
          -5.98425306e-02, 3.33123617e-02, -6.29982501e-02,
          -3.66901532e-02, -3.35426852e-02, 5.60470372e-02,
          3.51531953e-02, 9.60786715e-02, 8.61184578e-03, 6.13237545e-03,
          -5.30251823e-02, -4.97297710e-03, -1.49597917e-02,
          3.35812964e-03, -2.43631075e-03, 8.35776031e-02,
          5.72410598e-02, 1.19170072e-02, 3.29238325e-02,
          -6.78743124e-02, -9.59138200e-02, -1.22433104e-01,
          2.80969171e-03, 6.20898232e-02, 6.72370516e-06,
          -1.04862988e-01, -9.16398466e-02, -6.93842070e-04,
          2.72513237e-02, 2.76731793e-03, -1.14339748e-02,
          -1.54579440e-02, 7.59006888e-02, 1.09001882e-02,
          -2.11785417e-02, 4.55338396e-02, 4.60590832e-02,
          3.05048879e-02, -1.43318521e-02, -5.29569164e-02,
          -6.71057031e-02, 1.60793122e-02, 6.40825257e-02,
          1.06229139e-02, -9.86780878e-03, 7.49456584e-02,
          -5.50258383e-02, -1.44792467e-01, -8.23511183e-02,
          8.21044743e-02, 8.66158456e-02, -1.36575084e-02,
          -1.27884105e-01, -4.09818329e-02, 6.60515875e-02,
          1.44492164e-02, -2.10321210e-02, -2.97400802e-02,
          1.02405855e-02, 3.47642635e-04, -3.72607820e-03,
          -8.16806108e-02, 1.00150693e-03, 4.64641899e-02,
          9.74113718e-02, 4.56458405e-02, 1.61556266e-02,
          -1.04536163e-02, 8.44395980e-02, 5.31477965e-02,
          -7.11553842e-02, -5.79115003e-02, -1.47707220e-02,
          3.31437141e-02, 2.57577300e-02, 5.12280539e-02,
          -1.22166546e-02, 5.78530319e-02, -2.52640322e-02,
          -1.03405021e-01, 8.83470010e-03, 1.21959276e-01,
          9.03538018e-02, 7.05457330e-02, 9.85556748e-03,
          -1.98564120e-02, 1.00750569e-02, 8.28998908e-02,
          -3.66895609e-02, -4.05763015e-02, -9.06280987e-03,
          -5.65325990e-02, -4.70823236e-03, 3.92829031e-02,
          -2.79291533e-02, 4.56099771e-02, -3.05546895e-02,
          -6.82952851e-02, -2.51342524e-02, -3.24214138e-02,
          1.30043896e-02, -5.35231866e-02, -3.09327152e-02,
          5.18993735e-02, -4.87271696e-02, -7.47471675e-02,
          -4.04266194e-02, -2.92894095e-02, -5.85907847e-02,
          6.02899380e-02, -5.74762523e-02, -2.42959522e-02,
          6.24208860e-02, -3.91080044e-02, 3.31815123e-03,
          -7.93960318e-02, -3.85072567e-02, -1.79587845e-02,
          -7.10826041e-03, 9.08827782e-03, 1.68890897e-02,
          8.21698755e-02, 3.23315598e-02, -3.49972062e-02,
          2.58333273e-02, 5.83916381e-02, -4.22006883e-02,
          -7.76863284e-03, -6.53994409e-03, -1.21543054e-02,
          1.09729677e-01, 2.14686412e-02, -1.45124095e-02,
          -1.05804410e-02, 1.33618312e-02, -2.28112806e-02,
          6.34906888e-02, 3.33040208e-02, 7.03615174e-02, 3.46828587e-02,
          -1.47649851e-02, -6.60059452e-02, -4.84886877e-02,
          3.97205949e-02, 1.14973066e-02, 4.86870296e-02, 1.07771143e-01,
          7.24645853e-02, -1.74794439e-02, -5.67221120e-02,
          5.91672445e-03, 8.01089779e-02, 3.24978530e-02,
          -4.89221849e-02, 4.40762937e-03, 6.72622845e-02,
          3.03690154e-02, 3.80401686e-02, 1.08108126e-01,
          -3.35427672e-02, 1.08157406e-02, 1.16158120e-01,
          7.83677399e-02, 5.61518734e-03, 6.02270216e-02, 1.35203181e-02,
          -3.19733508e-02, 1.95378028e-02, -1.34137133e-02,
          4.97855432e-03, 2.74913684e-02, 4.37452942e-02,
          -5.15770074e-03, 4.12233472e-02, 1.79585870e-02,
          -9.44640953e-03, 1.06720785e-02, 1.31959831e-02,
          -5.34887440e-05, -9.89313237e-03, -8.21867306e-03,
          -1.28281310e-01, 3.36169153e-02, -5.05962707e-02,
          -7.91859627e-03, -1.30115589e-02, -5.80633571e-03,
          1.48200343e-04, 4.52614278e-02, 3.38126905e-02,
          -1.39454037e-01, -1.68637894e-02, 1.35156251e-02,
          2.44212952e-02, 6.39883727e-02, 1.37750953e-01, 6.78956062e-02,
          8.73154998e-02, -3.30324695e-02, -1.90394461e-01,
          4.33058757e-03, 4.30648768e-04, -1.79926562e-03,
          3.41573320e-02, -1.77611317e-02, -7.05801472e-02,
          -1.22469272e-02, 3.92048061e-03, -7.28564709e-02,
          2.89233532e-02, -6.67203590e-02, 2.56409496e-03,
          -2.67135222e-02, -3.21685262e-02, -6.33852109e-02,
          -8.43763445e-03, 2.28178944e-03, 3.01758926e-02,
          6.68875501e-02, 7.40649784e-03, 2.76935026e-02, 1.02909391e-04,
          4.91780378e-02, 1.54979620e-02, 1.07149981e-01,
          -5.13101593e-02, -1.00700006e-01, -9.73276154e-04,
          -4.88224328e-02, -6.17080554e-02, -1.97472237e-02,
          4.42810683e-03, 1.34922862e-02, 6.69644699e-02, 2.84329336e-02,
          6.79637939e-02, 1.30657300e-01, 3.41006629e-02, 1.72797160e-03,
          1.04125077e-02, -1.18962359e-02, -4.24842425e-02,
          -1.27349487e-02, 2.52214018e-02, -1.06400080e-01,
          5.07337078e-02, 5.11859218e-03, 5.17342836e-02, 5.56282215e-02,
          -2.27592350e-03, -6.33857697e-02, 2.47311611e-02,
          5.88664645e-03, -8.10787752e-02, -3.64808105e-02,
          -4.81787650e-03, 4.59432751e-02, 1.01076029e-01,
          1.69888008e-02, 3.38278189e-02, 5.22798896e-02, 4.72254865e-02,
          -2.96267141e-02, 2.79353373e-02, -3.36862542e-02,
          -7.76740164e-03, 4.30414863e-02, 7.31362682e-03,
          -3.27842943e-02, 1.81712676e-02, 6.25824928e-02,
          -2.11423412e-02, -3.67958471e-02, 1.05881202e-03,
          3.66316512e-02, 6.79979399e-02, 2.51906328e-02,
          -2.04157960e-02, 2.76007317e-02, 1.06152007e-02,
          -3.87691259e-02, -3.14571150e-02, 6.14205971e-02,
          4.22565229e-02, 9.03400704e-02, -8.22179765e-02,
          -2.20439564e-02, -1.57854632e-02, 2.50563547e-02,
          -5.13870455e-03, 3.27911526e-02, 1.47587969e-04,
          -1.64064411e-02, -5.71423471e-02, 4.61976789e-02,
          1.18772697e-03, 7.65205026e-02, -1.34195274e-04,
          -5.86693287e-02, -3.16609554e-02, 6.98351935e-02,
          7.34138163e-03, 5.04209176e-02, -7.40518719e-02,
          -1.83293351e-03, 8.48285630e-02, 3.07339262e-02,
          -3.38151269e-02, 7.76767284e-02, 5.41698933e-02,
          4.53562923e-02, -7.24631324e-02 ]
   decision_functions:
      -
         sv_count: 1
         rho: -2.7266240381537621e+00
         alpha: [ 1. ]
         index: [ 0 ]
