%YAML:1.0
my_svm: !!opencv-ml-svm
   svm_type: C_SVC
   kernel: { type:LINEAR }
   C: 1.0000000000000001e-01
   term_criteria: { epsilon:2.2204460492503131e-16, iterations:100 }
   var_all: 3780
   var_count: 3780
   class_count: 2
   class_labels: !!opencv-matrix
      rows: 1
      cols: 2
      dt: i
      data: [ -1, 1 ]
   sv_total: 1
   support_vectors:
      - [ -4.78259102e-02, 1.93590373e-02, 5.45508415e-03,
          -3.53126191e-02, -8.04243907e-02, -8.50709807e-03,
          2.31091212e-02, -5.23904264e-02, -7.65928105e-02,
          -1.50307901e-02, 2.08738167e-02, -4.56816480e-02,
          -1.06739476e-02, 9.74765886e-03, 8.90902653e-02,
          4.99605946e-02, 2.07623187e-02, -1.77864078e-02,
          -2.66785081e-02, 5.30749895e-02, 3.52021609e-03,
          3.52897868e-02, 1.41257020e-02, -6.39525205e-02,
          -5.41455038e-02, -3.26078013e-02, -8.66831914e-02,
          3.20183001e-02, -6.71473891e-02, -8.42052400e-02,
          -7.17505440e-03, 4.32251170e-02, 5.11727855e-03,
          -1.83446407e-02, 1.18734734e-02, 2.41021514e-02,
          -3.97161879e-02, -1.32600237e-02, -4.52955663e-02,
          6.64246157e-02, 5.22262417e-02, 6.64685890e-02, 7.40725780e-04,
          -1.50771933e-02, -6.81780055e-02, 1.63021926e-02,
          6.14344999e-02, -1.81752397e-03, 5.34401610e-02,
          1.79079268e-02, 5.80903282e-03, -8.81324289e-04,
          -4.91691753e-02, -9.21545327e-02, -2.51041539e-02,
          -7.77137056e-02, -6.06100857e-02, 4.83468287e-02,
          9.60791931e-02, 6.06471747e-02, -2.56229062e-02,
          8.72013159e-03, -8.45787823e-02, -1.60351489e-02,
          5.95253007e-03, -2.40465440e-03, 4.58934940e-02,
          4.68183048e-02, -3.92556004e-02, -4.97873276e-02,
          -6.36235625e-02, -1.03918090e-01, 3.30894105e-02,
          5.64643964e-02, 8.12345743e-03, 3.15770991e-02,
          -1.02551514e-02, -1.03418101e-02, 2.06031669e-02,
          1.96170434e-02, 5.45070181e-03, 6.90227002e-02, 4.10894528e-02,
          3.84796737e-03, 1.71270762e-02, -2.23389436e-02,
          3.61514166e-02, 6.70362487e-02, -7.79292430e-04,
          2.53461543e-02, 2.86543625e-03, 7.74877192e-03,
          -3.88353355e-02, 3.22652161e-02, 3.87778180e-03,
          -5.31375296e-02, -3.70454043e-02, -4.64314260e-02,
          -7.76761249e-02, 3.17418315e-02, -2.32966486e-02,
          -7.50394091e-02, 7.66329095e-02, 3.51671651e-02,
          1.06209656e-02, 3.49585171e-04, -5.16382381e-02,
          -1.11895232e-02, 3.68375108e-02, 1.60364620e-02,
          1.10070652e-03, 4.17106040e-02, -3.86123871e-03,
          2.23095380e-02, 3.49225067e-02, -4.21064533e-02,
          -4.07651961e-02, -6.56039119e-02, 2.19935887e-02,
          -9.71596595e-03, 5.60336970e-02, 9.46127251e-03,
          2.35303007e-02, 3.43214087e-02, -1.25288684e-02,
          -4.17434201e-02, -3.43280248e-02, -4.41209897e-02,
          -7.66612962e-02, 5.64225242e-02, -1.20177688e-02,
          9.00738686e-03, 1.71849541e-02, -1.71166733e-02,
          -2.25218814e-02, -7.55176097e-02, -5.89997172e-02,
          -6.69597164e-02, 2.63858866e-02, 4.20832522e-02,
          -1.62043143e-03, 6.45666197e-03, 6.08862983e-03,
          -6.23945659e-03, -5.01481369e-02, 4.36010174e-02,
          2.39372277e-03, 5.34920320e-02, 5.01570702e-02,
          -1.13711283e-02, -2.43909266e-02, 3.25545259e-02,
          -1.42118931e-02, 2.74025127e-02, 2.91816723e-02,
          -1.00144381e-02, 5.98968379e-02, 4.95321937e-02,
          -2.01034416e-02, -4.82785255e-02, 1.66151300e-02,
          8.87192786e-04, -1.47092631e-02, -2.69266916e-03,
          -4.18106392e-02, 4.21713591e-02, 6.75056875e-02,
          -2.90888269e-02, -5.53814657e-02, -5.97913517e-03,
          -1.09573351e-02, 4.90503237e-02, 9.43400338e-03,
          -3.40290181e-02, 5.01531549e-03, 2.54374035e-02,
          -1.33239096e-02, -5.11756130e-02, 6.25469685e-02,
          6.97582811e-02, 1.01855481e-02, 4.28845957e-02,
          -8.17427039e-03, 2.38562990e-02, -3.17800120e-02,
          -4.83586043e-02, -3.46157998e-02, -5.12010558e-03,
          -3.71190496e-02, -5.70208358e-04, 3.50316912e-02,
          -9.84321814e-03, -2.24492829e-02, 7.66737433e-03,
          -4.88268794e-04, 9.70368832e-03, -2.07608603e-02,
          -2.09934879e-02, 1.99702829e-02, 1.72439441e-02,
          5.72607759e-03, -2.70565152e-02, -1.43247256e-02,
          -1.05134752e-02, -3.62652428e-02, 2.41271332e-02,
          1.10526159e-02, 1.71377568e-03, 3.95861417e-02, 4.39702347e-02,
          -9.08507151e-04, 7.93498382e-03, -1.22431712e-02,
          -4.40425798e-02, -8.11005535e-04, -2.18766332e-02,
          -3.59640457e-02, 1.10306218e-02, 1.30578801e-02,
          -2.78439391e-02, 2.14941539e-02, 7.10695162e-02,
          5.77602424e-02, -1.46425711e-02, -4.80258316e-02,
          -8.01337659e-02, 2.25573126e-02, 4.92152683e-02,
          9.60033201e-03, -1.30304191e-02, 7.86458999e-02,
          6.95710778e-02, -7.45938334e-04, -9.80295837e-02,
          -2.08940972e-02, 3.31025980e-02, 3.33456658e-02,
          -1.11955265e-02, 1.07036233e-02, -1.43875359e-02,
          -2.04010550e-02, -1.12332180e-02, -3.96245532e-02,
          -2.85450481e-02, 3.10174953e-02, -6.02624519e-03,
          -2.09671371e-02, 1.46440174e-02, -3.08877230e-02,
          -2.51100259e-03, -1.51987029e-02, -3.91739570e-02,
          -1.02692761e-01, 1.66816525e-02, 3.14194709e-02,
          3.43921781e-02, -2.67261118e-02, 6.04121722e-02,
          4.91498746e-02, 2.02856753e-02, -6.62850067e-02,
          -3.40806693e-02, 2.06802152e-02, 3.60204000e-03,
          6.69680815e-03, -3.18595842e-02, 2.91171409e-02,
          6.49199728e-03, 7.51069188e-02, 2.54564993e-02,
          -1.50825735e-02, 8.93794466e-03, 1.34470174e-02,
          3.62479157e-04, 4.86586383e-03, 1.51298624e-02,
          -1.11840833e-02, -1.61034819e-02, -1.26412008e-02,
          -2.83734351e-02, -1.18987802e-02, -2.69285198e-02,
          1.54564707e-02, -9.09294188e-03, 4.66616601e-02,
          -3.76584232e-02, 2.98402347e-02, 8.42418242e-03,
          -4.78358008e-02, 3.65681201e-02, 1.42381787e-02,
          6.00600727e-02, -2.51700059e-02, 5.55005902e-03,
          -3.14567634e-03, 2.59711742e-02, 3.26358937e-02,
          -5.38032614e-02, 1.15004238e-02, 2.79452428e-02,
          4.12639230e-02, -3.08170281e-02, 3.08174011e-03,
          -2.23207218e-03, -2.09192354e-02, 7.85361137e-03,
          -4.62658443e-02, -1.60491487e-04, -4.58587147e-02,
          9.43440199e-03, 4.45758104e-02, 3.86532284e-02,
          -3.24561186e-02, 2.58370191e-02, -1.48222279e-02,
          -7.43670464e-02, -6.48154095e-02, -3.73608619e-02,
          -2.24071816e-02, 5.12833148e-03, 2.23319214e-02,
          4.88001667e-02, 1.65051948e-02, -4.39465530e-02,
          -1.93446111e-02, 3.87270860e-02, 6.92957267e-02,
          3.03575210e-02, 1.40827550e-02, -4.94287722e-03,
          -1.11068506e-02, -3.71289179e-02, 1.28302714e-02,
          -1.20449755e-02, -4.16826736e-03, 4.30121385e-02,
          1.29029434e-02, 4.50092517e-02, 1.49029726e-02, 1.15489718e-02,
          -7.59951212e-03, 6.93466980e-03, -5.73900938e-02,
          -2.19109072e-03, 2.60609128e-02, -2.30798852e-02,
          3.41623416e-03, 1.30913816e-02, -2.99624098e-03,
          -1.75090246e-02, -3.30509655e-02, -5.65955304e-02,
          1.43439360e-02, -1.14476364e-02, -5.20972582e-03,
          8.31425413e-02, 1.09308381e-02, -4.16947380e-02,
          -3.97055633e-02, -4.90955077e-02, -1.04935803e-02,
          -8.44616350e-03, 4.66323197e-02, -6.99033309e-03,
          5.65501638e-02, 7.98886642e-03, 1.49436668e-03,
          -8.71170778e-03, -5.61932893e-03, 6.71698712e-03,
          1.01641985e-03, 4.77556996e-02, 5.17648533e-02, 2.36591976e-02,
          4.60825153e-02, 3.25071961e-02, -4.94194515e-02,
          -4.68197977e-03, -4.76111397e-02, -6.02515303e-02,
          -8.63044430e-03, -5.64457849e-02, 3.61404307e-02,
          -2.72428524e-02, -1.60099082e-02, -1.07266949e-02,
          -1.59672219e-02, 1.32968482e-02, -3.53336595e-02,
          1.68382693e-02, -2.86647212e-02, 4.61429683e-03,
          1.75724123e-02, -4.78596836e-02, -1.59502607e-02,
          4.68714423e-02, -1.15528256e-02, 1.23587088e-03,
          1.57160945e-02, 4.60448079e-02, -3.07419039e-02,
          4.24236916e-02, 3.88076119e-02, -4.36994992e-03,
          2.05074493e-02, -2.56807264e-02, -4.62610228e-03,
          2.39607953e-02, -7.48363435e-02, -4.52204235e-02,
          3.18459123e-02, 1.79934260e-02, -3.85908261e-02,
          -7.80552346e-03, 3.12714167e-02, 9.48959030e-03,
          3.48876864e-02, -1.49077447e-02, -4.22419012e-02,
          5.84250502e-02, -4.67077345e-02, 4.44063451e-03,
          6.99926242e-02, 8.94752983e-03, -2.31280718e-02,
          2.65532415e-02, -4.03380953e-02, -3.92794646e-02,
          4.82813716e-02, -2.65172683e-02, -2.35880353e-02,
          1.48559632e-02, 4.01327293e-03, -9.91847366e-04,
          5.56088500e-02, -8.26262236e-02, -2.99668871e-02,
          8.25474262e-02, 5.92051074e-02, -3.22324745e-02,
          -5.30488649e-03, 1.97688071e-03, 2.07753535e-02,
          2.25911196e-02, -6.00751378e-02, -5.39773405e-02,
          8.70760083e-02, 3.47025990e-02, -5.03980331e-02,
          2.42713327e-03, 1.83420070e-02, 3.83381965e-03, 6.14401139e-02,
          -1.03148669e-02, -9.32643074e-04, 1.82276051e-02,
          2.14188583e-02, -3.24761420e-02, -1.86109927e-03,
          3.56541462e-02, 3.38700823e-02, 3.52871977e-02,
          -5.33819683e-02, -7.33586214e-03, -9.09924414e-03,
          -2.92348880e-02, -6.42915294e-02, -1.18634067e-02,
          8.73822439e-03, 4.25383216e-03, 1.17144864e-02,
          -5.25505133e-02, -1.24242932e-01, 7.57805631e-02,
          2.22382359e-02, 4.97587211e-03, 2.81812511e-02, 1.23360725e-02,
          -4.06046063e-02, 1.38563560e-02, 5.14534563e-02,
          -4.30017263e-02, 6.07729331e-02, -1.51379127e-02,
          -3.11579742e-03, 5.36654741e-02, 4.20335010e-02,
          1.83135085e-02, -2.11535227e-02, -7.82665238e-02,
          -6.72557503e-02, 8.11674912e-03, 2.10154336e-02,
          1.08245742e-02, 5.77905737e-02, 3.17566656e-02,
          -5.32213338e-02, -3.48949842e-02, -1.60895884e-02,
          -5.34052849e-02, 2.27385778e-02, -1.04095731e-02,
          4.11438420e-02, 6.26335666e-02, -8.55380669e-04,
          -1.78768151e-02, 5.49315885e-02, 6.81942701e-02,
          -6.04676157e-02, 1.18767023e-02, -1.55494898e-03,
          6.91117765e-03, 2.35190354e-02, -4.22444604e-02,
          -1.66052505e-02, 8.64595622e-02, 9.01043564e-02,
          -6.38468117e-02, -5.25336228e-02, -1.65887196e-02,
          -9.54608619e-03, -2.36069784e-02, 6.62862137e-03,
          -7.02151284e-02, 1.08791552e-02, -1.56075805e-02,
          -8.84227529e-02, -1.25455409e-02, -7.84467533e-03,
          4.59253825e-02, 5.88441789e-02, -2.56806426e-02,
          -1.23865055e-02, 1.31533416e-02, -4.35957573e-02,
          -7.69361630e-02, 1.74423195e-02, 5.80183081e-02,
          2.41920706e-02, 1.18113719e-02, -2.12779250e-02,
          6.82374015e-02, 4.20398377e-02, 6.92621246e-02, 2.43314635e-02,
          -9.16979276e-03, -5.58879636e-02, -2.31397301e-02,
          -7.88062885e-02, 2.40816996e-02, -4.42909859e-02,
          -5.31643964e-02, -1.52167594e-02, 3.97787336e-03,
          -5.66101968e-02, -6.33528978e-02, 1.46003310e-02,
          4.91516963e-02, -4.98403274e-02, -2.54681241e-02,
          4.25272919e-02, 3.93208079e-02, 2.75972858e-02, 2.42364164e-02,
          7.99396913e-03, 1.87973045e-02, -8.36870670e-02,
          -2.22597159e-02, -9.24786553e-02, -6.16062284e-02,
          -2.67673470e-02, 3.16988630e-03, -3.40907276e-02,
          4.69212309e-02, 3.45290303e-02, 2.02899817e-02, 4.76783980e-03,
          -1.40339369e-02, 4.35342593e-03, 5.56545295e-02,
          7.21945539e-02, 2.49749552e-02, -1.83355622e-02,
          5.09947538e-02, 2.42463164e-02, -1.16163203e-02,
          -1.17153563e-02, -4.24805321e-02, 3.91281173e-02,
          7.11861299e-04, -4.89518680e-02, -2.61137057e-02,
          3.25683765e-02, -4.98637520e-02, -7.89267384e-03,
          -1.28424317e-02, -3.18874791e-02, 5.05693294e-02,
          1.27998255e-02, -2.52760183e-02, -1.86840054e-02,
          7.27894483e-04, 1.90934315e-02, -3.35357338e-02,
          -5.92856780e-02, -4.20515388e-02, 6.31610304e-02,
          4.21873294e-02, -3.97587903e-02, -6.38881028e-02,
          -3.68693545e-02, -3.69426273e-02, 3.56563777e-02,
          -2.65684891e-02, -6.12310357e-02, 5.46929538e-02,
          4.30902187e-03, -2.37117391e-02, 2.51954496e-02,
          4.21956889e-02, -4.95015234e-02, 4.88294065e-02,
          -1.67126860e-02, -4.07066755e-02, 5.52836508e-02,
          4.17381935e-02, -1.58965997e-02, 3.96726392e-02,
          2.34903060e-02, -1.87144354e-02, -3.60874906e-02,
          -5.31659834e-02, -8.79014879e-02, 1.97490714e-02,
          1.05682816e-02, 3.00871655e-02, 5.81809692e-03, 1.71224885e-02,
          -1.78936198e-02, -1.63713265e-02, -2.36357190e-02,
          -7.35475346e-02, -2.65650311e-03, 2.60435175e-02,
          1.28903938e-02, 9.15057212e-03, 1.30017949e-02,
          -1.55615835e-02, 3.64632122e-02, -1.99264269e-02,
          -4.17878293e-02, -4.94552357e-03, -3.70493121e-02,
          -2.10878924e-02, 2.42550187e-02, 3.78636234e-02,
          1.81032307e-02, 2.35076901e-02, -2.28725709e-02,
          -7.77903870e-02, 3.70636433e-02, 4.45310138e-02,
          7.64722144e-03, 4.39635254e-02, 4.05247100e-02, 2.14775652e-02,
          -4.75342870e-02, -4.08205483e-03, -6.30915239e-02,
          -7.92483427e-03, -3.66042042e-03, -4.92250687e-03,
          -3.88432555e-02, -3.55584151e-03, 1.96114779e-02,
          -1.69411190e-02, -5.18513434e-02, -5.59196658e-02,
          2.52671074e-02, 8.67776349e-02, 4.24508005e-02,
          -3.98694351e-02, -2.38901488e-02, 1.24934195e-02,
          2.61802487e-02, -1.43552953e-02, -7.31814802e-02,
          7.01076165e-02, 3.76082771e-02, -1.71532966e-02,
          -6.87420517e-02, -4.39790171e-03, 4.98899305e-03,
          6.91895783e-02, -5.55887353e-03, -4.19116765e-02,
          6.91168010e-03, 3.61958034e-02, 9.34985373e-03,
          -3.04077081e-02, 3.67849767e-02, 4.57381718e-02,
          1.30567858e-02, -8.39098766e-02, -7.18994215e-02,
          6.88816607e-02, 5.37654124e-02, 5.74632874e-03,
          -6.46028072e-02, -4.74543124e-02, 2.10829359e-02,
          2.72152200e-02, -2.85219271e-02, -7.75985345e-02,
          6.59421412e-03, 1.25606814e-02, -7.00248452e-03,
          -1.01475924e-01, -3.90406325e-02, 6.22495189e-02,
          1.22843413e-02, 1.82612203e-02, -1.06808953e-02,
          -2.93691028e-02, -4.75032954e-03, 8.53001606e-03,
          -7.08895326e-02, 1.59014650e-02, 2.47038547e-02,
          3.38470638e-02, 1.97373014e-02, 2.36550160e-02, 2.48474372e-03,
          1.77515503e-02, 1.69644039e-02, -8.62938762e-02,
          -3.50248371e-03, 6.95354864e-02, -1.51293827e-02,
          -1.99830774e-02, -7.81693310e-02, -5.69709018e-02,
          -1.58287995e-02, 2.15395540e-03, -1.06227778e-01,
          -6.72591925e-02, 6.53799623e-03, 1.65311657e-02,
          2.20044740e-02, -2.65871547e-02, 1.60689410e-02,
          4.22736630e-02, -1.48850465e-02, -1.38409272e-01,
          -3.66581902e-02, 7.99799897e-03, -4.36567236e-03,
          2.33176425e-02, 2.74006575e-02, 2.77450290e-02, 2.18581352e-02,
          -1.86546147e-02, -1.12366430e-01, -8.36010370e-03,
          9.43305320e-04, -2.97990115e-03, -4.78039728e-03,
          6.68439083e-03, -4.24853788e-04, 2.53661927e-02,
          5.57876192e-03, -7.23665133e-02, 7.87033327e-03,
          3.70540172e-02, 2.00779308e-02, 1.47128263e-02,
          -9.41123348e-03, 2.53388826e-02, 1.52630527e-02,
          1.66584644e-02, -1.04369111e-01, -3.18666138e-02,
          1.65025890e-02, -6.19112924e-02, -1.86499916e-02,
          3.13000940e-02, 4.77038026e-02, 8.94888863e-02, 5.24001233e-02,
          -2.30731983e-02, -3.03257909e-02, -2.04692706e-02,
          4.06759121e-02, 2.55565420e-02, -2.40064575e-03,
          1.35129243e-02, 3.01188435e-02, 2.33411547e-02,
          -7.17829913e-02, -3.82826217e-02, 7.57748708e-02,
          1.33096371e-02, 4.63541932e-02, -4.25935686e-02,
          -6.19514333e-03, 1.51995178e-02, 2.06559971e-02,
          -3.33147235e-02, 4.10709158e-02, 6.01921752e-02,
          -3.32395919e-02, 3.16444337e-02, 3.02500781e-02,
          3.08275707e-02, 6.18830211e-02, 1.33099603e-02,
          -2.33414005e-02, -3.63516100e-02, 1.82587206e-02,
          -2.34052781e-02, -3.02198380e-02, -6.20133467e-02,
          2.07863143e-03, 7.19035566e-02, -5.21015897e-02,
          -6.40284568e-02, -1.26343574e-02, 4.45909724e-02,
          -4.24385779e-02, 3.57256867e-02, -2.64160000e-02,
          -4.69917320e-02, 4.66596633e-02, 2.06897967e-02,
          -2.78659910e-02, 3.20999287e-02, 3.86465788e-02,
          -3.73790376e-02, -2.44171433e-02, -3.69668454e-02,
          -3.79786268e-02, 3.67647819e-02, 2.63429452e-02,
          2.53683850e-02, 3.20888944e-02, -2.23978832e-02,
          -1.38887800e-02, -5.27749723e-03, -8.12941231e-03,
          -1.16240950e-02, 5.78279886e-03, -5.14081120e-02,
          -9.01286677e-02, 1.87662952e-02, 2.04931833e-02,
          7.64496857e-03, -3.95953795e-03, 2.52452921e-02,
          -1.68168265e-02, 3.81691195e-02, 1.04226719e-03,
          -4.64882664e-02, 4.44915555e-02, 1.80769973e-02,
          -2.50043236e-02, 4.37184796e-03, 1.05475513e-02,
          -1.12108737e-02, 3.92708927e-03, 4.06746520e-03,
          -2.74691097e-02, 2.60237698e-02, -5.00237793e-02,
          -5.52330017e-02, 2.03019995e-02, -2.54375185e-03,
          -1.10714799e-02, 5.66303059e-02, -1.01121794e-02,
          -4.18028608e-02, -4.80780407e-04, -7.67948925e-02,
          4.69329990e-02, 4.28817645e-02, 4.27805893e-02, 2.18431931e-02,
          4.73406278e-02, 2.86853444e-02, -5.67389727e-02,
          1.16586387e-02, 3.58024538e-02, 4.62941565e-02, 3.90691310e-02,
          1.90682672e-02, 1.92714278e-02, 4.25960161e-02,
          -6.23443257e-03, -6.10486493e-02, 2.41552964e-02,
          -1.67992841e-02, -2.75553204e-02, 3.53606441e-03,
          4.28933464e-03, -4.39820290e-02, 1.78442951e-02,
          -6.71571493e-03, 3.44575586e-04, 3.60356905e-02,
          2.88690138e-03, -8.41281656e-03, 8.76213051e-03,
          4.63324077e-02, 4.08034585e-03, 6.72257692e-03, 2.30971593e-02,
          -3.13660987e-02, 5.56992143e-02, 2.83231996e-02,
          2.05051377e-02, 4.39636670e-02, -2.96207867e-03,
          -5.68809547e-03, -1.01339323e-02, -3.25433053e-02,
          -2.69449037e-03, 5.00778183e-02, 3.11449897e-02,
          1.89564545e-02, 5.83600737e-02, 6.89282864e-02, 9.31697488e-02,
          3.50520127e-02, -2.68849693e-02, 2.01801653e-03,
          2.38881893e-02, 7.13348091e-02, -1.54778338e-03,
          2.65565999e-02, 3.55586931e-02, -6.72588591e-03,
          -4.62238817e-03, 1.54233612e-02, -6.74019679e-02,
          4.16669212e-02, 4.71444242e-02, -3.69220786e-02,
          -5.24331583e-03, 3.62178497e-02, -8.77271593e-03,
          -4.31256276e-03, 6.01243861e-02, -4.62071411e-03,
          4.31927294e-02, 1.43328998e-02, -1.41188307e-02,
          9.72467661e-03, 2.99463980e-02, 9.57011897e-03, 1.94726009e-02,
          -3.61892134e-02, -5.92862032e-02, 1.39074363e-02,
          3.66539881e-02, -4.70173135e-02, -7.02141523e-02,
          -3.72435302e-02, -5.00089861e-02, -4.00730316e-03,
          3.44776474e-02, -4.57256474e-02, -1.29410997e-02,
          -3.65654789e-02, -3.31289098e-02, 2.72797514e-02,
          6.58495352e-02, -3.33103864e-03, 5.32300398e-03,
          2.15544943e-02, 3.31872851e-02, 1.52314575e-02,
          -3.45910043e-02, -2.33367807e-03, 3.91176939e-02,
          6.14341423e-02, 1.77841838e-02, -7.78315216e-03,
          -5.90325408e-02, 3.10273678e-03, -3.78389023e-02,
          -3.69160138e-02, -3.24208289e-02, -2.88600381e-02,
          4.25057001e-02, 6.83618826e-04, -5.15357368e-02,
          -3.50344926e-03, -2.44898964e-02, -5.10548335e-03,
          -5.44139184e-02, 1.33835515e-02, -1.24800410e-02,
          2.59543285e-02, 1.87587216e-02, 2.15282682e-02,
          -4.05177474e-02, -1.06398789e-02, -2.01270506e-02,
          -3.00926361e-02, 2.96125226e-02, 6.20998908e-03,
          -1.19140390e-02, -5.94869182e-02, -4.86584119e-02,
          -4.10623364e-02, 6.45653950e-03, -1.24681545e-02,
          1.05237141e-02, 2.51104273e-02, -1.34955579e-02,
          1.89882342e-03, -1.45677582e-03, -1.33352075e-02,
          3.46475318e-02, 2.25668438e-02, 1.86654758e-02, 1.62650216e-02,
          4.12693731e-02, -1.44372554e-02, -3.10407300e-02,
          -9.59993601e-02, 1.30207473e-02, -2.06441060e-03,
          -1.77139528e-02, -3.18238465e-03, 1.32419299e-02,
          -3.71267949e-03, -1.81392638e-03, 3.52241099e-02,
          2.90911570e-02, 2.75671296e-02, 6.61568642e-02, 6.33616652e-03,
          -1.10752312e-02, -4.28416990e-02, -2.66413093e-02,
          -7.44998455e-02, 1.77904926e-02, 3.12082209e-02,
          -4.08647098e-02, -2.60175299e-03, 1.06966645e-02,
          2.05236543e-02, 3.16708125e-02, -5.69952056e-02,
          -2.83625554e-02, -7.32259452e-03, -7.20543927e-03,
          -6.11898527e-02, 1.43945888e-02, -1.66716636e-03,
          -9.61098820e-03, -6.42288505e-05, -1.61061436e-02,
          -1.42895300e-02, 4.37402762e-02, 7.42025971e-02,
          -3.89892720e-02, 1.58810988e-02, -2.67607681e-02,
          -7.80977961e-03, 2.48159631e-03, -3.21984999e-02,
          -1.51150357e-02, -2.16492508e-02, 3.00972313e-02,
          -5.21372072e-02, -1.56995859e-02, -7.01320916e-02,
          -2.16813646e-02, -2.35789549e-02, -4.02164906e-02,
          -1.53852711e-02, 1.39182108e-02, -1.91396940e-03,
          -7.69889206e-02, 1.24450549e-02, 6.27449453e-02,
          3.16731595e-02, -4.24754955e-02, 4.28510755e-02,
          1.23500880e-02, -2.84890067e-02, -7.94452522e-03,
          -7.24204108e-02, 3.49919125e-02, 8.35530460e-02,
          1.26393335e-02, 6.73143147e-03, 5.52353077e-03,
          -5.63965738e-03, 4.37768474e-02, -1.68943349e-02,
          -7.28404224e-02, 1.89328548e-02, 3.08302250e-02,
          4.80726361e-02, -1.92377307e-02, 1.44969746e-02,
          -6.18881509e-02, -1.28983678e-02, -2.88158227e-02,
          -6.73235431e-02, 4.20270450e-02, 7.31773600e-02,
          8.78606457e-03, 1.70435626e-02, 8.00503939e-02, 7.72380736e-03,
          -2.33115591e-02, -1.61443707e-02, -7.20160455e-02,
          -1.97958350e-02, 1.13531053e-02, -1.01760766e-02,
          2.32805870e-03, -1.23798437e-02, -3.40229943e-02,
          -6.26449008e-03, 2.59772688e-02, -3.71745117e-02,
          -4.84036058e-02, -6.98655844e-02, -2.58969003e-03,
          -3.23623866e-02, 7.78388046e-03, -1.53254764e-02,
          -1.92903224e-02, -8.53115041e-03, -5.47859818e-02,
          8.64935946e-03, 6.48824647e-02, 1.33482218e-02, 9.78019275e-03,
          4.50911000e-02, 5.78639284e-03, -2.99828988e-03,
          -4.81013693e-02, -6.99336380e-02, -2.07485780e-02,
          1.93505362e-02, 4.16485779e-02, -2.05456726e-02,
          -2.24005561e-02, 8.84550915e-04, -8.57917685e-03,
          -1.09557956e-02, -1.20025882e-02, -2.01448537e-02,
          -1.72484443e-02, 5.75588504e-03, -3.56329307e-02,
          -3.15889791e-02, -2.57949028e-02, -2.79367883e-02,
          3.12893717e-05, 5.46619901e-03, 1.09993182e-02,
          -3.02584060e-02, 3.15755466e-03, -3.09507269e-02,
          1.81673430e-02, 4.09972258e-02, 2.47847568e-02,
          -4.39062677e-02, -5.28507717e-02, -3.44373025e-02,
          1.82294808e-02, 2.32435931e-02, -2.69498937e-02,
          -9.64068621e-03, 1.28397644e-02, -2.03749761e-02,
          -2.77972221e-02, -2.47384049e-02, -1.42550506e-02,
          -9.28000733e-03, -2.26476490e-02, 1.23954203e-04,
          -5.54188080e-02, -3.78126800e-02, -4.73885760e-02,
          1.01579167e-02, 2.58707888e-02, 3.65208164e-02,
          -3.84068601e-02, 5.42755891e-03, -1.74456090e-02,
          -9.87470336e-03, -2.48090103e-02, -4.95813973e-03,
          3.89150716e-02, 4.67280112e-02, 6.97005689e-02,
          -3.26174162e-02, -3.31247225e-02, 6.08143024e-03,
          -5.47856949e-02, -2.05205157e-02, -3.00951507e-02,
          -4.42581512e-02, -3.82590927e-02, 3.26590165e-02,
          -2.69709304e-02, -4.02867347e-02, -2.32277587e-02,
          -1.68962460e-02, 6.30779099e-03, 4.72985730e-02,
          2.32329648e-02, -8.19306448e-03, 3.09696011e-02,
          -8.64118710e-03, -1.76483374e-02, -3.46671864e-02,
          5.26988460e-03, -5.57094961e-02, -3.73433977e-02,
          -1.02810527e-03, 7.97323510e-03, 5.13915010e-02,
          -2.52111834e-02, -7.47522106e-03, 1.30470851e-02,
          4.81246151e-02, -6.74213748e-03, -2.52977815e-02,
          -3.24540436e-02, 1.85672343e-02, 1.53095350e-02,
          -4.00739871e-02, -2.81747687e-03, 6.22859336e-02,
          -4.18074355e-02, 1.12425303e-02, 2.61705201e-02,
          -9.77400783e-03, 2.89930142e-02, 1.05677713e-02,
          -1.48825077e-02, -5.68832224e-03, -5.62327355e-02,
          4.86700144e-03, 1.81729179e-02, 2.86909398e-02,
          -2.64075417e-02, 1.09838247e-02, 7.79669126e-03,
          -9.77545418e-03, -2.27961838e-02, -3.10721342e-02,
          -1.63853262e-02, 2.84284097e-03, -1.94096621e-02,
          -2.55934093e-02, 1.21115092e-02, -5.09544881e-03,
          -9.12426040e-02, -1.55244744e-03, 3.06049790e-02,
          -5.15003782e-03, 2.06823871e-02, 2.04275222e-03,
          5.01748435e-02, 3.57574746e-02, -7.50775915e-03,
          -7.93797746e-02, 8.70308839e-03, -2.20635310e-02,
          -4.55168933e-02, 5.02623944e-03, 2.81573273e-03,
          2.72110775e-02, 5.10185510e-02, 1.20086614e-02,
          -1.52155524e-02, -9.00306273e-04, -5.54782189e-02,
          -2.51317807e-02, 1.52989291e-02, 3.23471837e-02,
          1.04317693e-02, 4.38461564e-02, 7.49914944e-02,
          -1.90371610e-02, 7.58566931e-02, -5.85325947e-03,
          -3.40292156e-02, 7.52933137e-03, -1.01898536e-02,
          1.55139053e-02, -9.72216018e-03, -9.85516887e-03,
          -8.50533471e-02, 6.54617092e-03, 5.80708031e-03,
          -1.94424056e-02, 4.88231368e-02, 3.29285674e-02,
          1.55480737e-02, 3.06231175e-02, 4.58315648e-02, 9.38372221e-03,
          2.92349677e-03, -1.06792571e-02, -8.47310647e-02,
          3.64919156e-02, 3.55676487e-02, -5.70595115e-02,
          -3.26491101e-03, 2.32177470e-02, -3.62706301e-03,
          4.22960729e-04, -8.68902504e-02, -6.00877590e-02,
          2.24839728e-02, 3.61609180e-03, -4.29765023e-02,
          3.43567990e-02, 4.24253121e-02, 5.92144672e-03, 2.97838822e-02,
          -3.98656465e-02, -1.31910117e-02, 6.71297684e-02,
          4.73373644e-02, -1.70421333e-03, 1.37957875e-02,
          2.34468486e-02, 1.55578544e-02, 8.77444819e-03, 1.66599220e-03,
          -1.41913723e-02, 1.39845358e-02, -3.90632107e-04,
          -1.93105470e-02, 1.24413881e-03, -3.51899117e-02,
          -3.86695080e-02, -2.21100589e-03, 1.00979698e-03,
          -1.04221813e-02, 1.04070902e-02, 2.86041442e-02,
          -6.23537637e-02, -2.14904044e-02, 4.82029915e-02,
          6.86904341e-02, 3.52464132e-02, -6.36553690e-02,
          -5.58350570e-02, -1.45827783e-02, -1.64691284e-02,
          -4.19553220e-02, 1.79722048e-02, 1.33380275e-02,
          1.77921122e-03, 3.40098180e-02, -4.59988788e-02,
          -5.67151234e-02, -8.53876118e-03, -1.11632692e-02,
          -3.17894407e-02, -1.58620533e-02, -2.61444692e-02,
          -4.55534048e-02, 1.30635211e-02, 7.26552075e-03,
          -1.37715526e-02, 5.80399930e-02, 1.11259092e-02,
          -1.70269050e-02, 1.19249886e-02, 9.17029474e-03,
          -1.80337448e-02, 2.85195876e-02, 3.91220637e-02,
          -3.35682742e-02, -5.92311798e-03, -3.50329354e-02,
          -2.15761513e-02, 2.40175799e-02, 4.72146198e-02,
          1.54702701e-02, 5.38739003e-02, -3.57559882e-02,
          2.13316828e-03, 4.38175835e-02, 9.71531309e-03, 4.10659099e-03,
          5.59317879e-02, 4.63111252e-02, 3.30498517e-02, 3.55417170e-02,
          3.72157842e-02, 1.12240594e-02, 4.29309048e-02,
          -5.91724040e-03, -2.44551860e-02, 2.13791039e-02,
          8.43691826e-03, -4.98199984e-02, 9.62341204e-03,
          3.37091610e-02, 3.51390941e-03, 1.33177685e-03,
          -1.81873273e-02, -1.39605049e-02, 2.19562687e-02,
          -2.01783516e-03, -1.35248665e-05, 4.95704897e-02,
          1.27840484e-03, -2.78178230e-02, -2.73114303e-03,
          -1.11191217e-02, -4.96156514e-02, 3.21044326e-02,
          1.87500902e-02, -2.91563012e-02, 8.50522704e-03,
          -3.81588098e-03, -2.66209599e-02, -3.08485609e-02,
          -1.27964402e-02, -1.17227016e-02, 4.11381125e-02,
          -4.47494611e-02, 1.01322047e-02, 7.72123858e-02,
          -1.41001784e-03, -3.34108085e-03, 2.53739059e-02,
          -5.28890826e-03, -4.18954007e-02, -9.78226494e-03,
          -1.98278055e-02, 1.97804589e-02, 5.73017746e-02,
          7.31215775e-02, 1.15098990e-02, 4.02812660e-02, 4.20670547e-02,
          4.19194959e-02, -3.16796079e-02, -1.90321319e-02,
          9.02074855e-03, 3.49911116e-02, 5.90587929e-02, 1.33187305e-02,
          3.22672389e-02, 2.92831231e-02, -2.74260583e-05,
          -1.00206370e-02, -8.51400793e-02, 3.03480495e-02,
          8.04162100e-02, 3.21280956e-02, -2.69724242e-03,
          4.51334156e-02, 1.70029011e-02, 9.27581731e-03,
          -5.81937796e-03, 8.96515884e-03, 1.21028181e-02,
          2.09940840e-02, 2.36157663e-02, 4.92231036e-03,
          -2.70506972e-03, 1.26755945e-02, 2.64863987e-02,
          2.85346247e-02, -9.57425858e-04, -3.95016894e-02,
          1.48754390e-02, 2.26233546e-02, 1.44388005e-02,
          -3.39633562e-02, -4.80215997e-02, -1.81587953e-02,
          3.50856073e-02, 6.12480901e-02, -2.88058482e-02,
          -2.74840742e-02, 9.56605002e-03, 2.18775533e-02,
          1.80412438e-02, -1.33770993e-02, -2.93733533e-02,
          4.55867918e-03, 4.41006087e-02, -3.97792682e-02,
          7.18111405e-03, -1.41940238e-02, -7.44562456e-03,
          -3.69262161e-05, -3.26143168e-02, -7.21971411e-03,
          -1.50754359e-02, 2.77893580e-02, -1.62920859e-02,
          6.66623004e-03, -2.99830455e-02, 1.19884433e-02,
          -1.34243090e-02, 1.98844522e-02, 1.64987743e-02,
          -7.52810761e-02, -4.26590443e-03, -3.45491804e-02,
          -5.67783322e-03, 2.14070659e-02, 1.66285466e-02,
          1.94586441e-03, 1.14915445e-02, 3.59195955e-02,
          -4.12647583e-04, -1.07223066e-02, -4.13035005e-02,
          -1.09159676e-02, 5.65018086e-03, -1.24240899e-02,
          3.71831916e-02, -9.01905727e-03, -2.60439459e-02,
          -7.07277805e-02, 1.36136068e-02, -9.66225099e-03,
          3.35318409e-02, -3.94088440e-02, 7.50045944e-03,
          3.87572087e-02, 1.82954036e-02, 1.66867282e-02, 2.37025763e-03,
          4.86461483e-02, -2.30744611e-02, -4.23603272e-03,
          -1.46815619e-02, 4.65146415e-02, 4.06824909e-02,
          2.56054513e-02, -4.23434414e-02, 9.67039075e-03,
          2.43430361e-02, -1.84837617e-02, -2.76618986e-03,
          2.78139766e-02, 1.35533754e-02, 3.02043110e-02, 7.48187006e-02,
          2.21346747e-02, -1.34811141e-02, 3.62520590e-02,
          2.17612982e-02, 2.84962226e-02, 1.34460879e-02, 6.16600364e-03,
          6.20004162e-02, 4.51276675e-02, -2.58319527e-02,
          -5.37406374e-03, -1.37564540e-02, -5.53616323e-02,
          -3.62900086e-02, -2.38754302e-02, 2.60279346e-02,
          3.15818153e-02, 5.85726388e-02, -2.16707215e-02,
          -4.71788086e-02, -5.15039228e-02, -1.33777857e-02,
          9.70709883e-03, -2.43257694e-02, -1.29002929e-02,
          3.38717736e-02, 3.78737003e-02, 6.21212535e-02, 2.02750508e-02,
          4.64146547e-02, -3.75287458e-02, 2.19427093e-05,
          -6.24039536e-03, 8.71925708e-03, 1.05078369e-02,
          -2.27507148e-02, 8.40493711e-04, -1.79673042e-02,
          -2.12727208e-02, -3.51187102e-02, 1.75694823e-02,
          2.17808076e-04, -3.09168128e-04, -7.82875251e-03,
          -3.15266079e-03, -9.65693593e-03, -4.92775999e-02,
          -2.74857860e-02, -9.84931178e-03, 6.52032346e-03,
          1.81906391e-02, -1.55713623e-02, -2.86077298e-02,
          -5.47767170e-02, -6.00809455e-02, -4.78926301e-02,
          -2.98778526e-02, -3.24312672e-02, 1.80713534e-02,
          7.05676386e-03, -4.73909751e-02, 1.80881389e-03,
          3.15621048e-02, -1.29695321e-02, -4.72784676e-02,
          4.01357934e-02, 8.17493424e-02, 6.43783286e-02,
          -1.01205604e-02, -5.63171692e-02, -1.19368741e-02,
          8.14675260e-03, -1.56770945e-02, -5.33264950e-02,
          1.77028705e-03, 2.02549491e-02, -8.60125467e-04,
          -4.10164893e-02, -3.01921852e-02, 1.03447335e-02,
          -4.83366894e-03, -1.44321220e-02, -4.08114456e-02,
          -1.56390406e-02, 3.55195738e-02, 6.42271340e-02,
          -8.00793432e-03, -2.53244489e-02, 3.10180001e-02,
          2.29962892e-03, -3.08448691e-02, -4.95241433e-02,
          -5.66324145e-02, -8.76011327e-03, 2.11661356e-03,
          -4.69860584e-02, -3.99845839e-02, 1.62698925e-02,
          1.98805816e-02, 1.29019171e-02, -4.30584662e-02,
          -1.85817182e-02, 8.83933436e-03, -1.97933782e-02,
          -3.25527079e-02, 1.37677714e-02, 9.95167904e-03,
          1.01195024e-02, -3.48539725e-02, -3.80332768e-02,
          -5.65549033e-03, 2.17628833e-02, 1.18156811e-02,
          -2.42666043e-02, 8.56401585e-03, 1.95247363e-02,
          1.68813914e-02, -6.49624225e-03, -4.49744724e-02,
          -7.23984241e-02, -3.17149498e-02, 2.49798130e-02,
          4.57710819e-03, 3.00691538e-02, 6.66469289e-03, 9.07600299e-03,
          -4.25262004e-02, -1.36797288e-02, -5.74501567e-02,
          -1.98100358e-02, 6.25396594e-02, 4.24831286e-02,
          9.65161994e-03, 5.39956018e-02, 3.88409160e-02,
          -1.60742979e-02, -2.10480150e-02, -3.25889252e-02,
          -3.54657229e-03, -1.61087774e-02, -2.81715766e-02,
          3.03088524e-03, 9.10072867e-03, -7.90999550e-03,
          -6.05100319e-02, -3.00782826e-02, -1.09107150e-02,
          -2.99381074e-02, -1.01991771e-02, 1.56066651e-02,
          2.03354824e-02, 4.13747542e-02, 2.55504753e-02, 1.10410722e-02,
          3.73701118e-02, -2.49505341e-02, 1.63727012e-02,
          5.11179529e-02, -8.66482675e-04, -9.33921710e-03,
          1.94327850e-02, 3.21039446e-02, -1.03504937e-02,
          1.27193974e-02, -3.43950689e-02, -5.08597642e-02,
          -3.00522987e-02, -2.54605860e-02, -1.85354874e-02,
          -9.60707478e-03, -4.58055101e-02, -1.03246503e-01,
          -8.10392722e-02, 8.62009171e-03, -2.18073912e-02,
          -5.16554713e-03, 8.19782075e-03, -3.61266569e-03,
          1.17320486e-03, -6.20418275e-03, -1.66845340e-02,
          -6.58687875e-02, 2.88692098e-02, -1.33181512e-02,
          1.91904213e-02, 1.63646746e-05, 4.17694566e-04, 1.02687469e-02,
          9.96730058e-04, -7.92718530e-02, -1.95318330e-02,
          -1.78034157e-02, -4.69217896e-02, -2.95131728e-02,
          6.57012267e-03, -6.84652571e-03, 3.97706442e-02,
          1.29218344e-02, -5.14707863e-02, -2.28777025e-02,
          9.21641942e-03, -4.57817838e-02, 2.22082920e-02,
          2.18384396e-02, -8.47174041e-03, 6.68324828e-02,
          5.33540510e-02, -2.11958848e-02, -3.25486884e-02,
          -1.23687871e-02, -3.77427265e-02, 1.85607206e-02,
          3.78560796e-02, 4.79638167e-02, 3.66234593e-02,
          -3.56813148e-03, -8.96247104e-02, -5.63952439e-02,
          -4.20905873e-02, -3.37442495e-02, 1.92396133e-03,
          2.53886376e-02, -2.73009390e-02, 5.15429117e-02,
          4.14764993e-02, -2.72455346e-02, -3.43918949e-02,
          -6.57437323e-03, -7.78374309e-03, 6.37484044e-02,
          1.85907027e-03, 3.43711451e-02, 9.26358700e-02,
          -4.57829703e-03, -7.88923129e-02, -7.75268003e-02,
          -5.33096008e-02, -1.67268515e-02, 7.92515948e-02,
          6.29693195e-02, 5.29953465e-03, 2.93255839e-02,
          -7.26242177e-03, 1.91476010e-03, -2.75538210e-02,
          -3.21399234e-03, 2.76304595e-02, 2.30793711e-02,
          1.07322223e-02, 9.19096544e-03, 7.91880339e-02, 3.77733000e-02,
          -1.06752263e-02, -4.18450385e-02, 3.69149372e-02,
          2.49262098e-02, 1.02843456e-01, 3.89343710e-04, 5.70660084e-02,
          6.44321814e-02, -2.67592557e-02, -3.81482728e-02,
          -3.56992669e-02, -4.49818671e-02, -3.24206464e-02,
          4.40094545e-02, 4.85095754e-02, 3.71077657e-02, 4.44063805e-02,
          2.04376578e-02, 1.37732155e-03, -2.76764575e-02,
          1.31197711e-02, -1.62108447e-02, 3.92426364e-02,
          4.71072330e-04, -1.86705720e-02, 8.31271261e-02,
          5.44831865e-02, -2.25821380e-02, -4.33387272e-02,
          7.95579422e-03, 7.32276996e-04, 3.08684018e-02, 7.01185735e-03,
          -3.94054194e-04, 6.23634085e-02, 6.36444837e-02,
          -3.03820651e-02, 4.88638170e-02, -3.22331931e-03,
          3.17932367e-02, 1.93707068e-02, 2.59385835e-02,
          -3.19677182e-02, -2.28160955e-02, -4.15647030e-03,
          -3.29572596e-02, -7.43654072e-02, 6.61706598e-03,
          3.02040484e-02, -1.89958455e-03, -5.65597080e-02,
          9.10918321e-03, -7.62279751e-03, 3.42179723e-02,
          -1.75243672e-02, 4.70391810e-02, 2.33742129e-02,
          4.74340171e-02, -1.65320896e-02, -5.54397479e-02,
          -2.29680091e-02, 1.56591106e-02, 2.83327047e-02,
          -4.46748473e-02, -2.48068515e-02, -8.29218514e-03,
          2.52244715e-02, 3.40150148e-02, -6.44512661e-03,
          -2.49869768e-02, 4.41723242e-02, 3.77470478e-02,
          -2.18376704e-03, 2.44827308e-02, -3.56082693e-02,
          -1.15443245e-02, 2.00403482e-02, -1.48141216e-02,
          -2.02735923e-02, -4.92168078e-03, 3.23825777e-02,
          -2.48752665e-02, -1.34848682e-02, -1.56885982e-02,
          -1.17751900e-02, -9.15503188e-04, -7.85174295e-02,
          -1.95910968e-02, 5.97450836e-03, -4.44802158e-02,
          -4.61845174e-02, 3.08419876e-02, -5.01375087e-02,
          -1.92354992e-02, 3.44065800e-02, -1.02259303e-02,
          -6.65588751e-02, 3.43029648e-02, -2.98308092e-03,
          -2.60303132e-02, -3.20333019e-02, 1.09654684e-02,
          -3.63627775e-03, 3.17265354e-02, -1.92173738e-02,
          -2.44787801e-02, 5.45863733e-02, 2.92348936e-02,
          -1.58102449e-03, 2.31234287e-03, 4.39602435e-02,
          -3.35780974e-03, 7.61434203e-03, -2.81230789e-02,
          -6.62541837e-02, 3.86825092e-02, -1.15779042e-02,
          -3.63080278e-02, -2.16236990e-02, -3.10368538e-02,
          2.69087739e-02, 3.06644049e-02, -4.21126336e-02,
          -7.93165714e-02, 3.13633494e-02, 2.28308216e-02,
          -5.36180614e-03, -7.53558706e-03, 2.99458709e-02,
          3.59910466e-02, -3.04446258e-02, -3.06609068e-02,
          -4.87043746e-02, 3.30830254e-02, 1.32554900e-02,
          -1.92804541e-02, 6.40273839e-03, -9.71047732e-04,
          -2.09539663e-02, -1.72966626e-02, -5.09827062e-02,
          -4.38606665e-02, 7.03492435e-03, -2.03467230e-03,
          -1.17440969e-02, 5.29378951e-02, -6.86690062e-02,
          -3.39493714e-02, 1.97422169e-02, -5.08864559e-02,
          -6.83560967e-02, 4.39103730e-02, 3.27068241e-03,
          3.58641427e-03, -6.51996350e-04, -6.01451658e-03,
          6.93280948e-03, -6.49339259e-02, -6.20636679e-02,
          -4.41146679e-02, 2.19521523e-02, -2.13438820e-04,
          -4.15893830e-02, 4.69677225e-02, -4.91160527e-02,
          9.88067500e-03, -5.30926837e-03, 5.57971140e-03,
          -6.47710264e-02, 1.68037452e-02, 9.65855736e-03,
          -2.29556672e-02, 6.98429206e-03, -3.79408523e-02,
          -3.06042423e-03, 3.64334881e-02, -3.00714467e-02,
          -4.52395864e-02, 4.42621075e-02, 1.51906768e-02,
          -3.00483163e-02, -2.54761707e-02, 4.30526175e-02,
          2.75094099e-02, 2.32178029e-02, -8.52669850e-02,
          -3.01336776e-02, 4.07805219e-02, 3.09196003e-02,
          -6.08927645e-02, 5.30912131e-02, 1.73858013e-02,
          2.79589668e-02, 2.97459252e-02, 1.38520857e-03,
          -3.93388309e-02, 2.60659233e-02, 3.50410230e-02,
          -4.10360433e-02, 2.02275161e-02, 5.61726391e-02,
          2.74807289e-02, 9.12741013e-03, -5.70108965e-02,
          -2.81991269e-02, 4.35383245e-02, 1.14713144e-02,
          -7.54494593e-02, -5.49745485e-02, 1.81703400e-02,
          -6.93047978e-03, 1.19013954e-02, -9.07563269e-02,
          -1.25855431e-02, 4.81772013e-02, 1.72795653e-02,
          -3.71667780e-02, 5.13166888e-03, 1.18520041e-03,
          -3.19774896e-02, -4.65845829e-03, -4.36692908e-02,
          7.25499401e-03, 2.33635623e-02, 1.00439936e-02,
          -2.96497270e-02, -4.84016202e-02, 6.94944616e-03,
          2.22468022e-02, 3.46516892e-02, -5.37187308e-02,
          1.46750426e-02, 3.94873582e-02, 6.96112262e-03,
          -4.02824171e-02, -6.66334963e-05, -1.99021888e-03,
          -1.29606808e-02, 8.39939062e-03, -1.54200718e-02,
          -3.06424722e-02, 3.18778716e-02, 3.19324061e-02,
          -1.29090594e-02, -3.19278538e-02, 1.29260039e-02,
          -8.76909035e-05, 1.36875026e-02, -3.51824798e-02,
          -2.48278044e-02, 4.64602336e-02, 3.39974500e-02,
          -1.44697903e-02, 1.36253880e-02, 5.64842345e-03,
          -2.47649383e-02, -1.56833231e-03, -1.54439248e-02,
          -8.68315175e-02, 2.15834845e-03, 3.70450467e-02,
          4.12763767e-02, 1.11118117e-02, 1.21676745e-02,
          -2.93263630e-03, 1.11975241e-02, -3.35735828e-02,
          -7.65544772e-02, -5.57886763e-03, 2.75821704e-02,
          3.41284052e-02, 2.49515362e-02, -1.21340370e-02,
          1.50840301e-02, 5.11271507e-03, -6.60026968e-02,
          -4.62342687e-02, 5.83977774e-02, 3.06733660e-02,
          -1.01712835e-03, 1.61097490e-03, -8.73375405e-03,
          -1.40182246e-02, -2.09644530e-02, -4.70967293e-02,
          -1.64231118e-02, 2.94908844e-02, 2.07977686e-02,
          -1.48274219e-02, -1.75407398e-02, -3.06205824e-03,
          1.14670405e-02, 1.38263432e-02, -2.84386403e-03,
          -4.45760302e-02, 2.18065623e-02, 1.69214774e-02,
          -5.13340905e-03, -4.24867123e-02, -3.72462627e-03,
          5.53992111e-03, 5.85535681e-03, -8.11299160e-02,
          -2.73366272e-02, 2.51083192e-03, 2.00307742e-02,
          2.62789149e-02, -3.48089598e-02, 2.49522869e-02,
          2.38735098e-02, 6.00984553e-03, -3.46704125e-02,
          -1.26390941e-02, -2.77623087e-02, 1.71387102e-02,
          -1.73131004e-02, -8.78187418e-02, -1.04490900e-02,
          1.45528531e-02, 2.70312726e-02, 2.56484672e-02,
          -9.86898597e-03, -2.21014228e-02, -1.96739230e-02,
          2.23696809e-02, -4.56548780e-02, -3.25080752e-03,
          -3.33487988e-02, 2.04061996e-02, -2.34917272e-02,
          -1.47102373e-02, 6.72148215e-03, 2.81631644e-03,
          2.72794887e-02, -6.22768514e-02, 5.42849749e-02,
          -1.21827514e-04, -1.04799001e-02, 2.01148372e-02,
          -1.88321490e-02, 1.63373090e-02, -2.21654382e-02,
          6.24013618e-02, -4.22532633e-02, 3.96043099e-02,
          -1.13355443e-02, 2.19060909e-02, -1.27624106e-02,
          -3.90720583e-04, 2.32202336e-02, 9.05285217e-03,
          4.71857451e-02, -4.50049452e-02, -2.51232460e-02,
          3.33590508e-02, 6.64941892e-02, -2.75077056e-02,
          -3.99440899e-02, -1.75968930e-02, -3.35012600e-02,
          7.14439666e-03, -9.69972908e-02, -4.41696867e-02,
          4.43401653e-03, 2.20380630e-03, -3.95836234e-02,
          -5.00413664e-02, -2.08088607e-02, 1.15509843e-02,
          3.14669982e-02, -4.70256358e-02, 9.93489171e-04,
          -1.46220176e-04, -4.11656983e-02, -5.32383807e-02,
          -7.64408428e-03, 2.25911532e-02, 4.58765142e-02,
          5.27444743e-02, -2.55988892e-02, -1.45828119e-02,
          -3.60804726e-03, -6.65584672e-03, -4.54491526e-02,
          -5.88800460e-02, -3.68907228e-02, -2.41121147e-02,
          2.35407595e-02, -7.70119205e-02, -3.66084017e-02,
          -3.13290097e-02, 2.97317598e-02, -5.72181027e-03,
          1.32997176e-02, -2.56443936e-02, -6.19820785e-03,
          -6.69650510e-02, -4.48071435e-02, -7.52773508e-02,
          -3.64726372e-02, 3.14263701e-02, 2.82438584e-02,
          1.65398549e-02, -8.96750204e-03, 3.01771332e-02,
          6.16984032e-02, 3.24340649e-02, -2.34572329e-02,
          -5.15247248e-02, -1.92074776e-02, -7.75306579e-03,
          -3.63371079e-03, -6.79290155e-03, 2.73703467e-02,
          -1.36852972e-02, 1.87248401e-02, -2.89824381e-02,
          -4.74196561e-02, -5.73707335e-02, 2.84123365e-02,
          1.40331388e-02, 3.01675871e-03, -2.74086930e-03,
          -5.13249785e-02, -4.18505855e-02, -5.66914342e-02,
          -2.42470149e-02, 5.87123744e-02, 5.14915073e-03,
          -2.58011762e-02, 1.12049924e-02, 6.94752624e-03,
          -2.27037538e-02, -9.47586726e-03, -2.92498134e-02,
          -1.67498402e-02, -1.30445939e-02, -3.47170196e-02,
          7.68482080e-03, 1.82947870e-02, 1.50232029e-03,
          -4.43070084e-02, -1.98894292e-02, -1.08301854e-02,
          -3.31785018e-03, 2.08177865e-02, -2.16396451e-02,
          -2.23493371e-02, 1.66245215e-02, -1.07070236e-02,
          -4.22971360e-02, 5.22577576e-02, -1.49237635e-02,
          -4.22856174e-02, -1.92016400e-02, -2.31851563e-02,
          -1.18132336e-02, 1.39871398e-02, 8.06999672e-03,
          -5.07078543e-02, -1.27488712e-03, -1.29765263e-02,
          -7.50299320e-02, -1.47029450e-02, -5.60084507e-02,
          3.00505720e-02, 3.76823470e-02, 2.39273719e-02,
          -4.96680401e-02, 1.81709230e-02, 2.30927113e-02,
          -3.55335250e-02, 3.81094962e-02, 1.90675762e-02,
          -6.15057955e-03, 5.89560950e-03, 2.61807442e-03,
          -4.49430719e-02, 1.61685366e-02, -9.01953876e-03,
          -5.63845634e-02, -3.05109173e-02, -2.52775811e-02,
          4.58307751e-02, 4.67385314e-02, 3.55447195e-02,
          -4.34112549e-02, -1.87110598e-03, 2.96746064e-02,
          -3.51424590e-02, 3.59754600e-02, 6.75222278e-02,
          -9.02399607e-03, 3.30801122e-02, -1.34191001e-02,
          -2.22608671e-02, 2.94329855e-03, 2.41868882e-04,
          -2.19366364e-02, 4.14198600e-02, -3.18382606e-02,
          1.21896379e-02, 4.93548587e-02, -2.80724093e-02,
          -3.27063762e-02, -6.91382736e-02, -6.25447854e-02,
          -3.28225829e-02, -5.61310165e-03, -2.58989390e-02,
          7.33020082e-02, 2.68447697e-02, -2.46505402e-02,
          -4.01299000e-02, 3.23346816e-02, 3.84394713e-02,
          2.20459211e-03, 5.37916273e-02, 4.39090990e-02, 1.50019582e-02,
          -2.55523808e-02, -3.12194638e-02, 4.26916033e-02,
          5.80000505e-02, 4.01696190e-02, -8.14773084e-04,
          1.86482016e-02, -2.12674066e-02, 5.60473800e-02,
          5.52977342e-03, -2.85259578e-02, -2.76946519e-02,
          -1.70835778e-02, 3.44454544e-03, -5.98067343e-02,
          -3.02302781e-02, 1.64931454e-02, 2.50669066e-02,
          -1.75378937e-02, -2.30775433e-04, -2.86917426e-02,
          -1.05967680e-02, 2.12723687e-02, -2.55739037e-02,
          -9.68370680e-03, 1.28222825e-02, 2.63472665e-02,
          -2.47784406e-02, -2.76098307e-02, 2.43473183e-02,
          5.18468022e-02, 9.90974382e-02, 2.14929972e-02, 1.33569669e-02,
          -2.78180595e-02, 2.58583520e-02, 6.14519790e-02,
          -1.13083255e-02, 2.67103389e-02, 1.17994606e-01,
          1.06641300e-01, 2.21785884e-02, 1.25647697e-03, 9.40450933e-03,
          -5.31815812e-02, -3.34662274e-02, -1.86541080e-02,
          -3.97593193e-02, 3.80060938e-03, 3.02501712e-02,
          7.46390829e-03, 1.40408650e-02, -1.66091267e-02,
          -2.58042756e-02, -1.17099779e-02, 1.92962978e-02,
          -1.93345211e-02, 4.72880825e-02, 1.91128198e-02,
          3.58698964e-02, 5.28581534e-03, -5.50314151e-02,
          -2.00245790e-02, 2.08182968e-02, -5.30136656e-03,
          9.06094257e-03, 9.97034386e-02, 7.02481121e-02, 2.61832308e-02,
          2.18664669e-02, 4.46536858e-03, -2.63912464e-03,
          -1.21333369e-03, -2.01043971e-02, 3.89495455e-02,
          5.81121109e-02, 5.23926243e-02, 4.75896485e-02, 3.28690894e-02,
          -4.24005464e-02, 6.32711570e-04, -1.63886510e-02,
          -4.66937199e-03, -3.06705404e-02, 2.48582717e-02,
          -1.41686993e-02, 1.22252749e-02, 3.09091471e-02,
          -2.16706544e-02, -3.04328073e-02, -2.46211682e-02,
          -6.16623089e-02, -2.11924668e-02, -6.45265402e-03,
          -2.50482205e-02, 3.18190403e-04, 1.24895517e-02,
          -9.38886311e-03, 3.58010195e-02, -2.17959229e-02,
          -4.82993424e-02, -2.32029278e-02, -1.97615684e-03,
          -8.16300698e-03, 3.82858030e-02, 2.39440817e-02,
          -4.42537889e-02, -1.27439876e-03, -2.11433191e-02,
          -6.99174181e-02, -1.88127346e-02, 1.81608666e-02,
          -2.32263170e-02, -3.08829118e-02, -2.82163788e-02,
          -5.02447933e-02, -4.31757867e-02, 1.94023494e-02,
          -2.21127365e-02, 5.56126586e-04, 1.90083608e-02,
          -1.85463054e-03, 1.52016561e-02, -2.51257960e-02,
          -3.05792093e-02, -3.78204510e-02, -1.32054826e-02,
          -4.05423492e-02, -4.26200479e-02, -4.15023342e-02,
          5.62412757e-03, 3.46744247e-02, -2.50963531e-02,
          -6.03491329e-02, -1.77885704e-02, 1.10084899e-02,
          -3.78770716e-02, 1.60585307e-02, 7.24583538e-03,
          2.65394244e-02, -1.10730818e-02, -5.68606816e-02,
          -4.08183504e-03, 1.01833893e-02, 2.82223765e-02,
          -1.59659013e-02, -1.11769699e-02, -2.95840837e-02,
          -1.01270806e-03, 3.13068144e-02, -5.57835251e-02,
          -1.51795661e-02, -7.18120635e-02, -3.06271482e-03,
          -4.61104624e-02, -3.38501744e-02, -2.88193133e-02,
          1.24042330e-03, 3.34203653e-02, -2.35443246e-02,
          -8.02113414e-02, -4.45403941e-02, -1.40754543e-02,
          1.43053560e-02, -6.12130836e-02, 6.12631161e-03,
          9.14431817e-04, 5.39102703e-02, 1.80418938e-02,
          -2.50522606e-02, 3.92878940e-03, -3.88688259e-02,
          -8.22583120e-03, -6.99258298e-02, -2.35146843e-02,
          1.91975199e-02, 3.62472907e-02, -2.93426719e-02,
          -1.99417304e-02, -5.31426147e-02, -2.74759028e-02,
          1.26697980e-02, -4.71284464e-02, 1.99889950e-02,
          2.07657646e-02, 5.19783832e-02, 1.28378514e-02,
          -2.29526367e-02, -3.40606347e-02, -1.04432972e-03,
          1.84441078e-02, -5.05564511e-02, -9.43880714e-03,
          3.42626423e-02, 5.27460352e-02, -3.64549574e-03,
          -2.30484046e-02, -4.19507287e-02, 4.53181472e-03,
          2.20751502e-02, 6.19145995e-03, 6.13324381e-02, 4.97902259e-02,
          1.91624369e-02, -2.59232409e-02, -6.59511164e-02,
          -5.24335913e-02, -4.01837602e-02, 5.73582761e-02,
          4.37165238e-03, -2.25603394e-02, 2.02522874e-02,
          4.47815433e-02, -4.38729720e-03, -1.20568766e-04,
          -5.22976890e-02, -3.04100960e-02, 3.52763981e-02,
          6.63531432e-03, 2.26433426e-02, 2.07143500e-02, 9.16697830e-03,
          2.92370701e-03, -9.96623188e-03, -1.86984912e-02,
          -1.45999724e-02, -1.09367250e-02, -1.80816744e-02,
          -1.07345148e-03, -9.34193004e-03, -7.05276430e-03,
          -3.26019563e-02, -5.54637536e-02, -4.19084332e-04,
          3.33596915e-02, 9.73947253e-03, -4.59070764e-02,
          -3.93306389e-02, -2.22990345e-02, -8.91803671e-03,
          -9.91853978e-03, -1.37034869e-02, -4.18435223e-02,
          -5.19595407e-02, 1.17126806e-02, -2.51507238e-02,
          -1.29043357e-02, 2.73920428e-02, 5.14090015e-03,
          -3.80304866e-02, -1.98244192e-02, -5.80450781e-02,
          -1.77616328e-02, 9.84976534e-03, -5.14913015e-02,
          -1.12200223e-01, 3.43041457e-02, 2.61606518e-02,
          -3.62186246e-02, -5.25538102e-02, -4.46150824e-02,
          -1.11277541e-02, 2.84460541e-02, 1.90312807e-02,
          2.50734086e-03, -1.78525839e-02, -2.78962101e-03,
          1.54271880e-02, -3.34469602e-03, -4.03517485e-02,
          -2.79920176e-02, -3.13843973e-02, 1.17650935e-02,
          -2.79494259e-03, -9.60993394e-02, -4.30480018e-02,
          4.18990152e-03, 2.25160690e-03, -7.60819465e-02,
          -9.44608077e-03, 3.07171643e-02, -5.53498603e-03,
          -5.34847453e-02, 2.33271942e-02, 2.86119319e-02,
          1.90898404e-02, -6.77726045e-02, -4.86378297e-02,
          1.40042529e-02, -3.80467996e-03, -1.09138880e-02,
          -2.60229576e-02, -8.15983117e-02, -7.51969889e-02,
          -2.92727258e-02, -2.29830481e-02, -4.64703329e-02,
          1.69021357e-02, -1.51570747e-02, 2.14108061e-02,
          -1.54030537e-02, -3.29092033e-02, -1.71975642e-02,
          5.26975747e-03, -1.90414358e-02, -9.71591286e-03,
          3.70421745e-02, 4.41471189e-02, 4.99343090e-02, 5.36703914e-02,
          -7.03876023e-04, 3.02903783e-02, 2.53243418e-03,
          -1.54462559e-02, -5.78556629e-03, 4.12499756e-02,
          9.80728026e-03, -3.47003993e-03, -5.96872345e-02,
          -8.79784450e-02, -4.48146574e-02, -2.25323415e-03,
          -2.61696111e-02, -4.23909444e-03, 6.48036366e-03,
          2.39553605e-03, 2.43207682e-02, 1.90911181e-02,
          -2.42675710e-02, 2.09971610e-03, 2.47659930e-03,
          -2.39921100e-02, 4.53224368e-02, 2.71025524e-02,
          1.14981160e-02, 5.12730107e-02, -3.00668813e-02,
          7.27815330e-02, 7.96325784e-03, -1.64491218e-02,
          6.05919445e-03, 2.33793873e-02, 2.30508689e-02,
          -1.00727249e-02, 3.44857313e-02, -5.44120483e-02,
          3.06485314e-02, 2.19346676e-02, 1.63781270e-02,
          -3.29703256e-03, -3.97859327e-03, 4.88528050e-03,
          4.60572867e-03, -7.29423901e-03, -9.55971479e-02,
          5.69443181e-02, -2.20241155e-02, -2.29198337e-02,
          -2.06112005e-02, -5.62820174e-02, -3.35076498e-03,
          2.46385541e-02, 1.49925165e-02, -7.84088820e-02,
          6.33436590e-02, 7.90234248e-04, -5.48011549e-02,
          -6.16483763e-02, -2.67369132e-02, -2.64288671e-02,
          -1.41277406e-02, -6.11601165e-03, -2.73987986e-02,
          -1.12281309e-03, -8.04362074e-03, -2.67461557e-02,
          -1.66864861e-02, 4.64323536e-02, -2.60257088e-02,
          -3.32644768e-03, 1.19697312e-02, 6.98637404e-03,
          -4.64543253e-02, -5.19723073e-02, -1.67602878e-02,
          -2.82537546e-02, -1.22225722e-02, -2.56987438e-02,
          -2.26593968e-02, 2.98813507e-02, 2.82828473e-02,
          1.83253884e-02, 1.10874902e-02, -1.62285082e-02,
          -2.74871793e-02, 5.85611851e-04, -4.99873571e-02,
          -2.54463609e-02, -3.89110819e-02, 3.38062197e-02,
          -1.96069963e-02, -4.09165025e-02, -2.52632089e-02,
          -2.46135499e-02, 3.31705920e-02, -2.40193456e-02,
          2.92009935e-02, 2.21169051e-02, 4.26464304e-02, 1.44354335e-03,
          -3.98131311e-02, -6.20219149e-02, -2.29825322e-02,
          1.65755898e-02, 2.46095080e-02, 4.44190279e-02,
          -2.96022336e-04, -1.67494453e-02, 6.75673736e-03,
          -6.90432414e-02, -7.94189945e-02, -1.23666506e-02,
          -4.62120399e-02, -4.97213155e-02, 7.89697748e-03,
          -5.14973775e-02, 1.88655518e-02, 1.24581018e-02,
          -3.65641266e-02, -4.21024710e-02, -3.04448400e-02,
          -4.68049571e-02, -1.70423500e-02, 1.69276055e-02,
          -5.61586171e-02, -1.83903165e-02, -1.50593119e-02,
          -5.07126227e-02, -6.43921494e-02, -6.29111826e-02,
          -2.06958819e-02, 3.48185115e-02, 4.66859639e-02,
          -3.34472843e-02, -1.81997139e-02, -5.84516255e-03,
          -5.51630668e-02, -7.43869226e-03, -1.33814700e-02,
          -6.74705431e-02, -3.10610551e-02, 1.49335004e-02,
          -3.42793986e-02, 5.60592227e-02, 1.29744289e-02,
          -1.45576689e-02, -2.52279099e-02, -4.32156920e-02,
          -3.80977243e-02, 3.80732343e-02, 7.67568722e-02,
          1.66170280e-02, 1.44608319e-04, -9.69284028e-03,
          -3.36356275e-02, -4.83239628e-02, -8.24287385e-02,
          -7.27729127e-02, -6.43890351e-03, 4.18501087e-02,
          -1.86157525e-02, 3.37747969e-02, 4.85619754e-02,
          -9.85579565e-03, -1.51272388e-02, -6.23175874e-02,
          -1.25733884e-02, -3.82232442e-02, -2.26221308e-02,
          -1.69302467e-02, -2.14863755e-03, -8.48421734e-03,
          -7.69111291e-02, 4.72216588e-03, -3.40160131e-02,
          4.97043468e-02, -2.15330813e-02, -3.41589563e-02,
          3.55588123e-02, 4.06043530e-02, 1.61936712e-02,
          -4.02995124e-02, 4.07126546e-02, 3.49697806e-02,
          -1.10813351e-02, -8.42020288e-03, -2.05940823e-03,
          -7.31540052e-03, -1.59432571e-02, 4.18820232e-03,
          -1.83091499e-02, 2.03247257e-02, -8.28026533e-02,
          1.54280150e-02, 2.64721289e-02, -2.45329440e-02,
          8.15853104e-02, 7.94235989e-02, 2.08441522e-02,
          -1.28693571e-02, 5.72045147e-02, -4.03002687e-02,
          6.08617850e-02, -1.80986244e-02, -3.69642526e-02,
          -1.74211226e-02, 4.13779579e-02, 3.09654437e-02,
          -4.50430885e-02, 4.69476357e-02, 5.83914714e-03,
          8.31991993e-03, -2.07336457e-03, -3.06994393e-02,
          1.38066001e-02, 3.90068814e-02, 3.73630933e-02, 2.03805361e-02,
          3.82624865e-02, -3.04735173e-02, -2.19614767e-02,
          -2.47462783e-02, -6.65951371e-02, 2.16256026e-02,
          4.56155799e-02, 2.99146250e-02, -4.52250354e-02,
          5.77184334e-02, -6.36506155e-02, 1.86737664e-02,
          8.61996338e-02, 1.09307570e-02, 4.11563106e-02, 6.23497665e-02,
          9.50165186e-03, -1.79805364e-02, 2.21685097e-02,
          1.59390457e-02, -1.74378380e-02, -3.51715311e-02,
          -4.83274385e-02, -1.17323026e-02, 3.51365395e-02,
          5.40410914e-02, 6.54942617e-02, 5.78734688e-02,
          -4.47992310e-02, -2.07185261e-02, 3.60483602e-02,
          -5.11922389e-02, -5.34038655e-02, 7.40959197e-02,
          3.92938443e-02, 1.02830501e-02, 1.83384083e-02,
          -1.65654384e-02, 2.90125725e-03, 3.27506922e-02,
          -4.87768790e-03, 2.78407382e-03, 1.18797123e-02,
          4.14069276e-03, 2.74887886e-02, 4.28414419e-02, 4.04722989e-03,
          -1.04453173e-02, 2.62925960e-02, -4.29024547e-02,
          -4.98779900e-02, -1.75976995e-02, -2.23978497e-02,
          -1.92637388e-02, 2.75989808e-02, 2.88608931e-02,
          -2.01638471e-02, 3.52831259e-02, -3.32970396e-02,
          -5.80382301e-03, 8.82865265e-02, 9.21733864e-03,
          -3.23675573e-02, -1.33975334e-02, -7.78217660e-03,
          -3.12955976e-02, 1.67125221e-02, -5.55532537e-02,
          7.19817653e-02, 4.68388647e-02, -2.19484288e-02,
          -1.66287199e-02, -4.16134112e-02, -5.94363846e-02,
          -1.41512090e-02, 1.77328754e-02, -7.80164227e-02,
          -4.14809845e-02, -4.39307652e-02, -3.98791209e-02,
          -6.63134828e-02, -1.05587170e-02, -5.03944699e-03,
          -5.48242684e-03, 2.96344534e-02, -3.18889245e-02,
          1.18581047e-02, 1.53665040e-02, -4.02361639e-02,
          -1.39371566e-02, -3.44306491e-02, -5.68881445e-02,
          4.10659164e-02, 5.02534807e-02, -2.68367846e-02,
          -1.22551620e-02, -7.52300816e-03, -3.42612676e-02,
          -1.83920115e-02, -4.14436571e-02, -4.93600480e-02,
          8.14270154e-02, -7.43543450e-03, -7.75958374e-02,
          -5.40160239e-02, -1.08923977e-02, 3.60820862e-03,
          -2.11930424e-02, 1.31211914e-02, -2.39975937e-02,
          2.15626247e-02, -1.74539369e-02, -7.13125765e-02,
          1.60125364e-02, 2.05572601e-03, -5.94632104e-02,
          -1.84062228e-03, -2.96786986e-02, 9.99247748e-03,
          5.13191707e-02, -3.28113809e-02, -6.11268133e-02,
          1.77420652e-03, 1.33097637e-03, -2.62937825e-02,
          -2.87661720e-02, -1.21032810e-02, -1.47433234e-02,
          4.01898660e-03, -1.81587450e-02, -9.78197157e-03,
          2.01691333e-02, 1.96342659e-03, 4.23111841e-02, 4.06425036e-02,
          1.92663409e-02, 1.04720592e-02, 5.04709817e-02,
          -4.63114772e-03, 2.19210088e-02, 1.97785757e-02,
          -2.74809431e-02, -2.36483775e-02, 2.96194423e-02,
          -9.95683251e-04, 3.09936553e-02, 2.34170519e-02,
          -4.66352925e-02, -3.65399644e-02, 2.70643421e-02,
          -1.73649972e-03, 1.59257688e-02, 2.00923420e-02,
          1.42324241e-02, 1.60458144e-02, 8.99434835e-03,
          -4.89569902e-02, -5.74452654e-02, 3.03810723e-02,
          -1.64915249e-02, -5.67494035e-02, -1.47864372e-02,
          2.45115701e-02, -1.77514949e-03, 8.73074587e-03,
          -6.85211197e-02, -5.37567493e-03, 9.91530344e-03,
          -1.71551574e-02, 5.23293857e-03, 2.51327604e-02,
          -2.20888946e-02, -1.56688485e-02, -8.41302704e-03,
          -5.22652194e-02, 3.25607043e-03, -7.55310804e-03,
          7.59622315e-03, 3.99010703e-02, 1.39077124e-03,
          -3.22279446e-02, -1.14562772e-02, -2.41461340e-02,
          -8.86192843e-02, -6.41140193e-02, 2.88294889e-02,
          -1.67639963e-02, -5.97812980e-02, -2.65122429e-02,
          2.40717251e-02, -1.93813536e-02, 2.92053670e-02,
          -7.20205083e-02, -1.32055059e-02, 3.33215715e-03,
          1.97167974e-03, -1.83850583e-02, -1.68722551e-02,
          -8.99215881e-03, 2.23197863e-02, -9.47346538e-03,
          -3.25515755e-02, 6.85485750e-02, -1.95595319e-03,
          -2.83652227e-02, 2.99999472e-02, 1.93955377e-02,
          1.12509830e-02, 1.49723440e-02, -4.29669842e-02,
          -4.96428460e-03, 3.40507738e-02, -2.16347761e-02,
          -7.11705759e-02, 3.63407210e-02, 3.10911871e-02,
          3.99190150e-02, 3.46717238e-02, -6.10645907e-03,
          -8.91584828e-02, 3.01538091e-02, -4.54558916e-02,
          -1.63754225e-02, 1.98315904e-02, 2.28016768e-02,
          -9.19143297e-03, 3.18907620e-03, -7.56298229e-02,
          -6.84834793e-02, 2.01937631e-02, -7.33123496e-02,
          -3.93917598e-02, 8.60253572e-02, 4.29318324e-02,
          -2.13092789e-02, -5.11638001e-02, -3.37731875e-02,
          -2.48318370e-02, 1.97737217e-02, -2.07359772e-02,
          -1.29793100e-02, 4.06243540e-02, 1.73073485e-02,
          7.97251519e-03, 4.14250307e-02, 5.63124008e-03,
          -2.14852635e-02, -3.65037890e-03, -4.10114229e-02,
          -7.09339380e-02, 2.64850948e-02, 2.04669852e-02,
          5.18815080e-03, 4.74073999e-02, -4.69499715e-02,
          -4.09050286e-02, -4.30323370e-03, -4.59701903e-02,
          -7.21456185e-02, 4.94483821e-02, -2.39973459e-02,
          -2.92454176e-02, -1.60683468e-02, 7.58269755e-03,
          -5.24621196e-02, 9.06639179e-05, -5.75304292e-02,
          -6.40939772e-02, -3.47364396e-02, -2.80335695e-02,
          -5.34787681e-03, 1.31597556e-02, -1.83380228e-02,
          -9.84626543e-03, 1.73380561e-02, -3.73953618e-02,
          -7.85176307e-02, -4.04048292e-03, -2.69952863e-02,
          -6.79347850e-03, -2.52693426e-02, -5.30836061e-02,
          -2.52734534e-02, 1.33274812e-02, 1.00775445e-02,
          2.72859670e-02, -2.34247800e-02, -5.57461716e-02,
          -2.24150927e-03, -8.61086417e-03, 9.51778889e-03,
          -7.37017468e-02, 3.88350822e-02, -8.38444289e-03,
          -8.96908492e-02, -1.87499560e-02, -2.29455326e-02,
          1.99410859e-02, 4.67494875e-03, -5.47720827e-02,
          -7.75235519e-02, 9.71315708e-03, 2.98370570e-02,
          3.45037468e-02, 2.42749564e-04, 1.54022407e-03, 1.32492762e-02,
          1.43358884e-02, -2.78019570e-02, -1.89086869e-02,
          -1.23385584e-03, 1.70703828e-02, -5.53360693e-02,
          -3.18848155e-02, -5.12866117e-02, 7.18080904e-03,
          -2.61692628e-02, -6.11294410e-04, -2.33997125e-02,
          -1.14120431e-02, 2.88302749e-02, -3.28970887e-02,
          -3.54793519e-02, -2.04689205e-02, 8.38296197e-04,
          -3.55458260e-02, -2.01995205e-02, -5.93374521e-02,
          -9.01253894e-03, 4.46277149e-02, -2.80820373e-02,
          3.42265442e-02, 2.26157773e-02, 3.85855399e-02, 8.66812654e-03,
          4.78041265e-03, -3.91189083e-02, 5.21120662e-03,
          4.06003110e-02, -9.38786473e-03, 1.22411540e-02,
          -3.58712301e-02, 1.84492371e-03, -9.36492067e-03,
          2.51796432e-02, 1.81944482e-02, 1.23117315e-02, 6.73014531e-03,
          -9.37688723e-02, 1.79586268e-03, -5.50632784e-03,
          2.76880409e-03, 1.41930562e-02, -2.99396415e-05,
          4.15742770e-02, 2.22053081e-02, 3.08961384e-02,
          -4.76915464e-02, 6.05270267e-02, -1.08921090e-02,
          -2.14927327e-02, -3.30646150e-02, -5.65646729e-03,
          4.98662936e-03, 4.71844804e-03, 5.17459661e-02,
          -3.04331034e-02, 6.71986397e-03, -1.18390163e-02,
          2.11175587e-02, 2.91373245e-02, -5.34017459e-02,
          2.31142063e-02, -1.50816720e-02, 4.49581929e-02,
          2.66268626e-02, 4.61703353e-02, -1.12677121e-03,
          2.07469463e-02, -2.16881335e-02, -5.39787598e-02,
          -2.19401568e-02, -6.15272932e-02, 2.13507656e-02,
          6.16556928e-02, -3.71633321e-02, -9.82280821e-03,
          -2.34019533e-02, -4.88930605e-02, -6.22916669e-02,
          -1.01484451e-02, -4.02292274e-02, -1.41005842e-02,
          -2.18971614e-02, -6.91761002e-02, 2.59801261e-02,
          -6.80010580e-03, -3.18398252e-02, -3.99216078e-02,
          1.05831483e-02, 8.78294464e-03, 2.72301137e-02, 6.23319075e-02,
          -1.79091152e-02, -9.42091644e-03, 3.47555019e-02,
          4.88488749e-03, 1.38087403e-02, 3.44034545e-02,
          -8.52927286e-03, 8.33650678e-03, -3.60096768e-02,
          -6.08213097e-02, -2.32925490e-02, 1.29002398e-02,
          5.57436273e-02, -5.60346134e-02, -2.63049286e-02,
          -4.03320380e-02, -2.28313059e-02, 2.71981233e-03,
          -3.81066576e-02, -7.36343116e-03, -1.04814554e-02,
          -9.07454081e-03, -2.04982720e-02, -1.22475019e-02,
          -3.62582244e-02, -7.12706894e-02, 6.87838858e-03,
          -3.89226824e-02, -4.10873145e-02, -3.11589818e-02,
          -4.96336445e-02, -7.39048468e-03, -5.51894773e-03,
          -2.44598947e-02, 1.00458115e-02, 6.11649454e-03,
          1.88455302e-02, 6.83600083e-02, -1.03503112e-02,
          -2.08998714e-02, -2.61517484e-02, -1.06418598e-02,
          2.40527932e-02, -2.83675455e-02, 5.23045026e-02,
          4.79396880e-02, 1.82382297e-02, -9.93538201e-02,
          -8.16169903e-02, -7.32311280e-04, 2.31784917e-02,
          3.94598357e-02, -4.00171056e-02, -5.74126020e-02,
          -1.88088492e-02, -3.92463766e-02, -3.17336097e-02,
          -3.49425748e-02, 2.46817768e-02, 3.84632237e-02,
          4.22780998e-02, -5.57189919e-02, -6.27534557e-03,
          5.53539069e-03, -2.87296101e-02, -2.35593636e-02,
          -9.94256698e-03, -1.79494619e-02, 2.75795460e-02,
          2.50007063e-02, -3.87610272e-02, -7.36040771e-02,
          1.01513462e-02, -5.04185222e-02, -6.71292320e-02,
          -5.66332228e-02, -1.84269901e-02, 4.75858012e-03,
          2.58908570e-02, -4.46859635e-02, -1.87188108e-02,
          -1.47032435e-03, -3.73468548e-02, -1.17734792e-02,
          -3.26483659e-02, 4.15045060e-02, 2.94410326e-02,
          4.58473153e-03, -2.16674544e-02, -1.16531709e-02,
          -1.12759983e-02, -1.87862627e-02, -3.25632282e-02,
          -5.33616990e-02, 4.63307239e-02, 1.03665898e-02,
          -1.81663856e-02, 1.27689103e-02, 2.34542675e-02,
          -6.53397217e-02, -6.94235638e-02, -2.67292876e-02,
          -2.83271633e-02, -7.97984481e-04, 2.60715652e-02,
          1.66383367e-02, -3.32242586e-02, -9.71972197e-03,
          -3.02972812e-02, 2.03379095e-02, 6.65886374e-03,
          -6.53143004e-02, 4.19900753e-02, 5.61014563e-02,
          2.44040973e-02, -4.24645208e-02, -2.42240932e-02,
          -5.24868295e-02, 1.85017511e-02, -2.14029495e-02,
          3.30599770e-03, -1.19535252e-02, -9.07343905e-03,
          -2.55156066e-02, -4.67365980e-03, 6.34806976e-02,
          -1.43605750e-02, -8.53261873e-02, 2.77051199e-02,
          -4.40017991e-02, 3.32700973e-03, 3.93541008e-02,
          -2.24941783e-03, 2.71059480e-02, 2.49432437e-02,
          -4.78839725e-02, -3.93731296e-02, 3.96758653e-02,
          2.08745580e-02, 3.41869630e-02, 1.76150668e-02, 1.74234826e-02,
          -4.22066301e-02, -2.09623985e-02, 1.04699740e-02,
          2.45492533e-02, 7.82313477e-03, 1.64204966e-02, 6.03008026e-04,
          2.07641628e-02, 2.02242266e-02, 1.81342866e-02,
          -3.22231017e-02, 3.51547147e-03, 2.72937845e-02,
          3.98068801e-02, 4.30189595e-02, -2.98371855e-02,
          1.23500479e-02, -1.07895304e-02, 1.78047474e-02,
          -2.58510187e-02, -4.99632508e-02, -1.33632785e-02,
          4.06382754e-02, -2.78106425e-02, -3.77330035e-02,
          -8.52484722e-03, -2.46138908e-02, 1.08524663e-02,
          -2.61906926e-02, -5.24583608e-02, -7.17297848e-03,
          2.24425700e-02, -1.60403457e-02, -1.00070378e-02,
          8.45390279e-03, 4.82535269e-03, 6.48445860e-02, 1.91940665e-02,
          -1.82373151e-02, -3.16094211e-03, 1.72525365e-02,
          -3.55370715e-02, 9.02817771e-03, -6.17224444e-03,
          2.09195577e-02, 8.44282955e-02, 3.24849188e-02, 4.40661283e-03,
          2.42221225e-02, 4.07261215e-03, -4.27074246e-02,
          3.07927909e-03, 4.24403548e-02, -3.94451916e-02,
          -2.30057444e-02, -4.82395403e-02, -5.02057113e-02,
          -5.70777580e-02, -3.28259543e-02, 1.96524058e-02,
          -1.32176960e-02, -1.63521823e-02, -4.43740040e-02,
          -4.61676568e-02, -1.43174769e-03, -2.84121688e-02,
          4.91597643e-03, -2.21546236e-02, 6.61567412e-03,
          8.23257398e-03, 2.10578237e-02, -3.27510131e-03,
          4.37406860e-02, 7.70768733e-04, -2.09776759e-02,
          -2.12208508e-03, -2.16609538e-02, -1.34475594e-02,
          4.39952053e-02, 1.52473068e-02, 4.65278029e-02, 2.37120688e-02,
          -6.51900247e-02, -7.11970925e-02, -3.95358577e-02,
          1.32122543e-02, 1.36680026e-02, -9.27591522e-04,
          -5.43867685e-02, -7.51267895e-02, 8.25612620e-03,
          3.17117237e-02, 1.25235058e-02, 2.22386699e-02,
          -2.50783609e-03, 3.53234001e-02, 1.78465452e-02,
          -5.52183501e-02, -3.87765877e-02, 2.46440042e-02,
          4.22988795e-02, -1.91239286e-02, -3.58583331e-02,
          -3.37630212e-02, 2.04356778e-02, 3.65946405e-02,
          -3.37757692e-02, -1.63698066e-02, 3.23293395e-02,
          -5.00379652e-02, -8.48370939e-02, -2.29990063e-03,
          8.87769759e-02, 6.32495210e-02, -7.53685227e-03,
          -9.47286263e-02, -4.89375554e-02, 4.33638953e-02,
          5.32626733e-03, -1.67423151e-02, 6.88962219e-03,
          3.68258990e-02, 8.88827199e-04, 1.40558956e-02,
          -7.60381520e-02, -7.04730228e-02, 2.45355046e-03,
          5.62137999e-02, 1.98864862e-02, 5.53116994e-03,
          -1.38434554e-02, 1.77134555e-02, 1.30884359e-02,
          -3.60536799e-02, -7.95240402e-02, -5.30412048e-03,
          1.63555332e-02, -6.74265251e-03, 1.66406184e-02,
          1.86385065e-02, -9.52393655e-03, -8.15467723e-03,
          -3.67521755e-02, -2.89913616e-03, 6.87001646e-02,
          3.00949123e-02, 2.09851097e-02, 3.76939587e-02, 1.69608276e-02,
          3.87608167e-03, 2.85594892e-02, -2.09772890e-03,
          -3.19487229e-02, 1.93416532e-02, -1.85722634e-02,
          -3.03040743e-02, 2.02686340e-02, 1.85713619e-02,
          1.25931632e-02, -2.13921890e-02, -2.49183755e-02,
          -2.84667835e-02, -1.14519848e-03, -3.96517776e-02,
          -2.67922971e-02, -2.35940572e-02, 3.04550324e-02,
          -2.39419937e-02, -1.59036107e-02, -3.11821625e-02,
          -2.30799355e-02, -2.69000605e-02, -1.12167969e-02,
          -5.00845909e-02, 8.57451558e-03, 3.02305371e-02,
          1.54505875e-02, 2.35352386e-03, -2.50324905e-02,
          -4.61761802e-02, -1.43340286e-02, -3.82276699e-02,
          1.95482443e-03, -9.34574474e-03, 5.92307858e-02,
          1.31463474e-02, 2.67646071e-02, 2.39350460e-02, 4.37518358e-02,
          -7.35542625e-02, -3.59834395e-02, -3.12812179e-02,
          2.45908741e-03, 5.19767813e-02, 4.76208702e-02, 4.80810646e-03,
          -2.71660760e-02, 3.44559588e-02, -6.69298053e-04,
          3.49995121e-02, 2.74933707e-02, 7.05359578e-02, 2.95827910e-02,
          1.81254232e-03, -4.45826836e-02, -6.39147237e-02,
          -3.94370081e-03, -4.02172804e-02, -2.22512763e-02,
          9.09931734e-02, 6.29031211e-02, 6.61680009e-03,
          -2.78646611e-02, 4.58144732e-02, 4.27340902e-02,
          4.28000838e-02, -4.31613922e-02, -1.55419894e-02,
          1.96515657e-02, 2.73593720e-02, 2.10128259e-02, 7.97729641e-02,
          1.89800598e-02, -4.09816252e-03, 4.96137217e-02,
          2.91433907e-03, -4.72380184e-02, 8.68519396e-02,
          1.45153888e-02, -1.48277273e-02, 5.02736941e-02,
          -1.41538605e-02, -3.32937785e-03, 3.13771889e-03,
          3.39293131e-03, -6.44453615e-02, 6.00130185e-02,
          -1.99151272e-03, -1.61703769e-02, 9.90044698e-03,
          1.03995092e-02, -1.35130258e-02, 1.29957860e-02,
          -1.66545995e-02, -6.85532838e-02, 3.39370556e-02,
          -1.28845852e-02, -7.54940929e-03, -1.21923722e-03,
          6.26157736e-03, 6.39991229e-03, 3.48198153e-02, 6.67146174e-03,
          -1.16990395e-01, 6.98308200e-02, 2.85829529e-02,
          -1.04417903e-02, 2.99038347e-02, 5.81394918e-02,
          2.31513046e-02, 5.27418517e-02, -1.87977124e-03,
          -9.29734111e-02, 3.64236124e-02, 2.16302257e-02,
          2.51953024e-02, 1.71329323e-02, -3.31540331e-02,
          -5.26245162e-02, -1.08351614e-02, -7.97799602e-03,
          -6.88670799e-02, 6.77569583e-03, 4.94966283e-04,
          2.80543454e-02, -2.67940536e-02, -4.02030274e-02,
          -5.04603572e-02, 8.09562742e-04, 4.32232535e-03,
          2.55250558e-03, 3.64182889e-02, 2.88998690e-02, 1.88006330e-02,
          -1.00251231e-02, 8.66123568e-03, 6.39246684e-03,
          2.88816821e-02, -3.00180037e-02, -1.10518679e-01,
          -1.49051836e-02, 8.45783483e-03, 2.90190019e-02,
          -6.35562278e-03, -3.80024826e-03, 2.10516099e-02,
          5.10300659e-02, -8.92672688e-03, 1.72179434e-02,
          8.65141228e-02, 4.37114052e-02, 1.58125926e-02, 7.32384250e-03,
          -6.84208702e-03, -3.37840989e-02, -8.70621856e-03,
          3.30080325e-03, -6.87075406e-02, 5.16977832e-02,
          1.91249438e-02, 2.95173395e-02, 2.51305383e-02,
          -2.07747612e-03, -2.71410048e-02, 1.87785756e-02,
          1.91751979e-02, -6.56029359e-02, -3.12887803e-02,
          -3.21945623e-02, 5.21630747e-03, 2.41733920e-02,
          3.48548777e-03, 5.10090962e-02, 6.51955456e-02,
          -1.38143804e-02, -3.86657566e-02, 4.54682373e-02,
          -1.69614460e-02, -1.82383936e-02, 1.87740009e-02,
          -2.74247932e-03, 1.32759511e-02, 4.98135388e-02,
          4.32379097e-02, -3.40574607e-02, -4.66629378e-02,
          -6.77670762e-02, -1.95421036e-02, 3.08285952e-02,
          -6.67118235e-03, 1.60233758e-03, 2.80272719e-02,
          2.85919663e-02, -4.36319523e-02, -5.12901554e-03,
          -1.29000098e-02, 1.52673759e-02, 3.72325070e-02,
          -6.43729940e-02, 1.11785149e-02, 2.73384736e-04,
          1.55296363e-02, 3.60314595e-03, 3.98375131e-02, 3.54978032e-02,
          2.11711944e-04, -1.51538597e-02, -7.16578262e-03,
          2.24519055e-02, 7.09835067e-02, 2.48313323e-02,
          -6.90614954e-02, 1.05241109e-02, -4.61204275e-02,
          -2.34888215e-02, 1.71778463e-02, -6.94529191e-02,
          3.12913731e-02, 8.73607546e-02, 4.54199091e-02,
          -2.46676560e-02, 7.47523233e-02, 1.77707598e-02,
          3.85931432e-02, -3.40336524e-02 ]
   decision_functions:
      -
         sv_count: 1
         rho: -3.1999715695119018e+00
         alpha: [ 1. ]
         index: [ 0 ]
