%YAML:1.0
my_svm: !!opencv-ml-svm
   svm_type: C_SVC
   kernel: { type:LINEAR }
   C: 1.0000000000000001e-01
   term_criteria: { epsilon:2.2204460492503131e-16, iterations:150 }
   var_all: 3780
   var_count: 3780
   class_count: 2
   class_labels: !!opencv-matrix
      rows: 1
      cols: 2
      dt: i
      data: [ -1, 1 ]
   sv_total: 1
   support_vectors:
      - [ 2.21289974e-03, 3.82623672e-02, -5.99541352e-04,
          -5.05191535e-02, -8.63727033e-02, -2.58615781e-02,
          1.42070069e-03, -1.00888327e-01, -5.33941425e-02,
          3.83391865e-02, 3.74806300e-02, -7.01322854e-02,
          -1.29881483e-02, 1.80283990e-02, 8.19077343e-02,
          4.65945229e-02, -1.24886483e-02, -5.30881342e-03,
          -3.16376053e-02, 5.19740917e-02, -7.81499688e-03,
          3.43087465e-02, 3.29437442e-02, -6.56030402e-02,
          -3.38645540e-02, -5.36889620e-02, -7.69941434e-02,
          7.59915337e-02, -3.89399715e-02, -9.79603902e-02,
          -4.14602412e-03, 6.51064962e-02, 3.68992835e-02,
          1.83914751e-02, 5.93032222e-03, 6.78797215e-02,
          -8.80978128e-04, -4.96227406e-02, -8.75099599e-02,
          3.97422761e-02, 4.68838960e-02, 6.84491619e-02, 1.24552352e-02,
          -1.30657423e-02, -3.77817936e-02, 8.85456707e-03,
          1.80468597e-02, -4.07227911e-02, 2.52890624e-02,
          2.11770162e-02, -6.41824910e-03, -3.97717580e-03,
          -2.55458504e-02, -7.36682266e-02, 2.23816372e-03,
          -7.28325099e-02, -8.82134810e-02, 3.30791697e-02,
          7.83339739e-02, 7.43364170e-02, 1.81101379e-03,
          -1.57726724e-02, -6.72902614e-02, -2.76669394e-02,
          -8.80412641e-04, -3.16804349e-02, 3.35717238e-02,
          5.64549379e-02, -2.71998476e-02, -4.36009327e-03,
          -3.45136411e-02, -9.59591568e-02, 3.27672847e-02,
          5.70178479e-02, -9.61596426e-03, 4.35375124e-02,
          -4.04190570e-02, -3.72221917e-02, 5.83014544e-03,
          2.05247290e-02, -1.37849459e-02, 8.22088122e-02,
          5.32019511e-02, -1.39831705e-02, 3.86606045e-02,
          -3.82533148e-02, 2.27263235e-02, 7.10554123e-02,
          3.41512077e-02, 3.21435519e-02, -5.56546915e-03,
          3.31541598e-02, -5.08244373e-02, 4.25080732e-02,
          9.44528729e-03, -4.34954800e-02, -5.96666522e-03,
          -9.43636801e-03, -9.69698727e-02, 1.49763674e-02,
          -1.87595878e-02, -1.03770666e-01, 6.81806356e-02,
          2.35088542e-02, 2.73639616e-02, 2.59291660e-02,
          -2.01221555e-02, -2.01308224e-02, 4.50997427e-02,
          3.53562571e-02, -3.48311034e-03, 6.44974411e-02,
          -1.00630717e-02, 3.16416696e-02, 3.50796580e-02,
          -3.61956879e-02, -3.79110239e-02, -4.94961776e-02,
          3.09522804e-02, 1.76144186e-02, 7.49086812e-02,
          -1.06595289e-02, 5.26990891e-02, -2.31551528e-02,
          -5.51425293e-02, -3.46725173e-02, -1.59053300e-02,
          -4.85741198e-02, -8.53917673e-02, 6.01385087e-02,
          2.66135000e-02, 2.43943799e-02, -1.43395849e-02,
          -1.51394093e-02, -2.82245763e-02, -7.28594586e-02,
          -6.07531630e-02, -4.08285446e-02, 4.95742559e-02,
          7.81789273e-02, 4.01486009e-02, -5.28413877e-02,
          -3.38688232e-02, -3.80510092e-02, -1.24483975e-03,
          7.41105825e-02, 2.65129190e-02, 9.12335739e-02, 9.95164551e-03,
          1.43593056e-02, -6.39162138e-02, -1.95468329e-02,
          -1.05313407e-02, 5.93308657e-02, 3.49107087e-02,
          -4.04196121e-02, 8.27773809e-02, 2.45654099e-02,
          8.46116804e-04, -3.29834782e-02, 2.45259888e-02,
          -2.80035660e-03, -2.42008688e-03, -5.59551874e-03,
          -4.88704443e-02, 5.50447181e-02, 6.81271628e-02,
          -7.59795960e-03, -7.83436671e-02, -4.44027185e-02,
          -5.48360124e-02, 8.66902173e-02, 3.47654894e-02,
          -6.66919500e-02, 4.33511287e-02, 6.87403232e-03,
          -1.88178159e-02, -7.62279853e-02, 2.50843056e-02,
          5.11136688e-02, 2.48667952e-02, 1.96797820e-03,
          -2.28778441e-02, 5.20357229e-02, -1.37955481e-02,
          -3.14781778e-02, -1.37276417e-02, 7.77321076e-03,
          -1.04972757e-02, -9.12367739e-03, 2.99597029e-02,
          -9.21773352e-03, -8.91253259e-03, 1.62509810e-02,
          6.23783609e-03, 2.67710444e-02, -2.01902613e-02,
          -1.10829296e-03, 2.89539248e-02, -7.02339271e-03,
          -2.10085753e-02, 1.43880490e-02, -5.72037138e-03,
          1.61304362e-02, -6.24431670e-02, 1.12794228e-02,
          1.54417204e-02, -4.27293219e-02, 8.20339750e-03,
          1.30287847e-02, 3.54108494e-03, -1.77937616e-02,
          1.98961832e-02, -4.55804244e-02, 1.60611409e-03,
          -2.88836975e-02, -4.28106934e-02, 3.40567529e-02,
          2.84931972e-03, -2.84918901e-02, 1.01280520e-02,
          7.52360523e-02, 5.54682687e-02, 2.77763954e-03,
          -3.17664258e-02, -5.49597964e-02, 4.40621004e-02,
          3.45698968e-02, -4.62747616e-04, 1.99329719e-04,
          9.24334526e-02, 6.31986558e-02, 3.89329083e-02,
          -9.00989249e-02, -5.07285260e-02, 1.29018370e-02,
          2.54531507e-03, -2.37098429e-02, 5.21738315e-03,
          1.87644269e-02, -2.11949274e-02, 2.18556132e-02,
          -6.10057311e-03, -2.85818353e-02, 2.67049912e-02,
          1.80703811e-02, -9.43639874e-03, 3.38862315e-02,
          -2.47589722e-02, -2.95539889e-02, -3.20547037e-02,
          -4.48966771e-02, -8.08591992e-02, 3.16828750e-02,
          6.03584498e-02, 2.87604406e-02, -2.44813021e-02,
          4.60659787e-02, 5.32203317e-02, 5.51330149e-02,
          -5.55300526e-02, -5.11697680e-02, -1.69650223e-02,
          8.91281571e-03, 4.06014686e-03, -2.44226120e-02,
          1.19116316e-02, 1.98464021e-02, 8.40362310e-02, 4.90577891e-02,
          -3.12347393e-02, 3.73508558e-02, 4.46215086e-02,
          1.67607758e-02, 2.43706871e-02, 1.72329023e-02,
          -1.72594246e-02, -2.18140036e-02, -5.16633652e-02,
          -5.26724532e-02, -1.40152732e-02, 2.28048209e-03,
          2.95350198e-02, 3.51809636e-02, 5.86308055e-02,
          -3.48075442e-02, 2.18850914e-02, 8.89479090e-03,
          -6.34521395e-02, -6.92380918e-03, -8.56805127e-03,
          3.99446562e-02, -2.30767410e-02, 1.14351641e-02,
          -3.94857815e-03, 2.73377281e-02, 5.90265170e-02,
          -3.69689539e-02, 2.70766821e-02, -1.60584541e-03,
          2.48196982e-02, -5.33702597e-03, 1.42068351e-02,
          -5.02762087e-02, -1.38462577e-02, 3.15677077e-02,
          -3.09030637e-02, -7.18934229e-03, -4.81364615e-02,
          2.38139052e-02, 4.64486815e-02, 5.79150841e-02,
          -4.11870480e-02, 1.98591538e-02, -4.95226169e-03,
          -5.24901748e-02, -5.84748127e-02, -3.06524392e-02,
          4.81522031e-04, 1.69178396e-02, 6.87177554e-02, 4.51805964e-02,
          3.73067483e-02, -4.29931507e-02, -2.76902691e-03,
          5.16521633e-02, 6.36700243e-02, 1.88668873e-02, 3.35302926e-03,
          -2.54530646e-03, -5.78262955e-02, -4.56131436e-02,
          2.48507224e-02, 2.28861179e-02, 2.79461946e-02, 8.47548172e-02,
          3.43967192e-02, 4.54232506e-02, 2.13959087e-02,
          -3.06530297e-02, -4.56757881e-02, 2.26790365e-02,
          -9.07130819e-03, 3.41598364e-03, 3.39526944e-02,
          -3.34644094e-02, -3.00426763e-02, 1.50689818e-02,
          -2.17275159e-03, -1.57729862e-03, -4.10265140e-02,
          1.86713226e-02, 2.22718380e-02, -1.99602102e-03,
          -2.27721743e-02, 7.79750124e-02, -7.06155738e-03,
          -6.79042786e-02, -3.92761379e-02, -4.73929718e-02,
          1.14542386e-02, 1.06222164e-02, 6.69314191e-02,
          -2.05691457e-02, 4.85121086e-02, 5.65770008e-02,
          2.60414518e-02, -2.49625687e-02, 9.81621258e-03,
          -2.70241201e-02, -2.75165066e-02, 1.93600822e-02,
          1.67828444e-02, 4.20128964e-02, 1.11073002e-01, 1.01371586e-01,
          -1.62279420e-02, -1.55901350e-02, 3.44121493e-02,
          -3.26748453e-02, 2.29438022e-02, -7.11813197e-02,
          3.60480994e-02, -2.81397365e-02, -6.05080323e-03,
          2.14269515e-02, 3.48440334e-02, 1.68790761e-02,
          -5.84577732e-02, 1.46581605e-02, -2.28733346e-02,
          7.58179091e-03, 5.66362664e-02, -1.18513806e-02,
          4.30618599e-02, 7.74507225e-02, -5.79059310e-02,
          -8.65438581e-03, 1.71334762e-02, 2.41189133e-02,
          -1.37634212e-02, 6.71829358e-02, 8.97184163e-02,
          1.83618404e-02, -3.20814410e-03, -3.22911777e-02,
          1.83546823e-02, 5.64452447e-02, -4.77737524e-02,
          -2.09416058e-02, 2.06828322e-02, 2.38153134e-02,
          -4.41962369e-02, -1.31099895e-02, 1.29835326e-02,
          -6.71895966e-03, 4.93843667e-02, -8.58077593e-03,
          -3.24877799e-02, 6.02375790e-02, 7.76160508e-04,
          3.71438526e-02, 7.65570253e-02, -7.58931565e-04,
          -2.57121231e-02, 3.32492068e-02, -6.57528341e-02,
          -5.30358106e-02, 2.43378561e-02, -1.59458909e-02,
          -2.75132321e-02, 1.78407729e-02, -1.88184567e-02,
          -5.80549194e-03, 4.97363247e-02, -7.93139338e-02,
          -4.51127905e-03, 7.08954036e-02, 3.95019613e-02,
          -6.58708066e-02, -2.84756068e-02, -3.20057645e-02,
          -2.49696132e-02, 7.58178486e-03, -9.52966139e-02,
          -1.80655159e-02, 1.21034235e-01, 1.99440792e-02,
          -5.39312102e-02, 4.34730522e-04, -2.75554266e-02,
          -3.13390195e-02, 5.43481484e-02, -2.39458866e-02,
          -2.70820316e-02, 9.16167349e-03, 3.97543190e-03,
          -6.04570359e-02, -5.53260138e-03, 1.56751554e-02,
          -2.07285471e-02, 1.26225622e-02, -6.82574138e-02,
          1.56795830e-02, 1.03433887e-02, -3.59682105e-02,
          -7.56533295e-02, -1.23855630e-02, 2.50931992e-03,
          -8.60359427e-03, 7.13813538e-03, -1.06531568e-01,
          -1.23090073e-01, 1.08572461e-01, 2.55071446e-02,
          -5.73653635e-03, 2.38930918e-02, 2.57828981e-02,
          -4.84971888e-02, -2.54583769e-02, 2.47753318e-02,
          -8.65078270e-02, 9.49351788e-02, 1.06314253e-02,
          -1.26601374e-02, 6.95555955e-02, 2.27212626e-02,
          2.32047448e-03, -3.42873670e-02, -1.12623848e-01,
          -7.08678663e-02, 2.04306189e-02, 3.89480181e-02,
          2.23668441e-02, 3.13285254e-02, 3.14999260e-02,
          -3.72389033e-02, -3.22498754e-02, -1.79574955e-02,
          -7.67060444e-02, 5.29225729e-02, 1.63869895e-02,
          2.58887243e-02, 4.59546819e-02, 7.97315675e-04,
          -2.18039826e-02, 3.42268273e-02, 4.20798771e-02,
          -9.20877308e-02, 4.13719341e-02, 1.20465504e-02,
          1.76333804e-02, 4.39818241e-02, -6.28971159e-02,
          -9.73785296e-03, 7.91800916e-02, 6.52087927e-02,
          -1.50088847e-01, -1.35050910e-02, 2.47940794e-02,
          3.04811746e-02, -1.76805500e-02, 1.60948969e-02,
          -5.53761348e-02, 1.10299103e-02, -1.19912615e-02,
          -1.08045891e-01, -6.15070993e-03, 1.14389993e-02,
          3.74046192e-02, 6.54160231e-02, -3.22999880e-02,
          -3.64413895e-02, 2.30867378e-02, -4.12467755e-02,
          -1.60906136e-01, -2.17405222e-02, 8.53738785e-02,
          8.39344412e-02, 5.15778400e-02, -5.05493470e-02,
          3.18274125e-02, 5.45802675e-02, 1.01916783e-01, 4.33283187e-02,
          -2.57133134e-02, -5.88597097e-02, -4.40346636e-02,
          -1.03056654e-01, 2.73169242e-02, -5.89478873e-02,
          -7.12885782e-02, 1.41043670e-03, 3.59932072e-02,
          -5.27642444e-02, -1.26000391e-02, 2.54934393e-02,
          5.41144684e-02, -5.19025847e-02, -3.26617956e-02,
          2.35861819e-02, 7.42909610e-02, 3.30724195e-02, 1.35172391e-02,
          2.11701915e-03, 2.61166375e-02, -8.27855915e-02,
          1.19019775e-02, -8.17329958e-02, -1.15282871e-01,
          -1.41227767e-02, -1.75157015e-03, -3.16834860e-02,
          5.58185726e-02, 9.13214311e-02, 2.35369653e-02, 3.70359374e-03,
          -2.74501648e-02, -1.39561929e-02, 4.51278463e-02,
          7.54233450e-02, 5.64450324e-02, 2.33056787e-02, 3.58852819e-02,
          -1.22740474e-02, -2.74695773e-02, -3.59234624e-02,
          -6.78259730e-02, 7.01413676e-02, -2.31646816e-03,
          -3.77699658e-02, -1.05942525e-02, 1.58031769e-02,
          -7.49772862e-02, 1.63157552e-03, -3.51507030e-02,
          -5.07683009e-02, 3.05804834e-02, -2.35488750e-02,
          -1.51561876e-03, 1.37960014e-03, 3.38237025e-02,
          1.25823803e-02, -2.08018329e-02, -5.12343310e-02,
          -4.74117212e-02, 1.19965293e-01, 3.28579247e-02,
          -5.77114671e-02, -8.19554776e-02, -2.32978892e-02,
          -5.23696244e-02, 4.05141860e-02, -6.94288453e-03,
          -8.70696306e-02, 8.98890868e-02, -6.32367749e-03,
          -4.45375480e-02, 2.95930244e-02, 6.06495664e-02,
          -4.91515584e-02, 4.42415886e-02, -1.66663714e-02,
          -6.58896565e-02, 6.31558076e-02, 3.55201960e-02,
          -1.48544423e-02, 5.22053801e-02, 5.41176535e-02,
          1.20882522e-02, -3.43183540e-02, -2.13791635e-02,
          -1.09352157e-01, 7.72796944e-02, -2.95739993e-02,
          -1.50274104e-02, 1.12431487e-02, 2.67474595e-02,
          -6.78491071e-02, -4.77991253e-02, -3.50796543e-02,
          -1.41392693e-01, 3.52110714e-02, 1.55693041e-02,
          3.31191681e-02, 4.39719781e-02, 3.21042761e-02,
          -4.23803031e-02, 5.47811799e-02, 3.74586997e-03,
          -5.90132177e-02, 2.88794786e-02, -1.29339728e-03,
          -7.59511068e-03, 1.83200259e-02, 4.84711118e-02,
          4.20344099e-02, 3.45018171e-02, -1.72147918e-02,
          -9.73365009e-02, 7.46762976e-02, 8.99766162e-02,
          3.16128582e-02, 4.03673314e-02, 3.35889906e-02, 3.13468277e-02,
          -7.15437084e-02, -2.17260513e-02, -9.74072367e-02,
          2.59521790e-02, -6.09079236e-03, 1.16890045e-02,
          -4.54841889e-02, 2.29499340e-02, -9.80181433e-03,
          -4.88004945e-02, -8.22166800e-02, -9.30091292e-02,
          4.74875160e-02, 8.29786658e-02, 4.24475819e-02,
          -1.51785580e-03, 3.80168878e-03, -4.55365516e-02,
          1.74725708e-02, -2.89394073e-02, -1.19122937e-01,
          7.84788504e-02, 6.20318986e-02, 2.23187078e-02,
          -8.39764103e-02, -8.76597408e-03, 1.97569327e-03,
          5.73797226e-02, -1.54583063e-02, -6.20745905e-02,
          3.01063024e-02, 3.03745475e-02, 5.22441464e-03,
          -4.16219980e-02, 2.99950857e-02, 2.32867580e-02,
          1.40681090e-02, -1.16417356e-01, -8.26836452e-02,
          1.05053805e-01, 6.38526008e-02, 3.03659588e-02,
          -4.04317416e-02, -2.34682113e-02, -1.45707512e-02,
          2.44097169e-02, -3.81135792e-02, -1.06467664e-01,
          1.20877996e-02, -1.09665375e-02, 8.46439227e-03,
          -1.01784073e-01, -3.62856081e-03, 2.34598555e-02,
          1.71392709e-02, 1.28232492e-02, -1.37685565e-02,
          1.29971397e-03, 1.58364570e-03, -8.96571949e-03,
          -8.73244628e-02, 9.12971329e-03, 2.66353022e-02,
          2.16671415e-02, 1.77591145e-02, 2.55994555e-02, 2.65542027e-02,
          5.73624559e-02, 5.68475276e-02, -7.39713982e-02,
          7.16607645e-03, 4.94344719e-02, 1.26408068e-02,
          -1.89694036e-02, -7.78467506e-02, -3.61812264e-02,
          -2.67363228e-02, -2.96422653e-03, -1.02728397e-01,
          -3.70788984e-02, 6.11090288e-03, -2.52345041e-03,
          2.05561183e-02, -2.57312506e-02, 3.33903767e-02,
          8.42470229e-02, 4.87516262e-03, -1.44021437e-01,
          -2.87289899e-02, -3.55335535e-04, -8.00522324e-03,
          -1.97365023e-02, 9.50416457e-03, 3.60851549e-02,
          4.90396358e-02, 7.90004386e-04, -1.01607077e-01,
          4.36279271e-03, 1.87472962e-02, -2.00197543e-03,
          -3.85116637e-02, 2.59990897e-02, -4.77459515e-03,
          5.81415407e-02, 5.85174235e-03, -8.62277895e-02,
          -2.96701565e-02, 5.09176888e-02, -5.48404362e-03,
          1.92920882e-02, -2.11320650e-02, 3.98533195e-02,
          5.81596978e-02, 2.36822534e-02, -1.30380169e-01,
          -6.20297864e-02, 1.79166645e-02, -6.55238703e-02,
          -5.07852398e-02, 4.35212161e-03, 4.50921655e-02,
          1.35885388e-01, 4.35042344e-02, -5.54176345e-02,
          -5.24055660e-02, -1.22922007e-02, 2.18839645e-02,
          2.79597007e-02, 9.87854041e-03, 7.04395073e-03, 5.69312163e-02,
          4.02489193e-02, -4.90323678e-02, -3.36603150e-02,
          5.88618815e-02, 2.10044496e-02, 5.38226701e-02,
          -3.76808494e-02, -3.12396437e-02, 1.89067498e-02,
          2.28297021e-02, -2.33070366e-02, 4.74043936e-02,
          5.95262237e-02, -5.07287085e-02, -1.07248100e-02,
          1.01729706e-02, 2.57444289e-02, 8.39115754e-02, 4.80051488e-02,
          -4.34695883e-03, -4.01259884e-02, 5.52971363e-02,
          -2.53262632e-02, -7.12695122e-02, -9.03563872e-02,
          -2.53053587e-02, 9.23444852e-02, -3.67751233e-02,
          -1.88122522e-02, -3.20279300e-02, 7.05575049e-02,
          -4.01393361e-02, 2.65109763e-02, -1.59771591e-02,
          -1.59018412e-02, 4.82713841e-02, 1.98819377e-02,
          -3.39016877e-02, -1.46068283e-03, 2.88958065e-02,
          -4.76048626e-02, -2.73705623e-03, -4.71606571e-03,
          1.29029434e-02, 5.97603954e-02, 3.61040458e-02,
          -8.70321691e-03, 1.93557031e-02, -3.40376757e-02,
          -2.03159582e-02, -1.99318547e-02, 1.34215308e-02,
          -1.36061069e-02, 1.17478957e-02, -5.53758629e-02,
          -7.55462721e-02, -7.49680214e-03, 1.92621760e-02,
          2.34413520e-03, -3.79286823e-03, 6.00838475e-02,
          -4.77187394e-04, 4.33595926e-02, -2.53569484e-02,
          -3.03999577e-02, 5.38167432e-02, 3.39847244e-02,
          7.80449156e-03, 1.30966771e-02, 1.69355981e-02,
          -4.88609076e-03, -6.82807434e-03, -6.07366255e-03,
          -4.70055938e-02, 1.57203544e-02, -2.68903021e-02,
          -1.75046157e-02, 2.40970626e-02, 8.82603694e-03,
          1.97003465e-02, 8.41795132e-02, -2.58067381e-02,
          -5.41072749e-02, -6.31530536e-03, -4.32671644e-02,
          3.47604826e-02, 6.14162385e-02, 4.82110493e-02, 1.81787126e-02,
          3.59844938e-02, -5.92440460e-03, -4.60379049e-02,
          -1.00223934e-02, 4.67723720e-02, 4.57779206e-02,
          3.27488817e-02, 1.03933159e-02, 3.67108695e-02, 7.00636283e-02,
          -1.70316286e-02, -3.48241329e-02, 2.03666911e-02,
          -7.15098251e-03, 2.20422093e-02, 1.02871330e-02,
          2.16452368e-02, -2.43260283e-02, 9.42365732e-03,
          -1.29044792e-02, -1.34509495e-02, 3.01511362e-02,
          3.95058431e-02, 1.20033510e-02, 4.88800136e-03, 7.28893057e-02,
          4.89774160e-02, -3.91547605e-02, 2.49586236e-02,
          -3.58345658e-02, 6.39786273e-02, 5.05591221e-02,
          3.42890136e-02, 3.73324640e-02, 9.85008199e-03, 1.53132975e-02,
          7.80929998e-03, -1.95054151e-02, 1.90085694e-02,
          7.69151449e-02, 3.21999490e-02, 1.83358882e-02, 4.92920801e-02,
          6.54589608e-02, 1.07441671e-01, 3.57266590e-02,
          -3.54884304e-02, 7.64849829e-03, 4.14419025e-02,
          5.71679696e-02, 2.51741465e-02, 3.17282043e-02, 7.74104595e-02,
          -1.35940826e-02, -1.79084521e-02, 2.56665833e-02,
          -5.89275137e-02, 6.38538003e-02, 8.29593539e-02,
          -3.44190001e-02, -2.29472015e-02, 3.65125202e-02,
          -5.82022555e-02, -3.21054868e-02, 2.62432043e-02,
          -1.75316185e-02, 3.94086577e-02, 3.38252038e-02,
          -7.75072118e-03, 1.13041596e-02, 4.65504937e-02,
          2.00160611e-02, 7.57295266e-02, -3.65266614e-02,
          -6.03639036e-02, 2.07382478e-02, 5.89011647e-02,
          -5.06595895e-02, -5.35009541e-02, -1.16397804e-02,
          -5.67956194e-02, 2.36348808e-02, 1.92872453e-02,
          -5.62758446e-02, -2.41567623e-02, -2.11593527e-02,
          -5.20033389e-02, 4.40357113e-03, 7.12454915e-02,
          -2.35219970e-02, -7.45277014e-03, -1.20847877e-02,
          2.04585381e-02, -3.73711856e-03, -2.89854947e-02,
          -1.74971242e-02, -8.64139944e-03, 4.52806130e-02,
          3.14644654e-03, -3.51828523e-02, -3.00993286e-02,
          -8.41041096e-03, -3.67402807e-02, -3.63652967e-02,
          -3.84557433e-02, -1.10283764e-02, 7.11597800e-02,
          -5.99999737e-04, -4.75114025e-02, -6.36615083e-02,
          -2.71399412e-02, -2.32671648e-02, -4.48285006e-02,
          1.45574016e-02, -2.85928249e-02, 5.62837608e-02,
          1.63389016e-02, 2.99737174e-02, -3.29274088e-02,
          2.87899072e-03, 1.43457847e-02, -1.89734306e-02,
          6.39102375e-03, -8.26189481e-03, 6.18451554e-03,
          -2.38606893e-02, -5.83873615e-02, -1.08766053e-02,
          7.07053905e-03, -4.58861934e-03, -7.89740682e-03,
          4.09747614e-03, -2.41473205e-02, 3.10347304e-02,
          4.48567644e-02, -8.36287532e-03, 5.65345585e-02,
          1.65453684e-02, 7.40056578e-03, 3.02318274e-03, 2.58064009e-02,
          -6.33781850e-02, -5.74374013e-03, -6.34779707e-02,
          1.04371998e-02, 1.58023201e-02, 8.81584454e-03, 3.73213179e-02,
          8.69098306e-03, -4.90753865e-03, -3.37193720e-02,
          4.63093258e-02, 2.41500400e-02, 3.04442756e-02, 6.72829971e-02,
          1.30843967e-02, -4.75547276e-03, -4.97809388e-02,
          -4.51287702e-02, -6.47641867e-02, 4.85592447e-02,
          5.60095496e-02, -2.94583384e-02, 1.97986122e-02,
          1.84603781e-02, -3.29325721e-03, 3.44715081e-02,
          -8.49475637e-02, -5.06931990e-02, 2.45283637e-02,
          -1.49933873e-02, -9.52851847e-02, 5.24787058e-04,
          2.40794811e-02, -9.54263378e-03, 1.59043539e-02,
          -1.76444687e-02, -3.25157307e-02, 3.02045047e-02,
          4.18610312e-02, -9.71177965e-03, 1.86070204e-02,
          -2.08424795e-02, -1.67525280e-02, 9.67431348e-03,
          -4.42955904e-02, -2.41422243e-02, -2.96369027e-02,
          3.18236984e-02, -6.60759732e-02, -3.57720628e-02,
          -5.98637126e-02, -4.30417545e-02, -2.06707586e-02,
          -5.08240312e-02, -3.35430764e-02, -2.71446966e-02,
          -1.37312543e-02, -1.00194320e-01, 1.74920186e-02,
          6.87894076e-02, 4.34015021e-02, -3.08339503e-02,
          8.27926695e-02, 2.24614516e-02, -7.92055279e-02,
          -6.27497882e-02, -1.21652104e-01, -2.69295136e-03,
          1.00617230e-01, 4.78760228e-02, 4.09682952e-02, 2.81930566e-02,
          1.54670430e-02, 6.24947213e-02, -2.14078445e-02,
          -6.13696389e-02, 3.74638028e-02, 5.25691099e-02,
          4.78733294e-02, -4.99806888e-02, 7.34329000e-02,
          -2.43788660e-02, -2.77568195e-02, -5.76305501e-02,
          -8.11598599e-02, 3.22342198e-03, 7.59293884e-02,
          1.78947579e-03, 1.30507313e-02, 9.64182168e-02, 2.04982865e-03,
          -6.58613965e-02, -4.62255627e-02, -9.73998979e-02,
          -1.11808833e-02, 5.76972328e-02, 1.40163265e-02,
          2.83967145e-03, -1.74383800e-02, -3.82000320e-02,
          -2.50730198e-02, 3.38261314e-02, -5.97016066e-02,
          -3.81296054e-02, -7.91745707e-02, 3.11705470e-03,
          -4.26090658e-02, 2.52879672e-02, 1.81391146e-02,
          -3.25520895e-02, -3.60220112e-02, -6.40776604e-02,
          3.94290965e-03, 6.95151985e-02, -8.40090308e-03,
          -2.11997349e-02, 2.68992670e-02, 8.68701842e-03,
          -3.32312025e-02, -6.35500848e-02, -1.00287415e-01,
          -4.22939658e-02, 2.17672754e-02, 2.56659165e-02,
          -4.06792723e-02, 9.84183047e-04, 2.51005180e-02,
          -2.94095352e-02, 1.40544847e-02, -5.18895313e-02,
          -4.58162762e-02, -4.21119574e-03, 1.00629553e-02,
          -3.73599529e-02, -8.76318663e-03, -1.24856113e-02,
          -6.89569041e-02, -3.75291333e-03, -3.65305804e-02,
          1.01655331e-02, 2.10358854e-02, 1.49689829e-02,
          -1.98167656e-02, 4.68316860e-03, 5.18059917e-02,
          1.49841988e-02, -2.50759739e-02, -7.92470202e-02,
          -7.07707256e-02, 2.26950049e-02, 1.01793222e-02,
          -2.96069798e-03, -3.62018235e-02, 8.42651911e-03,
          -2.85103079e-02, -7.62771582e-03, -5.98743930e-02,
          -2.93460451e-02, 7.97011517e-03, -2.10920181e-02,
          1.05332788e-02, -4.52061892e-02, -4.51908186e-02,
          -8.64828229e-02, 7.80508947e-03, 3.14065181e-02,
          4.65476327e-02, -7.03758051e-05, 3.61017734e-02,
          -1.53796133e-02, -2.33849231e-03, -2.36935727e-02,
          -2.59825215e-02, 4.09429744e-02, 4.90167774e-02,
          4.18302566e-02, -3.03450860e-02, -2.31602602e-02,
          2.15687510e-03, -5.90595417e-02, -3.40676890e-03,
          -4.52277809e-02, -2.32733265e-02, -3.18055935e-02,
          2.18250118e-02, -1.15213748e-02, -3.75688039e-02,
          -2.12989170e-02, -1.48540465e-02, 2.50145029e-02,
          3.77483815e-02, 7.31270341e-03, -4.08567339e-02,
          1.18539238e-03, 8.91641807e-03, -1.13690337e-02,
          -6.24543987e-02, 2.70626731e-02, -3.56624015e-02,
          -3.50568257e-02, 2.06004232e-02, -3.66337015e-03,
          3.92918289e-02, -4.03709225e-02, -2.77435742e-02,
          -6.56038057e-03, 3.91324759e-02, 3.05287112e-02,
          -6.87495843e-02, -8.34568962e-03, -1.27232606e-02,
          2.73015145e-02, -7.64814019e-02, 7.50282314e-03,
          3.38757299e-02, -5.60763441e-02, 1.48397330e-02,
          -1.63961912e-03, -2.52465867e-02, -2.06189118e-02,
          -1.96778215e-02, 4.25547361e-04, -3.71928792e-03,
          -1.02761120e-01, 3.02643212e-03, 1.30224302e-02,
          3.08123464e-03, -3.31985354e-02, -9.65691078e-03,
          1.92544647e-02, -3.30756716e-02, -3.81763391e-02,
          -4.96215113e-02, 9.64089483e-03, 2.97891665e-02,
          -2.03978010e-02, -2.98996102e-02, 1.49851907e-02,
          8.44755396e-03, -9.96358022e-02, 1.83784980e-02,
          6.05917387e-02, -4.26622387e-03, 2.51317266e-02,
          -3.23953778e-02, 2.61477623e-02, 3.56535576e-02,
          -1.42745031e-02, -6.75265789e-02, 3.37412432e-02,
          8.08999233e-04, -5.58830723e-02, 2.95359059e-03,
          -1.14306938e-02, 7.15341535e-04, 5.04455604e-02,
          2.55647153e-02, -2.76723187e-02, -3.05625889e-03,
          -3.93610522e-02, -3.76415588e-02, -7.99280708e-04,
          -9.38601885e-03, -1.89753380e-02, 1.17732948e-02,
          6.19241633e-02, -2.21799854e-02, 9.14397985e-02,
          -1.67272501e-02, -1.98359089e-03, 4.11925465e-02,
          -3.29189748e-02, -4.42984077e-04, 1.54572117e-04,
          -1.72796939e-02, -1.03253216e-01, 1.51712820e-02,
          4.95645739e-02, 4.15104628e-03, 4.76760566e-02,
          -2.91881221e-03, -3.05170333e-03, 6.61129877e-02,
          3.46735828e-02, -2.97542624e-02, 7.10113236e-05,
          7.06993230e-03, -3.29736359e-02, 5.25212921e-02,
          1.28578451e-02, -1.00146353e-01, -2.09809598e-02,
          7.53182080e-03, -2.34523397e-02, -1.42263956e-02,
          -4.87473942e-02, -2.61226278e-02, 4.89299260e-02,
          2.43245233e-02, -5.90687655e-02, 4.96960320e-02,
          3.28039308e-03, -2.69911252e-02, 2.66503654e-02,
          4.19274904e-03, -2.57143378e-02, 3.30405273e-02,
          4.83845826e-03, -1.30630843e-02, 4.02418412e-02,
          2.17837282e-02, -3.61583494e-02, -6.28789794e-03,
          1.50187239e-02, -1.87240716e-03, 1.83312548e-03,
          -1.56808030e-02, -4.46308479e-02, -5.61125716e-03,
          -1.28928646e-02, -6.36828765e-02, -4.47334163e-02,
          1.07881147e-02, -2.77962778e-02, 2.25558802e-02,
          6.52579814e-02, -4.94135357e-02, 2.00726259e-02,
          2.10167840e-02, 1.83953345e-02, 5.66046033e-03,
          -4.18729596e-02, -2.41811611e-02, -1.17625380e-02,
          1.96564551e-02, -5.31010590e-02, 7.07994867e-03,
          2.42135394e-02, -2.80460138e-02, -1.16988020e-02,
          -2.18163393e-02, -6.26607239e-02, -2.21048836e-02,
          -1.05004320e-02, -7.20912591e-02, -3.83180678e-02,
          -2.00578365e-02, -3.18472497e-02, 9.94417444e-03,
          1.54377576e-02, -8.19988083e-03, 4.93547097e-02,
          -9.75069997e-04, -3.50977667e-02, -1.01125343e-02,
          2.63508572e-03, -1.17479619e-02, 3.47197913e-02,
          3.43129300e-02, -1.81083474e-02, -2.77637364e-03,
          6.31368114e-03, -2.38124449e-02, -5.10739442e-03,
          4.30942066e-02, -2.94749043e-03, 4.37209345e-02,
          -3.68290283e-02, -5.34238154e-03, 6.44399449e-02,
          4.39225845e-02, 6.88383775e-03, 6.23419732e-02, 5.83495907e-02,
          5.02325781e-02, 3.30025442e-02, 1.10188592e-02, 1.55961346e-02,
          7.56610185e-02, 1.11437375e-02, -1.72041208e-02,
          8.00938625e-03, 9.35428217e-03, -3.88460979e-02,
          -9.17751342e-03, 1.83332860e-02, -1.72071941e-02,
          2.00572014e-02, 3.90922371e-03, -1.20785357e-02,
          5.55562973e-02, 5.52008348e-03, 1.85816158e-02, 4.76669855e-02,
          -6.85057603e-03, -1.01099787e-02, 2.96409838e-02,
          1.83438696e-02, -5.73967919e-02, 4.84716566e-03,
          4.47728075e-02, -1.51696764e-02, 1.32900546e-03,
          -1.75048318e-02, -3.17612700e-02, -1.05906641e-02,
          1.72284748e-02, -1.83228236e-02, 1.03828507e-02,
          -5.23819700e-02, -4.63655451e-03, 6.43279776e-02,
          -1.85342040e-02, -2.40952056e-02, 1.89666320e-02,
          1.91055913e-03, -3.66821587e-02, -2.67641922e-03,
          -1.61849987e-03, 4.36645523e-02, 1.12364888e-01,
          7.66866878e-02, 1.71336383e-02, 2.33338252e-02, 3.12156323e-02,
          4.67286855e-02, -5.13136089e-02, -4.87848893e-02,
          4.32689562e-02, 7.70014077e-02, 4.77094278e-02,
          -1.27629088e-02, 6.88603055e-03, 2.25749388e-02,
          1.10189700e-02, -4.84576039e-02, -6.80111796e-02,
          2.98828427e-02, 1.09516673e-01, 3.05794086e-02,
          -1.57492235e-02, 2.51653101e-02, -9.07561393e-04,
          -2.23473366e-02, -6.79697618e-02, 1.75271165e-02,
          4.48785909e-02, 5.41314334e-02, 2.21070722e-02, 8.95360764e-03,
          -1.03320228e-02, 2.96528265e-03, 2.38890443e-02,
          4.54183929e-02, -1.68010369e-02, -2.38086954e-02,
          1.48096392e-02, 3.90251577e-02, -1.39304157e-02,
          -3.12829688e-02, -5.20773977e-02, -2.14712955e-02,
          4.58925068e-02, 5.69980741e-02, -9.92680434e-03,
          -1.27930418e-02, 3.72953387e-03, 4.08162586e-02,
          2.16254741e-02, -3.92589942e-02, -5.44709601e-02,
          -2.29690950e-02, 5.31811677e-02, -6.80871308e-03,
          8.80355295e-03, -1.39880246e-02, -1.68510135e-02,
          -1.09047554e-02, -4.21317928e-02, 1.70110222e-02,
          -1.60655603e-02, 3.34302336e-02, 1.62921995e-02,
          3.99913788e-02, -3.81732509e-02, -2.01034024e-02,
          1.30092800e-02, 4.89092544e-02, 3.19885015e-02,
          -5.08121513e-02, -2.61665769e-02, 2.01227143e-04,
          5.16698114e-04, 1.17836390e-02, 1.05399860e-03, 9.65730101e-03,
          6.37091547e-02, 4.70452346e-02, 2.43817363e-02,
          -4.23294455e-02, -1.72982551e-02, 7.08930008e-03,
          -8.23158585e-03, -6.34251162e-02, 2.36508809e-02,
          2.25401353e-02, 4.64028766e-04, -8.45551789e-02,
          -1.25743579e-02, 3.50481621e-03, 5.30166849e-02,
          -6.07338324e-02, -9.89384111e-03, 4.64154482e-02,
          2.73666177e-02, 2.47730548e-03, -7.57681252e-03,
          -2.14592461e-02, -5.28693460e-02, -3.16164717e-02,
          -1.70345809e-02, 3.50654833e-02, 2.40439158e-02,
          6.20505512e-02, -8.64151027e-03, 1.15753640e-03,
          4.26128060e-02, 5.99230640e-03, 1.27939023e-02, 2.26604100e-02,
          1.62385497e-02, 3.64954397e-02, 8.87648910e-02, 2.15331186e-02,
          -1.36103807e-02, 7.52011165e-02, 5.39155118e-02,
          4.64305207e-02, 3.44715789e-02, 1.03978859e-02, 6.14391491e-02,
          6.42631799e-02, -2.19242387e-02, -1.85973365e-02,
          -2.52305400e-02, -8.29772875e-02, -6.88823611e-02,
          -1.28289890e-02, 3.27565707e-02, 5.68053834e-02,
          9.53912511e-02, 1.46658672e-02, -6.58978522e-02,
          -8.44805092e-02, -4.21313308e-02, -3.30099883e-03,
          1.01973247e-02, -2.27014981e-02, 1.20169586e-02,
          3.22081074e-02, 3.81876789e-02, 2.88444925e-02, 4.39178646e-02,
          -3.77280340e-02, 7.72513356e-03, 1.53589845e-02,
          2.09963024e-02, 2.39004157e-02, -6.84613222e-03,
          6.00620918e-03, -2.76387967e-02, -7.32301697e-02,
          -4.88609262e-02, 1.96982007e-02, 4.11012359e-02,
          4.92318580e-03, -1.20318565e-03, 2.49959249e-02,
          6.56755967e-03, -3.06774508e-02, -4.37805206e-02,
          -3.30427289e-02, -3.98433628e-03, 3.06139719e-02,
          2.13926169e-03, 5.87894162e-03, -1.90034788e-02,
          -5.74172586e-02, -2.30048895e-02, -5.69027811e-02,
          -7.19531178e-02, 8.24039150e-03, 5.64838201e-03,
          3.71599686e-03, 2.60290429e-02, 3.57882902e-02,
          -2.73750909e-02, -5.90437539e-02, 4.95626293e-02,
          7.29278848e-02, 5.11334166e-02, -2.35619321e-02,
          5.58409700e-03, 2.58817449e-02, 1.09410994e-02,
          -5.00892960e-02, -4.69645970e-02, 1.57798675e-03,
          4.48119380e-02, 2.05381098e-03, -5.12550361e-02,
          -3.19367945e-02, 4.13047746e-02, -3.26618436e-04,
          6.75822468e-03, -4.77737039e-02, -5.14747621e-03,
          7.08536208e-02, 6.54270053e-02, -5.26304729e-02,
          -3.79256718e-02, 3.75544801e-02, 5.15090814e-03,
          -1.87611114e-02, -4.30194810e-02, -1.37454644e-02,
          2.68690474e-02, 1.22655872e-02, -7.57441372e-02,
          9.54284612e-03, 2.80547403e-02, 1.53881470e-02,
          -3.28062195e-03, -2.24459786e-02, -1.32728824e-02,
          3.46174911e-02, -1.49952341e-02, -5.66342985e-03,
          4.52016853e-02, -6.48912881e-03, -1.90031249e-02,
          -5.94523326e-02, -7.18153641e-02, -3.32713276e-02,
          3.73659432e-02, 2.63529867e-02, 5.88429812e-03, 1.07245136e-03,
          -2.44520558e-03, 1.83746349e-02, -1.29340338e-02,
          -3.13974433e-02, -5.77423871e-02, 5.38299512e-03,
          3.68780680e-02, 2.39887415e-03, 1.27011500e-02,
          -1.63082946e-02, 2.10913434e-03, -3.73797156e-02,
          -2.43371874e-02, -8.06020945e-02, -3.16257440e-02,
          5.37796058e-02, 3.54039893e-02, 3.88839617e-02, 4.45301346e-02,
          2.99246907e-02, -2.26158090e-02, -7.21771419e-02,
          -7.88937286e-02, -3.10149956e-02, -8.29689018e-03,
          1.57344807e-02, -2.40459833e-02, -1.94877968e-03,
          -9.59592592e-03, -8.87963222e-04, -3.93748879e-02,
          -1.11474302e-02, -3.67322750e-02, -8.52899533e-03,
          1.36315236e-02, 2.75452323e-02, 6.22653551e-02, 2.57721413e-02,
          1.82452668e-02, 1.03654899e-02, -6.98520690e-02,
          -3.25940326e-02, 5.81961721e-02, -7.06397137e-03,
          1.66148983e-03, 6.24799840e-02, 4.81374897e-02, 3.11925076e-02,
          1.07429354e-02, 6.04566652e-03, -4.34857756e-02,
          -3.65977548e-02, -2.68916730e-02, -2.45547779e-02,
          7.83914793e-03, -3.21935378e-02, -5.32914028e-02,
          -9.35506523e-02, 4.10417514e-03, -3.82469855e-02,
          -3.41582075e-02, -4.35027806e-03, -9.63912718e-03,
          5.91928838e-03, -4.10964228e-02, -3.72378901e-02,
          -1.16721496e-01, 1.75457518e-03, -4.12981212e-03,
          5.83225628e-03, -4.83337641e-02, 3.15065612e-03,
          5.10325544e-02, 3.21413651e-02, -4.14880849e-02,
          -3.28737795e-02, 1.09177297e-02, -2.52293535e-02,
          -1.39752375e-02, 1.66394860e-02, -1.07615918e-03,
          6.54913187e-02, 5.27740631e-04, -5.19193858e-02,
          -5.94937019e-02, -2.62383278e-02, -4.31978926e-02,
          3.39082368e-02, 2.30580606e-02, -2.13979427e-02,
          5.41186929e-02, 3.03008426e-02, -1.87076330e-02,
          -5.74852377e-02, -1.48003493e-02, -2.11549979e-02,
          3.92811809e-04, -4.51249443e-03, 4.65970673e-02,
          1.12619093e-02, 2.30105780e-03, -7.24034235e-02,
          -6.80848211e-02, -2.95153391e-02, -3.10844500e-02,
          -1.06881848e-02, 6.10583695e-03, 1.45934464e-03,
          4.55055609e-02, 9.37619526e-03, -3.90368514e-02,
          -7.00973943e-02, -4.45773341e-02, -1.38465930e-02,
          4.48581949e-02, 7.18865590e-03, 5.73815033e-02, 7.28468671e-02,
          -2.38644984e-02, -1.02336235e-01, -9.05570686e-02,
          -7.09448308e-02, -3.98859382e-02, 5.90602830e-02,
          5.11436611e-02, 6.47216849e-03, 2.17383429e-02, 1.67166237e-02,
          1.12670558e-02, -1.82951540e-02, -6.86221896e-03,
          2.45179981e-02, 3.78670432e-02, 2.33146455e-02,
          -7.67113583e-04, 5.96521869e-02, 2.82720886e-02,
          -2.66727973e-02, -1.49468873e-02, 6.26746118e-02,
          6.66724741e-02, 1.42084032e-01, -1.07138660e-02,
          5.31114750e-02, 6.52507842e-02, -6.60224585e-03,
          -3.38247903e-02, -3.88570093e-02, -6.39404282e-02,
          -6.32795691e-02, 4.03930806e-02, 3.87429930e-02,
          1.19052287e-02, 2.28600074e-02, 5.78569528e-03, 6.73621567e-03,
          -2.28232592e-02, -6.32502045e-03, -1.50978295e-02,
          5.06915189e-02, -3.73475105e-02, 2.20823735e-02,
          8.59346613e-02, 3.50851752e-02, -6.92121536e-02,
          -6.11012615e-02, -6.98582642e-03, 2.97601223e-02,
          4.14308049e-02, 2.71720625e-02, 4.58278954e-02, 1.06590264e-01,
          1.06276132e-01, -5.23326546e-02, 6.67063966e-02,
          -2.69663855e-02, 3.01909167e-02, 3.47035639e-02,
          4.47578840e-02, -2.45056376e-02, -6.62988517e-03,
          3.26198824e-02, -4.68784124e-02, -1.04468212e-01,
          -2.64404416e-02, 5.78227602e-02, 3.39756049e-02,
          -4.41754051e-02, 2.61597056e-02, 4.36244495e-02,
          7.22898468e-02, -2.56034452e-02, 5.40254153e-02,
          -1.81227771e-03, 5.11807576e-02, -3.68279405e-02,
          -3.13312337e-02, -4.38245647e-02, 2.68768668e-02,
          6.08216785e-02, -3.63717526e-02, -7.18120346e-03,
          -1.25852171e-02, 7.78246298e-03, 1.91876404e-02,
          8.41139816e-03, -2.88667642e-02, 3.32810283e-02,
          5.43927029e-02, -2.89919204e-03, 5.58733067e-04,
          -4.55577821e-02, -4.06258693e-03, 1.30506381e-02,
          1.69420000e-02, -2.10155621e-02, -1.13027496e-03,
          -7.70958886e-03, -6.05018996e-02, -4.02937597e-03,
          -1.76053736e-02, 5.03593497e-03, -1.61727853e-02,
          -4.74126488e-02, -1.98438242e-02, -1.29101854e-02,
          -4.20770943e-02, -5.71212880e-02, -4.41837776e-03,
          -7.41535500e-02, 1.35373063e-02, 2.92843003e-02,
          -9.90093313e-03, -6.29345998e-02, 3.08190957e-02,
          3.93517949e-02, -2.57422067e-02, -4.62643541e-02,
          1.95489191e-02, -1.95558951e-03, 2.21621189e-02,
          -3.67123671e-02, -6.04332611e-02, 2.47191917e-02,
          5.31087518e-02, 1.52976643e-02, 3.11324224e-02, 7.98249543e-02,
          9.79104824e-03, -1.43577550e-02, -5.37484288e-02,
          -6.33172244e-02, 2.85025556e-02, 5.68188652e-02,
          -1.20690400e-02, -2.25952640e-02, -3.54453810e-02,
          5.02468571e-02, -6.51019684e-04, -5.53127564e-02,
          -8.95693004e-02, 1.50645059e-02, 5.90668246e-02,
          -1.15710627e-02, 3.80179496e-03, 4.09554094e-02,
          4.07223590e-02, -5.86587265e-02, -5.24030179e-02,
          -5.16295098e-02, 1.66608524e-02, 1.61050148e-02,
          -3.81101668e-02, 6.77609164e-03, 2.90263966e-02,
          -2.81878654e-02, -2.86316145e-02, -4.81863357e-02,
          -6.09299801e-02, 3.07217855e-02, 2.02009398e-02,
          8.24224669e-03, 4.99043204e-02, -7.33101219e-02,
          -4.44022045e-02, -1.46503095e-02, -7.67697543e-02,
          -4.35099751e-02, 5.14080040e-02, -1.64926797e-02,
          -1.04452688e-02, 7.65273301e-03, -1.16628846e-02,
          -1.77474767e-02, -7.02560693e-02, -7.91464001e-02,
          -4.19884883e-02, 6.17382713e-02, 1.66664310e-02,
          -5.79208275e-03, 5.79151846e-02, -5.78773618e-02,
          3.25342943e-03, 9.89303552e-03, -2.05361340e-02,
          -1.03717148e-01, 2.13885494e-02, 2.82156225e-02,
          2.18591243e-02, 3.89819359e-03, -2.93151736e-02,
          1.87278595e-02, 3.08852978e-02, -5.73786870e-02,
          -4.91601229e-02, 3.64044122e-02, 2.42589582e-02,
          -3.80754881e-02, -7.00756609e-02, 4.66773324e-02,
          4.47490960e-02, 3.44868675e-02, -1.02135710e-01,
          -1.47819230e-02, 5.73193058e-02, 5.86362630e-02,
          4.58224630e-03, 4.65106703e-02, 5.28010027e-03, 4.84633036e-02,
          4.81622815e-02, 4.20316763e-04, -3.41496058e-02,
          2.66681854e-02, 3.95755097e-02, -2.02696007e-02,
          3.84272123e-03, 1.93993673e-02, 3.57602388e-02, 2.92490087e-02,
          -5.65158688e-02, -1.21254912e-02, 7.28693306e-02,
          1.83644574e-02, -6.16130307e-02, -7.36035928e-02,
          2.93694320e-03, 1.37937702e-02, -5.98487817e-03,
          -8.20488557e-02, -2.65801270e-02, 4.09139544e-02,
          1.96807440e-02, -2.24623568e-02, -1.77236479e-02,
          -2.72228215e-02, 6.05572201e-03, 3.38547886e-03,
          -5.06934933e-02, 7.87143130e-04, 4.95265014e-02,
          3.16991918e-02, 6.90667331e-03, -2.67961510e-02,
          -2.04039197e-02, 1.98524483e-02, 2.60576140e-02,
          -4.26179580e-02, 2.69838199e-02, 3.68950292e-02,
          9.32289287e-03, -4.42947075e-02, 1.34306140e-02,
          2.92294630e-04, 2.67362036e-02, -1.11543918e-02,
          -4.37625870e-03, -5.31596430e-02, 2.05046684e-02,
          3.11595779e-02, -1.31791458e-02, -2.06581950e-02,
          9.89103876e-03, 2.03382242e-02, 2.37024762e-02,
          -6.38486445e-02, -3.12720537e-02, 3.75165939e-02,
          2.41417699e-02, -3.88848037e-02, 3.80017944e-02,
          -1.27297267e-02, -4.21611518e-02, -1.61480028e-02,
          -2.86811925e-02, -7.47730210e-02, 8.55823420e-03,
          3.18054073e-02, 1.53673999e-03, 5.67029156e-02, 4.47530709e-02,
          4.22398932e-02, 2.02359501e-02, -3.76788899e-02,
          -8.62394720e-02, -2.26660371e-02, 1.32267745e-02,
          -6.12247828e-03, 7.18787536e-02, -7.74353603e-03,
          2.65911445e-02, 2.73240916e-02, -7.27848411e-02,
          -5.82846627e-02, 3.67749222e-02, 4.24703658e-02,
          5.17419772e-03, 1.94238964e-02, 3.38505371e-03,
          -2.50002462e-02, -3.25297974e-02, -4.75426316e-02,
          -3.98541242e-02, 1.88548267e-02, 2.22558640e-02,
          5.71369193e-04, -2.92297639e-03, -1.72206014e-02,
          -5.33198053e-03, -8.81587341e-03, -2.00997721e-02,
          -4.73017059e-02, 9.40858014e-03, 1.97367445e-02,
          -2.07817946e-02, -1.36635872e-02, 4.93042655e-02,
          1.34601286e-02, -3.11021646e-03, -7.93717057e-02,
          -4.27366123e-02, -6.55085221e-03, 2.14514546e-02,
          7.67195877e-03, -3.74314301e-02, 2.04819664e-02,
          4.21200767e-02, -2.29519401e-02, -6.97271749e-02,
          -2.05518696e-02, -2.92492304e-02, 2.22555492e-02,
          -1.98649038e-02, -6.39979318e-02, -8.56956281e-03,
          -7.69919110e-03, 9.57948808e-03, 4.07927344e-03,
          -2.44471133e-02, 1.22281434e-02, 1.82884596e-02,
          2.37755850e-02, -1.98470969e-02, -8.32881685e-03,
          -6.34505674e-02, -1.96839757e-02, -6.93774372e-02,
          -1.72840431e-02, 4.31220466e-03, 1.13275349e-02,
          4.67435047e-02, -5.32481335e-02, 2.57739294e-02,
          -4.48092091e-04, -1.76749304e-02, 1.85352899e-02,
          -1.16428528e-02, 5.16393557e-02, 2.99285110e-02,
          1.05256237e-01, -1.89073049e-02, 4.04246431e-03,
          -4.06700149e-02, 4.41035489e-03, 3.47466324e-03,
          1.14171524e-02, 5.73462583e-02, 3.62908728e-02, 6.16241284e-02,
          -6.68936968e-02, -3.43885981e-02, 3.09237186e-02,
          5.95143735e-02, -2.92884149e-02, -3.87301706e-02,
          -3.13124023e-02, -2.63517238e-02, 2.06645951e-02,
          -8.37798268e-02, -3.57509851e-02, 5.94327226e-03,
          9.29345191e-03, -4.89864945e-02, -2.27942783e-02,
          4.37602587e-03, 4.22196127e-02, 4.45374511e-02,
          -2.38287896e-02, -5.00569008e-02, 2.53486494e-03,
          -1.99095476e-02, -4.25660834e-02, 3.29590193e-03,
          7.74398027e-03, 3.76634970e-02, 3.21099907e-02, 5.85856615e-03,
          -6.61208183e-02, -3.61795761e-02, -5.02056777e-02,
          -6.18432462e-02, -5.15694097e-02, -3.69761251e-02,
          -1.92736499e-02, 1.49998292e-02, -5.92184179e-02,
          -4.83985916e-02, -3.47044915e-02, 3.14801410e-02,
          -4.94701182e-03, 2.01809108e-02, 8.68949573e-03,
          2.29535084e-02, -5.19735217e-02, -3.74456346e-02,
          -1.02975577e-01, -8.04736763e-02, 2.32272279e-02,
          6.18323823e-03, 4.87558171e-02, 1.64675117e-02, 5.29858395e-02,
          5.41755408e-02, 4.42294069e-02, -5.80808893e-02,
          -7.30951801e-02, -3.95803526e-02, -1.38685824e-02,
          3.83099616e-02, 4.88375612e-02, 2.55901311e-02, 2.38945913e-02,
          1.96047816e-02, -4.70034871e-03, -7.53006488e-02,
          -6.79584891e-02, 1.69971269e-02, 2.14573592e-02,
          3.35636213e-02, 3.62390801e-02, -5.35535254e-02,
          -4.45089415e-02, -5.66281304e-02, -4.65308689e-02,
          6.61601350e-02, 1.63582116e-02, -2.57269964e-02,
          8.52904096e-03, 1.26625057e-02, -2.20664442e-02,
          -2.16565412e-02, -3.00328434e-03, -1.62738580e-02,
          -5.38085680e-03, -1.21454976e-03, 3.88204157e-02,
          4.49116640e-02, -9.64202173e-03, -2.58225948e-02,
          -2.57998481e-02, 2.27275845e-02, 3.01912753e-03,
          3.38291540e-03, -4.53378335e-02, 1.25452820e-02,
          2.88158339e-02, -2.21949127e-02, -4.13320214e-02,
          3.57258059e-02, -1.65146571e-02, -3.81995887e-02,
          -4.60613184e-02, 7.93961342e-03, -3.58970873e-02,
          -6.73406012e-03, -3.64817260e-03, -3.01625356e-02,
          -3.74924950e-02, -1.50232324e-02, -8.15475732e-02,
          -2.72795875e-02, -6.25754073e-02, 1.50588779e-02,
          4.97244634e-02, 4.27868729e-03, -2.13288236e-02,
          -1.14682894e-02, -9.52162500e-03, -6.10476509e-02,
          -2.47820700e-03, 4.80468771e-05, -1.41372660e-03,
          -2.53389161e-02, -3.54130194e-02, -1.04882801e-02,
          -3.77788395e-03, -1.61176883e-02, -4.55388241e-02,
          -2.54772939e-02, -4.18848991e-02, 8.54310915e-02,
          2.84371655e-02, -3.59131731e-02, -4.61451598e-02,
          2.32346840e-02, 5.38152494e-02, -2.56128088e-02,
          1.36766750e-02, 7.17527345e-02, 3.85413691e-02, 4.80839536e-02,
          -1.61712579e-02, -2.05493625e-02, 9.73020308e-03,
          -2.58716010e-02, -5.57784215e-02, 3.69414501e-03,
          -1.94283780e-02, 4.95925769e-02, 4.64399382e-02,
          -6.42642751e-02, -3.76102142e-02, -4.32211235e-02,
          -8.77571777e-02, -7.17331991e-02, -4.28184941e-02,
          -9.06960014e-03, 1.38686165e-01, 3.96441855e-02,
          -5.73747903e-02, -3.92421782e-02, 5.13296053e-02,
          4.27160040e-02, -2.74710730e-02, 1.64875481e-02,
          6.89335093e-02, 4.68497127e-02, -2.73642484e-02,
          -5.24804890e-02, 4.93316464e-02, 7.14887157e-02,
          2.82151550e-02, -1.33749004e-02, -1.63733885e-02,
          -2.55462639e-02, 8.49932209e-02, 2.38074660e-02,
          -4.52195704e-02, -3.37745957e-02, -1.84657741e-02,
          -2.60121021e-02, -1.01862572e-01, -3.39151435e-02,
          -1.73884891e-02, 1.51531640e-02, -1.34344278e-02,
          -3.71593349e-02, -4.90015596e-02, -2.32093893e-02,
          -1.26998611e-02, -3.50689404e-02, -2.32545212e-02,
          -4.13314812e-02, 4.62952107e-02, -9.90003906e-03,
          -3.15768197e-02, 3.21415588e-02, 7.43517950e-02,
          1.08086817e-01, 3.89663875e-02, 2.99870893e-02,
          -6.08515553e-02, 2.78827082e-02, 7.85461813e-02,
          -2.82733445e-03, -8.92477483e-03, 1.38773441e-01,
          9.60724652e-02, 4.59749214e-02, 3.40935327e-02,
          -2.98788063e-02, -5.13712987e-02, -1.38838682e-02,
          2.83243670e-03, -4.52626832e-02, -4.66466360e-02,
          2.52153305e-03, 1.34033561e-02, -1.38053447e-02,
          -4.47745435e-02, 1.64565677e-03, 8.87375139e-03,
          4.51633148e-02, -2.00043637e-02, 1.87870711e-02,
          -4.70009074e-03, 4.47718091e-02, -3.14098895e-02,
          -2.09906362e-02, -1.32008642e-02, 6.05072491e-02,
          1.43278334e-02, -2.18929350e-02, 1.38026282e-01,
          7.06829727e-02, 4.59678955e-02, 4.68141399e-02,
          -1.55755142e-02, -2.80867871e-02, 3.78968678e-02,
          -4.46365494e-03, 2.34067384e-02, 5.78198321e-02,
          6.81606829e-02, 6.44991025e-02, 6.23787381e-02,
          -4.00732048e-02, 2.96813902e-02, -1.33310072e-02,
          -1.68408640e-02, -7.09736794e-02, 2.94757299e-02,
          -3.36008780e-02, 2.56457087e-02, 1.79865416e-02,
          1.94324665e-02, 2.29346156e-02, -2.47770995e-02,
          -3.55494730e-02, -2.10651457e-02, 1.12763643e-02,
          -5.37979491e-02, 2.00696923e-02, 3.15959752e-02,
          -1.09666493e-02, -4.64648241e-03, -3.11152246e-02,
          -3.47272046e-02, -5.79360314e-02, 1.02166170e-02,
          -2.31437609e-02, 5.68774343e-02, 5.04448339e-02,
          -5.41098788e-02, 1.38992928e-02, -4.50506546e-02,
          -6.92821741e-02, -1.13468384e-02, 7.26088211e-02,
          -2.95772403e-02, -4.28793207e-02, -1.41762234e-02,
          -7.75600895e-02, -2.10998878e-02, 1.27358064e-02,
          3.97666078e-03, 1.65266003e-02, 6.28187042e-03,
          -3.00142877e-02, 3.15780155e-02, -3.05526499e-02,
          -1.39491018e-02, -3.00444700e-02, -1.14000263e-02,
          -3.21112983e-02, -5.92395402e-02, -5.27260453e-02,
          5.64015144e-03, 4.41053957e-02, -3.65510769e-02,
          -4.45563905e-02, 1.58796250e-03, -1.89996548e-02,
          -4.66911606e-02, 1.79431401e-02, 4.15338986e-02,
          3.38587165e-02, 1.79632124e-03, -4.65153381e-02,
          -2.62714643e-02, 3.46007906e-02, 2.87559088e-02,
          -4.26106006e-02, -2.62080152e-02, -5.11398055e-02,
          -6.37409603e-03, 4.90724146e-02, -3.71363647e-02,
          -2.37711202e-02, -3.79942432e-02, 3.41268107e-02,
          -4.51889001e-02, -5.35066947e-02, -3.88499238e-02,
          -2.60365494e-02, 2.43279766e-02, -1.39886821e-02,
          -5.49919605e-02, -2.50636358e-02, -6.85142659e-05,
          2.40008011e-02, -2.35169530e-02, 1.67169981e-02,
          -3.62380594e-02, 6.25120923e-02, 5.14184572e-02,
          9.22515523e-03, 3.22564021e-02, -1.53422384e-02,
          -1.05598280e-02, -6.35394379e-02, -2.06567384e-02,
          -1.68210138e-02, 4.30872664e-02, -2.66675726e-02,
          -4.45427112e-02, -5.05329370e-02, -3.17153633e-02,
          1.98667068e-02, -4.64600287e-02, 4.96598193e-03,
          -4.23421189e-02, 7.15261921e-02, 3.39626297e-02,
          4.31792578e-03, -2.21913364e-02, -3.09553696e-03,
          1.61054116e-02, -1.05639063e-02, 9.06145142e-04,
          4.32954356e-02, 7.99014494e-02, 1.21132284e-02, 2.59138886e-02,
          -3.56909335e-02, -1.70691106e-02, 3.27499327e-03,
          2.05663927e-02, 5.66817932e-02, 6.36663511e-02, 4.24001850e-02,
          -1.07064210e-02, -4.87132557e-02, -6.19009808e-02,
          -6.63521364e-02, 4.26114127e-02, -1.86442630e-03,
          -5.05164899e-02, 1.28829610e-02, 6.63784072e-02,
          -1.04936808e-02, 2.50245463e-02, -2.60151699e-02,
          -6.87529519e-02, 3.44104953e-02, 2.34850831e-02,
          3.90784442e-02, 2.70215012e-02, 8.55950918e-03,
          -6.48981286e-03, 1.68654714e-02, -3.31186689e-02,
          -3.00402623e-02, 1.22335972e-02, 1.33147286e-02,
          -3.40796611e-03, -9.46479943e-03, -1.48768723e-02,
          -4.21383753e-02, -8.93108621e-02, 9.50628251e-04,
          1.98842846e-02, 3.02107725e-02, -2.45520137e-02,
          -3.65114585e-02, -1.07700853e-02, -5.33450721e-03,
          -3.71370427e-02, -4.03532647e-02, -4.78524603e-02,
          -5.88496476e-02, 4.33173478e-02, -8.75525270e-03,
          -2.34168842e-02, 2.33495478e-02, 1.40126767e-02,
          -3.26410905e-02, -7.63699180e-03, -7.20007867e-02,
          -2.94014835e-03, 3.67164910e-02, -3.26390788e-02,
          -1.16761185e-01, 3.18700299e-02, 2.68008560e-02,
          -1.54170990e-02, -3.63491923e-02, -2.26649344e-02,
          -2.94573866e-02, 1.75583176e-02, -1.25716710e-02,
          -8.54879711e-03, -5.02576912e-03, 9.25286952e-03,
          -1.15160216e-02, -1.01799108e-02, -3.09711173e-02,
          -5.40868193e-02, -6.08144030e-02, -3.16960439e-02,
          6.24294160e-03, -1.05766013e-01, -4.89115864e-02,
          2.89082201e-03, -1.37879024e-03, -7.10755214e-02,
          -8.20906553e-03, 5.12797758e-02, -2.80129276e-02,
          -3.80392484e-02, 4.29403856e-02, 3.13552395e-02,
          1.69730708e-02, -3.26149203e-02, -3.62250730e-02,
          -2.17113886e-02, -1.27781564e-02, -2.16376390e-02,
          -3.02467607e-02, -1.04049534e-01, -5.92759028e-02,
          -4.29646671e-02, 7.21535832e-03, -2.56782155e-02,
          -1.49638380e-03, -2.93164384e-02, 9.14820842e-03,
          -2.11824439e-02, -2.41135973e-02, -3.70456912e-02,
          -1.02624968e-02, -3.36300470e-02, -4.21958603e-02,
          2.97367154e-03, 4.72108275e-02, 5.83956130e-02, 2.66409703e-02,
          -2.74678618e-02, 8.17070995e-03, -1.65772568e-02,
          -6.57876953e-02, 1.82630159e-02, 6.07388746e-03,
          -1.98838912e-04, 1.81893576e-02, -4.20345590e-02,
          -9.56642553e-02, -5.23098484e-02, -2.99328752e-02,
          8.67511146e-03, 3.02833095e-02, -1.84122138e-02,
          -4.73803980e-03, 1.04320701e-02, 3.35563496e-02,
          -3.09886243e-02, -1.39155621e-02, 1.46029238e-02,
          1.50731392e-02, 6.40261220e-03, -4.46267845e-03,
          1.92865229e-03, 6.13592528e-02, -4.35419008e-02,
          5.44025414e-02, -1.56959239e-02, -1.57734342e-02,
          -3.29851992e-02, -8.90877005e-03, 3.03373504e-02,
          -1.12627586e-03, 5.02316020e-02, -4.51405793e-02,
          1.70125011e-02, -2.87914812e-03, 3.72791067e-02,
          -2.97772624e-02, 1.22212917e-02, -2.24700700e-02,
          -2.19353591e-03, -1.91103406e-02, -7.63419271e-02,
          8.31086636e-02, -5.47175715e-03, 7.57098617e-03,
          3.47340200e-03, -4.12056223e-02, 2.38415226e-02,
          4.75598015e-02, 4.89755906e-02, -5.73383048e-02,
          9.23976898e-02, 2.13880297e-02, -2.86962744e-02,
          -4.91619222e-02, -7.19063310e-03, -1.60662569e-02,
          1.67658366e-03, -5.32911683e-04, -3.91760692e-02,
          -4.14932985e-03, 9.75627732e-03, -9.01560206e-03,
          5.42541407e-03, 3.42531316e-02, -6.82014748e-02,
          -3.53714749e-02, -2.20210385e-02, 2.87636952e-03,
          -1.08751737e-01, -7.87696838e-02, -5.70188910e-02,
          -5.81040978e-02, 2.83366069e-02, -5.45469159e-03,
          -1.74594950e-02, 2.04222910e-02, 1.61534939e-02,
          3.30819525e-02, 5.77233639e-03, -2.78079268e-02,
          -4.73542586e-02, 4.12684530e-02, -2.12479308e-02,
          -2.64645666e-02, -2.68612187e-02, 3.48219238e-02,
          -9.88409761e-03, -2.62001753e-02, -2.29848102e-02,
          -6.36833757e-02, 5.13272844e-02, -2.27991641e-02,
          4.55831271e-03, -7.17668654e-03, 1.18848467e-02,
          -3.98512632e-02, -4.89735156e-02, -5.96498698e-02,
          -2.64140405e-03, 1.56199923e-02, 2.34122928e-02,
          3.86204361e-03, 8.02336540e-03, -3.53639051e-02,
          1.39219165e-02, -9.42886770e-02, -1.03947230e-01,
          -4.33246307e-02, -1.70966405e-02, -2.30797566e-02,
          7.45561300e-03, -4.87498231e-02, 3.02178711e-02,
          2.58010123e-02, -3.30875540e-04, -1.05035547e-02,
          -3.92538756e-02, -6.91644847e-02, -4.19462882e-02,
          -2.44737267e-02, -4.96866144e-02, 2.32303813e-02,
          2.52120458e-02, 1.33650808e-03, -1.70092639e-02,
          -9.10081565e-02, 5.19390590e-03, 3.36808339e-02,
          2.43406389e-02, -2.23168898e-02, -2.18352210e-02,
          -6.03808975e-03, -6.88426420e-02, -1.86606329e-02,
          -5.14777489e-02, -4.07440551e-02, -1.02880048e-02,
          3.75769474e-02, -1.47897592e-02, 4.11909893e-02,
          -3.98478992e-02, -3.26103568e-02, -6.70710206e-02,
          -3.51482369e-02, -5.48463911e-02, -3.12978355e-03,
          6.49451241e-02, 1.96864251e-02, 2.32571606e-02, 1.58642232e-02,
          -6.70114392e-03, -1.91913191e-02, -1.03097975e-01,
          -6.47920892e-02, 6.75549905e-04, 4.21369784e-02,
          -2.06722994e-03, 2.55930722e-02, 3.38805877e-02,
          8.00734479e-03, -1.89024955e-02, -4.30567116e-02,
          -6.55823620e-03, -4.50543016e-02, -7.96283130e-05,
          3.00753843e-02, -1.56844538e-02, -8.96118954e-03,
          -7.73206949e-02, -1.26656387e-02, -6.49108812e-02,
          5.90981133e-02, -3.19103152e-02, -5.87456971e-02,
          2.53564417e-02, 1.74900442e-02, 2.04811357e-02,
          -3.11203115e-02, 3.33255529e-03, 2.76851747e-02,
          -1.79742277e-02, -1.29045174e-02, 3.16784680e-02,
          2.85271835e-02, -1.86412670e-02, -4.85844677e-03,
          2.10655504e-03, 2.62536425e-02, -7.73652121e-02,
          1.91739306e-03, 1.66224502e-02, 3.74046303e-02, 9.18174610e-02,
          4.22877520e-02, 2.86183804e-02, -7.25609902e-03,
          3.96421328e-02, -3.95388417e-02, 7.52855539e-02,
          1.61227807e-02, -4.71500382e-02, -1.00491447e-02,
          2.78551579e-02, 3.08158752e-02, -6.20623007e-02,
          1.88102145e-02, 1.89039006e-03, -1.88761186e-02,
          9.91299190e-03, -3.39245796e-02, 9.55645461e-03,
          4.50119153e-02, 2.74739806e-02, 1.21407555e-02, 2.00907942e-02,
          -5.89499176e-02, -6.11452572e-02, -4.64037061e-03,
          -4.86192778e-02, 3.82787623e-02, 3.81859690e-02,
          5.13544269e-02, -2.63124816e-02, 5.69227561e-02,
          -6.66028783e-02, -4.77588037e-03, 8.61945897e-02,
          2.27724351e-02, 7.48337135e-02, 8.07177573e-02,
          -5.87784778e-03, -1.08001083e-02, 3.31802927e-02,
          -1.31925580e-03, -2.86163110e-02, -4.92906123e-02,
          -7.02559948e-02, -2.57426053e-02, 4.15980890e-02,
          5.48390560e-02, 6.02598228e-02, 7.05328658e-02,
          -9.51200724e-02, -1.60873458e-02, 1.45255979e-02,
          -8.28998610e-02, -8.63613188e-02, 9.44356024e-02,
          1.74579844e-02, 3.12775234e-03, 6.81603476e-02,
          -3.55973877e-02, -4.16836049e-03, 2.48479545e-02,
          -1.00622624e-02, 1.33735612e-02, 3.45763564e-02,
          -2.75635477e-02, 3.21671367e-02, 5.58401458e-02,
          -1.80408098e-02, -1.26111927e-03, 1.38261355e-02,
          -3.63584720e-02, -2.06575114e-02, 1.68253481e-02,
          -3.36744562e-02, -2.65876390e-02, 7.74733052e-02,
          4.47061881e-02, -1.68641619e-02, 9.65533778e-03,
          -5.08107767e-02, -1.94705985e-02, 1.29048735e-01,
          2.32259687e-02, -3.73382531e-02, 1.18439524e-02,
          1.86218531e-04, -4.26482633e-02, -2.12759282e-02,
          -8.98098350e-02, 5.24991192e-02, 5.10137528e-02,
          -2.22722124e-02, 5.93317254e-03, -1.60643179e-02,
          -3.63120213e-02, -4.12381301e-03, -2.91142636e-03,
          -7.99049437e-02, -2.77208574e-02, 2.19632010e-03,
          -3.35784964e-02, -8.57218578e-02, 1.80987548e-03,
          2.54151709e-02, -2.72483099e-02, -2.27820929e-02,
          -6.03643917e-02, -1.27302129e-02, 5.74611947e-02,
          -5.01400381e-02, -3.72814462e-02, -6.44499660e-02,
          -3.67747582e-02, 2.20328718e-02, 4.23515998e-02,
          -1.37350261e-02, -1.18046720e-02, 1.57517474e-02,
          -5.58609404e-02, 4.55194619e-04, 8.79292376e-03,
          -4.89566252e-02, 8.57770517e-02, -4.19262499e-02,
          -7.81193599e-02, -3.19832265e-02, 5.49163222e-02,
          4.50013159e-03, -2.60482430e-02, 5.94812296e-02,
          -4.04386893e-02, 1.85241699e-02, -3.43890451e-02,
          -4.87738624e-02, -1.78115405e-02, 2.13631894e-02,
          -9.28411037e-02, -8.86743423e-03, -1.97938439e-02,
          1.30295120e-02, 4.27495427e-02, -3.72797772e-02,
          -5.45139536e-02, -2.21225992e-02, 9.61091835e-03,
          -5.35312518e-02, -2.68771593e-02, 4.81254607e-02,
          -6.81340368e-03, 9.50636156e-03, -3.98325175e-02,
          -2.67042257e-02, 2.67364681e-02, 3.11670303e-02,
          7.48577937e-02, 4.67986092e-02, 2.86507364e-02,
          -2.33032722e-02, 5.38623668e-02, 2.09899824e-02,
          1.68678500e-02, 1.69059218e-04, -4.16504592e-02,
          -2.96864584e-02, 2.74802726e-02, -7.61166820e-03,
          -1.72054060e-02, 2.64517050e-02, -6.06374219e-02,
          -5.44144772e-02, 3.84452157e-02, -1.86791542e-04,
          1.58098191e-02, 3.58077325e-02, 5.82276769e-02, 2.14811284e-02,
          2.73445668e-03, -5.18040881e-02, -8.28198344e-02,
          6.93836482e-03, -4.03779857e-02, -4.59376648e-02,
          -3.48114222e-02, 8.44423921e-05, -5.33758756e-03,
          3.75224240e-02, -3.54976356e-02, 7.54046859e-03,
          8.40267225e-04, -1.70642752e-02, -1.97280794e-02,
          4.65741716e-02, -1.05217872e-02, -1.96619574e-02,
          1.22086154e-02, -5.19039705e-02, -7.62394816e-03,
          -2.73839552e-02, 8.08909535e-03, 2.23483818e-04,
          1.00714760e-02, -1.60676651e-02, 2.01391056e-03,
          4.24420042e-03, -8.37667361e-02, -7.25897774e-02,
          -6.64052379e-04, 7.86765199e-03, -3.90281156e-02,
          -1.65375061e-02, 2.68271342e-02, 1.96048450e-02,
          1.31755546e-02, -7.35279024e-02, -1.66106992e-03,
          -1.29555985e-02, 4.97036241e-02, -3.68086845e-02,
          -4.27773856e-02, -1.43906325e-02, 5.80857694e-03,
          1.39738806e-02, -6.60110563e-02, 3.54871191e-02,
          4.69565438e-03, -3.52408290e-02, 6.45693485e-03,
          4.86989412e-03, -5.25178248e-03, 9.33318585e-03,
          -2.71427054e-02, -1.91372782e-02, 3.50288525e-02,
          1.57172959e-02, -4.41697277e-02, -2.84138776e-04,
          1.56655312e-02, 2.83087548e-02, 1.17822047e-02,
          -7.66152795e-03, -9.31532606e-02, 3.93826962e-02,
          1.90318679e-03, 1.37324422e-03, 5.57303028e-05,
          -7.49813952e-03, -2.49113664e-02, -4.30401601e-03,
          -6.77098567e-03, -3.82396579e-02, 9.08947084e-03,
          -2.78669633e-02, -4.40204795e-03, 8.60605016e-02,
          5.49258217e-02, -1.19561376e-02, -8.80455784e-03,
          -3.53098996e-02, -3.94018926e-02, 3.88993546e-02,
          3.93293239e-03, -1.79121271e-02, 4.70512733e-02,
          3.10339890e-02, 8.56028777e-03, -3.63924098e-03,
          -3.45043391e-02, -3.20236832e-02, 1.77375115e-02,
          1.79973654e-02, -7.29649216e-02, 1.97561979e-02,
          2.84583084e-02, 3.35329734e-02, 9.44352243e-03,
          -1.59933735e-02, -2.59623863e-02, 1.77477468e-02,
          -3.00778858e-02, -6.40735701e-02, 7.27560744e-02,
          5.23993047e-03, -2.73277424e-02, -1.97387040e-02,
          3.71041521e-03, -4.31349538e-02, 2.35921852e-02,
          1.92220546e-02, -5.96881099e-02, -3.71716768e-02,
          -3.91774401e-02, -1.43859927e-02, -2.99108624e-02,
          -5.10686189e-02, -3.05137667e-03, 4.25289571e-02,
          -1.48721365e-02, -7.20877796e-02, -3.65831121e-03,
          -2.44977102e-02, 1.50855919e-02, -4.85589355e-02,
          -4.68780622e-02, -4.81652133e-02, 1.75202396e-02,
          1.98138542e-02, 1.34719023e-02, -3.96155305e-02,
          -3.62475738e-02, 1.08850608e-02, -1.99512467e-02,
          -4.96850442e-03, -8.42287913e-02, 1.98620837e-02,
          -6.13089046e-03, -1.08571745e-01, -1.01663833e-02,
          -4.94692251e-02, 1.78566221e-02, -8.91737291e-04,
          -5.87032512e-02, -1.06523201e-01, -1.55757600e-02,
          2.22168155e-02, 2.53165271e-02, 1.87230408e-02, 1.07906861e-02,
          5.54248095e-02, 4.53997105e-02, -1.16201770e-02,
          -4.75276373e-02, -1.53474016e-02, 4.40154970e-02,
          -2.93037575e-02, -4.39190753e-02, -4.44463342e-02,
          -1.20110931e-02, -2.63285898e-02, 2.90774088e-02,
          -3.14360410e-02, -3.46870162e-02, -9.32117342e-04,
          7.02871196e-03, -2.35173274e-02, -4.07230854e-02,
          7.14463321e-03, -1.36424294e-02, -2.63861064e-02,
          -8.61742869e-02, -2.93467082e-02, 9.44641903e-02,
          -2.17256695e-02, 3.90810147e-02, 4.59583253e-02,
          7.09023476e-02, 2.37731952e-02, 1.40877981e-02,
          -5.68899252e-02, -2.53754966e-02, 1.41607830e-02,
          2.47189943e-02, 2.20421571e-02, -4.66823718e-03,
          2.86289956e-02, 2.09145062e-02, 3.30164768e-02, 8.50098953e-03,
          -1.00551061e-02, -1.02824159e-02, -8.41295794e-02,
          2.94276606e-02, -7.09952367e-03, 2.40118336e-02,
          2.16027778e-02, -3.06892884e-03, 5.85343875e-02,
          4.76500131e-02, 4.63052280e-02, -5.54879569e-02,
          4.51622419e-02, -2.52411924e-02, -2.49700639e-02,
          -3.66607122e-02, 4.80273925e-03, 3.21350177e-03,
          -1.42355394e-02, 3.01782787e-02, -2.53579691e-02,
          1.60054266e-02, 2.12587845e-02, 3.94825712e-02, 6.10704087e-02,
          -7.63626993e-02, 2.63628364e-02, 4.14022058e-03,
          3.45843285e-02, 4.00121324e-02, 5.29480390e-02, 2.03938968e-02,
          4.16249409e-02, -4.10721637e-02, -5.75542189e-02,
          -1.25671774e-02, -6.45171925e-02, 1.83472112e-02,
          7.25207329e-02, -3.37262079e-02, -3.96641158e-02,
          -4.34971265e-02, -8.62640291e-02, -5.96123300e-02,
          -3.87590379e-02, -5.81977144e-02, -2.68623442e-03,
          2.76619359e-03, -4.14181165e-02, 3.97558324e-02,
          1.92204993e-02, -8.42536613e-02, -6.95047081e-02,
          8.72351415e-03, -1.70173720e-02, 3.65026481e-03,
          6.05828650e-02, 1.74023099e-02, -2.66379490e-02,
          6.00550510e-02, 3.17728743e-02, 1.18836397e-02, 1.05519751e-02,
          1.45784775e-02, 2.29726620e-02, -2.86178023e-04,
          -1.86323877e-02, 1.10045113e-02, 4.78213355e-02,
          4.50499095e-02, -4.32976447e-02, -2.81961299e-02,
          -6.21102042e-02, -3.81145515e-02, 1.49294427e-02,
          -2.50659529e-02, 2.06336845e-02, 2.08335426e-02,
          -1.75242461e-02, -2.59726141e-02, -3.59146930e-02,
          -7.41496161e-02, -8.30017775e-02, 7.71419192e-03,
          -2.84675676e-02, -5.04423724e-03, -1.38495676e-02,
          -3.55131365e-02, 1.00016380e-02, -1.10081770e-02,
          -1.09923547e-02, 1.84581999e-03, 1.69674177e-02,
          3.16338763e-02, 1.01108387e-01, 2.15941407e-02,
          -4.65487875e-03, -4.52036075e-02, -3.25681828e-02,
          1.13102235e-02, -2.74756085e-02, 3.16585377e-02,
          6.11511990e-02, 4.97341082e-02, -6.39135391e-02,
          -5.51648773e-02, -1.66970156e-02, 3.13873123e-03,
          3.49589959e-02, -1.89701207e-02, -4.28809971e-02,
          -9.97661985e-03, 9.83500388e-03, -1.61646660e-02,
          -4.12633270e-02, 7.02300062e-03, 2.40353942e-02,
          6.17201775e-02, -4.39948998e-02, -2.56263595e-02,
          -3.30367088e-02, -2.50574797e-02, -4.84723151e-02,
          -7.87787326e-03, -2.36657113e-02, 2.15891376e-02,
          5.46672381e-02, -2.69053900e-03, -5.88770211e-02,
          3.83271500e-02, 2.76555419e-02, -2.27091480e-02,
          -5.27514257e-02, -2.59700548e-02, -3.16647277e-03,
          6.15732707e-02, -4.33744267e-02, -7.23030791e-02,
          -4.02717739e-02, 2.57813912e-02, 2.22850349e-02,
          -3.10147200e-02, 6.03512935e-02, 1.51121700e-02,
          3.40316296e-02, 1.77498478e-02, -3.02457362e-02,
          -3.21793519e-02, -1.92399248e-02, -3.73929292e-02,
          -5.00840619e-02, 5.24145924e-02, -1.32505335e-02,
          7.71335233e-03, 2.45008171e-02, -6.95065755e-05,
          -7.48924017e-02, -6.14650771e-02, -2.21855659e-02,
          -3.18536498e-02, 4.33503091e-03, 2.21854467e-02,
          1.45052196e-02, -3.73603473e-03, -4.27875705e-02,
          -5.11156470e-02, 4.37630191e-02, 1.17469598e-02,
          -5.32057770e-02, 6.93899766e-02, 3.31292525e-02,
          2.09923275e-02, -2.47969432e-03, -4.89302352e-02,
          -6.69421181e-02, 2.19953135e-02, -2.29174402e-02,
          9.76309460e-03, -2.37899162e-02, -1.20561523e-02,
          -4.05650288e-02, -1.02549484e-02, 5.90239577e-02,
          1.70830507e-02, -6.12661391e-02, 4.91012633e-02,
          -5.87607659e-02, 7.67623447e-03, 4.34142761e-02,
          -2.20790543e-02, 3.62864621e-02, 3.11652198e-02,
          -7.05266818e-02, -2.87603717e-02, 4.88533787e-02,
          -1.53594194e-02, 5.75120784e-02, 5.31458855e-03,
          5.56512875e-03, -2.18732059e-02, -1.29857296e-02,
          1.24376677e-02, 2.42671967e-02, 1.89243350e-02, 3.26708630e-02,
          1.00245792e-02, 2.32486669e-02, 3.45698595e-02, 4.88607548e-02,
          -7.42588425e-03, -2.51610614e-02, 4.80425209e-02,
          5.43308668e-02, 7.60490522e-02, -3.67418453e-02,
          4.02867881e-04, -1.39702158e-02, 2.86637675e-02,
          -1.88902114e-02, -8.65436941e-02, -2.92218085e-02,
          3.84806432e-02, -4.99380529e-02, -3.96672785e-02,
          -1.94276907e-02, 2.84288824e-03, -2.39614844e-02,
          -3.74283232e-02, -6.62990361e-02, -2.43233424e-02,
          4.90768105e-02, 3.50226532e-03, -1.93383563e-02,
          1.23301335e-02, 2.08521560e-02, 9.20131728e-02, 1.30856615e-02,
          -5.08253761e-02, -3.96461738e-03, 5.14129922e-02,
          -4.50856565e-03, -1.81222372e-02, -1.02307675e-02,
          7.03507452e-04, 4.87415344e-02, -1.65324118e-02,
          -5.75972768e-03, 5.25677903e-03, 3.64820994e-02,
          -3.33729833e-02, 3.32348086e-02, 3.77344415e-02,
          -4.39770930e-02, -2.85771824e-02, -1.16533237e-02,
          -3.06285415e-02, -5.15606478e-02, -1.21749518e-03,
          6.12374097e-02, -2.69952118e-02, -4.38057631e-02,
          -8.64174962e-02, -5.33675030e-02, 3.78941223e-02,
          -6.91303052e-03, 2.59074718e-02, 1.72083750e-02,
          2.68737897e-02, 5.76645788e-03, 3.02008167e-02,
          -7.85326399e-03, 1.59874074e-02, -2.12997682e-02,
          3.41201425e-02, -1.18154595e-02, -2.46997252e-02,
          -3.77612039e-02, 2.52644029e-02, -5.07797115e-04,
          -1.21551016e-02, 1.50791323e-02, -8.50035250e-02,
          -3.59358601e-02, -2.11495869e-02, 2.54826061e-02,
          -3.43309343e-02, -2.67826710e-02, -7.40591809e-02,
          -7.98907354e-02, -2.32470292e-03, 2.08168980e-02,
          3.01794172e-03, 3.94617245e-02, 1.11797750e-02, 5.42333089e-02,
          1.17841607e-03, -1.98669713e-02, 7.14128930e-03,
          2.99206972e-02, 3.13970372e-02, -3.59935649e-02,
          -5.61303385e-02, -6.21067844e-02, 1.94757413e-02,
          3.03595196e-02, -2.00465098e-02, -2.77160108e-02,
          2.12558750e-02, -8.17082226e-02, -7.90324509e-02,
          -3.11536179e-03, 1.11882530e-01, 3.14856209e-02,
          6.82413066e-03, -8.13274458e-02, -6.22693729e-03,
          7.06480667e-02, 1.91605408e-02, -2.22710855e-02,
          -3.09591983e-02, 4.09936607e-02, -2.77929241e-03,
          2.93887183e-02, -4.85213064e-02, -2.69702449e-02,
          5.37092909e-02, 8.75959843e-02, -8.61965679e-03,
          -1.55206574e-02, 5.75045357e-03, 4.13355529e-02,
          4.19083834e-02, -5.00267260e-02, -8.18128213e-02,
          -5.35017159e-03, 1.81300007e-02, 4.48890962e-03,
          1.27487853e-02, -9.56148258e-04, 4.67227437e-02,
          1.62427723e-02, -4.38554250e-02, 1.24189351e-02,
          1.06462397e-01, 4.88808826e-02, -1.80937550e-05,
          -9.73767973e-03, 1.45893162e-02, -1.47384414e-02,
          6.87603429e-02, -2.19734274e-02, -3.82520519e-02,
          2.05641259e-02, -4.55324017e-02, -2.28703562e-02,
          -1.28256259e-02, -1.16560021e-02, 1.27117075e-02,
          -7.50459870e-03, -5.13198934e-02, -3.23677137e-02,
          -5.17104901e-02, -2.41206530e-02, 6.74914336e-03,
          -2.86104102e-02, 6.00236887e-03, 1.09294867e-02,
          -4.12997492e-02, -5.17806970e-02, 2.15728581e-03,
          -5.46370931e-02, 1.49733750e-02, -4.48501855e-02,
          -3.55874101e-04, 1.41037302e-02, 9.09013208e-04,
          1.80475879e-02, -4.62793559e-02, -1.63853448e-02,
          -2.95750443e-02, -3.01644914e-02, 1.62622631e-02,
          9.87073872e-04, 3.86187769e-02, 3.28460298e-02, 2.68472172e-02,
          8.79361574e-03, 5.36363013e-02, -4.84529547e-02,
          -2.51446036e-04, 4.57991427e-03, 2.65153050e-02,
          5.11093624e-02, 6.67267889e-02, 1.41094322e-03,
          -4.08585072e-02, 2.57247239e-02, 6.94012223e-03,
          3.85230817e-02, 3.04575581e-02, 7.38216192e-02, 1.84137952e-02,
          -3.16547789e-03, -3.34278829e-02, -4.88368720e-02,
          -2.07283944e-02, 1.05241751e-02, -7.78747769e-03,
          6.90702647e-02, 6.63373843e-02, -3.72884865e-03,
          -3.56484018e-02, 7.22769648e-02, 7.12782517e-02,
          6.75049797e-02, -2.25773025e-02, -1.62368268e-02,
          2.93287486e-02, 5.29052019e-02, 5.31770242e-03, 9.51194316e-02,
          -9.09561012e-03, 3.18236910e-02, 6.46361634e-02,
          4.48514074e-02, -2.85766218e-02, 4.96169589e-02,
          -2.01381906e-03, -3.57250720e-02, -8.99370667e-03,
          2.42270585e-02, 3.42985801e-02, 2.35676374e-02, 3.32658961e-02,
          -7.37089366e-02, 4.63227034e-02, 6.11347239e-03,
          -1.94763690e-02, 1.12524228e-02, 3.70901898e-02,
          2.05824559e-04, 3.25068682e-02, 2.88511142e-02,
          -8.41465443e-02, 4.88262959e-02, -2.05219779e-02,
          -2.94429474e-02, 2.33998299e-02, -2.11747410e-03,
          1.28771747e-02, 2.96297297e-02, 4.16790545e-02,
          -1.33226857e-01, 2.61341725e-02, -1.44623558e-03,
          -1.93129200e-02, 1.06233899e-02, 6.62066191e-02,
          3.30443867e-02, 7.87864178e-02, 7.42228236e-03,
          -9.86992717e-02, 4.38762158e-02, 3.29306140e-03,
          -2.02211794e-02, 5.03996126e-02, -1.54643469e-02,
          -8.76966119e-02, -3.95409688e-02, 2.13336572e-03,
          -7.96139538e-02, 1.21327946e-02, -3.44606712e-02,
          2.82128919e-02, -1.65500157e-02, -1.86220482e-02,
          -7.50902742e-02, -3.34642492e-02, -1.12432837e-02,
          9.30606108e-03, 5.14555462e-02, -1.12888077e-03,
          4.51347753e-02, -8.63920490e-04, 2.47641429e-02,
          -4.17125691e-03, 5.15172593e-02, -1.79201849e-02,
          -1.05851501e-01, -1.84873063e-02, -1.21321408e-02,
          3.22880852e-03, 1.24813830e-02, 1.58513673e-02, 3.02098859e-02,
          5.42748347e-02, 1.73106603e-02, 6.24037832e-02, 1.20521903e-01,
          3.41455452e-02, 8.42596218e-03, -9.70108248e-03,
          -2.08359957e-02, -6.24328740e-02, -1.45690143e-02,
          4.03094776e-02, -5.98674268e-02, 4.98933271e-02,
          1.60353314e-02, 5.11385128e-02, 2.72149201e-02,
          -2.13648174e-02, -6.52488172e-02, -1.52990902e-02,
          -5.88595401e-03, -5.81205934e-02, -5.07458579e-03,
          -5.09670330e-03, 3.87310646e-02, 5.13349883e-02,
          1.59097165e-02, 3.18836197e-02, 8.68202895e-02, 2.70229653e-02,
          -4.22606058e-02, 7.14053512e-02, -1.49401799e-02,
          -1.58128869e-02, 1.44687518e-02, 2.06220523e-03,
          -4.51559015e-03, 6.33537844e-02, 4.32466716e-02,
          -3.03092301e-02, 5.12208976e-03, -1.15071787e-02,
          4.29727733e-02, 5.33693284e-02, 3.45279649e-03,
          -2.49626338e-02, -7.80167850e-03, 5.84650319e-03,
          -4.53973040e-02, 1.80023815e-03, 2.39890292e-02,
          3.42350192e-02, 4.15060595e-02, -7.74273649e-02,
          -1.64069270e-03, -3.17715271e-03, -5.35304518e-03,
          1.15903029e-02, 6.29322901e-02, 6.51202127e-02, 1.93513501e-02,
          -3.36107127e-02, 1.22832982e-02, 2.76114815e-03,
          8.10197666e-02, 3.09576169e-02, -7.68620744e-02,
          2.04737280e-02, -2.00078245e-02, -2.98773940e-03,
          2.01130752e-02, -5.39609678e-02, 1.08488519e-02,
          6.57185987e-02, 1.14328023e-02, -3.06462813e-02,
          1.11971721e-01, 3.78985144e-02, 1.73268076e-02,
          -3.75050455e-02 ]
   decision_functions:
      -
         sv_count: 1
         rho: -2.9772164875646272e+00
         alpha: [ 1. ]
         index: [ 0 ]
