%YAML:1.0
my_svm: !!opencv-ml-svm
   svm_type: C_SVC
   kernel: { type:LINEAR }
   C: 100.
   term_criteria: { epsilon:2.2204460492503131e-16, iterations:450 }
   var_all: 3780
   var_count: 3780
   class_count: 2
   class_labels: !!opencv-matrix
      rows: 1
      cols: 2
      dt: i
      data: [ -1, 1 ]
   sv_total: 1
   support_vectors:
      - [ -2.91910619e-02, 9.75216553e-02, -3.48081952e-03,
          -6.10666461e-02, -5.64249456e-02, -4.81937751e-02,
          -7.20254183e-02, -2.32769310e-01, -5.99468648e-02,
          2.43490711e-02, 3.37834172e-02, -6.51678517e-02,
          -4.92618270e-02, 8.04721937e-02, 1.55475214e-01,
          2.37653870e-02, -1.50807407e-02, -4.23059426e-03,
          -9.97121036e-02, 1.21066757e-01, -6.26628846e-03,
          -5.07630333e-02, 1.59478299e-02, -8.35522041e-02,
          -9.55339819e-02, -1.65644780e-01, -1.39685124e-01,
          2.10932605e-02, -1.44086972e-01, -1.77679211e-01,
          -3.78886913e-03, 6.92626685e-02, 1.05384730e-01,
          -1.53469509e-02, 3.00485510e-02, 4.90661003e-02,
          -7.56877661e-02, -9.32930112e-02, -1.17869630e-01,
          3.78419366e-03, 5.90981878e-02, 1.20080277e-01,
          -1.73819941e-02, -6.87985271e-02, -7.48407319e-02,
          -2.30702404e-02, 2.63370723e-02, -5.92609756e-02,
          -6.85214531e-03, 1.43172937e-02, -1.49815464e-02,
          1.19463410e-02, -4.80570160e-02, -5.96146397e-02,
          -6.44099265e-02, -1.59042060e-01, -1.51470110e-01,
          4.62224036e-02, 3.47897075e-02, 1.57443181e-01,
          -3.83763686e-02, 3.22387442e-02, -6.31795302e-02,
          -3.58813517e-02, 1.19587341e-02, -4.38294373e-02,
          -1.18179107e-02, 1.73733290e-02, -3.44954021e-02,
          -5.35909496e-02, -3.23233791e-02, -1.09927952e-01,
          3.52325924e-02, 4.47112359e-02, -2.38302182e-02,
          6.40838742e-02, -3.22053432e-02, -2.36615706e-02,
          1.99442673e-02, 1.28691411e-02, 6.03013970e-02, 1.22987956e-01,
          4.01862897e-02, -6.31166846e-02, 1.85561031e-02,
          2.43869387e-02, 9.08168703e-02, 1.15663514e-01, 3.84785025e-03,
          6.83410391e-02, -6.13240302e-02, 4.28655967e-02,
          -3.59808654e-02, 7.72107486e-03, -2.92840344e-03,
          -1.90359317e-02, -1.14720901e-02, -4.66284864e-02,
          -1.33247748e-01, -1.35721210e-02, 1.33006170e-03,
          -1.29816204e-01, 5.15493639e-02, -1.06480997e-03,
          5.56582063e-02, 9.84857418e-03, -5.63513227e-02,
          -8.11018795e-03, 7.52165690e-02, 8.53011310e-02,
          -2.90455874e-02, 7.51430541e-02, 3.73078138e-02,
          7.33667389e-02, 4.88500036e-02, -7.28213489e-02,
          -3.08228675e-02, -3.26292999e-02, 1.42504826e-01,
          1.96640007e-02, 1.10731035e-01, 2.85797585e-02, 2.72250604e-02,
          -5.06719481e-03, -4.50877957e-02, -6.28660247e-02,
          -3.15971635e-02, 2.18448993e-02, -1.10105112e-01,
          2.11709272e-02, -1.00078598e-01, 2.05569584e-02,
          -2.91580185e-02, -4.10592295e-02, -4.27150168e-02,
          -1.27758324e-01, -1.09737203e-03, -7.04969466e-02,
          4.09717411e-02, -2.52824053e-02, 2.79068854e-02,
          -7.65501335e-02, -6.10844195e-02, -3.28688174e-02,
          4.18627635e-02, 1.05495274e-01, 3.56357247e-02, 9.69679505e-02,
          5.75872213e-02, -4.58146557e-02, -4.73461673e-02,
          4.01931927e-02, -7.88242556e-03, 8.73264074e-02,
          6.61489591e-02, 4.07941677e-02, 1.02406181e-01, 4.80541736e-02,
          -9.56249684e-02, -6.49082959e-02, 2.32956260e-02,
          -1.75611563e-02, 7.36227678e-03, 1.42879337e-02,
          -7.19376430e-02, 7.86757320e-02, 7.09494129e-02,
          -5.92183620e-02, -8.57201219e-02, 9.79438424e-03,
          -6.81171417e-02, 7.48941153e-02, -4.39962968e-02,
          -9.00046527e-02, 4.06675786e-02, -3.29580829e-02,
          -5.72385602e-02, -1.09995455e-01, 8.99260193e-02,
          8.86555612e-02, 3.34816277e-02, 7.83830360e-02, 1.41725615e-02,
          5.45410365e-02, 2.54000220e-02, -4.38907593e-02,
          -2.76322495e-02, -2.86174808e-02, -3.68058421e-02,
          3.31959836e-02, 7.56587163e-02, -1.82908606e-02,
          -7.41252080e-02, 6.84052780e-02, 3.12734433e-02,
          2.09440645e-02, -3.57969590e-02, 1.48896817e-02,
          3.40069570e-02, -1.16495853e-02, -4.43819277e-02,
          1.22689186e-02, -3.19689550e-02, -2.30031703e-02,
          -5.38055599e-02, 1.54652605e-02, 3.55845205e-02,
          -6.95269108e-02, 1.48022026e-02, 8.94770958e-03,
          -2.70052291e-02, -1.70225594e-02, -4.17330628e-03,
          -7.21381679e-02, -4.68631461e-02, -7.16338828e-02,
          -2.41227522e-02, 2.27334127e-02, -2.07313914e-02,
          -5.35305180e-02, 5.73684424e-02, 1.14562616e-01,
          1.13597311e-01, 3.33430469e-02, 1.14380214e-02,
          -8.62181038e-02, 8.32700431e-02, 6.97086975e-02,
          5.85242212e-02, -2.35458618e-04, 8.41826871e-02,
          5.27618490e-02, 4.68833037e-02, -1.12709448e-01,
          -1.02441192e-01, 1.66649148e-02, 3.76142375e-02,
          -6.10552728e-02, -3.80608067e-02, -1.17718484e-02,
          3.99298617e-04, -3.08455364e-03, -4.02192362e-02,
          -5.81504330e-02, 4.54008840e-02, -6.02002256e-03,
          2.54079793e-02, -1.56841855e-02, -9.98069625e-03,
          -1.87079310e-02, -7.13919930e-04, -9.47403759e-02,
          -7.61449262e-02, 1.19682133e-01, 9.66529772e-02,
          6.78994879e-02, -4.97636795e-02, 6.33318350e-03,
          3.87155102e-03, 6.51856884e-02, -3.10204290e-02,
          -3.36487964e-02, 2.59615369e-02, -1.48978904e-02,
          -3.82354148e-02, -3.88018638e-02, -5.52335605e-02,
          -4.86356281e-02, 1.19819537e-01, 1.38910279e-01,
          -1.54657448e-02, 9.61204916e-02, 7.42793381e-02,
          5.51363006e-02, -1.93180814e-02, 3.18848975e-02,
          -3.76346856e-02, 5.62612608e-04, -1.81180146e-02,
          -7.44049177e-02, -3.70204113e-02, -6.61116466e-03,
          4.31178585e-02, -2.63509564e-02, 4.57841642e-02,
          -4.16357182e-02, -2.58655893e-03, 4.37225811e-02,
          -1.62410308e-02, 1.39676658e-02, -1.70299187e-02,
          6.64711669e-02, -3.00053414e-03, -5.45988716e-02,
          -3.67070618e-03, 5.94943687e-02, 1.79703563e-01,
          -2.05453169e-02, 1.56467967e-02, -7.34925549e-03,
          6.57802299e-02, -7.64864904e-04, -7.25908717e-03,
          -2.76165493e-02, 1.57892685e-02, 7.31909126e-02,
          -2.44012903e-02, -2.30186973e-02, -9.31802392e-02,
          1.58444103e-02, 1.66775640e-02, 4.43129949e-02,
          -3.92185524e-02, 7.25420704e-03, 2.70612128e-02,
          -7.39579275e-02, -9.70283896e-02, 1.59349351e-03,
          8.38982873e-03, 7.05433032e-03, 9.31220502e-02, 7.99607113e-02,
          8.31506103e-02, -9.01756808e-02, 2.18514651e-02,
          5.72715476e-02, 5.50614297e-02, 3.82251441e-02, 6.11346401e-02,
          -4.60052341e-02, -1.70373619e-02, 9.22236033e-03,
          9.18081999e-02, 4.20187116e-02, 1.36064887e-02, 6.83273971e-02,
          2.03748774e-02, 1.14566609e-01, 1.63037833e-02,
          -2.91056093e-02, -8.66382942e-03, 5.20122312e-02,
          -5.00617474e-02, 3.01433709e-02, 1.02210306e-01,
          -8.50345194e-03, 2.13358365e-02, 6.00943007e-02,
          1.10887140e-02, 4.80003916e-02, -2.80357432e-02,
          -6.13295659e-02, 3.71914990e-02, 3.18131922e-03,
          -5.23774549e-02, 1.27445132e-01, 1.43135423e-02,
          -6.32276013e-02, -4.06560078e-02, -3.77977975e-02,
          5.34519479e-02, 1.64010078e-02, 6.46016970e-02,
          -7.91072752e-03, 1.46370530e-01, 5.45221604e-02,
          1.13001959e-02, 7.07413303e-03, 3.07167843e-02,
          -3.57950367e-02, -1.31849675e-02, 3.81240845e-02,
          4.18815352e-02, 7.27558136e-02, 1.10690929e-01, 1.13701902e-01,
          -8.33103247e-03, -2.01608101e-03, -3.55844200e-02,
          -6.47161677e-02, -6.37327903e-04, -8.00102502e-02,
          5.05378544e-02, -3.23130637e-02, -2.41386015e-02,
          2.07835212e-02, 1.02647236e-02, -1.85184460e-02,
          -5.77269495e-02, -1.45942322e-03, -1.42441306e-04,
          -7.27415085e-02, 2.11746264e-02, -3.17059830e-02,
          9.89232734e-02, 1.10937975e-01, -8.85695145e-02,
          2.79458065e-04, 6.64528012e-02, 7.11360574e-02, 1.75708551e-02,
          1.06256597e-01, 1.32651672e-01, 5.51093407e-02, 4.31182235e-02,
          -3.26162577e-02, 2.83054523e-02, 7.48896152e-02,
          -1.69356484e-02, 1.60571504e-02, -1.57933421e-02,
          5.39215766e-02, -5.78211993e-02, -1.47981159e-02,
          3.35161611e-02, -3.69287585e-03, 6.42409548e-02,
          1.55706359e-02, -9.78847817e-02, 5.83842471e-02,
          1.45730441e-02, 1.01106830e-01, 1.35193482e-01,
          -1.53201050e-03, -2.53803469e-02, 2.93461177e-02,
          -7.31885284e-02, -6.35652095e-02, 3.31266895e-02,
          2.86767296e-02, 2.08471902e-02, 3.04420628e-02,
          -4.65989374e-02, -1.23977745e-02, 3.69987153e-02,
          -1.16417659e-02, 7.13753477e-02, 1.11350730e-01,
          7.04851300e-02, -7.70626366e-02, -5.79976812e-02,
          -8.76328051e-02, -3.06250062e-02, -3.96188581e-03,
          -7.56213441e-02, 5.39696328e-02, 1.62966043e-01,
          3.61855328e-02, -4.09649536e-02, -3.76208872e-02,
          -2.06872504e-02, -2.33213902e-02, 3.62886526e-02,
          -1.64882299e-02, 3.15476060e-02, 1.18807247e-02,
          6.52484223e-02, -6.13023229e-02, -2.42463816e-02,
          -7.97802641e-04, 5.67655358e-03, 4.40537743e-02,
          -1.08899482e-01, 4.90449257e-02, 4.76119816e-02,
          3.53027470e-02, -5.58306612e-02, -4.17856909e-02,
          3.49070108e-03, 1.64465215e-02, -2.64584646e-02,
          -1.12404287e-01, -6.56411126e-02, 1.43546432e-01,
          8.69304221e-03, 1.16987936e-02, 2.26082355e-02, 4.45937552e-02,
          -4.38604355e-02, -3.45315710e-02, 3.48516516e-02,
          -1.45198945e-02, 9.33808833e-02, -6.42452687e-02,
          -2.51601804e-02, 7.63364360e-02, -1.09706270e-02,
          1.21821240e-02, -1.34658059e-02, -1.00683719e-01,
          6.31275820e-03, 6.77618459e-02, 8.50595310e-02, 4.16655131e-02,
          3.68822813e-02, 4.51287441e-02, -7.39257112e-02,
          -7.42240101e-02, 1.78031176e-02, -4.34869863e-02,
          9.82158538e-03, -9.19138454e-03, 2.94263065e-02,
          6.57263473e-02, 5.40287094e-03, -3.04522756e-02,
          2.85695158e-02, 6.32752106e-02, 1.21763805e-02, 4.98679690e-02,
          -2.06044894e-02, -3.58169386e-03, 3.75853553e-02,
          -3.56418975e-02, -2.24496499e-02, 1.24105759e-01,
          5.37423380e-02, -6.91765100e-02, -5.61304726e-02,
          2.16892976e-02, -1.52083356e-02, -2.33945576e-03,
          2.97003463e-02, -8.06218982e-02, 1.66616403e-02,
          -3.89348976e-02, -5.92214726e-02, -5.19022606e-02,
          1.44440690e-02, 4.48368676e-02, 6.07156381e-02, 1.18895434e-02,
          2.70449705e-02, 7.41898865e-02, -1.17855690e-01,
          -1.42921627e-01, 1.28920311e-02, 1.13096789e-01,
          3.80179733e-02, 5.39149269e-02, -8.55990276e-02,
          7.07133412e-02, 1.03299744e-01, 5.03358170e-02, 4.58837561e-02,
          -5.91141209e-02, -9.33377668e-02, -7.08316565e-02,
          -1.21840976e-01, -6.22947328e-03, -3.84279303e-02,
          -3.07663735e-02, -9.45420843e-03, 8.29079971e-02,
          -3.08127850e-02, -7.57119581e-02, 9.82285812e-02,
          8.54468197e-02, -9.71598104e-02, -3.80892418e-02,
          7.32794926e-02, 3.38642932e-02, 6.21004626e-02, 2.04389170e-02,
          2.06378642e-02, 2.22072192e-02, -1.06926464e-01,
          -2.29641236e-02, -9.78999734e-02, -9.40893069e-02,
          -1.04273729e-01, 1.66199505e-02, -3.86125669e-02,
          7.83415586e-02, 1.34316012e-01, 9.56901759e-02,
          -6.14174083e-02, -5.37595041e-02, -2.56080404e-02,
          6.13846183e-02, 9.01165828e-02, 1.01625435e-01,
          -4.71996926e-02, 9.70498919e-02, 4.60047685e-02,
          -5.40837422e-02, -2.64323287e-04, -5.14421538e-02,
          6.84920996e-02, 4.85713081e-03, -4.99544591e-02,
          -5.91584630e-02, 4.65299673e-02, -1.13438899e-02,
          -6.26269216e-03, -4.50394209e-03, -5.70760444e-02,
          -7.68086500e-03, -1.79026797e-02, -2.33176146e-02,
          -8.49208012e-02, 5.15911020e-02, 7.71492943e-02,
          -5.54535761e-02, -1.07036550e-02, -4.19836491e-02,
          1.48028344e-01, 7.35267475e-02, -3.94062288e-02,
          -1.65234402e-01, -9.03486088e-02, -4.30821367e-02,
          7.54756108e-03, 9.76054836e-03, -6.77227750e-02,
          7.49899521e-02, -1.01379221e-02, -7.61049688e-02,
          7.92444870e-03, 3.75316367e-02, -6.87280595e-02,
          5.16602062e-02, -2.92052589e-02, -5.10892123e-02,
          7.91424513e-02, 1.51683874e-02, -6.65973052e-02,
          7.33131617e-02, 8.30543563e-02, -1.53282601e-02,
          -2.15622913e-02, -1.66697763e-02, -1.32523268e-01,
          1.01191163e-01, -1.38732223e-02, 5.35952998e-03,
          -2.39899904e-02, 1.15714716e-02, -3.40651423e-02,
          -1.58810075e-02, -6.98764995e-02, -1.66357815e-01,
          8.56415778e-02, 3.32148969e-02, -4.43470106e-03,
          1.22442525e-02, 8.19118023e-02, -1.81843266e-02,
          6.82946444e-02, 5.21368459e-02, -4.79164086e-02,
          5.12787700e-02, -4.24836278e-02, -4.53799218e-02,
          -2.39187339e-03, 3.81254554e-02, 4.08506021e-02,
          2.47596744e-02, 4.25735861e-02, -1.22761935e-01,
          6.90544620e-02, 7.47335562e-03, 3.25225410e-03, 8.72119069e-02,
          5.36099300e-02, 5.41182458e-02, -5.71611635e-02,
          5.24079688e-02, -8.08275640e-02, 1.02977000e-01,
          1.09754065e-02, -5.72767407e-02, -5.58708757e-02,
          -4.50898288e-03, 1.16838915e-02, -5.87182529e-02,
          -9.03104767e-02, -1.15326770e-01, 5.24759144e-02,
          3.28718014e-02, -1.34764519e-02, 2.54664756e-03,
          -8.58632773e-02, -6.32904097e-02, 9.25257280e-02,
          9.54721309e-03, -1.48884088e-01, 1.10731512e-01,
          6.32706359e-02, -1.36237778e-02, -9.03533921e-02,
          1.68791953e-02, 6.09396659e-02, 9.05329287e-02,
          -4.82247546e-02, -7.34303221e-02, 6.11256100e-02,
          4.87007536e-02, -4.07216661e-02, -7.59153962e-02,
          1.38352895e-02, 6.29916489e-02, 9.35348216e-03,
          -1.76790357e-01, -1.63095817e-01, 9.09196585e-02,
          4.36367206e-02, 4.36504111e-02, -1.91124994e-02,
          -1.00140408e-01, -1.38242161e-02, 2.63107195e-02,
          -6.72268048e-02, -1.33992597e-01, 4.35564779e-02,
          4.77894880e-02, 3.35616991e-02, -1.55715868e-01,
          -6.14689179e-02, 5.03229462e-02, 3.94001603e-02,
          9.78184165e-04, -1.71420146e-02, 3.14117633e-02,
          -1.63286366e-03, -2.86707971e-02, -1.16540179e-01,
          -1.52252559e-02, 8.22191536e-02, 3.15544531e-02,
          -1.23926084e-02, 7.56262615e-02, 3.74989174e-02,
          6.72313012e-03, 4.97453436e-02, -7.01254159e-02,
          -2.89857034e-02, 7.48664737e-02, -2.54288763e-02,
          -7.36456215e-02, -1.19578026e-01, 1.59976017e-02,
          1.26223722e-02, -1.04990778e-02, -1.54926389e-01,
          -1.01152763e-01, 8.45675617e-02, -1.68883782e-02,
          -3.86113371e-03, -1.02240685e-02, 9.88420248e-02,
          8.15499946e-02, -1.96260102e-02, -1.26538604e-01,
          -1.26015656e-02, 6.93973228e-02, -9.29106586e-03,
          -1.50055867e-02, 1.05425417e-01, 7.11281300e-02,
          -1.42370947e-02, -5.90386940e-03, -1.27462745e-01,
          -3.71504091e-02, -4.91178036e-02, 2.32406557e-02,
          9.75770876e-04, 5.13349846e-02, 5.48352636e-02, 6.93576708e-02,
          4.27030772e-02, -1.50076553e-01, -4.70338995e-03,
          4.06397618e-02, -4.23424803e-02, -3.13615873e-02,
          3.35318362e-03, 7.63640227e-03, 4.41051275e-03, 1.44813797e-02,
          -1.10288382e-01, -8.27486366e-02, -2.41590962e-02,
          -8.53079632e-02, -5.30790798e-02, 5.14658205e-02,
          5.34918606e-02, 1.56197190e-01, 8.87931958e-02,
          -7.95698464e-02, -7.00112432e-02, -3.37586179e-02,
          7.93724954e-02, 7.79382810e-02, 2.66069416e-02, 5.40561192e-02,
          2.45323852e-02, 6.21759519e-02, -9.35209244e-02,
          2.27980362e-03, 8.09067190e-02, 3.23062688e-02, 3.02191935e-02,
          -2.77520418e-02, -9.66910855e-04, 2.60807797e-02,
          4.69866805e-02, -2.83024460e-02, 6.76853359e-02,
          7.73649812e-02, -3.97803038e-02, 3.12611908e-02,
          2.09414549e-02, -1.99210886e-02, 1.86588466e-02,
          3.83979641e-02, -8.58765915e-02, -1.86564669e-03,
          6.88959584e-02, 1.46939689e-02, -5.92643507e-02,
          -8.82585496e-02, -1.48168495e-02, 7.26543665e-02,
          -2.51093339e-02, -5.71021922e-02, -2.51058489e-02,
          8.20320472e-02, -2.46131560e-03, 3.01315915e-02,
          -1.23340022e-02, -3.18936519e-02, 1.16654798e-01,
          7.62808844e-02, -1.96470357e-02, 6.77825660e-02,
          9.45321470e-02, -5.26708663e-02, 9.15846380e-04,
          1.44471349e-02, -4.07335572e-02, 3.40805985e-02,
          7.43158981e-02, -2.55709638e-05, 6.31282851e-02,
          -3.22972797e-02, 5.59150660e-03, 1.64496973e-02,
          1.33258859e-02, -1.53415427e-02, 3.62163670e-02,
          -3.13019417e-02, -1.09831423e-01, 4.70894538e-02,
          5.17050512e-02, -4.98341136e-02, -6.20832434e-03,
          7.80279934e-02, -8.22006837e-02, 2.06146222e-02,
          -1.65449195e-02, -3.37257646e-02, 8.30122456e-02,
          1.99362617e-02, 1.14189480e-02, 5.14724776e-02, 1.11131072e-01,
          3.60674709e-02, -1.42555619e-02, 9.45681706e-03,
          -9.35076475e-02, 7.86846206e-02, 6.92587858e-03,
          -1.03183270e-01, 3.05021927e-02, 2.02516243e-02,
          3.34373526e-02, 9.05996636e-02, -4.56435382e-02,
          -5.66190816e-02, -2.90848548e-03, -5.78923002e-02,
          3.28174308e-02, 6.48107231e-02, 5.35395518e-02, 1.44368783e-02,
          6.05693571e-02, 4.43900526e-02, -3.81176062e-02,
          4.90281098e-02, 9.06957239e-02, 3.00709065e-02, 2.03016717e-02,
          -6.62026703e-02, 3.34867723e-02, 3.42961960e-02,
          -3.28267775e-02, -6.43166527e-02, -4.26227227e-03,
          -4.33847122e-02, -4.35775816e-02, 3.77806909e-02,
          -6.18800661e-03, -1.94478668e-02, -1.49193844e-02,
          -4.04365994e-02, -2.44834856e-03, 4.92353141e-02,
          2.92381346e-02, 3.15937400e-02, 2.59103458e-02, 4.14300524e-02,
          8.07974562e-02, -1.05709292e-01, -9.51004773e-03,
          -7.03296736e-02, 1.37562528e-01, 7.60687292e-02,
          1.55854253e-02, 7.87120908e-02, -4.64346744e-02,
          1.38840033e-02, 2.48632934e-02, -5.66211119e-02,
          6.21028468e-02, 8.95850062e-02, 3.85849550e-02, 5.01583144e-02,
          1.14365257e-01, 8.42138231e-02, 1.72358379e-01, 5.08089550e-02,
          -6.19801730e-02, 8.44746176e-03, 5.97373545e-02,
          1.15082555e-01, 1.60316676e-02, 1.51152890e-02, 4.41233106e-02,
          2.28201877e-02, -1.68873183e-02, 1.65134892e-02,
          -9.21966061e-02, 8.06571022e-02, 1.25750571e-01,
          -7.18832985e-02, -4.27555479e-02, 6.03104290e-03,
          -4.57542948e-02, -5.83971676e-04, 4.33366299e-02,
          -8.12103535e-05, 6.65854290e-02, 5.65848574e-02,
          -1.12636033e-02, 3.30845900e-02, 4.01978940e-02,
          8.70266333e-02, 1.36362821e-01, -5.90830259e-02,
          -1.29767910e-01, -4.98943888e-02, 7.34018087e-02,
          -5.86376414e-02, -1.37580901e-01, -6.75539002e-02,
          -5.11299409e-02, 9.31596756e-02, 4.02662456e-02,
          -9.91376489e-02, -8.20390210e-02, -3.04800663e-02,
          -5.53269386e-02, 7.19244781e-05, 8.74163210e-02,
          1.53673710e-02, 3.47670428e-02, -3.05412095e-02,
          4.49660793e-02, 1.64463203e-02, -3.14224027e-02,
          -4.27328870e-02, 1.95191037e-02, 1.25401497e-01,
          3.34123969e-02, 3.12962793e-02, -5.19430041e-02,
          9.58619453e-03, -4.09096852e-02, -5.93894310e-02,
          -5.52056134e-02, -6.84211254e-02, 6.97842762e-02,
          4.53528576e-02, -9.97198932e-03, -1.24572188e-01,
          -5.59346676e-02, 2.48569250e-03, -5.53567670e-02,
          -1.44808466e-04, -1.34480726e-02, 8.98394883e-02,
          5.95054217e-02, 5.59126101e-02, -1.52046815e-01,
          -3.71824764e-02, 1.41770355e-02, -3.68713252e-02,
          -1.79748202e-03, -4.00893539e-02, 1.89435352e-02,
          -1.30196828e-02, 1.80533237e-03, 1.07336848e-03,
          4.17161873e-03, -2.03762762e-02, 1.22288270e-02,
          3.28879952e-02, -2.99163442e-02, 1.24257542e-02,
          8.07571262e-02, 1.59325246e-02, -4.60330537e-03,
          5.38043212e-04, -1.43572902e-02, 1.22654252e-02,
          1.44749098e-02, -9.79183689e-02, -5.45016155e-02,
          -8.77805576e-02, 8.90400112e-02, 5.42847328e-02,
          -2.98342612e-02, 3.25980261e-02, 2.09128540e-02,
          1.72579102e-02, -5.80895059e-02, -1.63630508e-02,
          3.48710865e-02, 4.42282222e-02, 8.10369700e-02, 1.95530318e-02,
          -9.03868489e-03, -3.78114246e-02, -3.63312252e-02,
          -6.14969581e-02, 9.10412520e-02, 7.74388313e-02,
          -1.04223127e-02, -4.38930504e-02, 2.67578010e-02,
          8.03166348e-03, 2.03513205e-02, -1.06273234e-01,
          -3.23501565e-02, 5.66639155e-02, -5.06689176e-02,
          -4.54137400e-02, 3.24342772e-02, 1.99887827e-02,
          -4.17095236e-02, -2.88408878e-03, -2.25030398e-03,
          -2.86217164e-02, 6.14086539e-02, 9.82731208e-02,
          -1.81382410e-02, 3.71711180e-02, 9.07457026e-04,
          -1.30058862e-02, 8.71852599e-03, -6.88910857e-02,
          -5.62673323e-02, 1.03748366e-02, 5.10733612e-02,
          3.87856066e-02, 7.20530227e-02, -4.19683158e-02,
          -6.51163161e-02, -6.18895404e-02, -7.94512630e-02,
          -5.62586775e-03, 1.53481336e-02, 2.73839142e-02,
          -1.02410791e-02, 9.05921534e-02, 1.09489314e-01,
          6.44684257e-03, -1.14621721e-01, 9.07433406e-02,
          5.43554649e-02, -2.61730552e-02, -5.16121238e-02,
          -8.17791522e-02, 3.74171212e-02, 9.75648910e-02,
          -4.66161361e-03, 1.95997488e-02, 5.55477664e-02,
          7.20781414e-03, 9.34242532e-02, -3.11731186e-04,
          -6.87615797e-02, 7.54158422e-02, 3.00910566e-02,
          4.49293572e-03, -5.77421933e-02, 4.96095419e-02,
          -8.01416859e-02, -7.58918598e-02, -1.11764781e-01,
          -1.58276737e-01, 2.83128005e-02, 7.85559639e-02,
          -1.67947151e-02, -1.79969277e-02, 1.40696630e-01,
          6.28818348e-02, -1.94295514e-02, -4.10737917e-02,
          -1.20400429e-01, -3.91853526e-02, -5.89989647e-02,
          -2.53256336e-02, 3.12378369e-02, 1.45579986e-02,
          2.54206592e-03, 3.23886573e-02, 5.59786037e-02,
          -3.35225612e-02, -1.44913951e-02, -1.64280742e-01,
          -1.73937511e-02, -1.12102069e-02, -2.73570921e-02,
          -2.28809174e-02, 5.45253837e-03, -5.98502085e-02,
          -1.52010590e-01, -2.36514548e-04, 4.56268191e-02,
          -4.08090055e-02, -8.90970230e-02, 3.60199064e-02,
          1.78399403e-02, 1.60604827e-02, -8.71951431e-02,
          -1.57464191e-01, -5.01733311e-02, 2.37029940e-02,
          -8.19426030e-03, -1.65960118e-02, 2.12988891e-02,
          5.03487326e-02, -1.19303493e-02, -1.93644185e-02,
          -6.73509315e-02, -1.34860976e-02, -4.34134267e-02,
          2.62911804e-02, -1.66685153e-02, -2.42522312e-03,
          -2.51123973e-04, -5.15947454e-02, 2.39813495e-02,
          2.70068720e-02, 1.16183870e-02, -3.81926820e-02,
          8.87616128e-02, -3.36577781e-02, 5.40795922e-02,
          9.13221389e-02, 4.43712957e-02, -1.10686205e-01,
          -1.30093604e-01, -7.29699507e-02, 2.31780787e-03,
          -2.79714260e-02, -1.05747255e-02, -4.33126613e-02,
          2.56800875e-02, -1.12850815e-01, -1.71117391e-02,
          -1.51676638e-02, -5.19218035e-02, -6.00340515e-02,
          -2.05672532e-02, -9.10456479e-03, -5.47490008e-02,
          1.78883467e-02, -5.09216152e-02, 8.34134743e-02,
          8.99489596e-02, 2.73382012e-02, -1.04999766e-02,
          5.67280576e-02, 5.95114194e-04, -4.75998856e-02,
          -2.54881736e-02, 1.88722126e-02, 7.79255852e-02,
          8.01419392e-02, 3.96219604e-02, -2.27664951e-02,
          -6.34225532e-02, -2.78480258e-02, -1.04090542e-01,
          4.45301607e-02, -4.61551584e-02, 6.42849179e-03,
          7.64288241e-04, 1.04528544e-02, -9.15498193e-03,
          -1.93999298e-02, 1.16875665e-02, -8.62201676e-02,
          3.61250862e-02, 1.95821915e-02, 2.58229598e-02,
          -5.62090650e-02, -2.38794386e-02, -2.84477547e-02,
          -5.47803491e-02, -7.09049702e-02, -1.98927410e-02,
          -7.12852478e-02, -4.00867611e-02, 6.22711936e-03,
          -3.09990160e-02, 6.93844259e-02, -1.99406166e-02,
          -6.57063201e-02, -4.57094721e-02, 9.19606909e-03,
          1.18354487e-03, -7.38861412e-02, 1.14638833e-02,
          3.39470729e-02, 7.97567666e-02, -6.70488551e-02,
          4.14403388e-03, 2.79243775e-02, -8.57876912e-02,
          1.19106872e-02, -2.58967523e-02, -5.39164618e-02,
          -7.46261775e-02, -6.20728806e-02, -2.86958683e-02,
          -1.58929992e-02, -1.05662644e-01, 1.06420889e-02,
          5.59357507e-03, -1.87234338e-02, -2.44026743e-02,
          -4.89075817e-02, -1.62608102e-02, 2.91808899e-02,
          -4.00239136e-03, -4.91138510e-02, -3.44829336e-02,
          -8.28533061e-03, -5.22120930e-02, 2.30339132e-02,
          4.58940528e-02, 1.97766684e-02, -1.30357847e-01,
          2.62668114e-02, 8.41997638e-02, -3.33007947e-02,
          2.99931318e-02, -6.26421347e-02, 1.05125066e-02,
          -8.10332410e-03, -6.39635324e-02, -7.71626011e-02,
          5.64556457e-02, -4.06444818e-02, -4.73746844e-02,
          1.80461463e-02, -3.24871242e-02, 3.91889662e-02,
          8.37022141e-02, 5.27852140e-02, 6.86587719e-03, 3.27726603e-02,
          -3.40931900e-02, -2.27847956e-02, 2.28205835e-03,
          -1.45285772e-02, -6.41204193e-02, -2.89712213e-02,
          5.04131727e-02, -2.53568105e-02, 1.21911749e-01,
          3.61218080e-02, -5.95679879e-02, 5.74019849e-02,
          -1.36982827e-02, -3.08350045e-02, 7.03612168e-04,
          -4.04016897e-02, -1.00067139e-01, 4.85590547e-02,
          -3.56696099e-02, -6.79687485e-02, 6.75610229e-02,
          4.86661196e-02, 9.68410168e-04, 8.83498043e-02, 5.71260005e-02,
          -2.61009466e-02, 3.92461605e-02, -5.65173551e-02,
          -1.04697093e-01, 2.67935451e-02, 1.44669730e-02,
          -1.34145245e-01, 1.09053161e-02, 1.38480542e-02,
          -1.53876637e-04, 1.51874246e-02, -8.36285129e-02,
          -1.51664034e-01, 3.12105082e-02, 8.50152373e-02,
          -1.88955627e-02, 1.70088157e-01, 3.04568131e-02,
          -4.89012972e-02, 5.15637267e-03, -1.27530441e-01,
          -3.99630032e-02, 8.70498270e-02, 6.69123754e-02,
          -1.96127649e-02, 1.71301025e-03, 4.45258543e-02,
          -2.03812849e-02, 7.19356239e-02, 2.52303784e-03,
          2.62391809e-02, 4.37389053e-02, 3.57670635e-02,
          -3.93918380e-02, 1.17403027e-02, 3.90136316e-02,
          -7.59621635e-02, -1.43310090e-03, 2.43552122e-03,
          -4.19781357e-02, 2.35120226e-02, 1.23034380e-01,
          -6.16314784e-02, 4.59904084e-03, 8.98070913e-03,
          3.68406586e-02, 6.33529350e-02, -1.12135537e-01,
          -8.04591365e-03, 1.26836253e-02, 3.89412045e-02,
          -7.62536377e-02, -5.49057722e-02, 9.06770118e-03,
          3.50642204e-02, 7.23843575e-02, -3.57050970e-02,
          -7.93495029e-02, 5.66699430e-02, 3.92565364e-03,
          -9.42962095e-02, -2.20734868e-02, 3.33570763e-02,
          -3.95204499e-02, 2.32273694e-02, -1.77035779e-02,
          -4.61944193e-02, 1.03114165e-01, -3.44383973e-03,
          -1.06097035e-01, -6.15462521e-03, 1.33906724e-02,
          4.69751060e-02, 4.80936170e-02, 5.77882305e-03,
          -6.18341006e-02, 5.68588935e-02, -6.23234082e-03,
          -3.27359997e-02, 6.83652284e-03, 4.15549390e-02,
          6.43986315e-02, 5.44820242e-02, -8.78073052e-02,
          3.13829305e-03, 1.35346472e-01, 1.08948229e-02,
          -3.22582461e-02, 7.90587291e-02, 3.23955454e-02,
          1.04935594e-01, 6.71796873e-02, 1.06642740e-02,
          -2.46513970e-02, 6.35871142e-02, -3.63812931e-02,
          -4.48539406e-02, 3.32581252e-02, 2.18692999e-02,
          2.51560938e-02, 3.41228284e-02, 3.13067138e-02,
          -3.51748057e-02, 1.15492875e-02, -6.71318546e-02,
          -3.42811905e-02, 4.56517935e-02, -3.47480252e-02,
          3.93266790e-02, 1.82228871e-02, -5.57789393e-02,
          1.47595606e-03, 5.13989851e-02, -3.30447359e-03,
          -6.94395676e-02, 1.56106316e-02, 4.65223426e-03,
          -9.84413316e-04, 7.03668445e-02, 4.05924432e-02,
          -3.88273201e-03, -1.57176144e-02, 2.31275745e-02,
          -1.57956611e-02, 7.82615226e-03, -1.13656759e-01,
          2.61029787e-02, 6.96676448e-02, 8.91607255e-03,
          -5.39146587e-02, 6.96345372e-03, -3.69319543e-02,
          -5.75743653e-02, 1.74749363e-02, -3.98205519e-02,
          8.18024799e-02, 9.15311575e-02, 4.36247215e-02,
          -6.80483645e-03, 4.22683060e-02, 2.04742029e-02,
          4.22033295e-02, -7.17933327e-02, -7.32607767e-02,
          5.05446382e-02, 1.16410606e-01, 4.97490503e-02,
          -2.31080838e-02, -4.19858238e-03, 3.03869899e-02,
          3.64095978e-02, -1.91126186e-02, -1.44408345e-01,
          6.05113767e-02, 1.18409932e-01, 3.82327959e-02,
          -5.07344417e-02, 5.52072115e-02, 1.51362633e-02,
          1.74129102e-02, -4.06030156e-02, 2.46012360e-02,
          9.96031463e-02, 7.40576014e-02, 1.22008072e-02, 9.38003697e-03,
          1.83658265e-02, 1.65117830e-02, 5.15171587e-02, 8.32189769e-02,
          -2.20414959e-02, -6.51887059e-02, 2.30275597e-02,
          2.91711800e-02, 1.89090567e-03, -7.00418800e-02,
          -9.43349376e-02, -2.56729051e-02, 1.22985825e-01,
          7.35640079e-02, -5.04829027e-02, -4.30625305e-02,
          -1.38044832e-02, 4.09171581e-02, 7.68945217e-02,
          -3.32347751e-02, -5.68711162e-02, -1.13512564e-03,
          1.21910438e-01, 2.32795603e-03, 3.08966357e-02,
          -6.35379702e-02, 1.24062356e-02, -1.27232643e-02,
          -3.55437025e-02, 1.91876292e-02, 1.50066288e-02,
          7.70823732e-02, 1.82451289e-02, 7.19409585e-02,
          -7.66042396e-02, 3.03572174e-02, -2.28326991e-02,
          4.91591841e-02, 4.07808870e-02, -6.56421855e-02,
          -5.72689883e-02, -6.97109662e-03, 3.30196433e-02,
          4.05697934e-02, 2.42961589e-02, 2.68984772e-02, 8.19953606e-02,
          2.42445469e-02, 1.19236866e-02, -1.37117356e-01,
          -5.07796928e-02, 2.50305664e-02, 9.64565948e-03,
          2.17278823e-02, 4.53130901e-02, 3.80722620e-02, 2.16794666e-02,
          -9.03592110e-02, -1.03567215e-02, 3.50039825e-02,
          1.03685185e-01, -6.50615543e-02, 5.92127852e-02,
          9.96557698e-02, 7.11834282e-02, -6.55023148e-03,
          7.48596489e-02, -6.95066154e-02, -5.04036546e-02,
          -2.55446956e-02, 2.53049545e-02, 4.29689884e-02,
          3.91497500e-02, 5.77037781e-02, -7.11685494e-02,
          6.88162297e-02, 5.56571893e-02, 1.40876574e-02, 2.88004056e-02,
          7.13605881e-02, 1.37054855e-02, 1.48666147e-02, 9.11765844e-02,
          1.34626981e-02, -4.60945303e-03, 8.50085765e-02,
          1.13231502e-01, 6.65833429e-02, 5.98286167e-02, 1.89423710e-02,
          1.12727277e-01, 9.26671028e-02, -5.09233098e-04,
          1.16253383e-01, -1.82837546e-02, -1.22034952e-01,
          -6.86234832e-02, 5.92262018e-03, 2.87669320e-02,
          9.49215740e-02, 1.41551450e-01, -7.87480082e-03,
          -5.37214316e-02, -1.42590851e-01, 7.26504577e-03,
          4.95658219e-02, -2.90840287e-02, -2.90420223e-02,
          -1.88072235e-03, 3.02231330e-02, 5.46138696e-02,
          8.62942636e-02, 8.89136717e-02, -3.10402666e-03,
          3.71467210e-02, 1.89389680e-02, 1.41913267e-02,
          -2.86595542e-02, -3.36812437e-02, 2.87311990e-02,
          3.81724238e-02, 4.84565794e-02, -5.69831282e-02,
          2.60128584e-02, 2.09939331e-02, 1.31096430e-02, 2.37170681e-02,
          7.20784962e-02, -2.83833705e-02, -4.42993827e-02,
          -5.16054928e-02, 6.29753247e-02, 5.95734753e-02,
          4.51400653e-02, 3.82782258e-02, -3.29138674e-02,
          -3.06501593e-02, -6.68159872e-02, -6.78879321e-02,
          -1.19066639e-02, -3.69263440e-02, 5.52386828e-02,
          -1.73840597e-02, -1.98790282e-02, 3.28827314e-02,
          4.41124626e-02, -1.76216289e-02, -6.26188740e-02,
          6.40291646e-02, 4.07549441e-02, 2.76938174e-02,
          -2.07800921e-02, -8.33270922e-02, 3.32993106e-03,
          -9.62029863e-03, -1.13505900e-01, -1.37296245e-01,
          4.98815347e-03, 4.21058908e-02, -1.95423085e-02,
          -1.18249163e-01, 4.28785197e-02, 1.13059938e-01,
          -2.97162067e-02, -1.21943606e-02, -1.08428001e-02,
          1.95640195e-02, 5.33987284e-02, 4.75304313e-02, 2.28787418e-02,
          -4.10791337e-02, 9.55880433e-02, 1.27947927e-02,
          -1.43059790e-01, -9.93023738e-02, -8.05331301e-03,
          2.85576936e-02, 9.21600871e-03, -8.79165232e-02,
          -7.13941976e-02, 2.95729376e-03, 4.28900123e-02,
          -5.92905283e-02, -8.06512013e-02, -1.08303297e-02,
          6.57567456e-02, -3.07014138e-02, -1.27360716e-01,
          2.50364821e-02, -1.27446782e-02, 4.84817959e-02,
          -4.20071483e-02, -7.95664042e-02, -3.44468653e-02,
          1.05038621e-01, 2.91601270e-02, 2.72512692e-03,
          -3.12563754e-03, -1.72994975e-02, -7.71166198e-03,
          -7.82521516e-02, -5.41803837e-02, -6.21251315e-02,
          -4.59565874e-03, 6.44594282e-02, -1.17310723e-02,
          -1.19528286e-02, -5.15574776e-02, -5.07303849e-02,
          -1.56293187e-04, -4.72022593e-02, -9.54480991e-02,
          2.02981159e-02, 1.03772923e-01, 8.22844058e-02, 9.38261747e-02,
          5.89566082e-02, 4.52215075e-02, -5.30244969e-02,
          -1.14631146e-01, -1.09297991e-01, -2.22555120e-02,
          -3.17372642e-02, 5.21618873e-02, -9.64462291e-03,
          1.76393352e-02, -3.13938186e-02, 5.36642447e-02,
          -5.46549670e-02, -3.16081457e-02, -1.25145599e-01,
          -6.25313669e-02, 4.47112657e-02, 3.65621708e-02,
          4.09495682e-02, 2.82567237e-02, 3.53550836e-02,
          -3.21667753e-02, -1.56108752e-01, 4.49722866e-03,
          4.68093790e-02, 1.26983849e-02, 1.75933335e-02, 1.16372116e-01,
          7.57503957e-02, 5.50277121e-02, -9.67261661e-03,
          -3.55524831e-02, -9.91921052e-02, -9.16402340e-02,
          -1.41989812e-02, -9.41973366e-03, 6.44512177e-02,
          -4.65867594e-02, -3.32856625e-02, -1.11603126e-01,
          -1.94615498e-02, -2.70744320e-02, 4.25577443e-03,
          7.44795650e-02, -3.96244414e-02, 2.62168683e-02,
          -1.01811625e-01, -2.32636724e-02, -1.40729621e-01,
          -1.36453779e-02, 7.24885613e-03, 3.19215320e-02,
          -3.22136506e-02, 6.57418668e-02, 8.93371180e-02,
          2.66725570e-02, -5.30979298e-02, 1.95088256e-02,
          1.37420204e-02, -3.36438268e-02, -7.00104311e-02,
          9.80268046e-02, -5.94248623e-02, 5.52194268e-02,
          -2.93361209e-02, -6.97102249e-02, -2.72858925e-02,
          -1.00887800e-02, -7.16289878e-02, -2.16450784e-02,
          2.27326266e-02, 6.45230198e-03, 7.06228837e-02, 2.72347145e-02,
          -5.23762517e-02, -1.31235495e-01, -4.41480465e-02,
          -2.50791106e-02, 7.29830340e-02, 5.22971116e-02,
          1.49960503e-01, 5.67440540e-02, -4.90179099e-03,
          -8.78733248e-02, -1.07646160e-01, -8.87053162e-02,
          -9.76029877e-03, 4.24314067e-02, 6.96159229e-02,
          -5.40532731e-02, 8.83441716e-02, 6.04516082e-02,
          -4.30080481e-02, -9.43577066e-02, -5.92189208e-02,
          -3.34689729e-02, 8.33325088e-02, -2.55516414e-02,
          3.61505039e-02, 1.15905285e-01, 1.09204855e-02,
          -1.31484672e-01, -1.00782074e-01, -1.17625087e-01,
          -4.69476692e-02, 1.09121449e-01, 6.51158243e-02,
          5.37328683e-02, 8.72916058e-02, 1.04769096e-02,
          -2.03096569e-02, -2.98033953e-02, -2.08697207e-02,
          8.08662996e-02, 7.09409863e-02, 3.73294875e-02,
          -8.71793739e-03, 7.07398951e-02, 2.80615278e-02,
          -1.01261593e-01, -8.69140029e-02, 2.11127829e-02,
          3.78869995e-02, 1.57739997e-01, 7.03302845e-02, 8.20898339e-02,
          1.26092374e-01, 1.93602834e-02, -5.94545528e-02,
          -1.33590968e-02, -7.66101331e-02, -8.14240202e-02,
          6.86951801e-02, 3.92398089e-02, 3.14959921e-02, 4.35392745e-02,
          9.03347693e-03, -1.56501364e-02, 3.22024189e-02,
          2.04705261e-02, -3.16476561e-02, 4.15388532e-02,
          2.63059139e-02, -3.69953737e-02, 6.50324523e-02,
          -1.04264440e-02, -8.44576731e-02, -7.72877634e-02,
          2.88965274e-02, 1.89786702e-02, 6.02831617e-02, 2.10479051e-02,
          -8.77536368e-05, 1.10185675e-01, 1.43335700e-01,
          7.30258180e-03, 1.54135883e-01, 7.77137140e-03, 1.46816680e-02,
          3.08477208e-02, -8.16260581e-04, -3.23589705e-02,
          -1.73991863e-02, 3.32279094e-02, -4.13470864e-02,
          -5.32713048e-02, 1.22033004e-02, 4.70968410e-02,
          3.55511717e-02, -5.70106134e-02, 2.32677776e-02,
          4.31440286e-02, 1.13738768e-01, 8.85418151e-03, 1.47859201e-01,
          1.44684445e-02, 9.85643566e-02, -2.87659597e-02,
          -7.80868903e-02, -6.55077547e-02, 1.74669195e-02,
          7.97234625e-02, -2.71677207e-02, 5.26219665e-04,
          -2.67081335e-02, 7.80704292e-03, 7.98206851e-02,
          3.35264876e-02, 6.39739931e-02, 7.61560947e-02, 6.79769590e-02,
          -2.05158275e-02, -3.25674787e-02, -7.36779571e-02,
          1.68394390e-02, 4.34809662e-02, 3.00526582e-02,
          -4.26949374e-02, -4.13836613e-02, -4.62496374e-03,
          -4.36489470e-02, -8.20327271e-03, -3.86630371e-02,
          1.80068202e-02, 2.95343548e-02, -8.03203732e-02,
          -8.38519819e-03, -1.43945627e-02, -8.55281949e-02,
          -7.57465065e-02, 6.64079702e-03, -8.94489214e-02,
          1.76692586e-02, 7.43500590e-02, -1.09826326e-02,
          -4.91624363e-02, 5.22397310e-02, 3.07351090e-02,
          -2.12363321e-02, -7.97267631e-02, -3.68025973e-02,
          7.76475854e-03, 2.96646403e-03, -3.90483625e-02,
          1.02984738e-02, 5.11901230e-02, 4.47527692e-02,
          -2.36727316e-02, 1.22527871e-02, 3.42238918e-02,
          1.40583403e-02, 1.80606302e-02, -5.25362715e-02,
          -3.50643545e-02, 5.80301918e-02, 3.94841842e-02,
          4.19754814e-03, -5.70411235e-02, -7.70628154e-02,
          6.23442009e-02, 4.63151839e-03, -4.30713631e-02,
          -7.04163760e-02, 4.74193459e-03, 9.19268355e-02,
          4.07467633e-02, 4.00779992e-02, 8.11440572e-02, 6.49740025e-02,
          -4.76877429e-02, -6.43392652e-02, 2.58214376e-03,
          6.18594773e-02, 1.70406811e-02, -6.44631311e-02,
          -6.22695535e-02, -7.62629369e-03, -2.92219128e-02,
          -2.15581935e-02, -5.03906272e-02, -5.51186763e-02,
          3.19005847e-02, 1.01990495e-02, 3.82098067e-03, 3.21868397e-02,
          -1.07810318e-01, -3.68811078e-02, -3.50380242e-02,
          -5.21363318e-02, -5.16825840e-02, 3.22873965e-02,
          -4.21740580e-03, 2.15170588e-02, 1.45285865e-02,
          3.53276432e-02, -2.22355612e-02, -1.08990200e-01,
          -1.27392396e-01, -5.32171838e-02, 2.17427574e-02,
          -6.08067214e-03, 7.91523047e-03, 8.57855007e-02,
          -3.95588242e-02, 1.46860965e-02, -2.46415101e-03,
          -4.96739261e-02, -1.15028396e-01, 2.26167701e-02,
          4.38864827e-02, 6.59086555e-02, 5.30897863e-02,
          -3.79491858e-02, 3.51128504e-02, 5.64643182e-02,
          -2.21269168e-02, -1.17738120e-01, 5.86724915e-02,
          7.34974071e-02, 2.89486977e-03, -5.64527102e-02,
          5.92581853e-02, 6.69738129e-02, 4.62777680e-03,
          -1.20194964e-01, -3.46533842e-02, 7.29691163e-02,
          4.39514481e-02, -1.32273426e-02, 1.20375559e-01,
          5.69208562e-02, 8.16156715e-02, 5.81834354e-02,
          -3.53227630e-02, -8.75570774e-02, 2.79817805e-02,
          7.23539963e-02, -1.86661202e-02, 2.54338607e-02,
          6.28048927e-02, 6.48221299e-02, 2.66882445e-04,
          -1.28183991e-01, -2.09606234e-02, 1.17661320e-01,
          5.42612486e-02, -2.73241121e-02, -5.46645485e-02,
          4.15703356e-02, 1.17287098e-03, -8.34751315e-03,
          -6.85530081e-02, 8.01132247e-02, 9.22635868e-02,
          4.38993387e-02, -4.41725999e-02, -1.59085207e-02,
          -4.46960181e-02, -2.09989157e-02, 2.70029660e-02,
          2.59534945e-03, 7.81633053e-03, 7.38006681e-02, 7.09988326e-02,
          2.21651979e-02, -3.09473891e-02, -6.29378632e-02,
          2.34232284e-02, 1.89855788e-02, -4.30258363e-02,
          4.24905308e-02, 2.63545904e-02, -8.31360742e-03,
          -8.53740051e-02, -3.71997543e-02, -4.50858288e-02,
          -2.42615640e-02, -4.62069511e-02, 8.83767568e-03,
          3.55139859e-02, 4.52971943e-02, 6.59399554e-02,
          -1.77393984e-02, -5.21840304e-02, -1.52551066e-02,
          4.92102094e-02, 4.58307043e-02, -1.87167805e-02,
          7.17881136e-03, 5.82972355e-02, 3.35964970e-02,
          -3.46812271e-02, 8.34274516e-02, -4.62163761e-02,
          -5.45325726e-02, -4.29684110e-02, -2.62192190e-02,
          -5.90500012e-02, -1.84273366e-02, 3.82057168e-02,
          -2.65170243e-02, 2.21163640e-03, 2.56948490e-02,
          4.15620543e-02, -1.30133107e-02, -1.20230056e-02,
          -8.57425109e-02, -7.92731792e-02, 1.21804988e-02,
          -3.88664263e-03, 1.12521751e-02, 4.86926147e-04,
          5.28165791e-03, -3.31291324e-03, -2.52402518e-02,
          -4.47655804e-02, 8.96832123e-02, 2.92067826e-02,
          2.47005727e-02, 1.13175154e-01, 3.84654738e-02,
          -3.76567282e-02, -7.18880370e-02, -3.87103632e-02,
          -1.50723672e-02, 7.55841583e-02, 2.00926792e-02,
          -6.75978661e-02, -3.19339409e-02, -3.35717387e-02,
          2.73344498e-02, 2.11687982e-02, 1.95641089e-02,
          -3.76898088e-02, 6.84103696e-03, 1.63096506e-02,
          -2.77267508e-02, -2.35266387e-02, 8.32700655e-02,
          -2.31455304e-02, -6.29274249e-02, -7.78185874e-02,
          6.87207328e-03, 3.05930097e-02, -2.92059518e-02,
          -6.33839071e-02, -8.01045746e-02, 5.85463084e-02,
          7.05880299e-02, -4.69735414e-02, -1.76853780e-02,
          1.17832581e-02, 3.40517657e-03, 8.87779593e-02,
          -4.97045703e-02, -1.19347014e-01, -5.41751347e-02,
          9.18684006e-02, 6.82647377e-02, 5.72683886e-02, 6.83933273e-02,
          2.31249016e-02, 4.53637615e-02, 5.71684651e-02,
          -7.13670254e-02, -2.75900476e-02, -1.69823263e-02,
          -4.85131284e-03, -8.15512314e-02, -8.45555682e-03,
          3.72727476e-02, 4.75083804e-03, 3.48462909e-02,
          -9.44511518e-02, 3.74924727e-02, 7.80144110e-02,
          -2.40210332e-02, 7.34074637e-02, 7.06734927e-03,
          1.00736201e-01, 4.27259319e-02, 1.02726161e-01,
          -5.23036905e-02, 9.47019923e-03, -2.07699835e-02,
          -4.66697328e-02, -5.71798086e-02, 6.79115131e-02,
          9.19987708e-02, 3.32307220e-02, 6.38652667e-02,
          -3.42331417e-02, 1.09838706e-03, 5.04562743e-02,
          5.72528206e-02, -2.51410180e-03, -8.24539140e-02,
          -1.82039477e-02, -5.55229783e-02, -4.59409952e-02,
          -1.50514588e-01, 5.50973741e-03, 4.28980365e-02,
          2.55047586e-02, -5.81806116e-02, -3.96571085e-02,
          4.59797755e-02, 5.65974116e-02, 8.52905214e-02,
          -8.44964832e-02, -1.06436461e-01, -3.65025923e-02,
          -5.76978475e-02, -3.25906463e-02, 2.90586278e-02,
          7.33459815e-02, 1.08370759e-01, 1.04548372e-01,
          -2.46262494e-02, -8.24215785e-02, 4.84023849e-03,
          -1.64097529e-02, -4.31808829e-02, -1.02856919e-01,
          -7.56955519e-02, -6.37719110e-02, -2.43838616e-02,
          -1.31873503e-01, -2.43235566e-02, -1.19323190e-02,
          5.01013026e-02, -3.54305692e-02, -1.10466627e-03,
          1.83268543e-02, 1.35613345e-02, -3.72698233e-02,
          -3.53602506e-02, -1.28917202e-01, -3.70307378e-02,
          5.29655702e-02, -7.38518429e-04, 4.24923301e-02,
          -3.57187726e-02, 6.87834695e-02, 6.18882701e-02,
          4.58365269e-02, -9.63045284e-03, -4.63671945e-02,
          5.50218252e-03, -2.13644188e-02, 2.22354345e-02,
          6.08638488e-02, 8.50619301e-02, 5.67548349e-02, 4.17714380e-02,
          -2.95035876e-02, -2.14477815e-02, -8.65948796e-02,
          4.78424951e-02, 4.50948030e-02, 8.45534280e-02, 9.39063504e-02,
          -5.18015288e-02, -6.39625490e-02, -9.82348174e-02,
          1.90842319e-02, 1.29423067e-01, 3.04448847e-02,
          -5.42063281e-05, 3.55158076e-02, 4.29448336e-02,
          -1.64414849e-02, -6.62821764e-03, -1.39402766e-02,
          3.05606183e-02, 3.06008547e-03, -3.40835713e-02,
          7.18387291e-02, 8.38093981e-02, 2.12356597e-02,
          -5.98958395e-02, -4.73472178e-02, -4.29310948e-02,
          2.30301768e-02, 4.26131524e-02, -5.14484681e-02,
          -2.32983064e-02, -4.46355268e-02, -6.57685250e-02,
          -6.64636940e-02, -7.22723221e-03, -1.01941846e-01,
          -7.44102970e-02, -3.98924798e-02, -5.25591150e-03,
          -2.80182250e-03, -2.08562408e-02, -1.20131150e-02,
          -7.14189336e-02, -2.90912855e-02, -1.91773959e-02,
          -8.43323395e-02, -2.08569039e-02, -5.39487898e-02,
          1.46311233e-02, 4.13707495e-02, 1.65722724e-02,
          -2.79319659e-02, 2.81032231e-02, -2.62747402e-03,
          -9.85783637e-02, -1.91216897e-02, -3.75183602e-03,
          3.15804742e-02, -5.99932075e-02, -7.58977756e-02,
          -1.10768005e-01, -5.27221151e-02, -3.50137986e-02,
          -8.39629546e-02, -2.17431765e-02, 1.56401955e-02,
          1.51844487e-01, 9.09070298e-02, -2.48083398e-02,
          -8.34076703e-02, -6.17579697e-03, 4.57125902e-02,
          -5.72687350e-02, -7.04609752e-02, 1.08093560e-01,
          -2.14302000e-02, 1.01596035e-01, 4.88089817e-03,
          -3.09059322e-02, -1.58925671e-02, -3.46386731e-02,
          -1.11393876e-01, 4.42048513e-05, -7.24032223e-02,
          -1.01679480e-02, 3.38693708e-02, -6.12113178e-02,
          -7.90228173e-02, -7.68671632e-02, -8.06263462e-02,
          -5.94128184e-02, 4.85128164e-03, -1.55752245e-02,
          2.13349253e-01, 8.76584724e-02, -5.54372147e-02,
          -5.06247617e-02, 4.76326272e-02, 6.36754408e-02,
          -1.73630156e-02, 2.62021869e-02, 1.30348787e-01,
          5.25230430e-02, -6.29376024e-02, -5.62996902e-02,
          7.08561614e-02, 9.12432522e-02, 3.59945372e-02,
          -2.67733298e-02, 3.60045359e-02, 2.69270800e-02,
          6.72610477e-02, 2.53403671e-02, -3.02034300e-02,
          -4.73400392e-02, -3.64561118e-02, -2.49540992e-02,
          -1.64566517e-01, -3.47086228e-02, -3.96174118e-02,
          2.22643651e-02, -4.22163354e-03, -4.35121804e-02,
          -6.58321902e-02, 2.74359342e-02, -9.64032311e-04,
          -5.61072566e-02, -1.96470059e-02, 1.14928558e-02,
          5.45183644e-02, -4.93238941e-02, -3.21524628e-02,
          6.15029000e-02, 7.51983747e-02, 9.25696194e-02,
          -4.63525243e-02, 5.57372980e-02, -3.29775177e-02,
          5.01665883e-02, 1.37756333e-01, 4.30424660e-02,
          -1.12923107e-03, 1.72830418e-01, 1.16432115e-01,
          5.83666144e-03, 2.91127767e-02, -1.82535518e-02,
          -6.62570521e-02, 1.10963238e-02, 1.31155010e-02,
          -2.15594936e-02, 7.48879684e-05, 9.06516984e-03,
          2.65725218e-02, -4.53109387e-03, -1.40070682e-02,
          -2.51131635e-02, 1.89899784e-02, 5.13240024e-02,
          -3.30897532e-02, 9.22887307e-03, -4.18222956e-02,
          2.68597621e-02, -3.74615192e-02, -8.89996514e-02,
          -3.57628949e-02, 1.02649137e-01, 4.60370556e-02,
          -5.82477916e-03, 1.40264943e-01, 9.08530280e-02,
          7.88757652e-02, 5.20164631e-02, -4.30196896e-02,
          -3.44627164e-02, 5.99813946e-02, -2.22586197e-04,
          -1.43340733e-02, 4.72668111e-02, 8.80432427e-02,
          7.13026449e-02, 7.61312693e-02, -6.63181543e-02,
          4.42668498e-02, -3.26217711e-02, -5.94348870e-02,
          -9.50405970e-02, 2.30991207e-02, -5.62197231e-02,
          6.57598525e-02, 3.44013870e-02, 2.89288014e-02, 3.46052554e-03,
          -2.49182787e-02, -9.71344337e-02, -2.14072913e-02,
          3.87441670e-03, -5.20392284e-02, 3.18306200e-02,
          8.38745013e-02, 6.61002919e-02, 2.41776854e-02, 3.38269933e-03,
          -5.43102100e-02, -1.14406265e-01, -3.81872505e-02,
          -6.22566440e-04, 9.28293541e-02, 6.66143075e-02,
          -3.62636596e-02, 9.83707700e-03, -3.64755578e-02,
          -1.02670610e-01, -1.95668507e-02, 6.86554983e-02,
          -1.82802957e-02, -2.78409128e-03, -5.42013720e-03,
          -1.06136955e-01, -9.59746633e-03, 6.37910664e-02,
          -7.25807203e-03, 3.28623988e-02, -2.41014101e-02,
          -4.98463996e-02, 1.33277001e-02, -7.34883640e-03,
          2.51044072e-02, -3.18724625e-02, -1.75400171e-02,
          -6.34173080e-02, -3.21315862e-02, -2.41218284e-02,
          4.70598191e-02, 5.63403517e-02, -3.36758047e-02,
          -8.64334032e-02, -5.85107040e-03, 4.07861639e-03,
          -6.90018237e-02, 9.51541867e-03, 2.07126215e-02,
          3.63573469e-02, -3.86441499e-02, -5.69981337e-02,
          3.99392191e-03, -6.78228121e-03, 7.44771631e-03,
          -7.18253180e-02, -1.08172717e-02, -7.04539940e-02,
          1.12871416e-02, 3.28396112e-02, -8.60193968e-02,
          -1.15034409e-01, -7.48540759e-02, -1.62107702e-02,
          -1.02490611e-01, -2.21615061e-02, -2.73910444e-02,
          1.52829554e-04, 2.98495162e-02, -1.30110914e-02,
          -1.23403855e-01, 2.26078760e-02, -1.15768267e-02,
          -1.50251389e-03, -7.50369160e-04, -3.82309929e-02,
          -5.95106483e-02, 4.02718782e-02, 5.61985709e-02,
          3.46880667e-02, 3.12178582e-02, -6.00392409e-02,
          -7.66068771e-02, -1.31830037e-01, -4.61585186e-02,
          -1.99779980e-02, 4.16317582e-02, -6.13982463e-03,
          -6.64603636e-02, 1.93161126e-02, 1.10878572e-02,
          1.58458650e-02, -3.43273208e-02, -3.71575169e-02,
          -6.84518367e-02, 6.76517785e-02, 6.59470111e-02,
          6.84587285e-04, -4.87329671e-03, 3.67004536e-02,
          1.69048943e-02, -1.66177179e-03, -2.99706664e-02,
          8.70835558e-02, 1.12187847e-01, 4.76781800e-02, 6.63908869e-02,
          -7.89146349e-02, -2.95017147e-03, 8.92005104e-04,
          3.73400711e-02, 8.67108330e-02, 1.13663182e-01, 5.00363223e-02,
          -1.96587835e-02, -3.51701602e-02, -5.32541610e-02,
          -3.92756239e-02, 6.04346246e-02, 3.23582329e-02,
          -6.56410232e-02, 4.58177812e-02, 8.88391659e-02,
          2.41610687e-02, 3.57590839e-02, -7.00908229e-02,
          -5.58533259e-02, -8.99180362e-04, 5.68707772e-02,
          1.64242610e-02, 6.61322996e-02, 6.79463032e-04, 6.91296998e-03,
          -2.71326732e-02, -1.89486109e-02, -2.97000650e-02,
          -8.42269883e-03, 4.43221703e-02, 6.62432015e-02,
          -6.35410324e-02, -2.75574680e-02, -6.03240319e-02,
          -2.25945842e-02, -2.39885543e-02, 2.77470704e-03,
          -3.50999609e-02, -6.08925857e-02, -1.69398878e-02,
          -1.56067649e-03, -4.15885076e-02, -5.60347065e-02,
          -1.92732718e-02, -7.68951774e-02, -6.35906607e-02,
          -5.26991487e-03, 2.77467351e-02, 5.23790829e-02,
          1.94475781e-02, 1.44632775e-02, -1.01233060e-02,
          -3.69885471e-03, -9.62254107e-02, 1.28290337e-02,
          -1.51159205e-02, -5.70645630e-02, -1.35953903e-01,
          3.63347009e-02, -2.72990037e-02, -1.63511056e-02,
          -5.85866235e-02, -4.89120111e-02, -5.75150996e-02,
          -7.78246205e-03, -1.90274641e-02, 7.93631375e-03,
          4.24423404e-02, 9.53581836e-03, 5.70074326e-06,
          -5.91611257e-03, -1.00499749e-01, -1.05194449e-01,
          -8.87956098e-02, -2.37311292e-02, -5.52087799e-02,
          -1.24514647e-01, -5.37329800e-02, -4.35221801e-03,
          -1.97459497e-02, -5.73384091e-02, 4.09195796e-02,
          8.05764645e-02, -8.63805134e-03, -5.00502475e-02,
          1.22468024e-01, 1.00862775e-02, 5.00782728e-02,
          -2.47761104e-02, -4.91484813e-02, 3.63533981e-02,
          9.78317857e-03, -4.04261518e-03, -5.09537682e-02,
          -1.11720324e-01, -7.26344883e-02, -4.87364046e-02,
          -1.46185961e-02, -3.33795175e-02, -2.14371346e-02,
          -3.09399180e-02, 4.49985527e-02, -7.43689910e-02,
          1.17772724e-02, -4.19792570e-02, -4.03970145e-02,
          -2.62665842e-02, 4.21377681e-02, 3.46205607e-02,
          1.49550326e-02, 2.36824993e-02, -9.12813377e-03,
          -1.35361925e-02, 6.90928027e-02, -6.20674435e-03,
          -3.94135853e-03, 2.68302076e-02, 4.10674065e-02,
          -8.02475493e-03, 4.62161265e-02, -1.27599940e-01,
          -7.89740384e-02, -3.87638174e-02, -2.12210137e-02,
          -3.87962125e-02, 4.57241498e-02, -2.64758710e-02,
          -3.94577235e-02, -8.20696633e-03, 7.36419484e-03,
          -2.80702356e-02, 4.58970219e-02, 2.48496011e-02,
          -2.90934145e-02, 7.74633586e-02, 4.13863622e-02,
          -9.07153916e-03, 5.64856231e-02, -7.16911480e-02,
          6.87230080e-02, 3.67990732e-02, 6.51588337e-03,
          -2.78083002e-03, 2.50768699e-02, 8.02871436e-02,
          2.49085426e-02, 4.15139683e-02, -5.88761382e-02,
          -2.51642242e-02, 1.04965465e-02, 9.11943987e-03,
          -1.47367949e-02, -3.92646156e-03, -1.64351927e-03,
          -4.10694256e-03, 2.09784750e-02, -5.41100688e-02,
          1.24960937e-01, 2.88038459e-02, 3.91133130e-02,
          -3.30057368e-02, -9.08793733e-02, 1.00682462e-02,
          5.57139739e-02, 7.18835369e-02, -6.19606711e-02,
          4.43929471e-02, 1.91835463e-02, -7.32409135e-02,
          -1.05139628e-01, -1.39731374e-02, 5.18544950e-02,
          2.73143854e-02, 2.28195190e-02, -9.15896967e-02,
          -8.86425972e-02, -6.98746294e-02, -5.27397059e-02,
          -2.82918792e-02, 2.62902416e-02, -4.16822396e-02,
          1.24888411e-02, 4.58174795e-02, 7.32146800e-02,
          -1.56555384e-01, -1.11370802e-01, -5.31599000e-02,
          -1.03175372e-01, 4.49158512e-02, -1.21063692e-02,
          -3.91830094e-02, 7.59488717e-02, 1.84492767e-03,
          1.24553184e-03, -1.66849827e-03, -6.69925213e-02,
          -1.84673667e-02, 1.40795698e-02, -5.28532639e-02,
          -2.56468877e-02, 5.95308691e-02, 5.53069375e-02,
          -3.75316292e-02, -4.41573635e-02, 3.23501341e-02,
          -2.04205438e-02, 2.68241707e-02, -8.02529231e-02,
          2.30835415e-02, -2.61469116e-03, 5.69796078e-02,
          2.38146130e-02, -7.21329637e-03, -5.00858352e-02,
          -7.10595325e-02, -1.58980004e-02, 1.63193829e-02,
          -8.98048375e-03, -2.20036451e-02, -3.19102407e-02,
          2.18111966e-02, -6.99850246e-02, -1.28221259e-01,
          -1.15193464e-01, -5.48403412e-02, -4.32427526e-02,
          5.30917756e-03, -2.44385619e-02, 7.85480663e-02,
          3.14193964e-02, 7.57417902e-02, 2.85753794e-02, 8.36485997e-03,
          -1.22818835e-01, -7.14351609e-02, -4.86413538e-02,
          -1.23630255e-01, 4.34849337e-02, 3.19975019e-02,
          3.04122325e-02, -8.86747427e-03, -9.18134227e-02,
          8.92909989e-03, 7.93989897e-02, 5.97174689e-02,
          -4.84045148e-02, -3.45243774e-02, -4.32032347e-02,
          -4.57139537e-02, -3.03041685e-04, -2.63770651e-02,
          -1.05679460e-01, -6.74349964e-02, 6.25688490e-03,
          -4.47712503e-02, 3.64993066e-02, -1.07149869e-01,
          -5.70177548e-02, -7.63749853e-02, -2.39531007e-02,
          -4.62694988e-02, -1.67462993e-02, 1.07480288e-01,
          2.81709433e-03, 7.67614320e-02, 2.89346892e-02,
          -7.50414515e-03, -3.14603671e-02, -5.67437336e-02,
          -9.44257081e-02, -4.65549864e-02, 7.18805864e-02,
          -1.94035398e-04, 9.91392136e-02, 6.62209168e-02,
          5.18603139e-02, 1.50859915e-03, -3.88183445e-03,
          2.96614729e-02, -7.75160789e-02, -4.71884385e-02,
          1.57286762e-03, 1.75661948e-02, -3.51062752e-02,
          -1.44362047e-01, -4.25554700e-02, -6.53595626e-02,
          1.50076792e-01, -4.62528244e-02, -1.29685998e-01,
          6.63118735e-02, 9.96719897e-02, 4.27186787e-02,
          -7.31099695e-02, -1.01417109e-01, 4.15338837e-02,
          4.21195664e-03, -1.06740035e-01, -6.59142388e-03,
          3.34012024e-02, 2.66458206e-02, 5.93881123e-03, 6.28997991e-03,
          4.78520915e-02, -4.42819111e-02, 5.37366308e-02,
          -3.85828614e-02, -1.54836150e-02, 1.65568843e-01,
          1.10489324e-01, 7.64401704e-02, -1.11051705e-02,
          3.68935838e-02, -4.17164108e-03, 1.46406382e-01,
          -5.63231632e-02, -1.00231245e-01, -3.91479582e-02,
          8.88660848e-02, 8.11219141e-02, -6.33873940e-02,
          1.54070044e-02, 2.77698115e-02, -3.97713738e-04,
          -1.62158199e-02, -5.51963113e-02, -1.64935198e-02,
          1.28388301e-01, 6.14338703e-02, -3.11388727e-03,
          6.10744804e-02, -6.02512136e-02, -4.66298647e-02,
          -3.08300778e-02, -5.72237931e-02, 7.46848285e-02,
          8.40838999e-02, 1.18725359e-01, -6.74887821e-02,
          6.76810369e-02, -7.24069327e-02, -2.16167811e-02,
          1.37263328e-01, 7.65357614e-02, 8.00071359e-02, 1.55506343e-01,
          7.77807161e-02, -1.59080550e-02, 3.50191221e-02,
          -7.29224226e-03, -3.13902870e-02, -6.18276792e-03,
          -5.51833399e-02, -1.69817135e-02, 7.41112754e-02,
          4.98402864e-02, -6.56196848e-03, 8.81378278e-02,
          -7.58021921e-02, -7.94560760e-02, 4.53673862e-02,
          -4.20456268e-02, -1.14855230e-01, 1.37928113e-01,
          3.62256728e-02, 1.33163119e-02, 8.58071670e-02,
          -3.55333239e-02, -2.37060636e-02, 7.95561895e-02,
          6.06515147e-02, 3.35496776e-02, 4.91737351e-02, 1.59558803e-02,
          5.51628089e-03, 3.23781781e-02, -4.06889282e-02,
          -6.27433583e-02, 8.06969590e-03, -4.30034399e-02,
          -6.24104328e-02, 3.23148929e-02, -3.22176367e-02,
          -6.00536950e-02, 4.23396379e-02, 1.87942125e-02,
          -5.02386279e-02, 3.82987484e-02, -4.25112359e-02,
          -4.63120490e-02, 1.37252733e-01, 2.55576577e-02,
          2.24507246e-02, 6.99069351e-02, -3.90235707e-03,
          -8.15538615e-02, 3.05079808e-03, -9.73770842e-02,
          4.84253839e-02, 7.90387690e-02, 3.76500413e-02, 6.06177561e-02,
          5.03742807e-02, -2.08790228e-02, -5.41472286e-02,
          -2.65449751e-02, -1.20737746e-01, -7.96291009e-02,
          -5.48602492e-02, -6.69055656e-02, -7.97063485e-02,
          4.03953604e-02, 4.05245200e-02, -5.29765487e-02,
          -2.59891395e-02, -6.80998862e-02, -1.64404288e-02,
          2.75274217e-02, -8.00915286e-02, -6.69197068e-02,
          -1.01351671e-01, -5.44987023e-02, -2.58288886e-02,
          1.05585963e-01, 3.08002755e-02, 3.95408599e-03,
          -1.01854419e-02, -1.53213665e-02, 1.34036327e-02,
          2.91419420e-02, -7.88324177e-02, 4.94227596e-02,
          4.28502169e-03, -8.22281986e-02, -5.40587492e-02,
          4.71628644e-02, 2.90330611e-02, 2.13484596e-02, 7.90266395e-02,
          -1.09054297e-01, -4.68147174e-03, -5.13512045e-02,
          -1.78362373e-02, 6.21549822e-02, 9.06215236e-03,
          -8.78152549e-02, -5.53906746e-02, -7.39559531e-02,
          -2.84911506e-03, 6.59359992e-02, 5.57195535e-03,
          1.97752453e-02, -1.43391583e-02, 4.14044969e-02,
          -5.81632666e-02, -1.36516122e-02, -8.28785170e-03,
          -3.99206132e-02, -7.16571184e-03, -2.98510939e-02,
          -5.21404184e-02, -6.08566497e-03, 2.77354959e-02,
          1.21919900e-01, 6.98782578e-02, 3.30094956e-02, 5.78465778e-03,
          5.67426123e-02, 1.34416819e-02, 1.85567401e-02, 9.94402915e-03,
          -3.28636169e-02, -3.96617651e-02, -5.48502058e-03,
          -5.09060733e-02, -7.49574676e-02, 2.86967251e-02,
          -4.86933365e-02, -3.23933437e-02, 2.88064200e-02,
          1.94333326e-02, 3.93087491e-02, 1.82244517e-02,
          -1.98559184e-02, 3.76618031e-04, 2.98882811e-03,
          -8.73970538e-02, -6.66510612e-02, 1.91119071e-02,
          -4.15445827e-02, -7.18967170e-02, -8.08302760e-02,
          -9.97070149e-02, -5.19632772e-02, 8.34009275e-02,
          -3.41513082e-02, -1.11290514e-02, 5.86325023e-03,
          -5.48902061e-03, 1.16946725e-02, 3.18075120e-02,
          -4.24960740e-02, 1.69153442e-03, 6.84504882e-02,
          -2.57833619e-02, -3.10043397e-04, -5.41265905e-02,
          -2.61489842e-02, 8.21584463e-03, -1.64687429e-02,
          -5.86743020e-02, 3.62833366e-02, -3.43049760e-03,
          -8.96236971e-02, -1.24771252e-01, -2.27881200e-03,
          6.29149843e-03, -1.26018956e-01, -6.71801865e-02,
          -1.03448713e-02, 4.21757959e-02, 6.25104159e-02,
          -1.03767015e-01, -2.40034387e-02, -2.44396795e-02,
          1.76047441e-02, -1.05743624e-01, -1.06667109e-01,
          -6.44664168e-02, -1.27333272e-02, 3.72667909e-02,
          -5.96652590e-02, 6.46899194e-02, -4.31270115e-02,
          -1.05769262e-01, 2.46441681e-02, 1.42225437e-02,
          -2.21828762e-02, 1.94008220e-02, -2.58078109e-02,
          2.91287825e-02, 5.93165830e-02, 1.99009310e-02,
          -1.02375850e-01, 1.84331629e-02, -1.56329311e-02,
          -9.82166268e-03, 6.72501465e-03, -1.26582175e-03,
          -1.15605019e-01, 5.57933785e-02, -3.23699526e-02,
          7.55267264e-03, 7.92339444e-03, -2.02142936e-03,
          -7.02646300e-02, -1.88441034e-02, -5.34669124e-02,
          -1.03984363e-02, 4.62745726e-02, -1.72926337e-02,
          -3.73847969e-02, 1.51164055e-01, 1.99262947e-02,
          -9.74617079e-02, -4.96868044e-03, -4.35518436e-02,
          -8.26314930e-03, 2.68096831e-02, 3.84392478e-02,
          6.53948821e-03, 3.12936828e-02, -9.03591141e-03,
          9.31710657e-03, 4.43748347e-02, -3.30920666e-02,
          -1.33327767e-03, 1.48136504e-02, -1.88256055e-02,
          -5.98040670e-02, 1.13735320e-02, -4.94134203e-02,
          1.67760700e-02, -2.88518076e-03, -4.54177856e-02,
          -5.68902399e-03, 8.14282522e-03, -1.65095013e-02,
          -3.21516097e-02, 9.22611430e-02, -4.79078628e-02,
          -4.81766686e-02, -3.05527411e-02, -3.93165499e-02,
          -5.96958026e-02, 1.40388878e-02, -3.80550958e-02,
          -5.50331809e-02, -5.50410524e-02, -1.03082001e-01,
          -1.79339200e-02, -5.25372177e-02, -6.82693496e-02,
          6.39214087e-03, 8.23218971e-02, -1.03638414e-02,
          -8.96092355e-02, 8.33595619e-02, -3.23976502e-02,
          1.27733378e-02, -5.20585403e-02, -8.80304053e-02,
          -3.68355997e-02, 2.85371561e-02, -2.31486354e-02,
          4.61937040e-02, 2.82330606e-02, -5.92582822e-02,
          -2.94170324e-02, -4.77736033e-02, -9.67224315e-02,
          -1.10048153e-01, 9.08522382e-02, 6.68927357e-02,
          -1.25430614e-01, 1.04632698e-01, -2.63963044e-02,
          1.44650349e-02, -5.07234856e-02, -1.18906587e-01,
          -9.87622812e-02, 1.28876111e-02, -1.87101110e-03,
          4.90773395e-02, 7.22494647e-02, 1.19821820e-02,
          -4.74448204e-02, -4.49368171e-02, 1.28659280e-02,
          -2.67501618e-03, -1.09134745e-02, -3.56053635e-02,
          -1.02810569e-01, -2.43772753e-02, -4.34541926e-02,
          -3.29108648e-02, -2.37106048e-02, 5.22048324e-02,
          -2.30018515e-02, -1.04466118e-02, -2.32014060e-02,
          -5.09994328e-02, -6.36957809e-02, -5.72978742e-02,
          -1.38395680e-02, -5.69657646e-02, 1.22206761e-02,
          -5.76576591e-02, -2.14522071e-02, 1.71591842e-03,
          -1.80962812e-02, 5.02648912e-02, 3.44448499e-02,
          1.09068183e-02, 8.33216589e-03, 9.38422829e-02,
          -1.35190599e-02, 2.90959291e-02, 1.75356902e-02,
          -1.85397174e-02, 2.99982037e-02, -7.84528032e-02,
          -4.26005907e-02, 2.54495051e-02, 1.81568749e-02,
          3.21279690e-02, 3.19287069e-02, 6.02864474e-02,
          -6.98577985e-02, 3.54915634e-02, 3.67342541e-03,
          2.08120346e-02, -1.95386093e-02, -8.49499777e-02,
          2.59622298e-02, -6.96429843e-03, 2.78517958e-02,
          -6.51193112e-02, 5.39883487e-02, -4.06535678e-02,
          -8.01769122e-02, -1.13954827e-01, 2.27022991e-02,
          6.95580542e-02, 3.06143221e-02, 1.18404724e-01, 1.88260861e-02,
          -2.35395655e-02, 7.32397754e-03, 1.48762548e-02,
          6.76823929e-02, -8.49828646e-02, 4.36565690e-02,
          -5.65874055e-02, 4.15629782e-02, 4.64287847e-02,
          2.37160604e-02, 1.20629082e-02, -2.53240559e-02,
          -5.21937236e-02, -6.54683858e-02, -4.42381874e-02,
          -1.60134479e-01, 3.12292762e-02, 1.09136716e-01,
          -4.33180965e-02, -4.92381603e-02, -5.36888726e-02,
          -5.89865521e-02, -9.79470536e-02, -4.15566489e-02,
          -8.85917991e-02, 4.60194498e-02, -6.12510890e-02,
          -1.10801451e-01, 4.96332571e-02, 1.42419124e-02,
          -6.94258511e-02, -1.10271804e-01, -5.14922738e-02,
          -6.57021180e-02, 5.34378290e-02, 1.83148235e-01,
          5.99073209e-02, 2.99520567e-02, 5.26108257e-02,
          -1.12639116e-02, -1.20505262e-02, -7.68779358e-03,
          -6.46963483e-03, 1.27880257e-02, 3.17402184e-02,
          -9.76104066e-02, -3.06892339e-02, 1.86196044e-02,
          -2.08760630e-02, -7.40302652e-02, -1.03126429e-01,
          -1.09390698e-01, -1.53459618e-02, -3.94858979e-02,
          -8.97569135e-02, 7.17096254e-02, 3.42261046e-02,
          2.40661595e-02, 5.43740857e-03, -6.77863136e-02,
          -1.14403836e-01, -1.74504772e-01, -1.53194200e-02,
          -6.16844520e-02, 5.45281842e-02, 8.83105323e-02,
          2.31000632e-02, -1.30596692e-02, -7.23393783e-02,
          -8.47324133e-02, -1.22479629e-02, -2.17383355e-02,
          -5.40744327e-02, 1.05923884e-01, 1.17273601e-02,
          -6.41496107e-02, -5.44480495e-02, -4.58615124e-02,
          -1.34723145e-03, -5.17348535e-02, 6.48635253e-02,
          4.11690446e-03, 2.81375721e-02, -8.58222693e-02,
          -3.56820337e-02, 1.05284713e-02, 4.36211331e-03,
          7.78527856e-02, -8.70560482e-02, -7.27554187e-02,
          -5.13792671e-02, -9.86632798e-03, -4.15120311e-02,
          -9.62589402e-03, 2.78759059e-02, 4.77037281e-02,
          1.21618956e-01, -3.56044993e-02, -4.88075688e-02,
          -3.75021510e-02, -3.97896878e-02, -5.85122444e-02,
          2.44140904e-03, -2.18127053e-02, 1.02584891e-01,
          7.34927952e-02, -1.05165429e-02, -8.10262933e-02,
          -7.05395415e-02, -6.75716326e-02, -1.25319153e-01,
          -5.19247875e-02, -3.10584493e-02, 1.45639991e-02,
          1.27026662e-01, 1.61771793e-02, -3.15577574e-02,
          -1.34991109e-01, -6.96731880e-02, -1.18936330e-01,
          -7.37775788e-02, 6.83497563e-02, 6.34788768e-03,
          6.30913898e-02, 8.03213343e-02, -8.68647918e-02,
          -4.83630151e-02, -3.25895920e-02, -6.88549271e-03,
          -4.02061865e-02, 5.95754869e-02, -9.69756395e-02,
          -5.42607009e-02, 2.99161952e-02, -8.33589807e-02,
          -9.73823443e-02, -7.74833485e-02, 4.89414809e-03,
          5.01859449e-02, -6.81705698e-02, 1.08666858e-03,
          7.52155334e-02, 6.79050907e-02, 1.56012056e-02,
          -1.32342979e-01, 1.52372755e-04, -4.79938127e-02,
          -1.12733729e-01, -1.45389000e-02, 3.25570372e-03,
          -2.24057920e-02, -2.75330432e-02, -2.46191993e-02,
          -9.22312438e-02, 5.72123975e-02, -1.39122475e-02,
          2.10765358e-02, -2.36102249e-02, -6.71890527e-02,
          -1.04801312e-01, -5.37339039e-02, 7.84023199e-03,
          2.38188803e-02, -9.89085808e-02, 6.38360754e-02,
          -3.69299985e-02, 1.65384207e-02, 6.66393563e-02,
          -1.55923851e-02, 1.79086230e-03, 1.57331116e-03,
          -3.02209575e-02, -3.13957706e-02, 5.22060506e-02,
          -6.65856898e-03, 3.91085446e-02, -3.90248001e-02,
          -1.87002681e-02, -8.33164901e-02, -8.64693802e-03,
          3.77133302e-02, 8.51013139e-02, 8.38783681e-02, 9.73811820e-02,
          4.02564853e-02, -7.34015368e-04, -7.33171171e-03,
          2.95639839e-02, -1.84127241e-02, -2.42568254e-02,
          6.08690046e-02, 1.21924862e-01, 1.69920310e-01,
          -9.46735814e-02, 3.89724225e-02, 3.97669971e-02,
          -1.08873090e-02, -7.51552135e-02, -3.43342908e-02,
          -4.29692827e-02, 3.30557376e-02, -8.84579644e-02,
          -1.09325103e-01, 1.22846393e-02, 1.78435780e-02,
          -3.59694548e-02, -8.20176154e-02, -3.04784141e-02,
          -5.98886386e-02, 1.21550765e-02, -9.75485891e-02,
          -6.90616341e-03, 2.77273124e-03, 1.65012963e-02,
          7.43395835e-02, 3.02424431e-02, -4.58807424e-02,
          -2.77119502e-02, 7.06781000e-02, 2.61723846e-02,
          -1.32564886e-03, 2.32447479e-02, 7.92533904e-02,
          1.07767753e-01, 5.97019009e-02, 1.95121393e-02,
          -3.67604159e-02, 1.20982574e-03, -6.23056367e-02,
          1.56897064e-02, 7.17209578e-02, -2.69240867e-02,
          -2.86700372e-02, -5.06042503e-02, -2.65838895e-02,
          -4.98648137e-02, -1.51882479e-02, 3.50697637e-02,
          -2.31940933e-02, -8.84010121e-02, -8.76991972e-02,
          -7.51438439e-02, 5.03125973e-02, -5.96939027e-02,
          -2.39284411e-02, -4.18235548e-02, 3.02144513e-02,
          4.89710085e-02, 7.09597319e-02, 5.89201897e-02, 9.25401822e-02,
          4.59158383e-02, -1.04490239e-02, -3.19700548e-03,
          -3.18608899e-03, 7.37774931e-03, 1.58654332e-01,
          1.61885619e-02, 2.41469257e-02, -2.81949006e-02,
          -2.52125636e-02, -1.31311178e-01, -6.75221384e-02,
          -1.35800310e-05, 8.67150500e-02, -2.89673172e-02,
          -1.45503178e-01, -1.05684057e-01, 4.76327073e-03,
          6.53431788e-02, 1.42946010e-02, -3.95363905e-02,
          -4.12626825e-02, 1.03636496e-02, 8.00312439e-04,
          -1.17662922e-02, 6.21019304e-02, 7.21134990e-02,
          9.24783349e-02, 2.78792586e-02, -8.06786045e-02,
          -9.35423598e-02, 3.24882288e-03, 1.27601057e-01,
          -4.61875834e-02, -4.22676206e-02, -6.29124977e-03,
          -3.04035302e-02, -1.29369542e-01, -8.12998563e-02,
          1.00683451e-01, 1.44156218e-01, 1.73075274e-02,
          -1.70303851e-01, -3.60497683e-02, 6.87666461e-02,
          1.33010611e-01, 6.75033852e-02, -4.79606502e-02,
          4.08852473e-02, 1.54488841e-02, -6.68248336e-04,
          -6.75889254e-02, -4.24496084e-02, 1.65891461e-02,
          1.30491838e-01, 3.91898081e-02, -1.43210310e-02,
          -5.79568669e-02, 2.47068200e-02, 6.53765798e-02,
          -4.35911641e-02, -9.45270434e-02, 5.59582724e-04,
          6.79334179e-02, -1.55467102e-02, -4.69962228e-03,
          -5.32627515e-02, 4.15310934e-02, -4.30307873e-02,
          -1.29619122e-01, -2.84383968e-02, 8.05085748e-02,
          1.46627188e-01, 4.79563363e-02, 2.03251950e-02, 1.77415796e-02,
          9.32122953e-03, 6.97651133e-02, -5.41514046e-02,
          -1.22423865e-01, 9.47969686e-03, 4.09335233e-02,
          -6.15554042e-02, -2.63822358e-02, -5.52820750e-02,
          3.43149714e-02, 3.89795430e-04, -4.43372428e-02,
          -8.98468643e-02, -7.27285743e-02, -3.37483138e-02,
          -9.30789039e-02, -4.73341532e-02, 6.90554455e-03,
          5.55264056e-02, -7.05059171e-02, -6.97617903e-02,
          -8.87583420e-02, -1.10059716e-01, -2.21039243e-02,
          -1.43954381e-01, -7.92729035e-02, 3.19134556e-02,
          1.90468375e-02, 2.84504779e-02, -9.03861597e-02,
          -9.46713313e-02, -3.18169259e-02, 7.82303661e-02,
          -1.62842870e-02, -1.85803920e-02, 3.68151255e-02,
          8.31393972e-02, -2.00928003e-02, 3.08127459e-02,
          4.20180298e-02, -1.14942804e-01, 3.10916323e-02,
          -8.82553980e-02, -3.49518582e-02, 9.80046615e-02,
          6.92228079e-02, -1.20207677e-02, -2.80490275e-02,
          -4.32859594e-03, -3.09538879e-02, 4.35166918e-02,
          1.28450096e-02, 9.95156541e-02, 3.75041328e-02, 2.55341940e-02,
          -1.14717267e-01, -5.74246161e-02, -1.11418506e-02,
          2.12153178e-02, -2.00537052e-02, 9.32350308e-02,
          7.87116662e-02, 4.71984455e-03, -3.91213298e-02,
          4.73512001e-02, 8.04354250e-02, 3.53584364e-02,
          -1.21327847e-01, 2.60597803e-02, -7.35098496e-03,
          3.42331082e-02, 7.07640126e-02, 1.41288772e-01,
          -5.83458468e-02, 4.27177968e-03, 7.69767463e-02,
          3.89652699e-02, -2.07315590e-02, 4.73854579e-02,
          -2.44359002e-02, -4.46969047e-02, -4.11424693e-03,
          7.87142199e-04, 2.61095893e-02, 1.28131211e-02, 8.65205899e-02,
          -5.27258553e-02, 7.93062672e-02, 1.77577063e-02,
          1.69137958e-02, 2.83530988e-02, 5.15089668e-02, 2.64738891e-02,
          3.12678888e-02, 2.13511083e-02, -1.44875243e-01,
          4.58219536e-02, -3.02454978e-02, -2.12524235e-02,
          3.03662606e-02, -3.94113697e-02, 7.26668350e-03,
          6.64337724e-02, 6.41291291e-02, -7.73669109e-02,
          6.71821386e-02, 1.14007993e-02, 2.18127705e-02, 7.48320157e-03,
          9.40323994e-02, 7.20515251e-02, 7.40251616e-02,
          -9.91478190e-03, -1.54583499e-01, 7.57134007e-03,
          -1.91033874e-02, 1.29501726e-02, 2.79551353e-02,
          -5.96771091e-02, -9.71887261e-02, -4.66112600e-04,
          7.30796158e-02, -6.98007867e-02, 9.59687978e-02,
          -2.30475105e-02, -5.95029211e-03, -4.17357869e-02,
          -8.05849731e-02, -9.50758979e-02, 3.23093683e-02,
          3.23980339e-02, 3.56694981e-02, 1.02418758e-01, 1.36521272e-03,
          -3.06213982e-02, -6.57542422e-02, 1.60638671e-02,
          -8.91227648e-03, 5.79725876e-02, -1.83336088e-03,
          -6.49419054e-02, -2.19951309e-02, -3.97244655e-02,
          -2.41464637e-02, -2.07434110e-02, -5.63854165e-03,
          -1.21586183e-02, 6.62431121e-02, 2.39421502e-02,
          1.11732170e-01, 1.04533508e-01, 3.38141955e-02,
          -2.09771134e-02, -1.59746092e-02, -1.66265462e-02,
          -6.25861362e-02, 5.38905431e-03, -1.52009120e-02,
          -8.81068856e-02, 8.98969695e-02, 3.00737675e-02,
          1.92961432e-02, 2.79500578e-02, 1.56481192e-02,
          -3.52273025e-02, 3.86163220e-02, -6.06901653e-04,
          -1.34893224e-01, -6.58967197e-02, -7.48360716e-03,
          1.50396265e-02, 1.03343442e-01, 8.17523524e-03, 3.82188931e-02,
          7.86486343e-02, -3.35003436e-02, 2.20053419e-02,
          5.05713038e-02, 1.68625601e-02, -2.96030883e-02,
          5.14134690e-02, -3.20393294e-02, -5.14600985e-03,
          9.36780497e-02, 5.95475771e-02, -1.99894588e-02,
          -3.42110842e-02, -2.32316889e-02, 4.18029092e-02,
          6.85871169e-02, 2.69253328e-02, 2.84075104e-02, 2.77534090e-02,
          5.51039055e-02, -2.03344338e-02, -7.18710497e-02,
          4.77889702e-02, 3.30573246e-02, 1.14091486e-01,
          -5.91372959e-02, 1.83061771e-02, -3.17429639e-02,
          -3.97028476e-02, -5.60227199e-04, 3.15928832e-02,
          3.95791270e-02, -4.86198626e-02, -1.50310174e-02,
          -8.54998827e-03, 3.35152401e-03, 1.05777174e-01,
          2.22494006e-02, -2.41480991e-02, 2.17356794e-02,
          2.78845746e-02, 1.94702614e-02, 3.48942056e-02,
          -4.30810936e-02, -1.66261066e-02, 5.27150594e-02,
          -4.37788740e-02, -1.02497032e-02, 9.27118734e-02,
          5.18701263e-02, 4.13291529e-02, -2.18007658e-02 ]
   decision_functions:
      -
         sv_count: 1
         rho: -2.7256942229689982e+00
         alpha: [ 1. ]
         index: [ 0 ]
