%YAML:1.0
my_svm: !!opencv-ml-svm
   svm_type: C_SVC
   kernel: { type:LINEAR }
   C: 100.
   term_criteria: { epsilon:2.2204460492503131e-16, iterations:450 }
   var_all: 3780
   var_count: 3780
   class_count: 2
   class_labels: !!opencv-matrix
      rows: 1
      cols: 2
      dt: i
      data: [ -1, 1 ]
   sv_total: 1
   support_vectors:
      - [ -5.83637357e-02, -2.37087738e-02, 7.19451904e-02,
          -8.03001865e-04, -1.20305791e-01, 1.09720826e-01,
          1.06491342e-01, -5.59444167e-03, -1.51805073e-01,
          -7.99127743e-02, -2.77764827e-01, -1.78689957e-01,
          2.55075600e-02, -4.34633158e-02, -1.82880443e-02,
          7.00745732e-02, -5.44094369e-02, 2.53954390e-03,
          2.24491321e-02, 9.49540734e-02, 8.42113122e-02, 9.63057205e-02,
          5.16066141e-02, 4.86992626e-03, 2.17430666e-01,
          -1.25956507e-02, -1.35727048e-01, 2.02380307e-02,
          -6.56554699e-02, -8.88591111e-02, -7.64802918e-02,
          1.14354461e-01, 4.55480404e-02, 9.54783484e-02,
          -6.12735152e-02, -3.91422622e-02, 5.87393306e-02,
          -1.33416861e-01, -1.27089480e-02, 1.01239733e-01,
          -6.70540035e-02, -8.43766779e-02, 7.20137581e-02,
          -1.76001657e-02, 8.42996165e-02, 8.00642297e-02,
          1.72292087e-02, 7.33327270e-02, 4.35666591e-02,
          -4.68776897e-02, 8.27485174e-02, 9.88401771e-02,
          8.84079859e-02, -6.35551140e-02, -2.89035253e-02,
          -4.68730293e-02, 4.42072414e-02, 2.44507622e-02,
          3.17214802e-02, -2.98727048e-03, -9.23866220e-03,
          -1.14875296e-02, -5.39514422e-03, -4.67698239e-02,
          -1.82570312e-02, -1.11282133e-01, -6.90021217e-02,
          -4.81795892e-02, 6.03108725e-04, -9.49841142e-02,
          -7.87613243e-02, -7.57342651e-02, -4.87560630e-02,
          3.26522142e-02, 2.89857783e-03, 2.59373542e-02,
          -7.20289499e-02, 1.44368514e-01, 1.57740995e-01,
          1.55224815e-01, -1.62232101e-01, -1.86357275e-01,
          5.03218733e-02, 2.72698067e-02, 6.01776280e-02,
          -1.55632198e-01, 4.26460430e-02, 2.57095844e-02,
          5.27005456e-02, -1.75084665e-01, -2.80630980e-02,
          2.47047544e-02, -1.34542823e-01, -2.66752932e-02,
          5.70273101e-02, 8.20855424e-02, 2.99108941e-02, 3.78503948e-02,
          -1.71456650e-01, -3.82779613e-02, 3.10141477e-03,
          -1.41087651e-01, -1.37332231e-01, -7.00094998e-02,
          -6.37626201e-02, -2.41175313e-02, 7.54460692e-02,
          -9.27579924e-02, -1.70501962e-01, 8.79486203e-02,
          5.69952875e-02, 1.82774380e-01, -7.13723302e-02,
          6.48351908e-02, -1.26134353e-02, -1.34313047e-01,
          -1.48379311e-01, 5.81866950e-02, -8.80350694e-02,
          -8.76149163e-02, 1.63058236e-01, 5.77848777e-02,
          1.33368090e-01, 1.84958562e-01, -1.22822665e-01,
          -1.77280679e-02, -1.41446948e-01, -9.95089859e-02,
          -1.28989175e-01, 3.54954712e-02, 1.44064846e-02,
          -3.18151303e-02, -8.70552659e-03, -3.72618400e-02,
          -1.20360121e-01, 1.20437071e-02, -1.29018754e-01,
          -7.47352242e-02, 1.15085155e-01, 1.26887351e-01,
          9.28253531e-02, 2.62929678e-01, -1.21206129e-02,
          1.39337897e-01, 1.19914770e-01, -5.05525731e-02,
          -1.50249347e-01, 3.60458088e-03, 2.37872228e-02,
          1.48727177e-02, 1.23939477e-01, 8.62877369e-02, 8.02407786e-02,
          1.62841603e-01, -6.22983240e-02, -1.23265378e-01,
          6.12860806e-02, 2.87663098e-02, -8.46396983e-02,
          -6.33966029e-02, 5.98273464e-02, 1.20714055e-02,
          2.85796029e-03, -5.14166721e-04, -2.80524157e-02,
          -1.33140590e-02, 5.26235476e-02, 2.20624860e-02,
          1.94172964e-01, 2.63097379e-02, 7.81472176e-02, 5.56610571e-03,
          -5.99185973e-02, -6.60844939e-03, 7.19341189e-02,
          1.65354073e-01, 7.27356747e-02, -1.25799514e-02,
          -7.25953430e-02, -1.28471628e-01, 2.56046444e-01,
          4.61531766e-02, 5.83170578e-02, 1.51882082e-01, 1.31939590e-01,
          -5.50969318e-03, -1.87368140e-01, 1.51743563e-02,
          8.70109126e-02, 1.43221423e-01, -1.44337853e-02,
          8.04616883e-02, -9.78335142e-02, -1.05218820e-01,
          4.77206670e-02, 1.63133349e-02, 4.43123095e-02,
          -7.36914203e-03, 3.24778911e-03, -3.18939686e-02,
          -3.25415060e-02, 1.54825896e-02, 1.32080898e-01,
          3.05349100e-02, -1.51525745e-02, -1.06763884e-01,
          -6.73382208e-02, 1.23439088e-01, -2.65656933e-02,
          -2.95575280e-02, -6.43775463e-02, 6.10792600e-02,
          1.17838932e-02, 9.95859131e-02, -4.11717072e-02,
          1.39638912e-02, 7.15325847e-02, -1.17201373e-01,
          -5.12698293e-03, -9.82970297e-02, -1.19176917e-01,
          8.89466424e-03, -7.19928443e-02, 4.95840162e-02,
          6.04440784e-03, 1.10957198e-01, -3.40813026e-02,
          -5.87172210e-02, 9.89020243e-02, 5.19042090e-02,
          -2.08442099e-02, -1.46962125e-02, -7.49542117e-02,
          6.07789010e-02, -2.78115049e-02, 7.53708854e-02,
          7.81942159e-02, -1.39886186e-01, 1.53745199e-02,
          1.22284796e-02, -9.15902853e-02, -9.73786637e-02,
          -2.67511234e-02, -4.44476232e-02, 4.76034731e-02,
          -3.85668799e-02, -3.48478220e-02, -3.22468067e-03,
          1.51465433e-02, -7.10430145e-02, -4.94040586e-02,
          6.52500540e-02, 6.95942044e-02, 2.52955817e-02,
          -4.31933515e-02, 1.29781961e-01, 5.25448695e-02,
          4.18042541e-02, -6.00598473e-03, -1.21921331e-01,
          -6.41307905e-02, 6.50454909e-02, -1.88200772e-02,
          4.81748730e-02, 7.93978348e-02, -2.35574483e-03,
          9.17377323e-02, 7.57954866e-02, -7.43282065e-02,
          5.98623827e-02, 7.25497305e-02, 1.36170108e-02,
          -6.25120997e-02, 3.72138433e-02, 1.17457695e-01,
          -9.93181136e-04, -7.51001611e-02, 5.09592555e-02,
          1.69504702e-01, 8.87418315e-02, -7.31670707e-02,
          -1.03900388e-01, -5.30032106e-02, 8.76081884e-02,
          -7.21480884e-03, 1.91114889e-03, 5.74392080e-03,
          2.19381158e-03, -6.83194166e-03, 7.91057050e-02,
          9.58814397e-02, 3.68861184e-02, -4.32963260e-02,
          3.34045589e-02, 4.16777097e-02, -3.34784277e-02,
          -4.91862185e-03, -4.30138856e-02, 1.24145247e-01,
          1.52199278e-02, -8.14158395e-02, -1.24100246e-01,
          9.23604593e-02, 3.37186232e-02, 3.11334971e-02, 4.67362665e-02,
          -3.49451900e-02, 2.57269889e-02, 6.28625676e-02,
          5.00213355e-02, 2.02387478e-02, 1.08180903e-02,
          -5.13245091e-02, 4.78278063e-02, -1.27562582e-01,
          3.49253900e-02, 1.63126424e-01, 5.33403456e-02, 4.64154370e-02,
          -5.90772144e-02, -3.00227990e-03, -2.08957568e-02,
          5.47087789e-02, 2.43292283e-02, 2.59390734e-02, 8.89478251e-02,
          1.37161585e-02, -6.97584152e-02, -2.51152292e-02,
          6.46485612e-02, 2.18440536e-02, 7.01584071e-02,
          -1.32263331e-02, 5.97119890e-02, -2.87386868e-02,
          3.42769846e-02, 7.84938484e-02, 8.82975943e-03, 1.39588475e-01,
          -1.80946998e-02, 8.25329944e-02, 6.55069808e-03,
          -6.73846900e-02, 8.35736096e-02, 6.14027381e-02,
          5.63645177e-02, 7.76233226e-02, 1.41638564e-02,
          -3.62200700e-02, -3.00798174e-02, 2.98055750e-03,
          -9.36017651e-03, -4.52676155e-02, 8.02976713e-02,
          8.81771520e-02, 7.05873817e-02, 8.75835791e-02,
          -4.60911021e-02, -6.85303882e-02, -3.24140526e-02,
          6.83509633e-02, 6.76129386e-02, 8.28110129e-02, 9.99431312e-03,
          9.86090116e-03, 1.10307522e-01, -1.05966054e-01,
          2.98900693e-03, -7.13235885e-02, 5.33990227e-02,
          1.57289773e-01, 1.19210638e-01, -6.98234662e-02,
          -2.04778612e-01, 3.19898464e-02, -9.53127220e-02,
          1.05753429e-01, -5.85091598e-02, -2.34210659e-02,
          4.03559916e-02, 1.05302073e-01, -3.35297696e-02,
          9.87905487e-02, 6.72684237e-02, 1.29460618e-02,
          -7.77776018e-02, -4.36180010e-02, 2.44596954e-02,
          1.36213489e-02, 7.45213628e-02, 5.96355647e-02, 2.04758018e-01,
          1.32537961e-01, -1.11258626e-01, 1.13274880e-01,
          -4.15584370e-02, 2.64032986e-02, 1.18402265e-01,
          9.69815180e-02, -7.95671195e-02, -2.16290548e-01,
          1.96915209e-01, 4.02378738e-02, 1.08024351e-01,
          -4.82298657e-02, 1.76641196e-02, 9.20960903e-02,
          1.00589126e-01, 2.71947887e-02, -2.30184495e-02,
          1.78839788e-01, 7.48054981e-02, 3.61774536e-03,
          -4.27036956e-02, -3.70243602e-02, 5.43885306e-02,
          1.84413251e-02, -1.69162285e-02, 1.82462670e-02,
          1.42112181e-01, -2.43506152e-02, 8.36873874e-02,
          1.72334700e-03, 2.26283576e-02, 5.29717654e-02,
          -5.67927631e-03, -2.17883033e-03, 8.58525559e-02,
          2.54831556e-02, -2.35938802e-02, -4.87245172e-02,
          -3.68582495e-02, -9.07528251e-02, 5.59760556e-02,
          1.01243228e-01, 6.11284450e-02, -2.04223171e-01,
          1.14112664e-02, -4.40483876e-02, -1.98377836e-02,
          -8.47794488e-02, -2.68484540e-02, -3.58091481e-02,
          1.84412338e-02, 1.37661189e-01, -3.44243348e-02,
          1.05362579e-01, 3.88034396e-02, 1.09408669e-01, 5.37144206e-02,
          1.70224160e-02, -2.62677018e-02, -1.01205250e-02,
          -5.32394871e-02, -2.59363614e-02, -1.04093917e-01,
          -7.96738192e-02, -2.57632677e-02, -4.55177687e-02,
          6.83117583e-02, -6.06493838e-03, 2.41666585e-02,
          2.62625795e-02, 7.15235109e-03, -1.13382074e-03,
          -1.58116464e-02, 9.86054838e-02, 3.34560499e-02,
          2.81406883e-02, 4.31920327e-02, -1.37917195e-02,
          5.76131232e-02, -4.77926398e-04, 1.28634572e-01,
          -9.52728745e-03, 9.70018581e-02, 1.28412038e-01,
          6.78134039e-02, 7.66058341e-02, -7.80819207e-02,
          -7.45745450e-02, 2.63612643e-02, -5.54569671e-03,
          -7.95799196e-02, -2.20207665e-02, 3.09711974e-02,
          6.41395003e-02, -2.93276738e-02, 1.08702737e-03,
          2.34557185e-02, 8.01223889e-02, 3.81758064e-02,
          -7.10662752e-02, 1.24086417e-01, 2.03442555e-02,
          4.18080129e-02, 8.35661590e-02, 2.51271725e-02, 3.46979089e-02,
          1.30248457e-01, -3.95813137e-02, -1.25594750e-01,
          4.05436791e-02, -1.27022997e-01, -5.62602878e-02,
          8.51536263e-03, -1.32654220e-01, -1.37346541e-03,
          -9.22167674e-02, -2.25614458e-02, -6.36932030e-02,
          3.46169509e-02, -5.63750975e-02, -2.34182298e-01,
          -1.57644320e-02, 3.67288031e-02, 1.24553435e-01,
          -8.80663376e-03, -9.99379605e-02, 8.18359200e-03,
          5.39344661e-02, -1.67310890e-02, 1.61694903e-02,
          3.28808241e-02, 5.94014451e-02, 2.43695881e-02, 4.10920456e-02,
          -2.16556340e-03, 3.53746675e-02, -4.73271077e-03,
          -6.81673959e-02, -1.01165220e-01, 5.02104461e-02,
          9.93679985e-02, 2.58657914e-02, 3.67916189e-02,
          -1.33875296e-01, 3.50680798e-02, 1.48682415e-01,
          -1.84666384e-02, 7.77989998e-02, 9.29058343e-02,
          9.23661813e-02, 2.06896551e-02, -8.26594606e-02,
          -2.51530670e-02, 2.24734470e-01, 1.04125783e-01,
          2.19000652e-02, -1.42153949e-02, -1.86850399e-01,
          -8.16343278e-02, -1.07669033e-01, -2.92534847e-02,
          1.28938198e-01, 1.32550359e-01, 1.77418869e-02, 3.07882612e-04,
          5.13521023e-03, 5.64520434e-02, -4.62443717e-02,
          -9.88996625e-02, -1.13956980e-01, -8.07916299e-02,
          4.26359102e-02, 7.52113014e-02, -2.88788136e-02,
          -1.78627558e-02, -5.87089844e-02, -1.22806706e-01,
          -7.55639300e-02, -1.15544729e-01, 1.17222652e-01,
          5.69474213e-02, 4.17543985e-02, -8.91661569e-02,
          -5.04644588e-03, -8.72084126e-02, -9.95920077e-02,
          3.10313832e-02, -6.40946766e-03, 1.07191794e-01,
          2.13371627e-02, 6.76274300e-02, 4.05235216e-02, 8.27651843e-02,
          -9.05236453e-02, -8.94069299e-02, 1.05403708e-02,
          -5.33371568e-02, 3.43873426e-02, -1.11337721e-01,
          7.41209090e-02, 2.78272722e-02, 3.21779288e-02, 8.77270997e-02,
          -7.86539242e-02, 4.14673351e-02, -8.62461999e-02,
          3.78321856e-03, -1.38116786e-02, 4.96979579e-02,
          -2.41512526e-02, 9.47180465e-02, 4.12081219e-02,
          2.39695944e-02, -3.22481431e-02, 4.84342426e-02,
          -5.95851243e-02, 1.60843413e-02, 4.09171209e-02,
          -1.34626590e-02, 1.20809108e-01, -3.62209864e-02,
          -5.43999635e-02, 1.40169291e-02, 9.83754732e-03,
          2.04786155e-02, -1.14458958e-02, 6.28282055e-02,
          -2.13469770e-02, 7.63977841e-02, 2.05186959e-02,
          -1.29498452e-01, -8.52663293e-02, -4.89987731e-02,
          -1.66292176e-01, 3.63896303e-02, 7.70136937e-02,
          4.15567644e-02, -2.58609243e-02, -8.58718976e-02,
          4.61174697e-02, 1.10407807e-01, 1.00032046e-01, 1.07855564e-02,
          1.31132036e-01, 5.95302694e-02, -1.31160885e-01,
          -9.06899050e-02, -1.30108908e-01, 1.74845252e-02,
          -1.39491007e-01, 4.34776358e-02, -1.06522202e-01,
          1.61017179e-01, 4.82894331e-02, -7.80783072e-02,
          6.57000393e-02, -8.43658894e-02, -1.64346322e-01,
          9.21333116e-03, 6.65888283e-03, -6.43542130e-03,
          3.72356996e-02, -6.55503348e-02, 4.03584987e-02,
          4.49651554e-02, 3.90829779e-02, 1.45581476e-02, 1.83634877e-01,
          9.00725648e-03, 9.80479084e-03, -4.83708223e-04,
          -6.10780530e-02, -3.38398386e-03, -7.92591274e-02,
          4.20444794e-02, 9.44193080e-02, -9.83195454e-02,
          3.30272466e-02, -3.79961282e-02, 1.26173040e-02,
          -1.08562678e-01, -1.67596743e-01, -6.32878244e-02,
          4.28348742e-02, -4.60421070e-02, 9.79647562e-02,
          1.51470497e-01, -5.52868471e-02, -9.51048285e-02,
          -1.04817012e-02, -1.34811923e-01, 1.47584230e-01,
          6.49312660e-02, 9.62984711e-02, 6.05193749e-02,
          -5.50715216e-02, -5.17740175e-02, -2.28053257e-02,
          -2.01742370e-02, 3.23208198e-02, 6.65942382e-04,
          -7.86200687e-02, -2.45752241e-02, 4.39895242e-02,
          1.43200696e-01, 4.91982736e-02, -4.74275723e-02,
          -6.18281476e-02, -1.26431249e-02, -2.84974277e-02,
          -2.15626378e-02, -1.70753766e-02, 3.91765945e-02,
          -5.35838120e-02, -7.52977580e-02, -1.52827147e-02,
          -2.51408573e-02, -2.38351505e-02, 6.43519387e-02,
          -1.10025488e-01, 1.03875995e-02, -1.16413318e-01,
          -1.09647125e-01, 2.14604791e-02, 1.28439546e-01,
          -2.53106300e-02, 9.39621590e-03, -1.83376316e-02,
          -3.26434486e-02, -5.67141026e-02, 2.81548523e-03,
          1.24495335e-01, 6.47955537e-02, -1.38028830e-01,
          -8.29037454e-04, 1.13489121e-01, -2.02549025e-02,
          -1.57501549e-02, -1.56244030e-02, -6.82867244e-02,
          7.13955536e-02, 4.03510444e-02, -1.41887039e-01,
          -1.04895774e-02, 3.80561985e-02, 3.86813306e-03,
          -1.80161779e-03, 1.07946388e-01, -1.15211047e-01,
          4.38755751e-03, 9.14667472e-02, -9.81609002e-02,
          -2.47257426e-02, 1.36349246e-01, -6.54708818e-02,
          7.17995223e-03, 2.51815487e-02, -1.06152542e-01,
          8.32033753e-02, 4.09526415e-02, -7.99053535e-02,
          -2.87852138e-02, 7.16914907e-02, -2.76856031e-02,
          1.41201988e-01, 2.84687802e-02, -2.48798635e-02,
          1.24675166e-02, -2.50078253e-02, -1.87534183e-01,
          -9.98292193e-02, -9.24128890e-02, -1.97146013e-02,
          -4.22002375e-02, -9.25422683e-02, -7.22920820e-02,
          1.36962933e-02, 6.28591478e-02, 6.52417243e-02, 1.46676928e-01,
          -1.64061245e-02, 4.26242827e-03, 8.29462186e-02,
          1.04136176e-01, 5.71745373e-02, 4.91643138e-02,
          -7.48629719e-02, -2.22596526e-01, -7.16074705e-02,
          7.13856146e-02, -6.61128666e-03, -2.90125199e-02,
          -5.47004975e-02, 3.76710445e-02, 3.98778096e-02,
          8.27294812e-02, -3.07742748e-02, -3.64664872e-03,
          -6.18696474e-02, 4.92676944e-02, 2.66609769e-02,
          -1.36950672e-01, 3.80489696e-03, 1.65572360e-01,
          -3.63145508e-02, 9.77245644e-02, 1.18719198e-01,
          6.94862455e-02, 1.04766995e-01, 3.00382674e-02,
          -9.77005437e-02, 2.82052495e-02, 9.05145109e-02,
          -2.02025697e-02, 1.30543485e-02, -4.28479388e-02,
          7.63698388e-03, 7.46922046e-02, -8.76459479e-03,
          -6.58513755e-02, 9.06891748e-03, 1.46135896e-01,
          4.05307636e-02, 7.61374459e-02, -2.13415753e-02,
          -6.53631091e-02, 2.75890296e-03, 8.79739597e-02,
          4.69306968e-02, 8.39965791e-02, 1.19515307e-01,
          -7.96474740e-02, 1.80610083e-02, -9.53019783e-02,
          -1.03809237e-01, -6.43821061e-02, 3.54598612e-02,
          9.01278667e-03, 5.55005819e-02, 2.62270421e-02,
          -7.83931911e-02, -4.12905030e-02, -6.46065250e-02,
          -7.84588233e-02, -3.60844173e-02, 4.43378836e-02,
          7.98406228e-02, 6.97876215e-02, -5.31814545e-02,
          -8.36856142e-02, 2.68542431e-02, 2.70049162e-02,
          7.22943395e-02, -9.90565419e-02, 1.65827256e-02,
          8.97001624e-02, 1.05281226e-01, 9.88156572e-02,
          -1.25765458e-01, -1.08691707e-01, -7.97312185e-02,
          -1.46904022e-01, -1.50889345e-02, -2.13929266e-02,
          -6.44594571e-03, 2.86767948e-02, 7.69560784e-02,
          2.39046011e-03, -7.14297891e-02, -6.58299103e-02,
          -6.97888387e-03, -5.97092621e-02, -5.61636453e-03,
          4.07075174e-02, 1.14577534e-02, -2.47443616e-02,
          -1.22595109e-01, -4.07355018e-02, -5.19661829e-02,
          4.37432416e-02, -7.62716010e-02, 2.13440806e-02,
          4.52455655e-02, 4.72707562e-02, -2.89992406e-03,
          -2.12022327e-02, 6.48076832e-02, -6.92923069e-02,
          -7.58487135e-02, 4.19795997e-02, -5.28621934e-02,
          -1.73821354e-05, -7.83859119e-02, 6.44551590e-02,
          -6.57545552e-02, -8.02859589e-02, -3.27161327e-02,
          1.27118388e-02, 6.19590580e-02, 2.18986031e-02,
          -3.48641239e-02, -4.69615906e-02, 4.34438176e-02,
          -1.01566069e-01, -5.61170885e-03, -1.27985373e-01,
          7.05684423e-02, 2.78003663e-02, 5.13330139e-02,
          -1.99821647e-02, -2.56432453e-03, -8.48371759e-02,
          -1.42742405e-02, -8.78878832e-02, 4.46874043e-03,
          -9.99263003e-02, 4.35622893e-02, -4.12069559e-02,
          2.22251546e-02, -2.38917843e-02, 1.14966281e-01,
          2.38099359e-02, -1.06317595e-01, 1.42329438e-02,
          -5.44528142e-02, 1.68815210e-01, 6.69745803e-02,
          3.77538130e-02, 3.89185431e-03, -9.95406881e-02,
          -1.71237558e-01, -1.54581829e-03, 9.04534906e-02,
          1.51193365e-01, 5.81388399e-02, -1.21501051e-02,
          2.50777733e-02, -4.71417606e-02, 7.23441169e-02,
          -4.95868083e-03, -1.01249531e-01, -1.84611082e-02,
          7.08120912e-02, 2.96465289e-02, 1.34528661e-02,
          -3.13097276e-02, -3.35373469e-02, -2.32971106e-02,
          4.75315079e-02, -1.48814917e-01, 8.55316818e-02,
          9.58653614e-02, 4.95072827e-03, -3.90517414e-02,
          -4.10708226e-02, 1.80392563e-02, 4.15134169e-02,
          -3.73092368e-02, 3.01016942e-02, 1.35173917e-01,
          1.01858526e-01, -4.11362872e-02, -1.30257220e-04,
          1.63835604e-02, -2.68842168e-02, -4.44203652e-02,
          -5.15457913e-02, 4.13151383e-02, -6.56412542e-02,
          -7.62762725e-02, 6.73213601e-02, 6.48467010e-03,
          3.86340804e-02, 1.80181917e-02, 2.32026372e-02,
          -4.85595055e-02, 9.40236375e-02, 6.88882545e-02,
          -6.30174344e-03, 2.90823588e-03, -7.09455609e-02,
          -7.98034109e-03, 1.54718272e-02, -3.05989408e-03,
          -2.98418496e-02, -2.47806907e-02, 3.77726555e-02,
          2.47533969e-03, 6.41704202e-02, -4.25512344e-02,
          -5.37668206e-02, 7.27937277e-03, 9.11295637e-02,
          4.12813984e-02, -2.95718573e-02, -1.85512602e-02,
          6.82644397e-02, 1.37784965e-02, -6.03642724e-02,
          2.06230879e-02, -3.35633904e-02, -5.73552661e-02,
          -7.89501220e-02, -2.11652927e-02, 2.92305369e-02,
          -9.32561979e-02, 1.93619716e-03, -5.12768589e-02,
          4.36115079e-02, 5.19012921e-02, 2.60495283e-02,
          -2.16143690e-02, -2.14914400e-02, -6.85085356e-02,
          -6.16522804e-02, 4.56026942e-02, -8.60003941e-03,
          -1.00106917e-01, -8.67045969e-02, 1.18602082e-01,
          3.64652462e-02, 6.43650861e-03, -5.95896617e-02,
          1.89519357e-02, 1.23309530e-02, 5.68546578e-02,
          -7.31163397e-02, 3.07032019e-02, -1.52483932e-04,
          -1.00738071e-01, -4.56420630e-02, -3.31946500e-02,
          -5.33699282e-02, -1.76292490e-02, -7.85126016e-02,
          -6.86594993e-02, -1.16435364e-01, 6.73839748e-02,
          -5.18800281e-02, 6.58170925e-03, -1.69640303e-01,
          -1.24062292e-01, -3.87027748e-02, -1.05156206e-01,
          -7.54242167e-02, -8.70397091e-02, -7.94741735e-02,
          -8.63367394e-02, 3.03903576e-02, -8.03176314e-02,
          6.98575610e-03, 2.59812525e-03, -4.12484072e-02,
          -1.21078461e-01, -1.71174183e-01, -1.55722219e-02,
          -8.76616538e-02, -3.14474180e-02, 1.41852140e-01,
          1.51303597e-02, -7.27333277e-02, 5.33938482e-02,
          4.01844941e-02, -3.07521895e-02, 9.71909761e-02,
          -1.79354459e-01, 6.26701489e-02, 1.66615859e-01,
          3.11416108e-02, 7.61372522e-02, -7.23826587e-02,
          -2.14985069e-02, -1.38025418e-01, 6.19283468e-02,
          -1.13731928e-01, -1.90743692e-02, 7.04233199e-02,
          1.26699865e-01, 6.81090951e-02, 7.58035108e-02, 1.35873571e-01,
          7.93705210e-02, -5.48679605e-02, -5.16643822e-02,
          5.74333332e-02, 9.28109735e-02, 3.35088111e-02, 5.38144521e-02,
          8.60108882e-02, 1.26422405e-01, -4.38723527e-02,
          -1.11477040e-01, -7.06116632e-02, -3.83280888e-02,
          -3.07203401e-02, -3.53724808e-02, 1.08529992e-01,
          2.63167117e-02, -2.66716862e-03, 6.23267144e-02,
          -6.61097392e-02, 1.26170427e-01, 3.76285054e-02,
          6.22378327e-02, 1.60776172e-02, 3.17965262e-02, 2.55815089e-02,
          -1.29226059e-01, -1.66575462e-01, -1.06412888e-01,
          -4.98127975e-02, 9.56964418e-02, -4.80412617e-02,
          -3.33458073e-02, 4.08376306e-02, 3.44853010e-03,
          -1.74789671e-02, -4.38079126e-02, 8.40945691e-02,
          3.26254927e-02, -1.28453169e-02, -1.18606448e-01,
          -7.06462115e-02, 8.30557644e-02, 9.92472768e-02,
          1.47650233e-02, 3.08756214e-02, -6.04391024e-02,
          -4.88145789e-03, -9.16443393e-02, 3.08518838e-02,
          3.95282432e-02, -5.57511076e-02, -8.79965350e-02,
          3.16029452e-02, -5.89817055e-02, -3.87977026e-02,
          -4.02361937e-02, -4.02919352e-02, 3.31933685e-02,
          -4.41035181e-02, 7.48501569e-02, 5.63574880e-02,
          4.26498428e-02, 6.77632987e-02, 8.77136663e-02, 9.33915551e-04,
          -9.89541784e-02, -1.18295439e-01, -3.61298174e-02,
          -3.38561386e-02, -1.65214613e-01, 8.75348300e-02,
          1.17721641e-02, -6.43390119e-02, 9.56644956e-03,
          -1.91769507e-02, -5.74779026e-02, -1.31147757e-01,
          2.04428155e-02, -1.37645155e-01, -5.89792542e-02,
          -3.99060501e-03, -2.09279452e-02, 4.25465479e-02,
          1.79953098e-01, 1.01655684e-01, 5.52019216e-02, 4.59157042e-02,
          -7.19548762e-02, 2.52876300e-02, -7.18668615e-03,
          -1.20849069e-02, 2.17833798e-02, 9.97871459e-02,
          5.13795167e-02, 3.25636864e-02, 1.02604842e-02,
          -2.61086047e-01, 1.38580045e-02, -6.33148029e-02,
          -2.01727934e-02, -1.43916737e-02, -3.33582796e-02,
          -6.15576394e-02, -7.38362744e-02, 3.72230634e-02,
          -1.20358363e-01, -8.52381513e-02, -7.10781217e-02,
          7.23345391e-03, -9.18645188e-02, -6.10891879e-02,
          1.45099601e-02, -5.87575091e-03, -1.03255054e-02,
          2.43971478e-02, 1.14203095e-02, -2.61876509e-02,
          2.20238138e-03, 1.57623067e-02, 1.60172898e-02,
          -4.57817316e-02, -2.19956525e-02, -6.28170073e-02,
          3.91477672e-03, -2.01759487e-02, -1.37824446e-01,
          -2.81306226e-02, -2.35281140e-02, -1.26137272e-01,
          1.21121379e-02, -6.37915656e-02, 2.30336785e-02,
          -2.99901292e-02, 2.43056212e-02, -8.68668687e-03,
          7.27693364e-03, -6.78313822e-02, -6.09707721e-02,
          2.43852362e-02, 1.97985042e-02, 3.96563485e-02, 1.35999711e-04,
          5.27700633e-02, -1.37897298e-01, -5.42476512e-02,
          -1.08843133e-01, -1.15968927e-03, 5.66869676e-02,
          -7.75616020e-02, -7.06295520e-02, 1.35261873e-02,
          1.45446375e-01, 8.33599418e-02, 2.15869937e-02, 7.53274560e-02,
          8.69585797e-02, 2.27305684e-02, -2.29344312e-02,
          -7.44196251e-02, -3.11310180e-02, 7.33173937e-02,
          1.37846004e-02, -1.07297756e-01, 6.15692101e-02,
          1.55817091e-01, 3.65619473e-02, -7.96107501e-02,
          2.69768666e-02, -2.34687664e-02, 5.64888977e-02,
          -6.90310150e-02, -1.98823720e-01, -8.74176919e-02,
          -8.52886215e-03, 2.89821699e-02, 2.55238917e-02,
          -4.24052440e-02, -1.70685887e-01, 1.25320882e-01,
          -2.96805799e-03, -9.41337198e-02, -1.53534293e-01,
          4.25752141e-02, 7.52382725e-02, -5.03723398e-02,
          -9.36707035e-02, 5.05808704e-02, 1.37219265e-01,
          -8.22156221e-02, -1.22269794e-01, 4.60860394e-02,
          -2.78444421e-02, 4.68465574e-02, 2.01657247e-02,
          -3.76812965e-02, -2.13764072e-03, 5.36795594e-02,
          -2.09052235e-01, -2.27056853e-02, 3.22548635e-02,
          -6.10931925e-02, -3.25759090e-02, -1.74778365e-02,
          -4.76265140e-03, -1.59156807e-02, 9.71658528e-02,
          3.28259505e-02, -1.19563490e-01, -8.00255165e-02,
          -1.34500014e-02, 8.41975212e-02, 5.26635200e-02,
          7.53505081e-02, -1.10564105e-01, 6.98634237e-02,
          -9.45812315e-02, -1.71788231e-01, -1.58631667e-01,
          3.41315009e-02, 9.22830179e-02, 6.23339079e-02, 1.58243235e-02,
          6.02862760e-02, 1.10984810e-01, -1.65189188e-02,
          -4.17785645e-02, -4.34140377e-02, -5.62835522e-02,
          5.02430908e-02, 3.06980088e-02, -2.67909020e-02,
          -9.33449417e-02, -5.86461537e-02, 1.81661192e-02,
          -3.28254662e-02, 6.70993403e-02, 1.38866510e-02,
          1.54795706e-01, 2.80732457e-02, 4.19755094e-02,
          -6.33930787e-02, -2.59542856e-02, 4.19088155e-02,
          -1.90675480e-03, -1.33305088e-01, 3.81160416e-02,
          6.51935264e-02, -1.07429512e-01, 1.09631009e-01,
          -3.36331874e-02, -6.18019812e-02, -2.48330310e-02,
          -1.62682459e-01, -5.16434200e-02, 6.14475310e-02,
          9.83372256e-02, -4.36033905e-02, -3.75415199e-02,
          1.33673614e-02, 6.83092186e-03, -3.62968557e-02,
          -3.80077995e-02, 1.78837925e-02, -6.06335923e-02,
          -2.16466933e-03, -4.74881269e-02, -9.99768823e-02,
          6.34713396e-02, 8.95247683e-02, -1.05705336e-02,
          -5.33252135e-02, -8.47512856e-02, 4.38513681e-02,
          1.11545540e-01, -6.69213943e-03, 4.04432341e-02,
          -2.52974574e-02, 9.66167077e-02, 1.86285516e-03,
          -1.36802286e-01, -7.03224614e-02, -4.77540530e-02,
          -4.67784517e-02, -1.27909482e-01, 2.55195014e-02,
          -1.84318218e-02, 9.15013775e-02, 4.97337319e-02,
          -1.70046519e-02, 3.73134650e-02, -4.80737612e-02,
          7.31152445e-02, -4.59100418e-02, -1.47500634e-01,
          7.17912763e-02, 9.73444209e-02, 8.43948945e-02,
          -4.75461483e-02, -5.24311736e-02, 5.90100698e-02,
          1.14132553e-01, 3.17177176e-02, -2.13997271e-02,
          1.85155557e-04, -1.18862335e-02, -1.53135091e-01,
          -1.02047496e-01, -5.83768524e-02, -6.61706924e-02,
          4.50753979e-02, 3.64724547e-02, -4.74716388e-02,
          -7.89024401e-03, -2.99683195e-02, -3.67407338e-03,
          -2.18899250e-02, 2.81863548e-02, -4.86898609e-02,
          -1.52704986e-02, -5.88447824e-02, -1.10682495e-01,
          -1.14748225e-01, -5.81946317e-03, -1.99373290e-01,
          -1.04195684e-01, 2.74825748e-02, 1.00354746e-01,
          4.34538312e-02, -1.85067877e-01, -1.07380059e-02,
          -7.06388205e-02, -5.65369651e-02, -1.05391875e-01,
          -3.55668589e-02, -4.28512059e-02, 4.05079778e-03,
          -1.24346502e-01, 1.23194568e-01, -1.67562086e-02,
          -2.23950371e-02, 2.76994146e-02, -1.03295423e-01,
          -1.64729983e-01, -1.30630732e-01, 7.99934417e-02,
          1.28959352e-02, 7.24561810e-02, -8.79771113e-02,
          -1.47227883e-01, -8.39159340e-02, 6.74471725e-03,
          -5.16357683e-02, 4.82292026e-02, 1.26884028e-01,
          -1.23124234e-01, -3.38222049e-02, 2.79970444e-03,
          -4.70884442e-02, -8.33958611e-02, -6.92246035e-02,
          -5.61924502e-02, 6.96955547e-02, 1.89212486e-01,
          -8.14142600e-02, 4.02544402e-02, -1.01264104e-01,
          -1.84166450e-02, 9.74530205e-02, 2.75564883e-02,
          -1.87677562e-01, -1.79517671e-01, 7.73321092e-02,
          6.22368306e-02, 1.19834766e-01, -2.06945851e-01,
          -7.49371946e-02, 8.88317153e-02, 1.70759987e-02,
          6.72161356e-02, -6.15251996e-02, 9.35944021e-02,
          1.71519965e-02, -4.51505557e-02, -4.05534655e-02,
          -4.93289009e-02, 2.15375237e-02, -4.88975272e-03,
          -1.59013327e-02, 1.04723992e-02, 3.89238745e-02,
          1.09707691e-01, 3.59143652e-02, -1.06380560e-01,
          -3.01977526e-02, 9.83093455e-02, 2.55127456e-02,
          8.69492069e-02, -4.23142686e-02, 9.57323387e-02,
          4.43115905e-02, -3.40629220e-02, -1.47553250e-01,
          -1.00195818e-01, 5.60277775e-02, 4.60529067e-02,
          -5.02239875e-02, -6.88167708e-03, -2.32497901e-02,
          1.93116989e-03, -1.13600507e-01, -9.29893181e-02,
          2.88572218e-02, -1.50044041e-03, -8.92366171e-02,
          -1.09328479e-01, -5.42715117e-02, 4.24517319e-02,
          1.09101245e-02, -1.14905067e-01, -1.00032836e-01,
          -1.00513361e-01, 6.32606000e-02, 3.53349410e-02,
          4.51920889e-02, -3.13081704e-02, 1.21754251e-01,
          1.12001203e-01, 7.66608790e-02, -5.85999452e-02,
          -4.91776764e-02, 8.01913142e-02, -7.78113902e-02,
          2.04614047e-02, 2.64469068e-02, 1.77411720e-01, 1.24587223e-01,
          3.66485678e-02, 5.61529174e-02, 1.90838892e-02, 2.57057957e-02,
          -1.09594986e-01, -9.49824601e-02, -6.01086654e-02,
          2.58109942e-02, 3.05878259e-02, -1.40523398e-02,
          7.72736743e-02, -1.41806295e-02, 1.12366684e-01,
          2.12053992e-02, -1.62936240e-01, -1.40735880e-01,
          2.66027022e-02, -8.90641566e-03, 1.41598452e-02,
          -3.87035939e-03, -4.99166511e-02, 8.88201371e-02,
          -6.55343607e-02, 7.68351108e-02, 7.89136887e-02,
          1.27527431e-01, 3.24607790e-02, 1.14373630e-02,
          -1.28238481e-02, -1.22453831e-01, -9.14797746e-03,
          6.35527000e-02, -9.05286074e-02, -5.26626371e-02,
          8.59667808e-02, -9.21923444e-02, 1.60826575e-02,
          -6.89688651e-03, -3.60946320e-02, -4.87013161e-03,
          -8.55285227e-02, -1.09880798e-01, -1.19204350e-01,
          4.46722917e-02, -4.57893778e-03, -9.60100628e-03,
          5.61711022e-05, -9.19258446e-02, -1.21812876e-02,
          -3.47058736e-02, -4.86505665e-02, -6.23639897e-02,
          2.67112013e-02, 5.59934676e-02, -7.50207994e-03,
          -9.45478156e-02, -3.60269211e-02, -7.57505968e-02,
          -5.88961951e-02, 4.46583740e-02, -7.47759715e-02,
          8.86189714e-02, 2.36155614e-02, 2.64502075e-02,
          -7.26961438e-03, 5.26756682e-02, -1.75191890e-02,
          -4.94218024e-04, 9.58999097e-02, 7.59414807e-02,
          1.57597587e-01, 2.59518977e-02, -1.21657299e-02,
          4.61440869e-02, -1.01095319e-01, 8.05929452e-02,
          2.70132069e-03, 1.60858352e-02, -5.17822318e-02,
          -5.53992987e-02, -1.07587073e-02, 4.31813411e-02,
          -4.80357856e-02, 4.45693498e-03, 6.90492988e-02,
          8.24066475e-02, -9.13085416e-02, 5.34316758e-03,
          3.40975262e-02, 1.08153932e-01, -7.83026814e-02,
          4.73295599e-02, 6.34270981e-02, 1.07122183e-01, 1.02722477e-02,
          -9.63683054e-03, 1.78783003e-03, 2.31516007e-02,
          -9.42193046e-02, -1.04970243e-02, 5.85429661e-04,
          3.91767882e-02, 1.56114623e-01, 1.19674113e-02,
          -3.25543582e-02, -1.01400070e-01, -1.93326008e-02,
          1.17533147e-01, -9.20477062e-02, -2.90057212e-02,
          3.90815549e-02, 2.47811843e-02, -1.54461175e-01,
          -2.04425693e-01, -6.07858188e-02, 5.97111247e-02,
          -6.67459965e-02, -6.34309426e-02, 2.89281597e-03,
          2.24678181e-02, 5.59938923e-02, -6.40984625e-02,
          -2.46024858e-02, 5.61926961e-02, -1.29989116e-02,
          -5.28275296e-02, -3.06271762e-03, -2.31609568e-01,
          -3.33759412e-02, 1.17252924e-01, -1.59501135e-02,
          -7.92495310e-02, -6.83201104e-02, -1.17666335e-04,
          2.25821212e-02, -7.57203624e-02, -4.63072322e-02,
          3.38002816e-02, 1.82203744e-02, -7.14894235e-02,
          -6.80952072e-02, 1.69208329e-02, 1.31028155e-02,
          7.84714222e-02, -5.92974573e-03, -2.07561124e-02,
          2.36770976e-02, -2.48830393e-02, -3.29769924e-02,
          -1.17046498e-01, 6.13267813e-03, -1.86142717e-02,
          -3.07110343e-02, -2.74290275e-02, -8.29286203e-02,
          -1.24941990e-01, 1.27508827e-02, -7.12869391e-02,
          -1.19853377e-01, -1.15695158e-02, 4.46072593e-02,
          3.00588012e-02, -1.94040164e-01, 4.15417627e-02,
          2.22733952e-02, 1.53712314e-02, -1.13063633e-01,
          -1.94507670e-02, -1.44907879e-02, 1.84326172e-02,
          1.96328759e-02, 2.65261400e-02, -6.57128766e-02,
          5.74716888e-02, 7.31916204e-02, 4.35182527e-02, 2.47377269e-02,
          -9.34183598e-02, -5.75332269e-02, -1.25636891e-01,
          -1.30297199e-01, 5.83916949e-03, -1.55753568e-01,
          1.13670062e-02, -2.77296230e-02, -2.78225727e-02,
          -2.63721310e-02, -1.90961286e-02, -1.18425973e-02,
          -8.57653022e-02, 6.27996325e-02, -1.48548543e-01,
          -4.09486517e-02, -1.00987464e-01, -8.83766785e-02,
          -1.19191378e-01, -8.75506252e-02, 6.30891556e-03,
          5.32415882e-02, 1.09669596e-01, 5.98704070e-02, 4.19891216e-02,
          1.50758728e-01, 7.48162270e-02, -2.64895074e-02,
          7.00431019e-02, -4.83461656e-02, 1.17134020e-01,
          7.02264160e-02, 6.30310178e-02, 3.76421586e-02, 1.07547734e-02,
          -4.12546210e-02, -1.02055199e-01, -3.61952819e-02,
          -1.50937187e-02, 3.33366431e-02, 7.04347864e-02,
          -3.41769159e-02, -1.11780435e-01, -6.36234274e-03,
          -3.80962752e-02, -1.94548368e-02, -4.49082889e-02,
          9.04764682e-02, 1.25716314e-01, -3.37331444e-02,
          -6.49402067e-02, -6.77798763e-02, -5.48787788e-02,
          -4.72254306e-02, -4.05429564e-02, -7.07592741e-02,
          -1.04278186e-02, -5.49808964e-02, 4.72716391e-02,
          -3.42082611e-04, -4.92443405e-02, -2.34824717e-02,
          -1.82059836e-02, 2.54898751e-03, -5.03900647e-02,
          4.29248102e-02, 3.77395749e-02, -6.27153665e-02,
          -4.54201810e-02, -6.70728758e-02, -1.72354892e-01,
          -7.32671693e-02, 9.40146744e-02, -1.09472843e-02,
          1.06612593e-02, 1.21714000e-03, -9.96938646e-02,
          -1.07592419e-02, 9.60938856e-02, 1.38419569e-02,
          -6.97987601e-02, -4.84586209e-02, -2.86983270e-02,
          -2.26652529e-02, 8.30962695e-03, -5.42704575e-02,
          -8.26635733e-02, 1.23888455e-01, 6.00133240e-02,
          2.32616123e-02, 1.18753230e-02, -8.37534964e-02,
          -5.54122739e-02, -6.70695975e-02, -4.57735881e-02,
          -6.34110421e-02, -5.92270456e-02, -1.10903360e-01,
          -2.77128238e-02, 7.33532086e-02, 2.95307785e-02,
          2.31624879e-02, 1.31754443e-01, 3.76086757e-02, 4.16454561e-02,
          1.41383624e-02, -9.34816003e-02, 9.46497917e-02,
          -1.30926594e-02, -6.39037564e-02, 1.55957891e-02,
          3.48839127e-02, -5.79013303e-02, -7.93559328e-02,
          6.62019476e-02, 6.49793819e-02, -3.41213383e-02,
          -5.48939593e-02, -1.40656158e-01, -1.33213969e-02,
          1.28889335e-02, 5.70038185e-02, -1.03855086e-02,
          1.57496974e-01, -4.83590830e-03, -6.62307367e-02,
          -1.23056069e-01, 1.19503401e-01, 1.28810599e-01,
          1.44804418e-01, 4.43281755e-02, -4.90657054e-02,
          7.50003606e-02, 1.75937656e-02, -7.67107541e-03,
          -4.26458828e-02, -1.76439941e-01, -6.08737394e-02,
          8.67989734e-02, 8.90510529e-02, 5.91065036e-03, 2.32675523e-02,
          -3.07003800e-02, 8.48195031e-02, 1.68753769e-02,
          -3.76457162e-02, 5.03026880e-02, 1.49508059e-01,
          1.74041484e-02, 2.85949204e-02, 1.09800540e-01, 8.48633125e-02,
          -2.90922751e-03, -4.29995321e-02, 1.60827503e-01,
          8.24135169e-02, -3.08662038e-02, 1.08747132e-01,
          2.12059841e-02, -8.56348500e-02, 1.09771350e-02,
          2.52756756e-02, 9.60311145e-02, 2.32176304e-01,
          -5.53863682e-02, -1.41262650e-01, -9.46140885e-02,
          6.41068593e-02, 1.61796123e-01, -1.01494258e-02,
          -6.10073889e-03, 2.72401888e-03, 3.74357551e-02,
          5.47251105e-02, -4.89178114e-02, -4.14422043e-02,
          -1.93951689e-02, 9.81432498e-02, -7.49648064e-02,
          3.78055573e-02, -3.17734815e-02, 6.75927401e-02,
          -5.84267341e-02, -1.89236656e-01, 4.03166488e-02,
          2.00284217e-02, 6.51157945e-02, 4.20456827e-02, 3.81970257e-02,
          -3.89314890e-02, 8.11774582e-02, -9.18061137e-02,
          -2.41647482e-01, 1.21694431e-01, 1.98395308e-02,
          8.86818245e-02, 2.24247153e-04, 4.81562130e-02,
          -3.63741294e-02, 7.04490468e-02, 9.80692450e-03,
          -5.73182516e-02, -4.66405712e-02, 8.80332850e-03,
          -5.50333448e-02, -8.36546049e-02, -3.28566559e-04,
          -1.26731589e-01, 6.41794056e-02, 4.98863570e-02,
          -9.24471244e-02, 1.49027288e-01, 7.35266730e-02,
          -4.31737397e-03, -6.36268556e-02, 4.89830077e-02,
          -2.12760027e-02, 3.76831554e-02, 3.40243317e-02,
          -4.66994718e-02, -1.96195953e-02, 1.80465297e-03,
          1.62385330e-02, -3.88307795e-02, 5.33088669e-02,
          -4.38228585e-02, -5.81208952e-02, 2.79247519e-02,
          -8.21961556e-03, -5.23862913e-02, -1.60748940e-02,
          5.63695431e-02, -5.00097014e-02, -7.76136741e-02,
          1.09455675e-01, 5.78098893e-02, 3.04861646e-02,
          -8.56765136e-02, 1.44564323e-02, -1.51672428e-02,
          -2.11047125e-03, -7.02985078e-02, 4.94661517e-02,
          -1.01328478e-03, -7.79897422e-02, -1.23179622e-01,
          -1.00557834e-01, -2.21049190e-02, 2.86876777e-04,
          1.15059808e-01, 4.57308330e-02, -4.59227636e-02,
          -4.59747715e-03, 2.44082939e-02, -6.78280592e-02,
          -1.52463913e-01, -1.31753674e-02, -7.15309754e-02,
          -1.83496680e-02, 4.81278673e-02, -6.34885654e-02,
          1.98659375e-02, -3.15241292e-02, -1.07972853e-01,
          -1.34642506e-02, 6.28808215e-02, 1.47260574e-03,
          -8.42379704e-02, 5.34171090e-02, -3.37086506e-02,
          3.63322310e-02, -6.25118390e-02, -1.13850065e-01,
          2.24635322e-02, -1.23555534e-01, -1.16502224e-02,
          7.99908042e-02, 1.30448237e-01, -2.13575158e-02,
          -5.27580604e-02, -2.43717730e-02, -3.61927859e-02,
          -1.33075953e-01, -9.38470587e-02, -2.56621707e-02,
          6.12630770e-02, -4.53611128e-02, 2.23770496e-02,
          -6.82558864e-02, 3.16457897e-02, 2.34800559e-02,
          4.86788750e-02, -7.66525939e-02, -1.99236590e-02,
          2.05478426e-02, 6.94044083e-02, -3.21362503e-02,
          1.04157858e-01, 8.16477016e-02, 5.33871017e-02,
          -1.82814039e-02, -1.67414192e-02, 2.27549989e-02,
          1.51195094e-01, 1.03167690e-01, 5.74008599e-02, 6.24574348e-02,
          9.31519084e-03, -4.32447754e-02, -2.76193339e-02,
          -9.11250338e-02, -1.12755410e-01, 8.31068978e-02,
          -3.96142192e-02, -5.71859106e-02, -1.65202785e-02,
          1.17949843e-01, -2.73415744e-02, -2.47354712e-02,
          -5.30482195e-02, -1.88083984e-02, 1.53311312e-01,
          1.00201443e-01, 1.21201612e-01, 6.76324731e-03,
          -4.76736128e-02, -1.20273352e-01, -2.03456968e-01,
          -1.47293225e-01, -7.29013979e-02, 4.96460637e-03,
          -5.08326106e-02, -1.56026194e-02, 1.60633735e-02,
          -1.93564799e-02, 8.65847431e-03, 8.10561236e-04,
          -5.42418025e-02, -3.10417991e-02, 6.78977072e-02,
          2.85625663e-02, -1.74180448e-01, 2.31223609e-02,
          1.14257812e-01, 1.20983131e-01, 1.55820865e-02,
          -3.66941020e-02, 4.86971624e-02, 7.70950243e-02,
          2.02700328e-02, 1.40347719e-01, -1.02879539e-01,
          -9.65353101e-02, -1.01097934e-01, -9.15318057e-02,
          2.05073017e-03, 6.22696951e-02, 4.58442606e-02,
          -1.85564589e-02, -7.63120428e-02, -3.63929942e-02,
          -2.25091726e-02, 5.10666668e-02, -1.79718658e-02,
          -7.83014670e-02, -2.10861191e-02, 1.24584131e-01,
          8.87260437e-02, 5.93302911e-03, -5.39357541e-03,
          3.61317582e-02, 1.85378443e-03, -3.34483273e-02,
          -1.49124309e-01, -9.71194655e-02, 4.05547731e-02,
          9.35029015e-02, -1.37630194e-01, -4.15945016e-02,
          4.69901077e-02, -6.82880282e-02, -7.49929994e-02,
          6.39556274e-02, -1.28905652e-02, 2.46451497e-02,
          -4.15839255e-02, -6.54857904e-02, -4.44368981e-02,
          -1.05129043e-02, -2.69642845e-02, -6.91952556e-02,
          -3.00107580e-02, -4.16897200e-02, -7.62851210e-03,
          -2.83500738e-02, 4.31052921e-03, 8.02826323e-03,
          9.98340081e-04, -8.06099623e-02, 3.23711010e-03,
          -1.33933783e-01, -4.60747071e-02, -1.02551095e-02,
          3.26239504e-02, 4.99525527e-03, 1.55305052e-02, 3.43225598e-02,
          2.66481489e-02, -3.38218361e-02, -5.35550676e-02,
          7.13655502e-02, -6.49294108e-02, 3.48378047e-02,
          -5.97679354e-02, 7.51220807e-02, 9.47265103e-02,
          1.29944161e-01, -1.41801573e-02, -1.65565014e-02,
          -1.09186920e-03, -5.13131022e-02, 3.79805751e-02,
          -7.24190730e-04, 2.74456590e-02, -4.74349931e-02,
          -3.55668589e-02, -3.66674587e-02, -7.85646066e-02,
          2.39951331e-02, -1.27294334e-02, 1.25909355e-02,
          -1.24912253e-02, -1.71038359e-02, -5.04553169e-02,
          4.53041382e-02, 1.53536135e-02, -3.23186703e-02,
          6.47100359e-02, 3.03343926e-02, 3.12183406e-02,
          -1.54432170e-02, -1.68529544e-02, 3.92276272e-02,
          -4.72920452e-04, -2.01233872e-03, -6.94525018e-02,
          4.28516530e-02, 8.18021372e-02, -5.24998866e-02,
          1.61642320e-02, -2.21508201e-02, 9.01149660e-02,
          1.55913487e-01, -1.78807471e-02, -3.57786044e-02,
          1.34148560e-02, 6.94638118e-02, 1.14049902e-02,
          -8.28923658e-02, -1.35230526e-01, -1.21190818e-02,
          3.68169881e-02, 9.06999502e-03, -1.05198033e-01,
          8.43956321e-02, 6.02941997e-02, -1.09546825e-01,
          -2.60541253e-02, 1.75890960e-02, 5.89659587e-02,
          2.25020066e-01, 5.16272709e-02, -1.30607277e-01,
          1.71348657e-02, -4.36806353e-03, 4.94312728e-03,
          6.15728647e-03, -1.50160387e-01, 3.38071585e-03,
          -1.58539112e-03, -1.17549539e-01, 5.63249737e-03,
          4.59077843e-02, 7.43820444e-02, -6.60033152e-02,
          -1.20793931e-01, -1.00608282e-01, -5.17537557e-02,
          -1.17182046e-01, -2.54170131e-03, -4.23446894e-02,
          -7.00351447e-02, 3.85509268e-03, 3.02095208e-02,
          1.00016013e-01, 8.29271302e-02, 5.94915524e-02, 1.10017829e-01,
          1.85810670e-03, -3.15479115e-02, 2.57240888e-02,
          -1.04189217e-02, 2.14709509e-02, 2.08093077e-02,
          -3.77607718e-02, -1.06982794e-02, -9.25007537e-02,
          1.43751070e-01, 7.89370015e-02, 6.01813681e-02, 5.22695296e-02,
          -5.49823307e-02, -9.20139700e-02, -4.01837826e-02,
          -7.36386105e-02, -7.92210475e-02, 3.74860363e-03,
          -4.54789102e-02, 6.58007190e-02, 2.92800013e-02,
          -5.24793044e-02, 1.48508281e-01, -1.91723127e-02,
          -2.85552293e-02, -1.30408451e-01, -7.67058060e-02,
          -3.65855284e-02, 9.74741951e-02, 4.16821092e-02,
          -1.31180212e-02, 1.34410169e-02, -7.04289675e-02,
          -1.04858086e-01, -2.25685507e-01, 5.88675253e-02,
          -1.36989221e-01, 4.40878980e-02, 4.75583039e-02,
          -4.09735590e-02, 1.78476796e-01, 2.75426488e-02,
          -3.62220071e-02, -2.71905810e-02, -1.32133231e-01,
          1.30625942e-03, 3.49056572e-02, -4.14467417e-02,
          -1.55076373e-03, -1.46723920e-02, 1.16141587e-02,
          -1.12958550e-02, -2.34242436e-02, 8.88777971e-02,
          4.01756503e-02, 1.05264701e-01, 4.94447500e-02, 1.44193256e-02,
          -6.59196973e-02, -8.85219872e-02, -5.56465425e-03,
          -2.69754641e-02, 5.27286902e-02, -2.07564458e-01,
          -9.51746255e-02, 6.71904683e-02, -1.27775343e-02,
          -1.03976637e-01, -5.75180128e-02, -3.08403000e-03,
          5.44956140e-02, 2.70029120e-02, -1.00123651e-01,
          -1.60348769e-02, 1.32311620e-02, -1.43264294e-01,
          -1.24984227e-01, -1.07728034e-01, -5.13920449e-02,
          7.86550343e-02, 1.35366708e-01, 1.04591645e-01, 7.08426163e-02,
          6.24672137e-02, 8.61615092e-02, -3.85389924e-02,
          -4.18634377e-02, 1.56840663e-02, 6.72107469e-03,
          1.17441332e-02, 5.96716553e-02, -1.57802358e-01,
          -1.95868194e-01, -1.53131545e-01, -2.93584932e-02,
          -2.27957349e-02, -9.85134020e-02, -8.92501995e-02,
          -2.12192163e-02, 4.14589681e-02, -5.38897561e-03,
          -9.39197019e-02, 2.99420189e-02, 2.93965098e-02,
          1.02353673e-02, 1.19277798e-02, 1.03001542e-01, 8.72987956e-02,
          1.37848392e-01, -8.34080949e-03, 5.73005415e-02,
          1.32636139e-02, 2.33751431e-01, -3.87328072e-03,
          -4.25478816e-03, -7.65676647e-02, -1.12295961e-02,
          -3.84203456e-02, -4.53546792e-02, -1.06236316e-01,
          -2.41195962e-01, -4.90773916e-02, 1.06400646e-01,
          1.81450676e-02, -2.90452763e-02, 7.39839375e-02,
          -2.87523251e-02, -1.93653125e-02, -5.97152412e-02,
          -1.48146749e-01, 8.58297572e-03, -1.96724851e-02,
          -1.25605747e-01, 1.81200244e-02, 7.93749094e-02,
          7.69534037e-02, 4.85843271e-02, 6.45515472e-02, 1.92617290e-02,
          1.82304844e-01, 2.82828920e-02, 6.57335855e-03,
          -9.61779580e-02, 1.37949018e-02, 6.59184605e-02,
          8.98523331e-02, 1.82024732e-01, 9.52202454e-02, 4.16490175e-02,
          4.72365320e-02, 4.31149676e-02, 7.24565610e-02, 9.65949744e-02,
          7.90313929e-02, -5.21661639e-02, -3.75849791e-02,
          3.95180359e-02, 9.40479934e-02, 8.71778186e-03,
          -9.83297378e-02, 1.34045519e-02, 1.62628919e-01,
          -1.63548545e-03, -1.09700605e-01, -1.21934377e-01,
          4.81148846e-02, 1.29219845e-01, 3.81796770e-02,
          -9.19932798e-02, -3.44252586e-02, 8.67831558e-02,
          7.00467676e-02, 1.04261581e-02, -1.07487313e-01,
          1.32557482e-01, 2.04479918e-01, -1.11954613e-02,
          -6.70532584e-02, 2.49890909e-02, 2.26666227e-01,
          2.62829778e-03, -1.01391308e-01, -1.12704866e-01,
          2.31643662e-01, 2.07673594e-01, 1.66083518e-02,
          -6.60729781e-02, 1.83813013e-02, 2.72927098e-02,
          -4.96889912e-02, 1.56787764e-02, 7.72400647e-02,
          -2.79277451e-02, 8.71353000e-02, -3.34993750e-02,
          -6.75295144e-02, 4.35518660e-02, 3.71013731e-02,
          -5.33410609e-02, 5.57295680e-02, 5.27583584e-02,
          -6.72724545e-02, 3.50090265e-02, -6.05317764e-02,
          -4.80780639e-02, 8.08233917e-02, -1.73195768e-02,
          -5.17945476e-02, -1.54704147e-04, 4.19162102e-02,
          3.66956182e-02, 1.54687315e-01, -2.95393392e-02,
          -2.72004250e-02, 5.00986539e-02, -2.40104869e-02,
          2.91976873e-02, 6.81659207e-03, 3.16302143e-02,
          -3.33419517e-02, -5.57947867e-02, -1.20155379e-01,
          -5.78045063e-02, 4.37932983e-02, -7.45155886e-02,
          -4.83331941e-02, 2.54605394e-02, -1.02275489e-02,
          -1.13267072e-01, -1.32944286e-01, -1.49402767e-01,
          -9.65428166e-03, 6.48811311e-02, -3.05707809e-02,
          1.45804644e-01, 1.18550502e-01, 1.24438675e-02,
          -2.59088781e-02, -6.02848493e-02, -5.03351279e-02,
          3.92054021e-02, 4.08348404e-02, 6.37123436e-02,
          -8.46056715e-02, -6.64926600e-03, -1.04965769e-01,
          6.89185783e-02, 2.85421014e-02, 1.03507545e-02, 5.51290810e-02,
          3.43694761e-02, -1.89715177e-02, -1.23949954e-02,
          -5.36070205e-02, -5.79823442e-02, 1.11107517e-03,
          1.31813912e-02, 1.00169800e-01, 8.81040394e-02, 5.01572005e-02,
          6.86101690e-02, 5.38602583e-02, -8.26030672e-02,
          -6.37078658e-02, -1.98548585e-01, 7.06408918e-02,
          2.04867199e-02, -3.37468134e-03, -3.65465134e-02,
          -7.46644940e-03, 6.57956153e-02, -8.12575147e-02,
          -5.62734343e-02, -1.67877704e-01, 7.62748942e-02,
          -4.68294881e-02, 3.21066901e-02, -2.73275003e-02,
          -3.22370306e-02, 4.66416217e-02, -1.42676607e-02,
          -7.01979175e-02, -7.61114955e-02, -3.62099111e-02,
          -6.28582463e-02, -7.40318745e-02, 4.69134469e-03,
          -1.07169107e-01, -7.21378718e-03, -1.94039512e-02,
          -7.56795108e-02, 2.94738822e-02, -8.66550487e-03,
          -9.86461937e-02, 5.70065016e-03, 7.01881424e-02,
          3.81522588e-02, 1.04139615e-02, 4.97740731e-02, 3.26705375e-03,
          3.43015231e-02, 8.00250769e-02, -1.41073018e-02,
          6.64405078e-02, -4.43659024e-03, -9.76262912e-02,
          -3.57381925e-02, 4.40722890e-02, 7.94811100e-02,
          -1.87359117e-02, -2.25145090e-02, -5.14603257e-02,
          3.42460759e-02, -3.35820690e-02, 1.39798680e-02,
          2.46312320e-02, -1.23573663e-02, 1.23140803e-02,
          1.61921009e-02, 7.25386962e-02, -5.87106273e-02,
          -6.30478095e-03, 5.60660809e-02, -3.70010063e-02,
          7.34230801e-02, 4.28866558e-02, -4.65426594e-02,
          -8.99456590e-02, -6.95204884e-02, -1.13443486e-01,
          1.12209367e-04, -6.28933981e-02, -5.11261709e-02,
          -4.59902212e-02, 2.04052106e-02, 1.30220130e-01,
          -5.55533431e-02, 1.22774718e-02, -6.97216466e-02,
          -2.99417600e-03, -6.68777749e-02, 5.35761230e-02,
          -3.32585834e-02, 1.02047930e-02, 1.53995410e-01,
          3.46439444e-02, -2.34212633e-02, 3.34175415e-02,
          -4.17607240e-02, 1.47745674e-02, -1.13665186e-01,
          7.31223226e-02, -3.03521343e-02, 5.35655878e-02,
          -1.83119670e-01, -8.26207250e-02, -4.92162928e-02,
          -9.24363080e-03, -9.28847492e-02, -1.12938464e-01,
          2.10583359e-02, -6.73398823e-02, 5.99547736e-02,
          -1.08677834e-01, 7.44522223e-03, 2.54140198e-02,
          -8.03893134e-02, 4.02446352e-02, 6.06758296e-02,
          1.26621686e-02, 1.42719923e-02, 9.05280188e-02, 4.50839400e-02,
          -1.27808657e-02, -6.66297376e-02, -2.20145322e-02,
          8.36366846e-04, 1.68341666e-03, 7.79904798e-02, 3.61985154e-02,
          6.00673482e-02, 4.26651649e-02, 1.21346831e-01,
          -5.80728352e-02, 4.07298617e-02, 9.65023041e-02,
          5.46436943e-02, 3.19120213e-02, -8.87047723e-02,
          -4.44617271e-02, -1.33371547e-01, 4.05186340e-02,
          -7.36790448e-02, 7.42297387e-03, -1.14018535e-02,
          2.43348926e-02, -4.17654105e-02, -1.40420152e-02,
          -6.29256368e-02, -1.31280631e-01, 1.24221250e-01,
          -6.25232905e-02, -4.59065065e-02, -2.32255310e-02,
          -4.11718749e-02, 5.13413325e-02, -2.31321119e-02,
          3.29539739e-02, -1.19992939e-03, 6.87865466e-02,
          1.34911072e-02, 5.16671948e-02, 2.89108567e-02, 1.01034947e-01,
          7.82258585e-02, 4.36875001e-02, -3.41120153e-03,
          2.63725147e-02, 1.19966835e-01, 6.45209849e-02, 3.36776078e-02,
          -4.42765243e-02, 6.83898479e-02, -6.48729727e-02,
          -5.09908795e-02, -6.12862501e-03, -1.35673702e-01,
          7.79885501e-02, -5.39070182e-02, 6.09435290e-02,
          4.70962599e-02, -3.51499133e-02, 1.13849424e-01,
          8.07823390e-02, -1.26352198e-02, -1.44406632e-01,
          6.56650662e-02, -1.23447152e-02, 3.63851525e-02,
          -5.62287271e-02, 1.19760267e-01, -1.64918210e-02,
          7.88942575e-02, -2.28489507e-02, 5.50973937e-02,
          2.12501641e-02, 6.57692226e-03, -5.02495049e-03,
          -9.91152041e-03, -4.44122441e-02, -5.14590889e-02,
          9.86847952e-02, 1.65690295e-02, 5.21205142e-02, 6.15699962e-02,
          -1.32519677e-02, -6.99576065e-02, -7.15875020e-03,
          -1.06705546e-01, 2.66508181e-02, 1.19309783e-01,
          -1.18367098e-01, -9.36995372e-02, -8.74026865e-03,
          -4.99403337e-03, 4.30119634e-02, -4.76302169e-02,
          2.10263282e-02, 1.53373638e-02, 5.17848730e-02, 3.80818732e-02,
          2.90763136e-02, -4.93333712e-02, -7.97521397e-02,
          2.10995078e-02, -7.30239302e-02, -5.22311963e-02,
          -6.46839663e-03, 4.32085618e-02, 5.92780299e-02,
          -1.43346777e-02, -3.96799594e-02, -1.13063909e-01,
          -7.66560510e-02, -2.72240974e-02, -1.19711608e-01,
          -9.92398486e-02, 5.48095768e-03, 1.15354352e-01,
          -2.79748719e-02, -7.24499151e-02, -6.03874065e-02,
          -6.45629764e-02, 1.55341581e-01, -4.80167307e-02,
          -4.44997363e-02, -9.92434379e-03, 4.49099988e-02,
          -3.98468524e-02, -5.41218854e-02, -9.08672288e-02,
          4.02192660e-02, -1.55961700e-02, 3.77020836e-02,
          -9.65184867e-02, 2.93262005e-02, 6.60705045e-02,
          2.21026242e-02, -1.35632023e-01, -1.06884725e-01,
          1.72328874e-02, 1.02819271e-01, -3.80854756e-02,
          -8.23606774e-02, -1.44124359e-01, -4.02020116e-04,
          -2.39105802e-02, -2.00560186e-02, 5.09922467e-02,
          -1.54350391e-02, 8.54328871e-02, -7.55586997e-02,
          -1.61683589e-01, -2.01608747e-01, -5.83949871e-02,
          -3.16548608e-02, -4.36549895e-02, 2.74153911e-02,
          -7.40980953e-02, -2.41088457e-02, 5.27804485e-04,
          2.36261380e-03, 6.59760013e-02, 1.10690787e-01, 5.00845201e-02,
          5.01566418e-02, -1.19744493e-02, 2.52764095e-02,
          7.35798990e-03, -5.44937793e-05, 1.12580799e-03,
          1.60247029e-03, 2.11257255e-03, -2.97963284e-02,
          -7.61624277e-02, -4.49149720e-02, -6.19606562e-02,
          -1.11526474e-01, 2.33623218e-02, -1.20137200e-01,
          7.24790338e-03, 2.53408104e-02, -2.01214086e-02,
          5.75551577e-02, 2.94561889e-02, 8.51643214e-04, 5.70826326e-03,
          5.93608692e-02, -3.93911563e-02, 6.83571398e-02,
          5.12572043e-02, -3.54041867e-02, 1.46008832e-02,
          4.50650901e-02, -5.74252680e-02, -4.17621359e-02,
          -1.69635285e-02, -4.00683619e-02, 3.55469771e-02,
          -1.04349405e-02, 2.99637131e-02, 1.52751990e-02,
          4.12152298e-02, 9.87588316e-02, -7.25931837e-04,
          5.73672466e-02, 1.28649801e-01, 6.69075251e-02, 6.31068051e-02,
          -7.60347843e-02, 4.21855152e-02, 5.40101752e-02,
          7.81904534e-02, 1.03765078e-01, 4.14382778e-02,
          -1.27955124e-01, -8.03359300e-02, -3.28264050e-02,
          8.24225619e-02, -4.29056101e-02, 7.70740537e-03,
          5.76528050e-02, 2.91221198e-02, 2.25401837e-02,
          -1.35047734e-01, -9.34917703e-02, -6.58166185e-02,
          -7.01414272e-02, -9.50995460e-02, -4.78591509e-02,
          -1.00550018e-01, 3.06005348e-02, 6.20686915e-03,
          6.21541403e-02, 6.21065684e-02, 2.52206177e-02, 3.00602168e-02,
          5.18030860e-02, 9.95639190e-02, -6.40141889e-02,
          1.71535444e-02, 5.77810109e-02, -6.35894760e-02,
          8.19424018e-02, -4.75597456e-02, 2.88642589e-02,
          6.35221973e-02, -1.92360021e-02, -1.70910373e-01,
          3.92486006e-02, -7.39735737e-02, -1.45399839e-01,
          -7.71501511e-02, -5.85807525e-02, -1.19161353e-01,
          -9.12685469e-02, -4.66143377e-02, -2.08359554e-01,
          -8.79691392e-02, -2.43765730e-02, 6.24654740e-02,
          -6.58214316e-02, -7.72586912e-02, -8.30236524e-02,
          8.39593485e-02, 1.18162654e-01, -6.79662377e-02,
          -1.01255760e-01, 4.76509221e-02, -5.16553521e-02,
          4.97251935e-02, 1.86500996e-02, -9.07887593e-02,
          9.36017558e-02, -9.98197198e-02, -1.45374358e-01,
          -1.62961267e-04, -1.15335122e-01, 1.10226728e-01,
          6.56638145e-02, -6.38587028e-02, -9.40756872e-02,
          1.19987754e-02, 1.48880899e-01, -5.40633947e-02,
          8.90353620e-02, 6.91610873e-02, 1.33287176e-01, 8.95513035e-03,
          -1.06249973e-02, 9.48150922e-03, 1.37263909e-01,
          7.86500648e-02, -1.17854150e-02, -2.11276580e-02,
          7.38132149e-02, -6.49511348e-03, -5.05312951e-03,
          -8.43953043e-02, 1.26763195e-01, -1.03839114e-01,
          1.77987106e-02, -2.64613368e-02, -4.14987616e-02,
          2.81796176e-02, 1.86065823e-01, 7.77402669e-02,
          -1.38399422e-01, 4.90895063e-02, 4.99383509e-02,
          -6.07586242e-02, 8.28858092e-03, 7.29378089e-02,
          1.08172506e-01, 1.41193287e-03, -5.42477183e-02,
          -1.38328388e-01, 1.14770211e-01, 9.42663550e-02,
          -2.92889345e-02, -5.26115336e-02, 2.26746779e-02,
          3.47100873e-03, 5.04925251e-02, 3.79712470e-02,
          -5.74155226e-02, 7.40879178e-02, -4.60719466e-02,
          9.74501744e-02, -1.77478977e-02, -1.05107158e-01,
          5.71376234e-02, -3.48195583e-02, -4.45229523e-02,
          -1.72462344e-01, -8.69588368e-03, -4.99173417e-04,
          1.36568218e-01, 2.81745661e-02, -1.23358190e-01,
          -4.58473191e-02, -2.55705956e-02, -5.55968024e-02,
          1.78489217e-03, 7.32752085e-02, 5.20685986e-02, 1.20637022e-01,
          2.93196249e-03, 1.35061353e-01, 9.11831914e-04,
          -5.02834544e-02, 1.35941431e-01, 5.00192158e-02,
          -4.91084196e-02, 1.34380702e-02, 9.08334553e-02,
          1.03700027e-01, 4.44146991e-02, 8.41390193e-02,
          -2.89438982e-02, 1.33290570e-02, 6.78752828e-03,
          -4.39659096e-02, 9.76386070e-02, 3.94856595e-02,
          -1.26989037e-01, -2.82752290e-02, -2.65011899e-02,
          -6.08751811e-02, -5.27106784e-03, -1.51637327e-02,
          4.62941676e-02, 6.42965958e-02, 2.19561588e-02, 5.32417707e-02,
          -9.97955818e-03, -1.28517076e-01, 3.30779292e-02,
          3.78415883e-02, -4.23304923e-02, -9.64095518e-02,
          -1.16965575e-02, 7.19514191e-02, -9.36596934e-03,
          1.06932251e-02, 7.89417773e-02, -3.10745873e-02,
          -3.55320759e-02, 5.21043353e-02, 6.74609691e-02,
          1.08369023e-01, 1.29869163e-01, 1.66517019e-01, 9.81010050e-02,
          2.13140156e-02, -1.06346384e-01, -9.84766260e-02,
          -1.99990973e-01, 2.32860539e-02, -5.33550009e-02,
          -1.85221173e-02, -1.99512765e-02, 3.47776748e-02,
          -4.38294746e-02, -2.27802452e-02, -1.09482318e-01,
          -3.23948748e-02, 7.76510611e-02, 1.82129424e-02,
          9.28588584e-02, 9.13665220e-02, 1.73071101e-02, 1.37442192e-02,
          -9.52635705e-02, -8.15059170e-02, -2.05988344e-02,
          2.25324798e-02, 2.04790868e-02, 2.28039711e-03, 1.11614965e-01,
          1.21835604e-01, 4.03670482e-02, -3.30698490e-02,
          -5.43177091e-02, -6.25027567e-02, 7.31278956e-02,
          -1.19083086e-02, -7.89366215e-02, 8.50828961e-02,
          5.85829541e-02, 1.27525494e-01, -1.24563156e-02,
          -4.69434075e-02, -5.41166514e-02, 2.30253730e-02,
          6.66586161e-02, 5.44157065e-02, 4.03444245e-02,
          -1.30547518e-02, -1.77550063e-01, 1.41113564e-01,
          -1.43000007e-01, -1.34897754e-01, 1.86048150e-01,
          2.16731913e-02, -1.03074558e-01, 4.33215359e-03,
          2.38508396e-02, -7.91532174e-02, -2.92656440e-02,
          -1.51478723e-01, 2.65975972e-03, 6.78721070e-02,
          -5.72583526e-02, -6.21405616e-02, 4.74655069e-02,
          -4.22241911e-02, -7.13691935e-02, -9.27080587e-02,
          -1.68220773e-02, 4.95892833e-04, 1.72285035e-01,
          1.27256170e-01, -5.44291437e-02, 1.47854565e-02,
          -4.64026928e-02, -1.49745837e-01, 1.03625819e-01,
          -2.44221538e-01, -5.93933724e-02, 9.70053524e-02,
          8.30273926e-02, -3.41298617e-02, -1.21059455e-01,
          3.58719518e-03, -2.62815803e-02, 1.44967586e-01,
          -6.71229213e-02, -1.52888387e-01, -6.56460002e-02,
          -1.15938060e-01, 6.94819987e-02, -2.70479973e-02,
          -2.31326418e-03, 9.93989930e-02, 4.48244773e-02,
          -6.75480217e-02, -1.87668782e-02, 4.17227112e-02,
          5.69306733e-03, -7.26823881e-02, -1.82558358e-01,
          -4.39537615e-02, -5.53278439e-02, 5.75658083e-02,
          -1.13046179e-02, -2.73371208e-02, -6.04466125e-02,
          8.33217055e-03, -1.58253238e-02, -1.08678825e-01,
          4.29953709e-02, 9.70970094e-02, 4.61653322e-02,
          -2.63659731e-02, -9.38375071e-02, -1.13157101e-01,
          -5.43362647e-02, 1.29903085e-03, 3.29794660e-02,
          2.66308393e-02, 3.10256127e-02, -2.90181227e-02,
          -9.83983576e-02, -3.12732277e-03, -1.85355619e-01,
          -1.10787177e-03, 3.68252806e-02, -3.04945018e-02,
          1.92908421e-02, 1.81798890e-01, -9.39259119e-03,
          -4.75143529e-02, -1.27411066e-02, 3.83625440e-02,
          1.58442333e-02, -1.09376349e-02, 3.26543711e-02,
          7.02022538e-02, -1.00587849e-02, 1.05952740e-01,
          -1.48391485e-01, 2.66014654e-02, 3.03256065e-02,
          3.77190225e-02, -1.27447359e-02, 4.05722596e-02,
          3.72740701e-02, 2.52519622e-02, 3.33034694e-02,
          -3.18085589e-02, 3.50853652e-02, -4.94617857e-02,
          4.31637540e-02, 9.88312885e-02, 2.08590068e-02,
          -6.16657659e-02, 1.79631516e-01, -1.80057436e-02,
          -1.56591013e-01, -7.28618167e-03, 9.90002695e-03,
          1.31329030e-01, -4.59221701e-05, -9.95923057e-02,
          -9.23967138e-02, 7.96298981e-02, 2.42185500e-02,
          -1.02890559e-01, -1.30403349e-02, 4.11257185e-02,
          6.25953004e-02, 5.60644567e-02, -5.60881160e-02,
          -6.48504794e-02, 1.66596789e-02, 9.27777030e-03,
          -1.27623573e-01, 1.14410356e-01, 1.33497298e-01,
          8.00754279e-02, -3.83408070e-02, -1.05974719e-01,
          -6.01955913e-02, 2.62855962e-02, -6.94855377e-02,
          -9.97428596e-02, 8.03244412e-02, -3.87428142e-02,
          6.55909479e-02, -1.05869442e-01, 6.38751872e-03,
          -3.45060299e-03, -3.09386868e-02, 7.24688098e-02,
          9.80467349e-02, 5.61096296e-02, -4.50268276e-02,
          3.67497467e-02, -5.55792116e-02, 1.26415864e-01,
          -8.65539387e-02, -4.33889441e-02, -4.15537916e-02,
          -1.16753466e-01, 7.30439648e-02, -1.39735237e-01,
          5.02847694e-02, -1.09366968e-01, -5.28528392e-02,
          7.06761032e-02, -2.99141128e-02, -1.20232254e-01,
          1.00157775e-01, 8.14637821e-03, -8.15782920e-02,
          4.84147221e-02, -8.63060355e-02, 1.79261595e-01,
          3.75908576e-02, -9.99511108e-02, -1.14232395e-03,
          7.20259026e-02, -1.14157043e-01, -6.81876764e-02,
          -1.04159592e-02, -4.33248281e-02, 8.99479613e-02,
          -1.16694391e-01, -1.40985742e-01, 3.94361578e-02,
          4.66038212e-02, 2.91277040e-02, 3.59485969e-02, 5.95327467e-02,
          4.94582467e-02, 8.32276195e-02, -9.07520428e-02,
          -5.53310327e-02, -1.51357457e-01, 7.40986690e-02,
          -3.17704678e-02, -3.48817781e-02, 1.80082079e-02,
          -1.84526742e-01, 5.72761334e-02, -9.55809653e-02,
          -6.88993260e-02, -2.88211443e-02, 3.30168828e-02,
          3.01029556e-03, 5.53221814e-02, 2.39788033e-02, 1.74662936e-02,
          -5.22692353e-02, -2.83377487e-02, 7.09768683e-02,
          -6.86837435e-02, -6.82851300e-02, -4.88549471e-03,
          -4.38986672e-03, -3.16646844e-02, 4.58903089e-02,
          4.92062569e-02, -8.77114013e-02, -4.44547758e-02,
          -4.43358533e-02, 5.28137796e-02, -6.22414844e-03,
          -5.35661820e-03, -1.71335656e-02, 5.50809987e-02,
          4.59419526e-02, -7.91422278e-02, -1.45291582e-01,
          2.55372338e-02, -4.45861183e-02, -2.89515220e-03,
          -3.89446206e-02, -5.18497303e-02, 4.71501276e-02,
          -2.84375139e-02, -3.27522866e-02, 1.21576011e-01,
          -1.49750514e-02, -1.45270140e-03, 4.40574549e-02,
          -6.01823889e-02, -1.01530358e-01, 5.56941815e-02,
          6.60183132e-02, -2.55692564e-02, -2.47527044e-02,
          1.01137878e-02, 1.48345556e-04, 8.44327509e-02, 4.17462327e-02,
          1.65312633e-01, -7.99855664e-02, -5.44670150e-02,
          -6.06200732e-02, -8.33539814e-02, 6.84142634e-02,
          -1.11268729e-01, -7.10922256e-02, -9.87544097e-03,
          -7.71887507e-03, -3.39895152e-02, -9.94367972e-02,
          -1.23113498e-01, -4.60845977e-02, -9.76510271e-02,
          -6.97520003e-02, 6.77090287e-02, -1.02742404e-01,
          -9.56437886e-02, -2.19783455e-01, -6.27473891e-02,
          -5.43018281e-02, -3.58227678e-02, -4.01106328e-02,
          -3.57350633e-02, -1.54921608e-02, -2.58213263e-02,
          -8.01739618e-02, -1.21559743e-02, -3.63205411e-02,
          2.52777394e-02, 1.41711757e-01, -6.14186265e-02,
          -7.28645325e-02, -9.32371244e-02, 3.55321206e-02,
          -3.14866528e-02, 5.27245291e-02, -3.34721245e-02,
          -7.11750314e-02, -1.24448314e-01, -1.05338432e-02,
          -6.64825141e-02, 5.26362248e-02, -1.04111612e-01,
          -8.46763030e-02, -5.72624356e-02, -9.88622308e-02,
          -7.23842680e-02, 1.08861374e-02, -9.72706228e-02,
          -1.45629561e-02, -5.67337452e-03, 1.55033037e-01,
          -1.43038675e-01, 1.93595439e-02, -9.92123876e-03,
          -1.57767124e-02, 5.57527356e-02, -5.64812683e-02,
          -9.79854241e-02, -9.36081633e-04, 6.14299588e-02,
          -2.76046157e-01, 7.59134665e-02, 3.39003876e-02,
          7.84439687e-03, 9.96437445e-02, -1.02615595e-01,
          4.60953044e-04, 5.42232543e-02, -1.68185309e-02,
          4.42442782e-02, 6.65353090e-02, -1.58066615e-01,
          -6.05181120e-02, -8.29184279e-02, -1.57593668e-01,
          9.40023270e-03, 9.20251478e-03, -7.80684035e-03,
          1.94221791e-02, 8.43384191e-02, -1.44282684e-01,
          2.07839422e-02, -1.36902258e-01, -9.48234927e-03,
          -1.02374613e-01, 5.02922945e-02, 8.50359425e-02,
          -1.82363555e-01, 1.14857465e-01, 7.41555318e-02,
          2.27028579e-02, 6.00019731e-02, -6.95694750e-03,
          -2.39539682e-03, 6.11212626e-02, 9.18278545e-02,
          -2.29836494e-01, 1.37928993e-01, 4.90603372e-02,
          -4.00058227e-04, -6.47114916e-03, -1.44909099e-01,
          -4.77359928e-02, 3.57253812e-02, 1.44387195e-02,
          1.50823832e-01, -3.19447294e-02, -1.24035224e-01,
          -1.33608170e-02, -1.71379581e-01, -1.17482282e-01,
          3.83872166e-02, 9.69460160e-02, -6.45594820e-02,
          2.77681965e-02, 1.16837218e-01, 2.59746145e-02, 1.43223226e-01,
          -1.19012766e-01, -5.17590083e-02, -1.77414380e-02,
          9.79840085e-02, 1.54704705e-01, -9.42340270e-02,
          6.11800104e-02, -7.32401609e-02, -3.02723143e-02,
          9.56490810e-04, -1.59595564e-01, 2.66413260e-02,
          5.07514700e-02, 3.88209373e-02, -6.16924800e-02,
          -1.86663140e-02, -4.70201448e-02, 2.68129148e-02,
          -5.84643111e-02, 3.23518030e-02, 5.50725125e-02,
          -6.94502750e-03, -4.85638753e-02, 9.02514011e-02,
          8.12723208e-03, -2.37028599e-02, 9.11128670e-02,
          4.86241691e-02, -3.37893181e-02, -6.91737309e-02,
          -1.23221090e-03, 2.06647459e-02, 8.32771435e-02,
          -1.84978575e-01, -3.04581188e-02, -9.42007378e-02,
          -7.64541477e-02, 2.43944824e-02, 1.35660186e-01,
          1.44747943e-01, 1.67800114e-02, -8.68826210e-02,
          7.15189129e-02, -4.07058224e-02, 3.85530293e-02,
          5.88085875e-02, 2.69350819e-02, 1.04760095e-01, 7.88509920e-02,
          1.97491571e-02, -2.26928264e-01, -1.16261952e-01,
          -2.04829812e-01, -1.44688368e-01, -7.91613013e-02,
          -1.24744345e-02, -2.41949446e-02, 2.71629971e-02,
          3.13815996e-02, 1.49742827e-01, -6.22789674e-02,
          9.05770867e-04, 4.93643321e-02, -1.34809017e-01,
          -1.92476772e-02, 5.86702041e-02, 2.09261030e-02,
          2.82323919e-03, 6.82261288e-02, -9.71851274e-02,
          -2.84966528e-02, 4.68082093e-02, 3.48290801e-02,
          9.30567086e-02, -3.15023330e-03, 4.26881239e-02,
          -4.12133224e-02, -1.35673076e-01, 2.43078955e-02,
          6.65246770e-02, -1.27221853e-01, -8.30562934e-02,
          6.48224680e-03, 3.28159928e-02, 1.36958212e-01,
          -2.44407523e-02, -5.13352230e-02, 1.41838536e-01,
          3.96358967e-02, -3.67599912e-02, -6.68423027e-02,
          -8.66963249e-03, -9.10079922e-04, -1.16510103e-02,
          4.07826342e-03, 4.12822589e-02, -4.34992202e-02,
          -9.58147794e-02, -1.19325057e-01, -6.20546453e-02,
          4.96183569e-03, -6.81076646e-02, -6.86729141e-03,
          2.13178508e-02, 1.06708780e-01, 6.87691420e-02, 3.59593257e-02,
          -1.40834525e-01, -1.50241852e-01, 1.34583920e-01,
          -3.13541815e-02, 6.46704808e-02, 8.06469545e-02,
          -9.89954546e-02, 1.48220658e-01, 9.97105092e-02,
          -9.51440856e-02, -9.04552639e-02, 2.55280081e-02,
          -1.77262146e-02, 1.21054582e-01, 6.84433132e-02,
          -8.96023810e-02, 8.82824212e-02, -5.44096939e-02,
          -1.29907489e-01, -1.64560020e-01, 3.71551849e-02,
          -6.65184557e-02, -3.99873368e-02, -7.87256286e-02,
          4.88935523e-02, -4.74329013e-03, 2.13938821e-02,
          -5.93426172e-03, -5.85738942e-02, 5.61335310e-02,
          -4.96448167e-02, -4.42793891e-02, 4.68938239e-02,
          -1.14757987e-02, -1.68068215e-01, -8.30281377e-02,
          4.41284180e-02, 3.48370485e-02, 5.22337737e-04, 5.11372760e-02,
          7.23768026e-02, -6.21538609e-02, -2.08266601e-01,
          -8.29365700e-02, -6.40659407e-02, -2.47107111e-02,
          -1.22887634e-01, -5.71736433e-02, 1.27322927e-01,
          1.44813761e-01, 8.74832794e-02, -1.45519972e-01,
          -6.52669743e-02, 6.65260330e-02, 8.45481604e-02,
          -8.09693113e-02, -9.89870057e-02, -2.08473057e-02,
          2.59287413e-02, -2.00040359e-02, -1.16722047e-01,
          -1.63335472e-01, -1.14859864e-01, 2.25092582e-02,
          -7.61658400e-02, -2.27718782e-02, -2.02028118e-02,
          -9.39908326e-02, -2.27414910e-03, 2.41016150e-02,
          -2.51951255e-02, -2.88854800e-02, -5.87453367e-03,
          -1.79967493e-01, -1.51494190e-01, -4.90834191e-02,
          5.95421009e-02, 4.48570326e-02, -1.54792309e-01,
          7.74323717e-02, 1.22079171e-01, 1.10659696e-01,
          -7.18199015e-02, -3.66467386e-02, 1.00112833e-01,
          1.30353972e-01, 1.18009381e-01, -2.12465569e-01,
          5.83423339e-02, 2.45667975e-02, 8.65478218e-02, 1.90004066e-03,
          1.07946666e-02, 2.32519377e-02, -8.94338340e-02,
          4.18288773e-03, -3.62405851e-02, 3.47225592e-02,
          -3.52773555e-02, 8.69776402e-03, -4.76893708e-02,
          1.37781734e-02, -3.44835408e-03, -8.03692564e-02,
          2.85726618e-02, 4.08349633e-02, -7.34357089e-02,
          -7.41802976e-02, 3.17270160e-02, 7.79467151e-02,
          4.80484702e-02, -1.36349630e-02, -1.01905860e-01,
          2.06125900e-01, -1.27113491e-01, 1.02041133e-01,
          4.71127518e-02, 7.43587017e-02, -6.09101020e-02,
          2.35142037e-02, -8.13783631e-02, -8.14766735e-02,
          1.02660000e-01, -2.52142310e-01, 1.14178583e-01,
          3.02584060e-02, -2.09582020e-02, 8.68843421e-02,
          -1.26847345e-02, -2.88749002e-02, 2.37923358e-02,
          1.79389015e-01, 4.15982679e-02, -1.28605962e-02,
          4.09332104e-02, 2.68394016e-02, -6.58382103e-02,
          2.81116497e-02, -1.70347080e-01, -1.31399095e-01,
          3.38945426e-02, 4.32115309e-02, 8.38083550e-02, 7.39345141e-03,
          -4.85646687e-02, -1.25581250e-01, -2.30848696e-02,
          -1.64899051e-01, -1.13450259e-01, 1.31076619e-01,
          -1.17911905e-01, 6.31056800e-02, 9.40901972e-03,
          6.30920231e-02, -1.56429205e-02, 2.83900350e-02,
          -1.34553295e-04, 4.09994945e-02, 1.12780489e-01,
          -1.36671647e-01, 9.36509967e-02, -9.59416479e-03,
          1.69559494e-02, -1.30174579e-02, -3.67096774e-02,
          -1.26280487e-01, -1.32952124e-01, -8.66381228e-02,
          -5.94299361e-02, 1.30790547e-01, -7.95614421e-02,
          -6.40308186e-02, -1.13203682e-01, -6.67906404e-02,
          -7.76185691e-02, -7.34448954e-02, -3.36687732e-03,
          -1.80331677e-01, 1.06817603e-01, -1.18723633e-02,
          2.59952024e-02, -7.19675273e-02, 3.53874336e-03,
          8.55949596e-02, -2.71012168e-02, 1.30463531e-02,
          -1.94830030e-01, 1.21410087e-01, 4.26000915e-02,
          -2.19456684e-02, -8.96060690e-02, 1.03448682e-01,
          -3.52120772e-02, 1.56900302e-01, 1.37897924e-01,
          -1.74437299e-01, 3.59515935e-01, 1.73078418e-01,
          7.57037327e-02, -7.57772243e-04, -1.37179783e-02,
          -5.39484322e-02, 3.18233781e-02, -7.17307925e-02,
          -7.29671344e-02, -5.43644093e-02, -2.32083835e-02,
          4.45569232e-02, -1.37009416e-02, -5.99916540e-02,
          5.77965900e-02, 2.98451371e-02, -1.95282117e-01,
          6.06786236e-02, -4.72891554e-02, 7.27587864e-02,
          4.01142873e-02, -8.83367285e-02, 1.77664250e-01,
          3.43030617e-02, 4.12710644e-02, -6.51223734e-02,
          -1.96641579e-01, 1.24275587e-01, 4.26468588e-02,
          -5.35486592e-03, 4.12324183e-02, 1.93601191e-01,
          1.01072468e-01, 1.09065054e-02, -2.74915546e-01,
          -1.28523156e-01, 5.43390997e-02, 6.10572360e-02,
          -4.05967049e-03, -3.13147604e-02, -1.20712752e-02,
          9.53895748e-02, -8.14224184e-02, -1.71850249e-01,
          7.51831532e-02, -3.63132842e-02, 3.33969072e-02,
          -3.52010690e-02, -4.66379039e-02, 1.30990874e-02,
          5.70262037e-02, -4.04025457e-04, 1.69499330e-02,
          -1.69603247e-02, 4.33321334e-02, -4.13560309e-02,
          -1.46620562e-02, 9.03994367e-02, 1.45268396e-01,
          7.84292966e-02, -1.56003207e-01, -1.35903805e-01,
          3.37224528e-02, 1.08407557e-01, 7.03522861e-02,
          -8.03471059e-02, -1.58194487e-03, -2.17842348e-02,
          -8.96063633e-03, 1.13738380e-01, 2.37583250e-01,
          -3.93224284e-02, 1.16988122e-01, 4.31632921e-02,
          -2.09354073e-01, -7.34101934e-03, -1.08601758e-02,
          -2.01656017e-02, -1.93211623e-02, -5.33728451e-02,
          -4.92177904e-02, -5.80730513e-02, -3.01370528e-02,
          -2.64272839e-02, 1.67135894e-01, -5.81468605e-02,
          -1.16016380e-02, -2.33515985e-02, -1.09184040e-02,
          1.61804706e-02, 6.93700537e-02, -6.28073364e-02,
          -8.34672898e-02, 6.71085017e-03, 6.92318529e-02,
          -8.87974426e-02, -7.68133551e-02, 1.10677369e-01,
          -1.45975992e-01, -3.33455764e-02, -1.03084575e-02,
          -7.58095086e-02, 1.27498403e-01, -3.23298834e-02,
          2.83732340e-02, 1.97737832e-02, 1.52828723e-01, 3.52976806e-02,
          1.15996622e-01, -2.25346368e-02, -6.76347166e-02,
          -1.01309188e-01 ]
   decision_functions:
      -
         sv_count: 1
         rho: -3.9728263155074206e+00
         alpha: [ 1. ]
         index: [ 0 ]
